    0.456252050924028651E+03    0.644520858965761647E+02    0.486710312940766556E+02   -0.616771616911132581E+00   -0.226030653725497865E+01   -0.882447237458507505E+00   -0.314212750269543051E+03
    0.441069815967925479E+03    0.634107389203785203E+02    0.522082619294708792E+02   -0.525988627717552948E+00   -0.227028542309290327E+01   -0.898050084860827713E+00   -0.313987956984516472E+03
    0.417275181460346460E+03    0.613734002826270526E+02    0.558676192790074921E+02   -0.755830177922321322E+00   -0.223963727062234685E+01   -0.898820827891305907E+00   -0.313780791599672966E+03
    0.441726518221954848E+03    0.620579950278632850E+02    0.523830998461349182E+02   -0.719486415995732154E+00   -0.229074096956630591E+01   -0.895409975342148723E+00   -0.313729288446746068E+03
    0.438952193630731529E+03    0.586037713019035778E+02    0.562800889819170607E+02   -0.665076043542198736E+00   -0.227195848102564923E+01   -0.879420471191948661E+00   -0.313702768623214638E+03
    0.434571108588634047E+03    0.618928156436559931E+02    0.546702809538334193E+02   -0.722649719023386927E+00   -0.222607068575923961E+01   -0.865402271057416517E+00   -0.313668323936868319E+03
    0.446905867619436265E+03    0.601647138998171869E+02    0.523632904268701012E+02   -0.584289434352035952E+00   -0.228361061222037964E+01   -0.897409267788211729E+00   -0.313406221476892654E+03
    0.435573663895854622E+03    0.655249453590114541E+02    0.538635300805658801E+02   -0.595903120198907787E+00   -0.224659811617027927E+01   -0.885416451030424323E+00   -0.313238401977275885E+03
    0.457866837498202187E+03    0.612222919473363731E+02    0.534707148790604379E+02   -0.631563410067155440E+00   -0.223373906893611718E+01   -0.866788355959833279E+00   -0.313056139317107750E+03
    0.423590898485587047E+03    0.617428021886126857E+02    0.508748082102190509E+02   -0.778221694919382534E+00   -0.227680438243887595E+01   -0.900103383829197412E+00   -0.312969158579604482E+03
    0.433252848827138337E+03    0.635578747646943043E+02    0.555915880125133697E+02   -0.627073107907377025E+00   -0.226190146963835925E+01   -0.884316187042240021E+00   -0.312886073285072371E+03
    0.436419144592781663E+03    0.584353499282130073E+02    0.594867386187735008E+02   -0.731054165725866012E+00   -0.224303998585214126E+01   -0.873302225482590178E+00   -0.312815457158627964E+03
    0.431025411711039055E+03    0.574163050191783384E+02    0.559155978820820891E+02   -0.734720416959026013E+00   -0.229170383213786710E+01   -0.892492771451674383E+00   -0.312633802895503209E+03
    0.435649307393298898E+03    0.620624793895628244E+02    0.532057627641682203E+02   -0.645144765122417363E+00   -0.220337724563053472E+01   -0.883470281651825395E+00   -0.312345717425283510E+03
    0.427471808756814426E+03    0.599078705971736269E+02    0.559443345054027716E+02   -0.685906849006978181E+00   -0.230718172828776868E+01   -0.900142214379075600E+00   -0.312273868466250690E+03
    0.429871043358398765E+03    0.618295240510506190E+02    0.564252856744862044E+02   -0.682237448446452399E+00   -0.220868628694681890E+01   -0.877262220568040263E+00   -0.312257725848331802E+03
    0.412597846131639017E+03    0.600586185108740906E+02    0.548395375333694162E+02   -0.704851849313550938E+00   -0.224068282013514120E+01   -0.907179355250142816E+00   -0.312162059332541787E+03
    0.453942422984800316E+03    0.621617269759644415E+02    0.524354255965272387E+02   -0.671558206490687093E+00   -0.224438328042442503E+01   -0.877624696077022648E+00   -0.312091708917937069E+03
    0.440263404490884739E+03    0.574288825607842313E+02    0.555369542476367855E+02   -0.639860725145891207E+00   -0.224361069016643588E+01   -0.891859986105810965E+00   -0.311918498790342824E+03
    0.431482808964239268E+03    0.579293032319785297E+02    0.595681939034365584E+02   -0.656877894750646396E+00   -0.229722867915880835E+01   -0.900048848167297688E+00   -0.311856692082542452E+03
    0.448809643823116971E+03    0.582869530694984519E+02    0.550129640379527274E+02   -0.623488644053643570E+00   -0.229150776142235024E+01   -0.893448789053424619E+00   -0.311812823273863955E+03
    0.421283970684412054E+03    0.640904429556714632E+02    0.556912970476205231E+02   -0.687106581291337282E+00   -0.225664368961556860E+01   -0.895062366428071243E+00   -0.311778112949057459E+03
    0.435519491347752989E+03    0.590156478872958701E+02    0.560390601179244925E+02   -0.758452262838384739E+00   -0.228613608326210649E+01   -0.892069363940692028E+00   -0.311617821269166882E+03
    0.443055380038640635E+03    0.611351021732563211E+02    0.555103278179755506E+02   -0.601856974586601146E+00   -0.222286091597698432E+01   -0.881650766036497835E+00   -0.311607958296082984E+03
    0.429542401178665727E+03    0.644383150657461385E+02    0.488379939512872809E+02   -0.687721784411331694E+00   -0.224426421013471700E+01   -0.893737950895657995E+00   -0.311597003662467955E+03
    0.441993702144595659E+03    0.587618940366233034E+02    0.546430845106449041E+02   -0.682737803371362029E+00   -0.224158195810336736E+01   -0.874075987063636983E+00   -0.311455808560578703E+03
    0.417714302192513458E+03    0.586635410106909276E+02    0.584696090916405922E+02   -0.656968040872212278E+00   -0.227810664965484122E+01   -0.907793528565266072E+00   -0.311452649218687156E+03
    0.421930371713715772E+03    0.610540671007560150E+02    0.561197429821086402E+02   -0.641150757827723350E+00   -0.224222871981993066E+01   -0.890283451207861010E+00   -0.311422640719445440E+03
    0.427484889380853303E+03    0.626903947503946029E+02    0.576419094166788213E+02   -0.618593133603058121E+00   -0.223197372176972175E+01   -0.890872950705606126E+00   -0.311411171050434120E+03
    0.428454080640861548E+03    0.624135778340038812E+02    0.497556137322148047E+02   -0.690328366271378169E+00   -0.226265898336989402E+01   -0.895655466748376927E+00   -0.311375171419720118E+03
    0.435530404358887267E+03    0.608786878864382857E+02    0.579733239174000587E+02   -0.679486635889089863E+00   -0.226871208618357656E+01   -0.882819603714798617E+00   -0.311370879789664002E+03
    0.446547031082455476E+03    0.625727544100850324E+02    0.530510867549463541E+02   -0.601362474598930330E+00   -0.223197715992379608E+01   -0.875382792619038508E+00   -0.311351808655973969E+03
    0.433567881162390165E+03    0.651406141857261787E+02    0.513208190431763569E+02   -0.596914390304692954E+00   -0.223320468660740090E+01   -0.892490125036406567E+00   -0.311280479163728671E+03
    0.430226766089413161E+03    0.577867697969128216E+02    0.566346365257452007E+02   -0.761642197521537723E+00   -0.227515356133979108E+01   -0.887254334991631755E+00   -0.311261366197855295E+03
    0.436346596465143477E+03    0.602567626669934526E+02    0.513334089195443894E+02   -0.661450998593730022E+00   -0.229275208911162931E+01   -0.899378021391442850E+00   -0.311252159718152313E+03
    0.450978802400059294E+03    0.607628873192666958E+02    0.520275517664259723E+02   -0.706245636154665180E+00   -0.227549161150437351E+01   -0.881381095874533838E+00   -0.311217470434950314E+03
    0.425181352701656351E+03    0.577186601158143660E+02    0.567133800907170951E+02   -0.654719359241223486E+00   -0.228087181550308715E+01   -0.911695310078043608E+00   -0.311108671410316560E+03
    0.424263104240116263E+03    0.597226342231678160E+02    0.567034747271609589E+02   -0.603649495629484889E+00   -0.224649235036386319E+01   -0.907701752770009307E+00   -0.311102416864968006E+03
    0.441805888565035957E+03    0.582128336315478734E+02    0.525279338463698622E+02   -0.678452857301629519E+00   -0.227191741805989711E+01   -0.898373243044935155E+00   -0.311013570157618346E+03
    0.428890544721592789E+03    0.580974744095641640E+02    0.548568180414007998E+02   -0.688704161731167330E+00   -0.229878135978165155E+01   -0.909562156796513754E+00   -0.310985444005945567E+03
    0.436988265996465202E+03    0.621403835876350783E+02    0.525384099668746387E+02   -0.618309897123980878E+00   -0.229089535532966115E+01   -0.909418727119791992E+00   -0.310964063424787128E+03
    0.436668900312835717E+03    0.650789653255935860E+02    0.501598156501280101E+02   -0.703014942007117005E+00   -0.222837045963524005E+01   -0.879539282396209821E+00   -0.310963106926064484E+03
    0.437537029880999683E+03    0.636691105369996606E+02    0.518302373013305768E+02   -0.699402193069475153E+00   -0.221157788949485612E+01   -0.874626480441900611E+00   -0.310954778027964153E+03
    0.446754754106705150E+03    0.586383575786475220E+02    0.567666936328895915E+02   -0.712215628515373789E+00   -0.226030200629895539E+01   -0.872975053632344622E+00   -0.310933744135735537E+03
    0.426161733172117636E+03    0.589631856843983400E+02    0.556578449368722517E+02   -0.701829161388065836E+00   -0.226618410372978341E+01   -0.908977379955671960E+00   -0.310920312919597052E+03
    0.424044545457725462E+03    0.636230665342021098E+02    0.542398135408960229E+02   -0.678118445080494459E+00   -0.223731967600108339E+01   -0.884573318872369452E+00   -0.310877978534247177E+03
    0.437741768741673525E+03    0.620987005406629748E+02    0.548483539780483582E+02   -0.711641933272746829E+00   -0.221954551397321520E+01   -0.873820259451575154E+00   -0.310865808479966404E+03
    0.443497221118686014E+03    0.632978103183638225E+02    0.517378299866948410E+02   -0.593458871382753328E+00   -0.225591381846487149E+01   -0.884678366908411284E+00   -0.310854994978103377E+03
    0.433199275362472974E+03    0.608349709954756293E+02    0.527769374387128565E+02   -0.778256361149015641E+00   -0.225620957790455989E+01   -0.881835243057476070E+00   -0.310790715302867852E+03
    0.423936505574821979E+03    0.613553525451395600E+02    0.568605885014436794E+02   -0.735781941298108366E+00   -0.224106488275406734E+01   -0.884983492355722490E+00   -0.310767696503635023E+03
    0.432320364986472441E+03    0.589957350301706711E+02    0.596580255665612142E+02   -0.654121197896783357E+00   -0.227157235857187301E+01   -0.896240823299404354E+00   -0.310762280261485671E+03
    0.421529436273858551E+03    0.608462850697587783E+02    0.557964355255575981E+02   -0.685909746442887602E+00   -0.229125087743486366E+01   -0.902353122600795032E+00   -0.310743578938675284E+03
    0.437739738938892060E+03    0.637127620806516006E+02    0.491953353736358068E+02   -0.657572737854638101E+00   -0.226971745282919191E+01   -0.893590171815191514E+00   -0.310683500479150268E+03
    0.422003106073106551E+03    0.645495222165098852E+02    0.533057031192638604E+02   -0.627052820457872029E+00   -0.226803649074009961E+01   -0.907714033782008656E+00   -0.310665761705574141E+03
    0.433670573186773538E+03    0.615908304796803989E+02    0.538549588505333929E+02   -0.564197703385797444E+00   -0.225847671515131942E+01   -0.900264577208178540E+00   -0.310664451766527066E+03
    0.421332443695366351E+03    0.631406655685497498E+02    0.542019962874122427E+02   -0.601589588575735412E+00   -0.226696476129838942E+01   -0.904565365180893810E+00   -0.310654397085717164E+03
    0.422418925426725934E+03    0.594119893284444558E+02    0.577975776285893232E+02   -0.710691252078118785E+00   -0.224762508146060203E+01   -0.886801551344016836E+00   -0.310646931673210020E+03
    0.431217304463580945E+03    0.620432016367616939E+02    0.541903284449412297E+02   -0.735623144484722769E+00   -0.226688359444562204E+01   -0.890999732203534567E+00   -0.310599896771293572E+03
    0.437533346940719071E+03    0.589041881806475160E+02    0.558214504602707109E+02   -0.768444547479441242E+00   -0.225289488182933795E+01   -0.879252186874340147E+00   -0.310582996855747808E+03
    0.423191107212105464E+03    0.611486310972794200E+02    0.550972508078542447E+02   -0.590506167907763668E+00   -0.227348892423597437E+01   -0.908400869354498930E+00   -0.310514166792485184E+03
    0.433750863504206848E+03    0.618504909863638517E+02    0.534217079065419895E+02   -0.693743456761161115E+00   -0.227048018241098948E+01   -0.902075878626599881E+00   -0.310489632333321879E+03
    0.440838653445766624E+03    0.629193332033174073E+02    0.523615480786978793E+02   -0.687093725233296926E+00   -0.221341478823613658E+01   -0.875482775195710605E+00   -0.310437587053400421E+03
    0.440838653445766624E+03    0.629193332033174073E+02    0.523615480786978793E+02   -0.687093725233296926E+00   -0.221341478823613658E+01   -0.875482775195710605E+00   -0.310437587053400421E+03
    0.422699253094504741E+03    0.606324423782188262E+02    0.563346794182049067E+02   -0.651817775602054894E+00   -0.222380210780690524E+01   -0.895699598869481584E+00   -0.310431060649996823E+03
    0.429625111368047726E+03    0.613050395086972699E+02    0.549054589351881006E+02   -0.651922420190662155E+00   -0.224204685512267510E+01   -0.903051135840395425E+00   -0.310422198747605535E+03
    0.443652980526550039E+03    0.611131566037243630E+02    0.557759667585213492E+02   -0.652622314552549376E+00   -0.226850560619924657E+01   -0.885731872256477981E+00   -0.310368411145283346E+03
    0.436639544313449107E+03    0.611616608519001588E+02    0.522521307612878658E+02   -0.637591154290760187E+00   -0.222584686472951176E+01   -0.883073255395317780E+00   -0.310360251051633554E+03
    0.438008104695729287E+03    0.602872154586888485E+02    0.514657310475659386E+02   -0.692969494710433898E+00   -0.226308236425832465E+01   -0.901587715001687329E+00   -0.310307683720821046E+03
    0.437060167430602121E+03    0.627198921341910420E+02    0.556629261969666800E+02   -0.632026607479108105E+00   -0.224857876257033151E+01   -0.881649537008170725E+00   -0.310281090234904525E+03
    0.438678702999665916E+03    0.603201025737066630E+02    0.528126545859256993E+02   -0.711658991594087853E+00   -0.228420903239440864E+01   -0.888729781141634145E+00   -0.310263729300619673E+03
    0.433178232366596433E+03    0.641056300184880286E+02    0.518916377029234468E+02   -0.656668468327533672E+00   -0.225232703942882528E+01   -0.883454132912294021E+00   -0.310258176483674106E+03
    0.433178232366596433E+03    0.641056300184880286E+02    0.518916377029234468E+02   -0.656668468327533672E+00   -0.225232703942882528E+01   -0.883454132912294021E+00   -0.310258176483674106E+03
    0.423804167214884046E+03    0.645808199250149357E+02    0.541241445475046064E+02   -0.656603788425890622E+00   -0.223826799510994956E+01   -0.894410442834402630E+00   -0.310243396111069103E+03
    0.423804167214884046E+03    0.645808199250149357E+02    0.541241445475046064E+02   -0.656603788425890622E+00   -0.223826799510994956E+01   -0.894410442834402630E+00   -0.310243396111069103E+03
    0.420731902844040803E+03    0.621758545686065602E+02    0.553735116775696312E+02   -0.631551515642342132E+00   -0.224548242509862916E+01   -0.908128886885429587E+00   -0.310237304607695251E+03
    0.446796755201345491E+03    0.634765871371918422E+02    0.517083428917935706E+02   -0.619066222616810435E+00   -0.223277156646550123E+01   -0.882783412207536422E+00   -0.310231567537080196E+03
    0.445004994978678781E+03    0.607728651354220659E+02    0.549650863632947804E+02   -0.614963368828488122E+00   -0.226778276511920218E+01   -0.892085836449317604E+00   -0.310210582457908117E+03
    0.445004994978678781E+03    0.607728651354220659E+02    0.549650863632947804E+02   -0.614963368828488122E+00   -0.226778276511920218E+01   -0.892085836449317604E+00   -0.310210582457908117E+03
    0.429805835303962283E+03    0.595346364667467896E+02    0.529414558218785487E+02   -0.732952326524040076E+00   -0.227480442434343377E+01   -0.891951814006743060E+00   -0.310193877915589155E+03
    0.429613810049718381E+03    0.635181261091896090E+02    0.525911115772770188E+02   -0.671268888547652098E+00   -0.223844694629226026E+01   -0.881377721384176027E+00   -0.310186480372178835E+03
    0.428222468452450869E+03    0.623475457235101089E+02    0.553710542948545879E+02   -0.627721068988020159E+00   -0.222114084298408576E+01   -0.891384110032104271E+00   -0.310166311209960952E+03
    0.420829135377147281E+03    0.639640928154394786E+02    0.537071141741052074E+02   -0.646711743197802891E+00   -0.223736410567039279E+01   -0.901640639008761458E+00   -0.310164192794211090E+03
    0.437613276062455043E+03    0.630246495105943652E+02    0.534067908386858932E+02   -0.637128324049528016E+00   -0.228154415989375714E+01   -0.898931989168958445E+00   -0.310163543098047569E+03
    0.422303151731621767E+03    0.591921914429161760E+02    0.587664475655947314E+02   -0.718273327347001000E+00   -0.225987241180663734E+01   -0.894731299811313718E+00   -0.310154236616617993E+03
    0.447551163662002978E+03    0.626560154619201839E+02    0.502371083249372390E+02   -0.639278252154277249E+00   -0.226057672186063163E+01   -0.881591930817619218E+00   -0.310148965290327340E+03
    0.437195647957407061E+03    0.601351719211690110E+02    0.509262044427524643E+02   -0.717332413278938930E+00   -0.226643511378255935E+01   -0.897902786308312439E+00   -0.310127461273004599E+03
    0.437195647957407061E+03    0.601351719211690110E+02    0.509262044427524643E+02   -0.717332413278938930E+00   -0.226643511378255935E+01   -0.897902786308312439E+00   -0.310127461273004599E+03
    0.423501195667934326E+03    0.616723174657016031E+02    0.517592673585944780E+02   -0.728685838554653742E+00   -0.224174488840017805E+01   -0.898424995586795561E+00   -0.310108873368437401E+03
    0.427629271935582267E+03    0.627004448239640979E+02    0.561187433976394487E+02   -0.679986193300915476E+00   -0.224583536912150805E+01   -0.894263863988657093E+00   -0.310092390978460003E+03
    0.442218859983539630E+03    0.603382319646284060E+02    0.541420200380944223E+02   -0.689834201730179508E+00   -0.226197020261064896E+01   -0.877367760385832085E+00   -0.310064346070693489E+03
    0.424033219114324254E+03    0.605700878416170880E+02    0.565028593894349669E+02   -0.638095531347705691E+00   -0.225006810589431261E+01   -0.892216211282938154E+00   -0.310060873790024459E+03
    0.444569370590948665E+03    0.642437796583298848E+02    0.508684621990591879E+02   -0.649663460803918680E+00   -0.223007331372809237E+01   -0.875805169020016372E+00   -0.310053832496353607E+03
    0.430659480739364994E+03    0.630942816451246244E+02    0.539574677844191086E+02   -0.719086825227941207E+00   -0.224525784552880125E+01   -0.881376406113885569E+00   -0.310046048650274315E+03
    0.430217688709987215E+03    0.592936106367979789E+02    0.575664002214550123E+02   -0.738821048845818673E+00   -0.225335759065343266E+01   -0.881572800304672999E+00   -0.309995472247109262E+03
    0.433029765516220323E+03    0.603249864409727792E+02    0.564222046836359254E+02   -0.599046289184591796E+00   -0.226132958426268127E+01   -0.893758111100940944E+00   -0.309935202561436768E+03
    0.443704867060938568E+03    0.595387889583410868E+02    0.552124336446770414E+02   -0.634542397769477517E+00   -0.223455397576155912E+01   -0.878829507849656633E+00   -0.309926985703594767E+03
    0.428802594870408541E+03    0.584215605111166738E+02    0.594992829917590456E+02   -0.674845446382660974E+00   -0.227234384679385837E+01   -0.896869469326853075E+00   -0.309923087701014026E+03
    0.428802594870408541E+03    0.584215605111166738E+02    0.594992829917590456E+02   -0.674845446382660974E+00   -0.227234384679385837E+01   -0.896869469326853075E+00   -0.309923087701014026E+03
    0.429255911685631247E+03    0.637824379394960275E+02    0.502804317315714044E+02   -0.712704752612528081E+00   -0.223729941991653813E+01   -0.889052790257700121E+00   -0.309910776562153728E+03
    0.422221417329299300E+03    0.598574860430418596E+02    0.578894081373896299E+02   -0.711577741118230911E+00   -0.226978028069890136E+01   -0.900456909610005685E+00   -0.309893828540898141E+03
    0.426220818428062671E+03    0.606744929118763068E+02    0.550262478067228997E+02   -0.679014885968017179E+00   -0.221934722069334622E+01   -0.886255366244635745E+00   -0.309877828771605891E+03
    0.439847079584572214E+03    0.634360452091262985E+02    0.513114328461798266E+02   -0.709485800940606870E+00   -0.223828061032656356E+01   -0.883257663102495982E+00   -0.309867692216976138E+03
    0.447266338880620594E+03    0.583709143646041539E+02    0.555456047355347664E+02   -0.707311676794909028E+00   -0.224813148702057219E+01   -0.879102851424305332E+00   -0.309867390099555678E+03
    0.425058588458672432E+03    0.585016211681074054E+02    0.572237495482744905E+02   -0.742046098939963761E+00   -0.226221165663082457E+01   -0.896814676811809264E+00   -0.309833378361065115E+03
    0.425058588458672432E+03    0.585016211681074054E+02    0.572237495482744905E+02   -0.742046098939963761E+00   -0.226221165663082457E+01   -0.896814676811809264E+00   -0.309833378361065115E+03
    0.431435401403222272E+03    0.621449166519213350E+02    0.533972673275634406E+02   -0.725499116003804678E+00   -0.225304086965341011E+01   -0.893481868393723566E+00   -0.309825449787625701E+03
    0.431435401403222272E+03    0.621449166519213350E+02    0.533972673275634406E+02   -0.725499116003804678E+00   -0.225304086965341011E+01   -0.893481868393723566E+00   -0.309825449787625701E+03
    0.435303198781709284E+03    0.578876520911786940E+02    0.545346421102810552E+02   -0.647467345020347196E+00   -0.227286252256694343E+01   -0.899871720198525349E+00   -0.309809117640281670E+03
    0.435303198781709284E+03    0.578876520911786940E+02    0.545346421102810552E+02   -0.647467345020347196E+00   -0.227286252256694343E+01   -0.899871720198525349E+00   -0.309809117640281670E+03
    0.433218046613877277E+03    0.605624336062552189E+02    0.553602870426660303E+02   -0.592737714207344890E+00   -0.223893523158613572E+01   -0.898541589857364986E+00   -0.309793194378579472E+03
    0.423325193849512857E+03    0.616208564089841602E+02    0.565084405005994412E+02   -0.626710702438124878E+00   -0.228058346640851051E+01   -0.907056356831871469E+00   -0.309783016820041780E+03
    0.435904554470336109E+03    0.610185208732592130E+02    0.512899765104480991E+02   -0.677991236782291118E+00   -0.223416005298052678E+01   -0.893488065454323355E+00   -0.309781674814790620E+03
    0.425230521849013599E+03    0.599508185901991624E+02    0.561150333030392687E+02   -0.717086512247298025E+00   -0.226063820260683457E+01   -0.902499781556228786E+00   -0.309778827796934422E+03
    0.433188189764079198E+03    0.599374695710275063E+02    0.526431116419125331E+02   -0.747459517051318523E+00   -0.228157192990058633E+01   -0.894816888734842220E+00   -0.309771410906118660E+03
    0.445627446804077294E+03    0.593782599621453073E+02    0.553319786334652477E+02   -0.704005991823726696E+00   -0.226767553866318039E+01   -0.878608089919198587E+00   -0.309739283473899263E+03
    0.437026703666118578E+03    0.606640281334758598E+02    0.533379875488804700E+02   -0.592221264284951365E+00   -0.226171256798157794E+01   -0.896401197772661806E+00   -0.309709943198175893E+03
    0.423849614581633375E+03    0.629904987139580683E+02    0.549269346891095296E+02   -0.619572083738136881E+00   -0.224976818795010081E+01   -0.905937566069758393E+00   -0.309686179248244002E+03
    0.430226329287375222E+03    0.642703270108494280E+02    0.535265452303840092E+02   -0.605206451844163995E+00   -0.224406576841629279E+01   -0.897277687964888493E+00   -0.309671139801378899E+03
    0.436338141474002668E+03    0.605678474198769194E+02    0.550668832044054497E+02   -0.603529989783919474E+00   -0.223603881834306728E+01   -0.887431755526372434E+00   -0.309626065355824608E+03
    0.436338141474002668E+03    0.605678474198769194E+02    0.550668832044054497E+02   -0.603529989783919474E+00   -0.223603881834306728E+01   -0.887431755526372434E+00   -0.309626065355824608E+03
    0.435611769159362098E+03    0.607800384041809281E+02    0.506781495990200881E+02   -0.738080552957596225E+00   -0.225877489164875556E+01   -0.888661426519892661E+00   -0.309599425661856344E+03
    0.441653052665602786E+03    0.611697935241855646E+02    0.547218846398327230E+02   -0.601955086443925369E+00   -0.224330319717095827E+01   -0.892486912661545340E+00   -0.309595649433351412E+03
    0.426889515828617277E+03    0.644526209310845957E+02    0.534604232809769044E+02   -0.643852352247219928E+00   -0.225226429783611337E+01   -0.892842021763788907E+00   -0.309588019102617636E+03
    0.449232334619193182E+03    0.615635662423059031E+02    0.521768762868286800E+02   -0.612133297769341667E+00   -0.225889399782036193E+01   -0.888373585341688532E+00   -0.309584310529910056E+03
    0.449232334619193182E+03    0.615635662423059031E+02    0.521768762868286800E+02   -0.612133297769341667E+00   -0.225889399782036193E+01   -0.888373585341688532E+00   -0.309584310529910056E+03
    0.445219858998565940E+03    0.626283907233279251E+02    0.503417798037923774E+02   -0.668277921394846874E+00   -0.227823656018715948E+01   -0.890840999247296317E+00   -0.309575878328546992E+03
    0.438704264913172324E+03    0.614163340745202078E+02    0.540106698888549417E+02   -0.627646191561855638E+00   -0.225226954704523585E+01   -0.899269736002070275E+00   -0.309513483223850642E+03
    0.439846228647788848E+03    0.641092530638645144E+02    0.523430723616165920E+02   -0.627799049711071477E+00   -0.225411436341957527E+01   -0.891472070980982245E+00   -0.309487609618416798E+03
    0.437554759004394953E+03    0.573600128333061647E+02    0.566191793258495295E+02   -0.695161035050614107E+00   -0.228698513714843976E+01   -0.895734857478507340E+00   -0.309485329709886173E+03
    0.434852589153636075E+03    0.625930722638576356E+02    0.507592427606897516E+02   -0.611504810843085167E+00   -0.227024374343060620E+01   -0.901983826253875964E+00   -0.309476869201907789E+03
    0.434852589153636075E+03    0.625930722638576356E+02    0.507592427606897516E+02   -0.611504810843085167E+00   -0.227024374343060620E+01   -0.901983826253875964E+00   -0.309476869201907789E+03
    0.434577055504489522E+03    0.620373292437724544E+02    0.514945282450118427E+02   -0.636010983742038238E+00   -0.225390879851587123E+01   -0.903754633784728867E+00   -0.309458292227067545E+03
    0.436437891869559508E+03    0.602260493229493363E+02    0.529257515221260419E+02   -0.695205988426441213E+00   -0.222242045883764927E+01   -0.882532474424061686E+00   -0.309427734681920128E+03
    0.431852847690736780E+03    0.590692516460127379E+02    0.531998226602859106E+02   -0.688880579639170598E+00   -0.226196397376480540E+01   -0.904893862638179947E+00   -0.309424545584899306E+03
    0.437967251529688099E+03    0.633511004289998638E+02    0.513622306494641094E+02   -0.681005051126986949E+00   -0.225813213797473988E+01   -0.894230721427997644E+00   -0.309371375981150663E+03
    0.429494913628827476E+03    0.580460281830938243E+02    0.580524044152342640E+02   -0.727282570038563225E+00   -0.226228466388368599E+01   -0.889910927488718695E+00   -0.309366013677324474E+03
    0.437110204731763304E+03    0.621869681085114792E+02    0.520978674530312063E+02   -0.626330647331246659E+00   -0.222435087033432310E+01   -0.887718699939118672E+00   -0.309342491246666668E+03
    0.428528870712104947E+03    0.601035612639167525E+02    0.546414141578105088E+02   -0.677163929666925180E+00   -0.227929640318556803E+01   -0.910238600654173169E+00   -0.309340386937903133E+03
    0.428528870712104947E+03    0.601035612639167525E+02    0.546414141578105088E+02   -0.677163929666925180E+00   -0.227929640318556803E+01   -0.910238600654173169E+00   -0.309340386937903133E+03
    0.442653418559817283E+03    0.580286937794690303E+02    0.551664289538221553E+02   -0.714430995805602986E+00   -0.227851276092877786E+01   -0.891775673245015277E+00   -0.309289973195782522E+03
    0.440100519369313758E+03    0.605679393203143306E+02    0.525675239189942332E+02   -0.667931360265432872E+00   -0.229061594588791184E+01   -0.897978417796370110E+00   -0.309279599862515113E+03
    0.430460433783843882E+03    0.623256794581820444E+02    0.555652934892787584E+02   -0.637450625130173254E+00   -0.222979258013820125E+01   -0.891773706093043295E+00   -0.309269972879072952E+03
    0.430460433783843882E+03    0.623256794581820444E+02    0.555652934892787584E+02   -0.637450625130173254E+00   -0.222979258013820125E+01   -0.891773706093043295E+00   -0.309269972879072952E+03
    0.421274965500570147E+03    0.606384286938773869E+02    0.537039135216098984E+02   -0.715615375024750477E+00   -0.224511164782793138E+01   -0.892373711716463180E+00   -0.309264037981475326E+03
    0.444219756759619827E+03    0.637425572042372508E+02    0.515456449272105175E+02   -0.665239213382075256E+00   -0.224079142860385350E+01   -0.880938204601621866E+00   -0.309228108085647136E+03
    0.444219756759619827E+03    0.637425572042372508E+02    0.515456449272105175E+02   -0.665239213382075256E+00   -0.224079142860385350E+01   -0.880938204601621866E+00   -0.309228108085647136E+03
    0.426423792051752741E+03    0.626382263698526955E+02    0.537638263074762577E+02   -0.708553602003876515E+00   -0.224309213103825211E+01   -0.894811001343515322E+00   -0.309219862372871546E+03
    0.426423792051752741E+03    0.626382263698526955E+02    0.537638263074762577E+02   -0.708553602003876515E+00   -0.224309213103825211E+01   -0.894811001343515322E+00   -0.309219862372871546E+03
    0.426307945557961375E+03    0.605340411685153796E+02    0.568969147305544851E+02   -0.646608219883972213E+00   -0.224519789260170244E+01   -0.889489714081447946E+00   -0.309216895535041886E+03
    0.432179063785753044E+03    0.616915511589119205E+02    0.529340172680009005E+02   -0.665539362936758527E+00   -0.225689534462935271E+01   -0.885664912569737339E+00   -0.309212139469555382E+03
    0.435685215703490599E+03    0.588973254906810695E+02    0.535400070205271916E+02   -0.712607398954971938E+00   -0.227220809693171200E+01   -0.889060987270828385E+00   -0.309211370971538145E+03
    0.437146853789812326E+03    0.597702993718407356E+02    0.543154559436069846E+02   -0.674780715515924001E+00   -0.223832295598397035E+01   -0.878830638514001006E+00   -0.309206076549060413E+03
    0.437146853789812326E+03    0.597702993718407356E+02    0.543154559436069846E+02   -0.674780715515924001E+00   -0.223832295598397035E+01   -0.878830638514001006E+00   -0.309206076549060413E+03
    0.429010947062830837E+03    0.632065469409535510E+02    0.537860117683085690E+02   -0.657343125631081326E+00   -0.227810731249859355E+01   -0.899906731114997971E+00   -0.309177823699272949E+03
    0.428484505269185149E+03    0.620344272316846954E+02    0.513120609459733998E+02   -0.646029427025530456E+00   -0.227831914637939903E+01   -0.908418761421377230E+00   -0.309171739549265908E+03
    0.428484505269185149E+03    0.620344272316846954E+02    0.513120609459733998E+02   -0.646029427025530456E+00   -0.227831914637939903E+01   -0.908418761421377230E+00   -0.309171739549265908E+03
    0.423772093381382831E+03    0.641738533056347080E+02    0.526848317520864384E+02   -0.632899227377063500E+00   -0.225755262456781969E+01   -0.903376903957924249E+00   -0.309165940090295692E+03
    0.444689010250888771E+03    0.582377333502530732E+02    0.562309018343547251E+02   -0.705621121104523574E+00   -0.226709922529274843E+01   -0.884702737520785210E+00   -0.309156057103828346E+03
    0.441189781438049636E+03    0.606711790635244199E+02    0.550105944168336762E+02   -0.624542010479884002E+00   -0.225806915161246335E+01   -0.885510797035119257E+00   -0.309135309883952687E+03
    0.438174993779099793E+03    0.579375450482788565E+02    0.552776740181248343E+02   -0.649084773897132372E+00   -0.226995559222666277E+01   -0.901338633463022898E+00   -0.309057217525046667E+03
    0.438174993779099793E+03    0.579375450482788565E+02    0.552776740181248343E+02   -0.649084773897132372E+00   -0.226995559222666277E+01   -0.901338633463022898E+00   -0.309057217525046667E+03
    0.425665040849028060E+03    0.637612816975155852E+02    0.531392002547054005E+02   -0.673586412030169335E+00   -0.223263555374977729E+01   -0.892372538185187913E+00   -0.309022351266367309E+03
    0.425665040849028060E+03    0.637612816975155852E+02    0.531392002547054005E+02   -0.673586412030169335E+00   -0.223263555374977729E+01   -0.892372538185187913E+00   -0.309022351266367309E+03
    0.419856683985859263E+03    0.607589712394448753E+02    0.571689941820293228E+02   -0.666260835085159320E+00   -0.225995009057556162E+01   -0.899053381105045624E+00   -0.309018144295409797E+03
    0.429295383806834195E+03    0.611336318108621555E+02    0.523455128796790206E+02   -0.629481462999817554E+00   -0.226570693170021586E+01   -0.899295984151412764E+00   -0.308981985197016797E+03
    0.429295383806834195E+03    0.611336318108621555E+02    0.523455128796790206E+02   -0.629481462999817554E+00   -0.226570693170021586E+01   -0.899295984151412764E+00   -0.308981985197016797E+03
    0.434423972430736967E+03    0.615591500857233669E+02    0.559207216733079875E+02   -0.631226248659512823E+00   -0.227425664846390774E+01   -0.896791912519222745E+00   -0.308947892618284527E+03
    0.429047941972643684E+03    0.637019157881358566E+02    0.528821042692191838E+02   -0.654261931006097974E+00   -0.226531318911830093E+01   -0.893456739241988984E+00   -0.308931106703932301E+03
    0.440565711371961754E+03    0.612778088960060856E+02    0.534639956614663134E+02   -0.599605032470911015E+00   -0.225580558861250546E+01   -0.898283103809302208E+00   -0.308925977830744500E+03
    0.441378083904781306E+03    0.575099000663136763E+02    0.559862750406903942E+02   -0.679781936673748532E+00   -0.227022874124831331E+01   -0.889841877965815709E+00   -0.308914684619548439E+03
    0.425672791116833650E+03    0.623075340485070441E+02    0.554825152996636461E+02   -0.652034238409093581E+00   -0.224902034847352228E+01   -0.890058749317999442E+00   -0.308914446304785713E+03
    0.428914008656870408E+03    0.591299271075079744E+02    0.552733730928636859E+02   -0.709404743846542951E+00   -0.229331175921426267E+01   -0.903615090560915046E+00   -0.308910578729454187E+03
    0.431894339771196201E+03    0.589010380600232182E+02    0.557665307855600645E+02   -0.686576878079462993E+00   -0.223277125120238917E+01   -0.889661968187583252E+00   -0.308909251566939247E+03
    0.431894339771196201E+03    0.589010380600232182E+02    0.557665307855600645E+02   -0.686576878079462993E+00   -0.223277125120238917E+01   -0.889661968187583252E+00   -0.308909251566939247E+03
    0.428721192329272412E+03    0.612329017035393832E+02    0.529623636032685994E+02   -0.741047120940482529E+00   -0.224433782923792258E+01   -0.884148457368922891E+00   -0.308888583125543335E+03
    0.434743015016193965E+03    0.585706196040977574E+02    0.556720755047765437E+02   -0.688850477122568305E+00   -0.227747939519902065E+01   -0.889604103305507987E+00   -0.308880574247076709E+03
    0.442998730863262040E+03    0.624658516140880806E+02    0.508020017193215736E+02   -0.633662904832866358E+00   -0.227386530682108301E+01   -0.891752397070162406E+00   -0.308856154277382132E+03
    0.426841164060564665E+03    0.610226736562341472E+02    0.548866143850668777E+02   -0.697399180834377130E+00   -0.225292112017363522E+01   -0.901341461698750290E+00   -0.308839171727216126E+03
    0.432668155207750374E+03    0.593865028017085663E+02    0.546775111716152722E+02   -0.710550904490563351E+00   -0.223662590602407185E+01   -0.891687244002292267E+00   -0.308833711389337623E+03
    0.435974086786495320E+03    0.597205004134070947E+02    0.519005911230099670E+02   -0.692245359637822633E+00   -0.226126001872635696E+01   -0.890907175412551489E+00   -0.308822720951631084E+03
    0.442456823082440962E+03    0.579854330870416774E+02    0.544204910744046799E+02   -0.696835639276326857E+00   -0.226534808323992953E+01   -0.891718229422915343E+00   -0.308822402812069413E+03
    0.442869860767580690E+03    0.633519903607047397E+02    0.514332332029742005E+02   -0.630527395311307526E+00   -0.223820573548248625E+01   -0.881335578633509087E+00   -0.308797724708397823E+03
    0.446489461132037093E+03    0.611812774815175331E+02    0.516295855792420753E+02   -0.689912468044734384E+00   -0.226367188412366538E+01   -0.888478135539902514E+00   -0.308792865566131070E+03
    0.426012262174396653E+03    0.622738759624718483E+02    0.515603906034890542E+02   -0.699911202174669400E+00   -0.224523520522613484E+01   -0.890774023976665497E+00   -0.308790764681984513E+03
    0.421226386168942213E+03    0.604922394861472696E+02    0.569798443809775961E+02   -0.657245378949943504E+00   -0.226616599779127803E+01   -0.900466031713205606E+00   -0.308727040468300004E+03
    0.438258641494634787E+03    0.581965104589271363E+02    0.539936855021444870E+02   -0.720311503514332596E+00   -0.227072108127228001E+01   -0.892364729951022895E+00   -0.308715169480400732E+03
    0.440341494845711395E+03    0.620638759314376927E+02    0.528359350492332638E+02   -0.615797403697349255E+00   -0.227037057175680212E+01   -0.893635720995159311E+00   -0.308684015093645542E+03
    0.440341494845711395E+03    0.620638759314376927E+02    0.528359350492332638E+02   -0.615797403697349255E+00   -0.227037057175680212E+01   -0.893635720995159311E+00   -0.308684015093645542E+03
    0.431498975663214651E+03    0.591214867809370688E+02    0.573878670134256978E+02   -0.619955685183474881E+00   -0.226426175779547378E+01   -0.900093025527250123E+00   -0.308643916669857560E+03
    0.431498975663214651E+03    0.591214867809370688E+02    0.573878670134256978E+02   -0.619955685183474881E+00   -0.226426175779547378E+01   -0.900093025527250123E+00   -0.308643916669857560E+03
    0.430479248870166316E+03    0.609471033933792512E+02    0.564526031879630352E+02   -0.629109982450507088E+00   -0.223570467614472834E+01   -0.891243014691410984E+00   -0.308636984314678955E+03
    0.430479248870166316E+03    0.609471033933792512E+02    0.564526031879630352E+02   -0.629109982450507088E+00   -0.223570467614472834E+01   -0.891243014691410984E+00   -0.308636984314678955E+03
    0.438138370724862284E+03    0.590974437790965936E+02    0.537636263814757598E+02   -0.694240674217726728E+00   -0.226194521628532286E+01   -0.885123427479805880E+00   -0.308617437297986328E+03
    0.443417178745689966E+03    0.609034271933786968E+02    0.525762856869952131E+02   -0.686683377184005739E+00   -0.224109055520915623E+01   -0.875090022408539170E+00   -0.308581471824274558E+03
    0.441101033121385967E+03    0.599872066138809288E+02    0.532478928067686397E+02   -0.654341576472321496E+00   -0.225250430827529335E+01   -0.883559339373956032E+00   -0.308579444189943388E+03
    0.441101033121385967E+03    0.599872066138809288E+02    0.532478928067686397E+02   -0.654341576472321496E+00   -0.225250430827529335E+01   -0.883559339373956032E+00   -0.308579444189943388E+03
    0.445289085427082796E+03    0.608489979468481721E+02    0.516497100088038223E+02   -0.660261250644865516E+00   -0.224805145180901222E+01   -0.889916495075103953E+00   -0.308570324833380312E+03
    0.445289085427082796E+03    0.608489979468481721E+02    0.516497100088038223E+02   -0.660261250644865516E+00   -0.224805145180901222E+01   -0.889916495075103953E+00   -0.308570324833380312E+03
    0.433182686455597661E+03    0.619742131865545147E+02    0.560401153562789034E+02   -0.621414863654152327E+00   -0.225691263644037798E+01   -0.893818205307087776E+00   -0.308570177298523049E+03
    0.429939048741896329E+03    0.608389525817146435E+02    0.569295843738951746E+02   -0.640542807512719747E+00   -0.226802396175158805E+01   -0.894562265569575299E+00   -0.308552922377374728E+03
    0.427913057734849417E+03    0.605911777396112541E+02    0.544184482628068196E+02   -0.658259938830247249E+00   -0.228061098332529388E+01   -0.899606121574737294E+00   -0.308533851484913384E+03
    0.436592794822455176E+03    0.627156004630073554E+02    0.540142566207477230E+02   -0.659253836670361526E+00   -0.223046480126381397E+01   -0.879567946250789934E+00   -0.308506901198673575E+03
    0.425594277466639596E+03    0.631042073771665102E+02    0.513660947476040022E+02   -0.675382224803224629E+00   -0.226770092413211932E+01   -0.901402068475380069E+00   -0.308499846734271841E+03
    0.425594277466639596E+03    0.631042073771665102E+02    0.513660947476040022E+02   -0.675382224803224629E+00   -0.226770092413211932E+01   -0.901402068475380069E+00   -0.308499846734271841E+03
    0.435933632932968123E+03    0.613975152953430623E+02    0.550188263080237689E+02   -0.605017936222217445E+00   -0.224982943185829010E+01   -0.890993769476840392E+00   -0.308497392417361084E+03
    0.435933632932968123E+03    0.613975152953430623E+02    0.550188263080237689E+02   -0.605017936222217445E+00   -0.224982943185829010E+01   -0.890993769476840392E+00   -0.308497392417361084E+03
    0.441690409729852036E+03    0.602810646676801696E+02    0.554880667468856430E+02   -0.645314461884378909E+00   -0.223689165453036676E+01   -0.881116091497652576E+00   -0.308496546885116402E+03
    0.424872630907601604E+03    0.616666916058712147E+02    0.554176078301119048E+02   -0.655069975882765831E+00   -0.226897135412108497E+01   -0.906664196943186784E+00   -0.308492455600346545E+03
    0.424872630907601604E+03    0.616666916058712147E+02    0.554176078301119048E+02   -0.655069975882765831E+00   -0.226897135412108497E+01   -0.906664196943186784E+00   -0.308492455600346545E+03
    0.432130971337287917E+03    0.627424852127798687E+02    0.516147844661954736E+02   -0.680404163353238722E+00   -0.223342880743660022E+01   -0.883593443103646514E+00   -0.308483435148006265E+03
    0.432130971337287917E+03    0.627424852127798687E+02    0.516147844661954736E+02   -0.680404163353238722E+00   -0.223342880743660022E+01   -0.883593443103646514E+00   -0.308483435148006265E+03
    0.440091432727901633E+03    0.605173113544569006E+02    0.561089700412766561E+02   -0.657148014605446917E+00   -0.225686986073490381E+01   -0.883430067233430982E+00   -0.308482427335616194E+03
    0.427039638990252342E+03    0.619347957475344089E+02    0.555684062259814837E+02   -0.698698702652060577E+00   -0.225892369696932604E+01   -0.891146864477498468E+00   -0.308480243666864226E+03
    0.427039638990252342E+03    0.619347957475344089E+02    0.555684062259814837E+02   -0.698698702652060577E+00   -0.225892369696932604E+01   -0.891146864477498468E+00   -0.308480243666864226E+03
    0.440111504528442254E+03    0.611450270690290765E+02    0.538360282948117046E+02   -0.632505122839192691E+00   -0.226290828770581731E+01   -0.898122413072723891E+00   -0.308476901749217518E+03
    0.430856507604966168E+03    0.609057650601518858E+02    0.549573264162977040E+02   -0.696400521923188354E+00   -0.226184256268750339E+01   -0.886094308467665570E+00   -0.308469107470051540E+03
    0.425481709772669831E+03    0.632050781255702958E+02    0.544141161040691586E+02   -0.664065348764447005E+00   -0.224366466378438378E+01   -0.890962206917953026E+00   -0.308465115507124096E+03
    0.425481709772669831E+03    0.632050781255702958E+02    0.544141161040691586E+02   -0.664065348764447005E+00   -0.224366466378438378E+01   -0.890962206917953026E+00   -0.308465115507124096E+03
    0.431707234744542916E+03    0.588270042948633360E+02    0.547550738259063934E+02   -0.723015384940197459E+00   -0.227728297440141292E+01   -0.892724922945151711E+00   -0.308460157373580046E+03
    0.430738132594517992E+03    0.595548517638321968E+02    0.543722813461398857E+02   -0.718417252321726485E+00   -0.227668620725272097E+01   -0.902230261167422221E+00   -0.308441476379682058E+03
    0.430738132594517992E+03    0.595548517638321968E+02    0.543722813461398857E+02   -0.718417252321726485E+00   -0.227668620725272097E+01   -0.902230261167422221E+00   -0.308441476379682058E+03
    0.437744362355537078E+03    0.584136055588884844E+02    0.542066272010608330E+02   -0.648501446080997912E+00   -0.226929722173177284E+01   -0.900112533060407838E+00   -0.308433504096978027E+03
    0.426825753087142857E+03    0.582830575035354954E+02    0.558154847367400961E+02   -0.692428204818140491E+00   -0.227364728489280132E+01   -0.898890758058460637E+00   -0.308396843868239330E+03
    0.432514038373223684E+03    0.642694484592414028E+02    0.514136546466772302E+02   -0.653143843774420363E+00   -0.225314538410839704E+01   -0.892770488510052918E+00   -0.308386382889470042E+03
    0.434775700028764334E+03    0.621731141335711257E+02    0.532805844766580066E+02   -0.678586177961034043E+00   -0.224348521253295674E+01   -0.893449401994544701E+00   -0.308360970059721808E+03
    0.434775700028764334E+03    0.621731141335711257E+02    0.532805844766580066E+02   -0.678586177961034043E+00   -0.224348521253295674E+01   -0.893449401994544701E+00   -0.308360970059721808E+03
    0.440543565430269950E+03    0.607829664180292895E+02    0.521634702450977983E+02   -0.675506682996318553E+00   -0.226533317271753942E+01   -0.885532092794123926E+00   -0.308352472790117417E+03
    0.434214025661468725E+03    0.579388407190230268E+02    0.554532975971641733E+02   -0.661010422273779152E+00   -0.227134836727662748E+01   -0.901335702113457593E+00   -0.308347788432212667E+03
    0.440567739501214703E+03    0.614897008311646971E+02    0.538206871804795668E+02   -0.682636948521743170E+00   -0.222838842545179538E+01   -0.876060933586655377E+00   -0.308337969270559142E+03
    0.428421777193729383E+03    0.628708670892763806E+02    0.535178807951696882E+02   -0.639257944889172647E+00   -0.226016777903285160E+01   -0.904329362965300643E+00   -0.308327971706484561E+03
    0.444516214609795782E+03    0.597438606016873592E+02    0.544715593606276656E+02   -0.661797554942189947E+00   -0.223889757057831051E+01   -0.879935185302155976E+00   -0.308309405215721029E+03
    0.443917721995288218E+03    0.602436131241806478E+02    0.544265151266224620E+02   -0.659192247340316895E+00   -0.225703305073139049E+01   -0.889793145174215816E+00   -0.308304617912877234E+03
    0.436852321018800296E+03    0.617525431026367357E+02    0.506080976215607805E+02   -0.680356223825915984E+00   -0.226822594054586624E+01   -0.897777554878292250E+00   -0.308303242268978295E+03
    0.423270811204249583E+03    0.603628182486419362E+02    0.531735978928727278E+02   -0.705709066377932404E+00   -0.225657803395138146E+01   -0.897051222066529874E+00   -0.308279360080092488E+03
    0.423270811204249583E+03    0.603628182486419362E+02    0.531735978928727278E+02   -0.705709066377932404E+00   -0.225657803395138146E+01   -0.897051222066529874E+00   -0.308279360080092488E+03
    0.438327492147682619E+03    0.609890216651329027E+02    0.526223333917766496E+02   -0.678397703872991809E+00   -0.225878339218848012E+01   -0.883358530601794811E+00   -0.308273482197051237E+03
    0.438327492147682619E+03    0.609890216651329027E+02    0.526223333917766496E+02   -0.678397703872991809E+00   -0.225878339218848012E+01   -0.883358530601794811E+00   -0.308273482197051237E+03
    0.428242169080877090E+03    0.604489119155610126E+02    0.564957129596008443E+02   -0.702329447731190326E+00   -0.227240178547190430E+01   -0.896035696360621969E+00   -0.308249749821293790E+03
    0.439481074155172337E+03    0.600044130025928837E+02    0.532925561877458875E+02   -0.687376570218579008E+00   -0.228058771498665847E+01   -0.894617244489837038E+00   -0.308242717597980459E+03
    0.436099418749879135E+03    0.617882326681290124E+02    0.534711332341775005E+02   -0.680490282534187196E+00   -0.222569053630945124E+01   -0.878486626433622853E+00   -0.308236065515881819E+03
    0.425265747339044310E+03    0.603491136928889418E+02    0.540000390713056859E+02   -0.698349089999081185E+00   -0.228276820398806013E+01   -0.906936497043734580E+00   -0.308212553356118065E+03
    0.422419092749647632E+03    0.593394494613629035E+02    0.548550053077233315E+02   -0.679317201680142535E+00   -0.226481077528230124E+01   -0.907126672726078276E+00   -0.308164106592290750E+03
    0.441180836133777063E+03    0.597457413808332305E+02    0.547911487744612060E+02   -0.683883053572711841E+00   -0.227252096181181074E+01   -0.892431683465494174E+00   -0.308163820690499506E+03
    0.434690708086318921E+03    0.631936663164002184E+02    0.508901262564463863E+02   -0.661306250274551921E+00   -0.226582572001313487E+01   -0.898108941296115848E+00   -0.308134873839353986E+03
    0.434690708086318921E+03    0.631936663164002184E+02    0.508901262564463863E+02   -0.661306250274551921E+00   -0.226582572001313487E+01   -0.898108941296115848E+00   -0.308134873839353986E+03
    0.434319657959976155E+03    0.601578112347434910E+02    0.562329106362226696E+02   -0.659540563399465540E+00   -0.228100565960229273E+01   -0.898403383274463341E+00   -0.308117926405107369E+03
    0.435848952624183426E+03    0.593995320704923202E+02    0.542002646245659108E+02   -0.685451383741166875E+00   -0.226479797796154125E+01   -0.887516942074384918E+00   -0.308100223821098382E+03
    0.444043284631111021E+03    0.625261493750336328E+02    0.514977517898853918E+02   -0.638790544987214881E+00   -0.226410462869219353E+01   -0.889509697826198487E+00   -0.308092697424205312E+03
    0.434677717535315765E+03    0.594497010215169439E+02    0.570044770097976183E+02   -0.685890610675963464E+00   -0.224375407667701499E+01   -0.884221548284919390E+00   -0.308089739332841475E+03
    0.431082164718356580E+03    0.628485282316590386E+02    0.539469826874361260E+02   -0.643807956292831163E+00   -0.226953713165726301E+01   -0.897808831989382217E+00   -0.308072979434963202E+03
    0.431082164718356580E+03    0.628485282316590386E+02    0.539469826874361260E+02   -0.643807956292831163E+00   -0.226953713165726301E+01   -0.897808831989382217E+00   -0.308072979434963202E+03
    0.421233174567839740E+03    0.600799811376602477E+02    0.559327317313321828E+02   -0.650144135014889990E+00   -0.225391089696694058E+01   -0.903226540897414498E+00   -0.308063174360724986E+03
    0.437517171477161412E+03    0.583143614623370041E+02    0.543837508468239434E+02   -0.664966729325446870E+00   -0.226619642452293624E+01   -0.895201233167386423E+00   -0.308056506305592848E+03
    0.436552753973403298E+03    0.623203455219969982E+02    0.517398406329885034E+02   -0.683823570510133205E+00   -0.224500486498706575E+01   -0.881105835767601153E+00   -0.308030046076386498E+03
    0.437870435164202149E+03    0.602269098463101074E+02    0.535797720125014010E+02   -0.610503236794847748E+00   -0.225901520427171487E+01   -0.898696904839028310E+00   -0.308029550793561441E+03
    0.434517213999148566E+03    0.637637939948640025E+02    0.509971350980644615E+02   -0.647672957477656741E+00   -0.225248057860427453E+01   -0.891856548663885640E+00   -0.308008370894502264E+03
    0.433762648626369469E+03    0.602379404766259228E+02    0.557808184691601028E+02   -0.699133890778155687E+00   -0.226570036640219197E+01   -0.886386029764371308E+00   -0.308008290654153427E+03
    0.433762648626369469E+03    0.602379404766259228E+02    0.557808184691601028E+02   -0.699133890778155687E+00   -0.226570036640219197E+01   -0.886386029764371308E+00   -0.308008290654153427E+03
    0.434181557786040059E+03    0.631175098102467729E+02    0.520793650015387470E+02   -0.649753568906310974E+00   -0.225393469835432425E+01   -0.897938758601635190E+00   -0.308004721474803091E+03
    0.443345334272733453E+03    0.597869082065973600E+02    0.539931904355737231E+02   -0.668694490496382965E+00   -0.226449507247222526E+01   -0.892155378395678156E+00   -0.307997680057781054E+03
    0.437439429864233659E+03    0.612203777541443159E+02    0.551760031170030558E+02   -0.680458471089020911E+00   -0.225986701607864493E+01   -0.886131598767555761E+00   -0.307982801972891025E+03
    0.434918141663357858E+03    0.610600409563125481E+02    0.534339466952400244E+02   -0.658459864490027691E+00   -0.227630235290437222E+01   -0.894903842666424865E+00   -0.307977801500317810E+03
    0.435162857699076426E+03    0.634004963360435099E+02    0.529323886058385824E+02   -0.631833496359306190E+00   -0.225502092308225421E+01   -0.894654657766611461E+00   -0.307965222340822606E+03
    0.423930030805803824E+03    0.592298966882970390E+02    0.567467522673751077E+02   -0.664914083010492707E+00   -0.226328800041822298E+01   -0.899044259764358866E+00   -0.307962682056499148E+03
    0.430689102231622087E+03    0.595975173153159119E+02    0.574392015641536702E+02   -0.657570509497328981E+00   -0.226758617591149481E+01   -0.898762948071950785E+00   -0.307956342749702287E+03
    0.433039911714579375E+03    0.608584747366303276E+02    0.534354372112401421E+02   -0.733843524142207437E+00   -0.225817876228138692E+01   -0.889307071528630200E+00   -0.307947496263709866E+03
    0.427740395753176529E+03    0.598732058055895422E+02    0.559685555416654807E+02   -0.696067372091521142E+00   -0.228282442952951170E+01   -0.900311433657117188E+00   -0.307923930426734216E+03
    0.433025265501682725E+03    0.589118236979257404E+02    0.568682076156810012E+02   -0.643677043824999684E+00   -0.225576320712964407E+01   -0.897311839044626858E+00   -0.307918538031574712E+03
    0.425032224567250353E+03    0.615467689952719468E+02    0.544038118467061906E+02   -0.630538311140649288E+00   -0.224578434688055140E+01   -0.897047331668285430E+00   -0.307913332803425817E+03
    0.430877121683838936E+03    0.595478160801686016E+02    0.536393817999408569E+02   -0.671144669430197016E+00   -0.225261079251069285E+01   -0.902028789444996093E+00   -0.307909146558571877E+03
    0.420557852787345666E+03    0.612580620949009287E+02    0.543840017210129147E+02   -0.663983860322085562E+00   -0.224599198712870596E+01   -0.901580545586762483E+00   -0.307902878400166855E+03
    0.436360494532562541E+03    0.609570807533685297E+02    0.545413104172042793E+02   -0.687929102445390184E+00   -0.222921596306543979E+01   -0.880737569271661691E+00   -0.307890848316889219E+03
    0.426959439366798051E+03    0.626026075923315801E+02    0.536078286807661186E+02   -0.639127718959142888E+00   -0.226936980062134408E+01   -0.905432057831943915E+00   -0.307862774674692560E+03
    0.425861047783201855E+03    0.609812758911572104E+02    0.543271137586996034E+02   -0.668505433386823888E+00   -0.223266621215705729E+01   -0.895070509925927293E+00   -0.307855414718933048E+03
    0.430627827706195660E+03    0.611947051146056467E+02    0.549361057558684678E+02   -0.635407703915070732E+00   -0.224808762411624397E+01   -0.890070095741460232E+00   -0.307821353324829317E+03
    0.430627827706195660E+03    0.611947051146056467E+02    0.549361057558684678E+02   -0.635407703915070732E+00   -0.224808762411624397E+01   -0.890070095741460232E+00   -0.307821353324829317E+03
    0.432638361198931307E+03    0.594032021404733754E+02    0.543577030875603811E+02   -0.636039005721615869E+00   -0.225047012488712816E+01   -0.896139819684183880E+00   -0.307818500971584228E+03
    0.427910754870610447E+03    0.612410130556386747E+02    0.525847367334781666E+02   -0.675471609223737168E+00   -0.228233612979689360E+01   -0.905008674539160562E+00   -0.307803239423816422E+03
    0.436310560441757673E+03    0.603604393728665585E+02    0.535950744888188240E+02   -0.704348502965560508E+00   -0.223757292882451697E+01   -0.879959858431746511E+00   -0.307802025363936082E+03
    0.426683578180188363E+03    0.599763556607427475E+02    0.537274731498533171E+02   -0.684940156874824346E+00   -0.224279392759937757E+01   -0.898187378650534551E+00   -0.307789144856976975E+03
    0.433550815843071916E+03    0.630947639133135141E+02    0.519289500786331786E+02   -0.694233028531221708E+00   -0.224548625576168615E+01   -0.884915694071708891E+00   -0.307780322971073588E+03
    0.439717297998439449E+03    0.615179120603350142E+02    0.530082253773953980E+02   -0.628554936372111239E+00   -0.223648141247373378E+01   -0.885815389365787187E+00   -0.307779379629686730E+03
    0.440341105853516240E+03    0.598817729348373007E+02    0.560430811177836148E+02   -0.657988180307779169E+00   -0.225568686825101672E+01   -0.885864310452585624E+00   -0.307746919068408772E+03
    0.443511974350453443E+03    0.604979939491081709E+02    0.526656928195622029E+02   -0.690558742408518889E+00   -0.226138692649312301E+01   -0.884178229896485313E+00   -0.307742719036725418E+03
    0.434903049769160532E+03    0.598288594226610755E+02    0.563497619291405769E+02   -0.622896419014339120E+00   -0.226107446694808711E+01   -0.895743892217983895E+00   -0.307741570207981113E+03
    0.431952033284964727E+03    0.628849166925929381E+02    0.518417801761044643E+02   -0.632221316133530387E+00   -0.226561926703949323E+01   -0.902160386437188322E+00   -0.307739829577935154E+03
    0.439053165446520893E+03    0.590815350411274167E+02    0.544358243075995603E+02   -0.692607406611330134E+00   -0.225039168933957834E+01   -0.891312356030492747E+00   -0.307737664230910980E+03
    0.434774173009755657E+03    0.601881688085814304E+02    0.564210005570150628E+02   -0.691728563141567276E+00   -0.224948518158969124E+01   -0.887256999404756552E+00   -0.307732723052250719E+03
    0.437991285919248298E+03    0.607343207923751223E+02    0.533708018558953228E+02   -0.673206572452117680E+00   -0.223094064854496832E+01   -0.886185135022266923E+00   -0.307705269619397598E+03
    0.431592280942179968E+03    0.612397870658348893E+02    0.533424651052177623E+02   -0.692782962157363125E+00   -0.222916763814645424E+01   -0.886019504505414446E+00   -0.307677501815902758E+03
    0.435403548870283714E+03    0.611733122372471882E+02    0.550029389513543876E+02   -0.676699009871088553E+00   -0.225686203207224700E+01   -0.885107110163511290E+00   -0.307668688029921157E+03
    0.423736895695407952E+03    0.612817018080522473E+02    0.532009349718800877E+02   -0.646051475320586599E+00   -0.225442336938731813E+01   -0.903135823679370731E+00   -0.307650475536896465E+03
    0.435326106871855870E+03    0.620275145074637422E+02    0.522732631831382264E+02   -0.669253532475935664E+00   -0.226130476033042216E+01   -0.887585826683723322E+00   -0.307647691923483364E+03
    0.425765636582746822E+03    0.600788324972639884E+02    0.567583498004901514E+02   -0.685853612658088752E+00   -0.225780253407067866E+01   -0.898542219925420049E+00   -0.307642297657177835E+03
    0.439004917336547749E+03    0.586172705596060695E+02    0.540254136475648892E+02   -0.679383681444563736E+00   -0.226673211008066033E+01   -0.895434314438276147E+00   -0.307633727402135435E+03
    0.433217904090315017E+03    0.591421340106317572E+02    0.538503885465419216E+02   -0.710175749927880462E+00   -0.225536769840410622E+01   -0.895888606195863968E+00   -0.307631136616864467E+03
    0.443490273136921417E+03    0.614855640133174433E+02    0.518104947262375788E+02   -0.689834227361700192E+00   -0.225386650179539672E+01   -0.886265979633759304E+00   -0.307628488294013380E+03
    0.441736445490580138E+03    0.622799197382544207E+02    0.529491615391554120E+02   -0.653480608446711519E+00   -0.223964503243277946E+01   -0.882588342593654485E+00   -0.307627622568299842E+03
    0.431497998145252609E+03    0.606451332339736737E+02    0.565710106662578482E+02   -0.664562628701645730E+00   -0.224401612071377832E+01   -0.887761678348879979E+00   -0.307623208274657998E+03
    0.436511773020073292E+03    0.599295668876465726E+02    0.548053818959367973E+02   -0.721908778833275200E+00   -0.225395938981814670E+01   -0.885726882764307444E+00   -0.307566491325289178E+03
    0.428019243451475234E+03    0.614044604343234539E+02    0.534766953269980334E+02   -0.631555423235182989E+00   -0.226717529755317715E+01   -0.900912871443862784E+00   -0.307547772717759187E+03
    0.434275750444963592E+03    0.630237866889097162E+02    0.521450622852341752E+02   -0.632050224282125983E+00   -0.226120333702996845E+01   -0.893879647326905502E+00   -0.307526294345297174E+03
    0.425020407142337604E+03    0.609447128020574382E+02    0.544741192755853021E+02   -0.657652700653583056E+00   -0.226423358380362272E+01   -0.907355116489157787E+00   -0.307524893113700159E+03
    0.428544262739049486E+03    0.616922763648266681E+02    0.541242886591382657E+02   -0.616358620100812216E+00   -0.226521772129258059E+01   -0.903321743094728458E+00   -0.307519716069044819E+03
    0.431675977425852466E+03    0.586762483139874433E+02    0.547202213920466463E+02   -0.701553331236341560E+00   -0.227395832287435962E+01   -0.896576526266755991E+00   -0.307487434254764253E+03
    0.438014366540203241E+03    0.591102278747389036E+02    0.541978028404121233E+02   -0.696786041235563536E+00   -0.227502868032826644E+01   -0.893196286656341876E+00   -0.307478915084005507E+03
    0.431601867069115599E+03    0.603076349825157578E+02    0.545561360444004677E+02   -0.627345382192445955E+00   -0.224475638413835021E+01   -0.895074318586649653E+00   -0.307471559073155788E+03
    0.429564063391697857E+03    0.609870780198794833E+02    0.545805831960184520E+02   -0.613159303532703204E+00   -0.225804248590653511E+01   -0.901889520966541181E+00   -0.307459641974454485E+03
    0.429527156002174934E+03    0.594603934803126037E+02    0.558266836644186242E+02   -0.638630459950568108E+00   -0.225313958714089413E+01   -0.900303487658594026E+00   -0.307443528662402571E+03
    0.427244029473596640E+03    0.599647003763825523E+02    0.545914936479635671E+02   -0.656662498427743824E+00   -0.224558551946336848E+01   -0.900443058947821395E+00   -0.307420443574148749E+03
    0.443966918939825007E+03    0.612797241139702606E+02    0.519211602713831439E+02   -0.677243794090117923E+00   -0.225218345895682592E+01   -0.886149807982306026E+00   -0.307379374744008999E+03
    0.431198252743231194E+03    0.610136447290396831E+02    0.522913217507548893E+02   -0.704194441998214904E+00   -0.224727717774794211E+01   -0.893988753928297353E+00   -0.307224123423450806E+03
    0.440948484403081295E+03    0.614294417220358184E+02    0.513890357669935725E+02   -0.669767558839923893E+00   -0.224794182452658209E+01   -0.885651124603387352E+00   -0.307357395342472614E+03
    0.436121738062825614E+03    0.606292749537625824E+02    0.553464367341817649E+02   -0.680590350081906825E+00   -0.225352239266722076E+01   -0.884080373716985779E+00   -0.307396067665529927E+03
    0.434435422134580392E+03    0.591182459623971681E+02    0.560435947196149087E+02   -0.658113952850432060E+00   -0.224788888289272482E+01   -0.891903452346952008E+00   -0.307273468172813409E+03
    0.436936140861448280E+03    0.605671954417188942E+02    0.524886232416125722E+02   -0.710829891943215886E+00   -0.225877105017584334E+01   -0.887477863638898246E+00   -0.307130009212454354E+03
    0.427396438401583680E+03    0.603516793364624178E+02    0.552056963943477257E+02   -0.683915381119857280E+00   -0.225926282970411929E+01   -0.894792920159052763E+00   -0.306594605966857557E+03
    0.427396438401583680E+03    0.603516793364624178E+02    0.552056963943477257E+02   -0.683915381119857280E+00   -0.225926282970411929E+01   -0.894792920159052763E+00   -0.306594605966857557E+03
    0.433975282232232587E+03    0.599220995569392372E+02    0.567834502174597660E+02   -0.656362616090335083E+00   -0.225676029056909622E+01   -0.892443217277053780E+00   -0.307352526029725368E+03
    0.433434653533470964E+03    0.621468643603655693E+02    0.532347694121096922E+02   -0.650541173887761337E+00   -0.226250876541913737E+01   -0.899335299795152920E+00   -0.307191211315889177E+03
    0.437212457271412688E+03    0.596414306345263796E+02    0.543350883277018752E+02   -0.680242874428492295E+00   -0.224197694667823155E+01   -0.887263745229986966E+00   -0.307014420844695451E+03
    0.437212457271412688E+03    0.596414306345263796E+02    0.543350883277018752E+02   -0.680242874428492295E+00   -0.224197694667823155E+01   -0.887263745229986966E+00   -0.307014420844695451E+03
    0.434443157601777386E+03    0.597163286042649020E+02    0.562669575771986672E+02   -0.656225281412197603E+00   -0.226112825259821104E+01   -0.896720814979570680E+00   -0.307278635153749633E+03
    0.432521643695023158E+03    0.617274349642829350E+02    0.517991457597519869E+02   -0.657616714067213781E+00   -0.224262028715655948E+01   -0.894481032397318465E+00   -0.307356252840655543E+03
    0.433736277288591339E+03    0.596477006545735904E+02    0.536984213255623359E+02   -0.667395590934046767E+00   -0.226080171501221816E+01   -0.900687393298372552E+00   -0.307020262198505236E+03
    0.437285074497919197E+03    0.605844328235461589E+02    0.537058864007164871E+02   -0.654322881680603707E+00   -0.224691840377835783E+01   -0.886745204992807068E+00   -0.306917732373700915E+03
    0.437285074497919197E+03    0.605844328235461589E+02    0.537058864007164871E+02   -0.654322881680603707E+00   -0.224691840377835783E+01   -0.886745204992807068E+00   -0.306917732373700915E+03
    0.442522190826508677E+03    0.604123762162373126E+02    0.526238997981103509E+02   -0.667034365205865898E+00   -0.225539846203159922E+01   -0.887883772976913566E+00   -0.307118111886189126E+03
    0.432973449966131966E+03    0.584177327953187202E+02    0.551424962768483908E+02   -0.668235306298421428E+00   -0.226733457440353359E+01   -0.898394926612392286E+00   -0.307377314524805001E+03
    0.431717410449493855E+03    0.611298168771190262E+02    0.537395862639420088E+02   -0.639177265259293304E+00   -0.226468327865366081E+01   -0.896491709838653783E+00   -0.307093962782952985E+03
    0.430495825756825923E+03    0.595773151763088364E+02    0.550201801360661022E+02   -0.658286640397274025E+00   -0.227556706009084131E+01   -0.898563068672927123E+00   -0.307368098160436261E+03
    0.433105411665087843E+03    0.626761291935307128E+02    0.518428584470931426E+02   -0.665347409348008068E+00   -0.226225867078515863E+01   -0.894368509088891983E+00   -0.306936547261526073E+03
    0.428696112364533690E+03    0.612290352663947672E+02    0.551564696959861891E+02   -0.694186321952672047E+00   -0.224912786707252543E+01   -0.891825982245618931E+00   -0.307094334889669028E+03
    0.432002395779859967E+03    0.613272242989658452E+02    0.527433904513406873E+02   -0.666438056808205115E+00   -0.224602552632782970E+01   -0.890816354314597714E+00   -0.306632559584478145E+03
    0.441023987321187576E+03    0.606211162222000226E+02    0.526802731218535669E+02   -0.656992255878936948E+00   -0.226206293366652833E+01   -0.891057692813604696E+00   -0.307085212590562492E+03
    0.422846947889978424E+03    0.618632993150618802E+02    0.538325297635474982E+02   -0.681545862304513861E+00   -0.225422461884874092E+01   -0.897577302877060834E+00   -0.307341839559834398E+03
    0.425234225847237212E+03    0.603058392205227989E+02    0.550766190300291925E+02   -0.690579288914009215E+00   -0.224762232774746673E+01   -0.892623296458137538E+00   -0.307214943611729154E+03
    0.434398353819186639E+03    0.610194197007179540E+02    0.538421807793784168E+02   -0.693042553606675105E+00   -0.226629246427425635E+01   -0.890550361665748191E+00   -0.307206307752101111E+03
    0.437813602538666373E+03    0.603392069549398329E+02    0.545628354575040433E+02   -0.686358865473505997E+00   -0.224997516376318885E+01   -0.888024764703159164E+00   -0.306845010740362966E+03
    0.428058748326200487E+03    0.595309843277744690E+02    0.543756645549564581E+02   -0.677250347318226309E+00   -0.224732148158139866E+01   -0.896687670251421043E+00   -0.307231735598540752E+03
    0.438093254652334338E+03    0.622189089569563549E+02    0.511100669493383961E+02   -0.674372107158824230E+00   -0.226630265035138612E+01   -0.892439204619816184E+00   -0.307298541105851086E+03
    0.439288173089276086E+03    0.612363801720002101E+02    0.519555984261203463E+02   -0.696285292398039601E+00   -0.224735386955310279E+01   -0.887950748098006670E+00   -0.307193985583546066E+03
    0.438237827681742829E+03    0.605419833930511899E+02    0.535059695880139685E+02   -0.643624838775622932E+00   -0.224111096713513414E+01   -0.888323664164096805E+00   -0.307148716388217792E+03
    0.432017871976149536E+03    0.601337904313574114E+02    0.540953924886792379E+02   -0.678214833433004038E+00   -0.227024377312752002E+01   -0.898835769383589334E+00   -0.306499652006528891E+03
    0.432017871976149536E+03    0.601337904313574114E+02    0.540953924886792379E+02   -0.678214833433004038E+00   -0.227024377312752002E+01   -0.898835769383589334E+00   -0.306499652006528891E+03
    0.424614520533445102E+03    0.606841136869738946E+02    0.545110782684721045E+02   -0.655012239889582348E+00   -0.225489542901014106E+01   -0.898045188464499322E+00   -0.307308862749158891E+03
    0.437820656866132367E+03    0.592042922649420902E+02    0.538433410780799591E+02   -0.672078377517170589E+00   -0.225160747922917226E+01   -0.891222085213062343E+00   -0.307130824044218002E+03
    0.433866937815388098E+03    0.606871089744621202E+02    0.537529834382405340E+02   -0.708225284457409066E+00   -0.226364967968803343E+01   -0.891875220066772556E+00   -0.307021481735213968E+03
    0.437930902704141488E+03    0.597027542401870832E+02    0.552784822598660668E+02   -0.675301240956514226E+00   -0.224537466077909942E+01   -0.884525010387725796E+00   -0.307096153690371466E+03
    0.422857653981591056E+03    0.612816898801345857E+02    0.547890676333676367E+02   -0.690069156105026060E+00   -0.226164435888420279E+01   -0.901242849848434169E+00   -0.307385518452724455E+03
    0.428450679006573239E+03    0.606970610033201865E+02    0.540590642490042583E+02   -0.648991949370122834E+00   -0.224666126914904618E+01   -0.895104442190242100E+00   -0.306954500231884367E+03
    0.434106886487886868E+03    0.623620694837682095E+02    0.532249007541457146E+02   -0.667426736391834696E+00   -0.223704123699321222E+01   -0.887521721111490969E+00   -0.307076761220680510E+03
    0.438661060314874703E+03    0.617548287288140116E+02    0.511341658996524941E+02   -0.684331499726188452E+00   -0.226066313078434078E+01   -0.887868663449801421E+00   -0.307395766764574773E+03
    0.431479207020921706E+03    0.610494371714600845E+02    0.545455034472647355E+02   -0.664999841370924827E+00   -0.224245908828123408E+01   -0.886276424945491303E+00   -0.307254338221642911E+03
    0.431754414060467639E+03    0.620916567064658338E+02    0.537707934330347115E+02   -0.654114663454861356E+00   -0.224070080670848704E+01   -0.890183133799541171E+00   -0.306808083527860617E+03
    0.435016111285808051E+03    0.596484242820990431E+02    0.555586123698005423E+02   -0.683568650595316907E+00   -0.224918735624288280E+01   -0.887276521776407812E+00   -0.306772950527901003E+03
    0.435016111285808051E+03    0.596484242820990431E+02    0.555586123698005423E+02   -0.683568650595316907E+00   -0.224918735624288280E+01   -0.887276521776407812E+00   -0.306772950527901003E+03
    0.436222833720908284E+03    0.615621504827565573E+02    0.518557619830447436E+02   -0.704619217771361273E+00   -0.225299560326607562E+01   -0.886231114075265225E+00   -0.307079666255636141E+03
    0.436852626328789995E+03    0.602169223856597924E+02    0.541794227981917302E+02   -0.644316332622193011E+00   -0.224504336131857496E+01   -0.888062463937340230E+00   -0.307175940713012437E+03
    0.431194400045302586E+03    0.621455359711990738E+02    0.534225468045726686E+02   -0.618838986279518721E+00   -0.224825014547814117E+01   -0.897969187479732422E+00   -0.307285573437017831E+03
    0.427350290245357144E+03    0.614664687696910619E+02    0.541093599803644096E+02   -0.711791069291001222E+00   -0.225410326556077623E+01   -0.892300081050445559E+00   -0.307331454877100043E+03
    0.424253010392711190E+03    0.604392329262643173E+02    0.542378413258356602E+02   -0.663583093445355710E+00   -0.226375194821019221E+01   -0.905898317286978116E+00   -0.307118086300279685E+03
    0.436667659471573245E+03    0.602936216976670565E+02    0.527414459907372972E+02   -0.682138220371089288E+00   -0.224070253692533594E+01   -0.888975777224039199E+00   -0.307212549532622916E+03
    0.434789463073361958E+03    0.592454466688217138E+02    0.552960985708609769E+02   -0.673697971094830539E+00   -0.224913563880760048E+01   -0.888584173151527601E+00   -0.306935279764279471E+03
    0.434789463073361958E+03    0.592454466688217138E+02    0.552960985708609769E+02   -0.673697971094830539E+00   -0.224913563880760048E+01   -0.888584173151527601E+00   -0.306935279764279471E+03
    0.435881613827529804E+03    0.620291713713377035E+02    0.531196741546400730E+02   -0.693087336102931495E+00   -0.225735036713582682E+01   -0.890095767594008436E+00   -0.307395106537274614E+03
    0.429879948265471285E+03    0.595578125135782273E+02    0.551069459929292620E+02   -0.680702566840369450E+00   -0.225934843361509019E+01   -0.897199108438322401E+00   -0.306347439721346632E+03
    0.429879948265471285E+03    0.595578125135782273E+02    0.551069459929292620E+02   -0.680702566840369450E+00   -0.225934843361509019E+01   -0.897199108438322401E+00   -0.306347439721346632E+03
    0.429879948265471285E+03    0.595578125135782273E+02    0.551069459929292620E+02   -0.680702566840369450E+00   -0.225934843361509019E+01   -0.897199108438322401E+00   -0.306347439721346632E+03
    0.428462592332024656E+03    0.592603995599488726E+02    0.549225011776106626E+02   -0.668583502920985673E+00   -0.224879331212922740E+01   -0.896646300256389583E+00   -0.307285280245125364E+03
    0.434648339644787768E+03    0.616770110560789604E+02    0.517036359470304916E+02   -0.698989817972244021E+00   -0.225468712090725898E+01   -0.892727759988615421E+00   -0.307034600511325209E+03
    0.423635531349709993E+03    0.605078817650074328E+02    0.544968791395857721E+02   -0.671301481950492107E+00   -0.225538875508687298E+01   -0.903811492407207151E+00   -0.307159081206700478E+03
    0.430988353012883465E+03    0.603632373952294969E+02    0.529336627820148351E+02   -0.659986161404357397E+00   -0.224434141192115355E+01   -0.896063186173374326E+00   -0.307369326762556625E+03
    0.432245987056068600E+03    0.609770639892965534E+02    0.523859394219995309E+02   -0.687466713063761947E+00   -0.225158439874616700E+01   -0.888791800695522660E+00   -0.307280871271072613E+03
    0.428332636360964841E+03    0.602270959784585784E+02    0.552238012005761689E+02   -0.698566131171546756E+00   -0.226341848357705144E+01   -0.895445782299404414E+00   -0.306701956570577011E+03
    0.428332636360964841E+03    0.602270959784585784E+02    0.552238012005761689E+02   -0.698566131171546756E+00   -0.226341848357705144E+01   -0.895445782299404414E+00   -0.306701956570577011E+03
    0.432812949917378205E+03    0.614941713966908097E+02    0.527194833704952472E+02   -0.673776295944247039E+00   -0.225576927852849796E+01   -0.898239398018137347E+00   -0.306819068160590177E+03
    0.432812949917378205E+03    0.614941713966908097E+02    0.527194833704952472E+02   -0.673776295944247039E+00   -0.225576927852849796E+01   -0.898239398018137347E+00   -0.306819068160590177E+03
    0.432399229392977873E+03    0.601602645215745966E+02    0.541008667397806207E+02   -0.705457986473305487E+00   -0.224535195686179012E+01   -0.888795041063721758E+00   -0.306746451169904958E+03
    0.432399229392977873E+03    0.601602645215745966E+02    0.541008667397806207E+02   -0.705457986473305487E+00   -0.224535195686179012E+01   -0.888795041063721758E+00   -0.306746451169904958E+03
    0.438861966621672650E+03    0.606043585758883907E+02    0.541274660715254754E+02   -0.632115135153789254E+00   -0.225298353509012195E+01   -0.890621153650463349E+00   -0.307151969686482857E+03
    0.428677095281307118E+03    0.606056784309686449E+02    0.531302467238753309E+02   -0.676467389852464906E+00   -0.224445530930725035E+01   -0.892445961855711012E+00   -0.307323450251858901E+03
    0.431576472020016581E+03    0.614413325545123570E+02    0.555173065739653353E+02   -0.658216036137561078E+00   -0.225034518943974771E+01   -0.890572167586753061E+00   -0.307091286287429625E+03
