    0.314958243416662469E+03    0.560509032290987292E+02    0.286011065871860986E+02   -0.197510622801449243E+01   -0.285533676500295197E+01   -0.212199295244982888E+01   -0.294964533270454012E+03
    0.288416447382986576E+03    0.600197997676564015E+02    0.349929032276499328E+02   -0.197061283225969031E+01   -0.276053825189949453E+01   -0.210570364781582153E+01   -0.294409351350902909E+03
    0.329631893463135327E+03    0.521046901214202407E+02    0.471421125748869656E+02   -0.172770986017744121E+01   -0.283229924147762091E+01   -0.206407519069218592E+01   -0.293770688531526844E+03
    0.303356795302561238E+03    0.408329031045567632E+02    0.545524423541194992E+02   -0.191667803921057223E+01   -0.281693642710149783E+01   -0.212704383594473345E+01   -0.293685806974207935E+03
    0.325405631605131816E+03    0.591279806946304092E+02    0.360881830028710340E+02   -0.179678710042498002E+01   -0.289294966375547569E+01   -0.207536109076260544E+01   -0.292694943642664839E+03
    0.313561862001840780E+03    0.628525375723300712E+02    0.317710359743025634E+02   -0.191402594767586476E+01   -0.271231540790901304E+01   -0.205858583150415431E+01   -0.292291401955612400E+03
    0.312756463922883938E+03    0.578346445639025148E+02    0.465317779184533507E+02   -0.184402754393448021E+01   -0.288601476555747416E+01   -0.207269601369600265E+01   -0.292036086406969901E+03
    0.293911164845668566E+03    0.507254404816346636E+02    0.511592914897773738E+02   -0.184182061027674804E+01   -0.282158391140257203E+01   -0.213290621405371583E+01   -0.291615245488813343E+03
    0.320618014648520159E+03    0.570858254980157511E+02    0.339884149945281422E+02   -0.184486884838156562E+01   -0.269280499109528648E+01   -0.205709730570845561E+01   -0.291052684121974721E+03
    0.307639611594208247E+03    0.635125881709319344E+02    0.285994515036806973E+02   -0.194021684978604281E+01   -0.277953223012595174E+01   -0.209347990991199406E+01   -0.291044731883603617E+03
    0.292132780451478936E+03    0.456262043795110088E+02    0.477782683109152799E+02   -0.197328662195040661E+01   -0.279998252961500960E+01   -0.214047356290924906E+01   -0.291010795818420831E+03
    0.315225556861137193E+03    0.562520163395652091E+02    0.411201288140054615E+02   -0.190869129996549747E+01   -0.287570550342852060E+01   -0.209232613895091735E+01   -0.290723344262544572E+03
    0.307230606568767541E+03    0.511669247561713050E+02    0.471026930516916380E+02   -0.199648434184389911E+01   -0.288640686114932787E+01   -0.205756606968814726E+01   -0.290702263865864893E+03
    0.315224645763978799E+03    0.598330827920582067E+02    0.307108533933850261E+02   -0.181994698464808047E+01   -0.277808034371919810E+01   -0.210522733587173549E+01   -0.290614299645926735E+03
    0.324791265218637875E+03    0.524597928518134182E+02    0.453902621930457713E+02   -0.180738173547817471E+01   -0.278327489572592457E+01   -0.206220683288611628E+01   -0.290557391999975096E+03
    0.309069297293913792E+03    0.595318277266083271E+02    0.400261226890849642E+02   -0.195178834595555517E+01   -0.280227060382047100E+01   -0.205825120406397399E+01   -0.290513884622325918E+03
    0.292949129600768856E+03    0.591584311031385468E+02    0.371268196168540285E+02   -0.191636673261885071E+01   -0.280482834695800021E+01   -0.211433148460482734E+01   -0.290490583293543068E+03
    0.306956242006853870E+03    0.582643975502195843E+02    0.295704990485647379E+02   -0.198777502309251908E+01   -0.276369931269761437E+01   -0.210845161364588041E+01   -0.290468049981122306E+03
    0.299520585323434887E+03    0.481163512617773108E+02    0.458699668767905919E+02   -0.190618775319187250E+01   -0.284924677374569901E+01   -0.213183633471787282E+01   -0.290464171721819071E+03
    0.312077867291815892E+03    0.511594131606866327E+02    0.447278051309774156E+02   -0.181657222368097626E+01   -0.283586319016015587E+01   -0.210497586524929536E+01   -0.290391646724486009E+03
    0.334174910796121537E+03    0.515959399905862170E+02    0.386560938167255443E+02   -0.195523847818782226E+01   -0.271906959611914267E+01   -0.199939578877466340E+01   -0.290291465964880217E+03
    0.312108943291159960E+03    0.575450163177356515E+02    0.440663042354924244E+02   -0.186668353557245026E+01   -0.290042128747121852E+01   -0.208725691103768884E+01   -0.290220778220687180E+03
    0.325163893563284091E+03    0.597308352462793906E+02    0.320269768206322709E+02   -0.199368410249671557E+01   -0.279830337196434398E+01   -0.202767918152134285E+01   -0.290218400402718885E+03
    0.317158423287736809E+03    0.609681951944344718E+02    0.307544897351586215E+02   -0.189583440745089127E+01   -0.287917930131740629E+01   -0.209545292690972929E+01   -0.290185751106319515E+03
    0.321612440423142061E+03    0.551452623709278171E+02    0.433086805970673723E+02   -0.177787093909041105E+01   -0.277902009596062083E+01   -0.205450906761185603E+01   -0.290089940350140637E+03
    0.320643457757353588E+03    0.523211489121231139E+02    0.388608697864874841E+02   -0.192723982186377674E+01   -0.284221449778719126E+01   -0.207993993099451657E+01   -0.290087970999036600E+03
    0.297589615915697152E+03    0.510012572146780130E+02    0.428967740634487456E+02   -0.198851955303070982E+01   -0.287321527957850531E+01   -0.210352233247948917E+01   -0.290078950634840965E+03
    0.319175171970010410E+03    0.491574792084233039E+02    0.464875819317202996E+02   -0.194609774785537692E+01   -0.279698881050580583E+01   -0.205888222778343577E+01   -0.290064226191060698E+03
    0.313217077623971079E+03    0.559359196511892662E+02    0.437539981898269872E+02   -0.185415928924724382E+01   -0.279960513103630371E+01   -0.208480245728876090E+01   -0.290050658317624368E+03
    0.300065179121188862E+03    0.604901778791238200E+02    0.308470526843611488E+02   -0.188769307020268906E+01   -0.281050299308294127E+01   -0.213665478960747723E+01   -0.289995480767539732E+03
    0.311074668105524040E+03    0.583347206237161373E+02    0.369596776130308697E+02   -0.195542205808287939E+01   -0.287370596813635437E+01   -0.209603783322377879E+01   -0.289990808409471072E+03
    0.311336407614496864E+03    0.515149778445814803E+02    0.431632135332612989E+02   -0.198020620130419567E+01   -0.275277251812824852E+01   -0.207042695024943946E+01   -0.289798070512102356E+03
    0.315589127674605891E+03    0.581234090705369013E+02    0.319319392944496840E+02   -0.183948616697760770E+01   -0.280170485806895098E+01   -0.208958965990599577E+01   -0.289796839937923892E+03
    0.314403226380407261E+03    0.544097762547937833E+02    0.291685456843177988E+02   -0.199610150542877096E+01   -0.281119972639436400E+01   -0.206722867948963884E+01   -0.289796069652185224E+03
    0.314742831780546908E+03    0.518765015242847838E+02    0.490806064801642705E+02   -0.178875369446648347E+01   -0.285790508089762429E+01   -0.209394949359977289E+01   -0.289783884287511000E+03
    0.319078937925631351E+03    0.433924848370006941E+02    0.513862893173369741E+02   -0.189279048207049883E+01   -0.278561235969695975E+01   -0.205860614793924324E+01   -0.289774701357139406E+03
    0.303425154599104758E+03    0.581640780671163640E+02    0.288623740433298615E+02   -0.193888497839381824E+01   -0.280156332452671331E+01   -0.209959153776095020E+01   -0.289744441445720497E+03
    0.314119701849862565E+03    0.619096959069018880E+02    0.247110876742125249E+02   -0.189975394772794304E+01   -0.269982313191821088E+01   -0.207882995333770904E+01   -0.289693770246516692E+03
    0.322953599006862930E+03    0.485200538389733325E+02    0.469436707633897399E+02   -0.187121148718244190E+01   -0.272148301972969753E+01   -0.203967340423739607E+01   -0.289686552631580412E+03
    0.290991089599374220E+03    0.551750341548098859E+02    0.392748552860410385E+02   -0.197387966782523527E+01   -0.282811869157358364E+01   -0.212500222852622844E+01   -0.289655879765111649E+03
    0.322076978771950053E+03    0.481187683789036384E+02    0.513612714358246052E+02   -0.188827286130252547E+01   -0.281371911133661268E+01   -0.203729644929131481E+01   -0.289619726984661156E+03
    0.312435315194970940E+03    0.498586100304307678E+02    0.396913449928654387E+02   -0.198414612754007558E+01   -0.274876379268115345E+01   -0.204665875372834849E+01   -0.289612515982653804E+03
    0.317778257812625156E+03    0.498189804943458157E+02    0.363849467011150693E+02   -0.199445244002953603E+01   -0.277996877515938223E+01   -0.204961184573726163E+01   -0.289604354064838049E+03
    0.316785332483193031E+03    0.633617075388335067E+02    0.233098598776047190E+02   -0.188088447414320603E+01   -0.281443390838326746E+01   -0.208037535904357540E+01   -0.289597253854677376E+03
    0.303109195547815943E+03    0.611115051602381101E+02    0.403770590879623441E+02   -0.184725020823233810E+01   -0.284078652372610030E+01   -0.210178161877614755E+01   -0.289597012570960601E+03
    0.312582308346055925E+03    0.585776693057257418E+02    0.269684181473005999E+02   -0.196360126591249129E+01   -0.271955134360323925E+01   -0.205489000505439945E+01   -0.289559694661224682E+03
    0.309884766246587560E+03    0.577332147954255817E+02    0.343426416531411505E+02   -0.184705887016520731E+01   -0.283365573523315062E+01   -0.211743037949880897E+01   -0.289550468400323496E+03
    0.308669153780282215E+03    0.420995866192405686E+02    0.489469273323630674E+02   -0.197882845495646742E+01   -0.274169500480789186E+01   -0.206088601641881874E+01   -0.289477225866375989E+03
    0.325565351738840207E+03    0.535328623264630465E+02    0.408927148268876550E+02   -0.185970959069331343E+01   -0.284786600566767367E+01   -0.206043511118129175E+01   -0.289414913819498679E+03
    0.300716720095066250E+03    0.525574386849681758E+02    0.410074664165025595E+02   -0.195816819302893053E+01   -0.289152565372405235E+01   -0.212937815444544842E+01   -0.289379251532074306E+03
    0.318725863784132059E+03    0.582749984426881369E+02    0.383722359323106730E+02   -0.183278906065615832E+01   -0.287249098599717012E+01   -0.208874846979437656E+01   -0.289315232387254298E+03
    0.318794174443708130E+03    0.593168934817909062E+02    0.322227171757756921E+02   -0.194101753421459766E+01   -0.272335572590262576E+01   -0.205636576165070739E+01   -0.289309117424047940E+03
    0.332457837315054746E+03    0.545697126946016624E+02    0.376930859358811787E+02   -0.191089207761499846E+01   -0.277873082402386506E+01   -0.201367983952533702E+01   -0.289301112150029326E+03
    0.327919816809307861E+03    0.534520105486031696E+02    0.338869653477153179E+02   -0.194669539724450535E+01   -0.267346776596515534E+01   -0.203039172833846404E+01   -0.289282091459733351E+03
    0.304830661961295050E+03    0.618330713896287563E+02    0.354991390336028303E+02   -0.194630091108228775E+01   -0.282771070130968472E+01   -0.207003857185320683E+01   -0.289280770261730140E+03
    0.323061584682682167E+03    0.540770494271544848E+02    0.340998063204642321E+02   -0.193878792152971879E+01   -0.272652794830293965E+01   -0.206293213904262318E+01   -0.289242931604952958E+03
    0.329566555950527800E+03    0.514288915065959600E+02    0.460643975676029527E+02   -0.188197795344587071E+01   -0.278376835894881847E+01   -0.202490815444492966E+01   -0.289240996639413254E+03
    0.305766356802330847E+03    0.531845490240628109E+02    0.418065494814520449E+02   -0.192458836827194135E+01   -0.288332108169136347E+01   -0.209151978794193782E+01   -0.289173346050906275E+03
    0.311031939232303614E+03    0.505582639090461470E+02    0.494746714667030147E+02   -0.180299549920763713E+01   -0.283244107198086414E+01   -0.209595542252046751E+01   -0.289156429493809696E+03
    0.296099204416256612E+03    0.539965410365946141E+02    0.422030526891836786E+02   -0.198599730683595821E+01   -0.286561448788300810E+01   -0.212659149513787327E+01   -0.289137975312879462E+03
    0.313725992909605623E+03    0.444212084311160922E+02    0.487464154876168720E+02   -0.191681662599763136E+01   -0.279711260267056705E+01   -0.206400940605259020E+01   -0.289074538229043185E+03
    0.322427916592218821E+03    0.597393672343529616E+02    0.322376017962566195E+02   -0.189427716236432420E+01   -0.283468810791372361E+01   -0.207142770017007649E+01   -0.289059468793024791E+03
    0.322369057588874171E+03    0.457195333068092253E+02    0.424752145105285663E+02   -0.198917343399906188E+01   -0.271664068278883786E+01   -0.203922390667529418E+01   -0.289029378743138523E+03
    0.321059886620620887E+03    0.634935333453691442E+02    0.283288075815419091E+02   -0.189269568881653849E+01   -0.279244722544303547E+01   -0.205341604200409122E+01   -0.289024332518769825E+03
    0.298434988078522963E+03    0.517399599583360086E+02    0.465123133993440092E+02   -0.193944025593018665E+01   -0.280433526189039783E+01   -0.211297115328830198E+01   -0.289021097103121065E+03
    0.297829771679982912E+03    0.528618467151428320E+02    0.473942563556242433E+02   -0.197011186377795600E+01   -0.283073109544397905E+01   -0.208830283561454166E+01   -0.288977223935620259E+03
    0.306654593510961206E+03    0.596522665891112780E+02    0.340507259931314152E+02   -0.190308845040881192E+01   -0.272239404444788891E+01   -0.207985199685128475E+01   -0.288963949112456135E+03
    0.305351233920627635E+03    0.587382059539516206E+02    0.397978963677656736E+02   -0.182471183757152233E+01   -0.285917466094308903E+01   -0.212020109372767385E+01   -0.288959788230006552E+03
    0.298792179467685514E+03    0.544989287188789149E+02    0.470357555874207947E+02   -0.189952499514631024E+01   -0.280507740146393125E+01   -0.209668514078017054E+01   -0.288939055516057579E+03
    0.307034916774777685E+03    0.636122227205498731E+02    0.296220483744035974E+02   -0.193395127231453090E+01   -0.282687109445980500E+01   -0.208779767053614052E+01   -0.288937115474262384E+03
    0.313129101933832487E+03    0.457228621044027932E+02    0.489428615257347985E+02   -0.193846958924216395E+01   -0.276337486037393942E+01   -0.204333639517310317E+01   -0.288929273885608666E+03
    0.308527559881085153E+03    0.571311325971566077E+02    0.410407254529197445E+02   -0.190012896407489751E+01   -0.282532596284030912E+01   -0.209806907286944622E+01   -0.288907205959094654E+03
    0.311715053341935004E+03    0.631391649142737776E+02    0.271167336963016972E+02   -0.194485379549315818E+01   -0.279712867423571909E+01   -0.205759020433776874E+01   -0.288892959319734643E+03
    0.311715053341935004E+03    0.631391649142737776E+02    0.271167336963016972E+02   -0.194485379549315818E+01   -0.279712867423571909E+01   -0.205759020433776874E+01   -0.288892959319734643E+03
    0.320096675396815101E+03    0.611499543512707149E+02    0.273927448502054496E+02   -0.196345756881372502E+01   -0.275723854198300078E+01   -0.202925847272502313E+01   -0.288831960753559770E+03
    0.328846641777184004E+03    0.542545563805056190E+02    0.330287742376149538E+02   -0.194787158791313919E+01   -0.270450486798045775E+01   -0.203985676864733367E+01   -0.288824681759873783E+03
    0.292413581365536061E+03    0.507971118292852992E+02    0.449476446540187808E+02   -0.198464672564391220E+01   -0.281518574143136657E+01   -0.211920579030508893E+01   -0.288817969106093301E+03
    0.292413581365536061E+03    0.507971118292852992E+02    0.449476446540187808E+02   -0.198464672564391220E+01   -0.281518574143136657E+01   -0.211920579030508893E+01   -0.288817969106093301E+03
    0.331893420191139057E+03    0.559412523539547948E+02    0.349295732938708383E+02   -0.193822641667584872E+01   -0.276500116194569046E+01   -0.201255351630241375E+01   -0.288809244893777077E+03
    0.317762062875734273E+03    0.556112161031124188E+02    0.356803521193944349E+02   -0.191675144605890968E+01   -0.268773057612222921E+01   -0.204844341252435314E+01   -0.288766228308186442E+03
    0.317762062875734273E+03    0.556112161031124188E+02    0.356803521193944349E+02   -0.191675144605890968E+01   -0.268773057612222921E+01   -0.204844341252435314E+01   -0.288766228308186442E+03
    0.315040242828973533E+03    0.631318125964635399E+02    0.276107570233690041E+02   -0.192998457869491991E+01   -0.274453483809839671E+01   -0.204690335414480540E+01   -0.288747710678230078E+03
    0.314194137261076264E+03    0.570290986095974617E+02    0.364919395804678786E+02   -0.192998921278387536E+01   -0.288696603052862510E+01   -0.207109523946958962E+01   -0.288746778433705458E+03
    0.312693492057805940E+03    0.629063018895325925E+02    0.316404998295516187E+02   -0.186716626233693672E+01   -0.282244052471703277E+01   -0.207081616908301136E+01   -0.288722592705274565E+03
    0.301201501554185768E+03    0.578931535772001453E+02    0.392005481699954572E+02   -0.187983601083764507E+01   -0.287676477351083815E+01   -0.212233690271182862E+01   -0.288698728643459845E+03
    0.312758967436028684E+03    0.601505945702630669E+02    0.304992234867811050E+02   -0.186674729181768084E+01   -0.282317599093070548E+01   -0.208700571776614296E+01   -0.288696019209432507E+03
    0.318875257937955439E+03    0.588342720305634188E+02    0.314579662219440763E+02   -0.185923634727472309E+01   -0.279431431754137272E+01   -0.208703407042915412E+01   -0.288660363066804280E+03
    0.329636773705743224E+03    0.521806152492146040E+02    0.365307336823158479E+02   -0.197003736834916543E+01   -0.275413688110819210E+01   -0.203299773613697354E+01   -0.288657753630429909E+03
    0.310628586652409979E+03    0.543036982154967802E+02    0.401811310926625538E+02   -0.185125640582992412E+01   -0.282777702353328575E+01   -0.210750673255014132E+01   -0.288656346562183785E+03
    0.318273199114803333E+03    0.553943236791185996E+02    0.380794605043943619E+02   -0.184061737569388284E+01   -0.275488606988657558E+01   -0.206576396435076592E+01   -0.288652055896179945E+03
    0.312958235534001574E+03    0.615776862153977476E+02    0.310495011772427958E+02   -0.194728613891728486E+01   -0.280740602550456231E+01   -0.204885121377308188E+01   -0.288643543605026025E+03
    0.309134566805793270E+03    0.502500468676015615E+02    0.450984771157485937E+02   -0.191716156745035882E+01   -0.288903178725431786E+01   -0.209937833602890400E+01   -0.288635345694949876E+03
    0.298676259192133216E+03    0.546443916512676893E+02    0.338306508287082934E+02   -0.199262990066516843E+01   -0.274513784750854573E+01   -0.211157631945850532E+01   -0.288610439269429833E+03
    0.298676259192133216E+03    0.546443916512676893E+02    0.338306508287082934E+02   -0.199262990066516843E+01   -0.274513784750854573E+01   -0.211157631945850532E+01   -0.288610439269429833E+03
    0.312012391450384996E+03    0.606539903887528169E+02    0.286919326444019589E+02   -0.191263162495900985E+01   -0.285835550631935309E+01   -0.210000111552022428E+01   -0.288587631460342777E+03
    0.306030351632023780E+03    0.555772537845729033E+02    0.415776631295683075E+02   -0.194259035617508968E+01   -0.282800944099757956E+01   -0.206005397138638058E+01   -0.288576229011107614E+03
    0.306030351632023780E+03    0.555772537845729033E+02    0.415776631295683075E+02   -0.194259035617508968E+01   -0.282800944099757956E+01   -0.206005397138638058E+01   -0.288576229011107614E+03
    0.300063726161730699E+03    0.569730566687128999E+02    0.316228254982453691E+02   -0.194282633906255131E+01   -0.279593961699896232E+01   -0.211483226387897494E+01   -0.288575080127014189E+03
    0.322899084304027781E+03    0.580559343237233847E+02    0.323194209213343129E+02   -0.192108066744189743E+01   -0.284622584367979625E+01   -0.205444212565255491E+01   -0.288568334154939294E+03
    0.324638951297562585E+03    0.603203936695728800E+02    0.340149960750482663E+02   -0.186301678259910597E+01   -0.282024335736984222E+01   -0.205044536525576504E+01   -0.288553113652931359E+03
    0.325778320933149303E+03    0.610426727505989817E+02    0.324459152708673173E+02   -0.189775900330134140E+01   -0.276493063479667889E+01   -0.203138324391132308E+01   -0.288523409703242748E+03
    0.302254679139292705E+03    0.513955331559648059E+02    0.473455536488554998E+02   -0.186805444837611723E+01   -0.280148855483724102E+01   -0.211017734032247750E+01   -0.288517187924478208E+03
    0.313896685131628658E+03    0.519968602453797786E+02    0.471161579071606127E+02   -0.187400426124851882E+01   -0.288650509321413340E+01   -0.208305162200360128E+01   -0.288512227914944560E+03
    0.312571346419420081E+03    0.563951845242136045E+02    0.404255673148993964E+02   -0.191546969178754778E+01   -0.287030745586885727E+01   -0.209233964967490449E+01   -0.288488825383947926E+03
    0.310556500079379589E+03    0.590541912853773354E+02    0.334802755433020280E+02   -0.196751836212700915E+01   -0.273851420317163896E+01   -0.204422519210524323E+01   -0.288441543099864703E+03
    0.310556500079379589E+03    0.590541912853773354E+02    0.334802755433020280E+02   -0.196751836212700915E+01   -0.273851420317163896E+01   -0.204422519210524323E+01   -0.288441543099864703E+03
    0.328448035791016025E+03    0.578196418768075944E+02    0.329464103407203339E+02   -0.194425547394966447E+01   -0.279079641869930883E+01   -0.202316952130513927E+01   -0.288430580372003249E+03
    0.307387262603888757E+03    0.585958278783479543E+02    0.389536322157069748E+02   -0.186446266727979215E+01   -0.284031765006341441E+01   -0.211262392352776018E+01   -0.288429511509787972E+03
    0.307387262603888757E+03    0.585958278783479543E+02    0.389536322157069748E+02   -0.186446266727979215E+01   -0.284031765006341441E+01   -0.211262392352776018E+01   -0.288429511509787972E+03
    0.314118910032800159E+03    0.549580940914462985E+02    0.443999437042089582E+02   -0.180769038761549683E+01   -0.285087632545864889E+01   -0.208968245118543638E+01   -0.288412951490688556E+03
    0.298601470917524978E+03    0.581003654363343500E+02    0.366824208864126646E+02   -0.198207247639249418E+01   -0.278063581184750941E+01   -0.207959910881915455E+01   -0.288378620423753603E+03
    0.329648852993061098E+03    0.540827914741148348E+02    0.373713371001489989E+02   -0.194010958345581241E+01   -0.275637531652341350E+01   -0.201506187804433079E+01   -0.288367043165787038E+03
    0.308386402325239601E+03    0.623730550145496778E+02    0.246292351386490793E+02   -0.198469633860590333E+01   -0.274359481207259392E+01   -0.207060155815051239E+01   -0.288322629386016956E+03
    0.307220812407734684E+03    0.451073303839865432E+02    0.514494728161828689E+02   -0.191986196124965613E+01   -0.283427359693226988E+01   -0.207533714507202216E+01   -0.288275389978897124E+03
    0.307801617696261985E+03    0.496055946003312016E+02    0.463412243670629138E+02   -0.199305265293951250E+01   -0.283768606789327560E+01   -0.208100350802469647E+01   -0.288274760330972867E+03
    0.307410472383057197E+03    0.526466404607050080E+02    0.445930721625674948E+02   -0.195905988246965679E+01   -0.287511862991946732E+01   -0.206942837294162452E+01   -0.288253672894266060E+03
    0.311461511333515148E+03    0.600243988012744154E+02    0.295287011973803928E+02   -0.199623332263226105E+01   -0.276858254053164243E+01   -0.204530480732296116E+01   -0.288219816001720631E+03
    0.311461511333515148E+03    0.600243988012744154E+02    0.295287011973803928E+02   -0.199623332263226105E+01   -0.276858254053164243E+01   -0.204530480732296116E+01   -0.288219816001720631E+03
    0.308808545572130924E+03    0.474728447409899985E+02    0.450324244867826735E+02   -0.191753607580433716E+01   -0.277033012971932990E+01   -0.209025910919767099E+01   -0.288179211828321570E+03
    0.304444566142750432E+03    0.512904678715302538E+02    0.473290973962556336E+02   -0.188028899517733050E+01   -0.281085965607569754E+01   -0.208008936033498459E+01   -0.288178790497117063E+03
    0.298596385602144039E+03    0.497311394770874742E+02    0.451028443994557051E+02   -0.196868873541658496E+01   -0.275923139884365387E+01   -0.208801448886159102E+01   -0.288158698707381916E+03
    0.300910445585917955E+03    0.495188020994166251E+02    0.414013278884736877E+02   -0.197715037440720787E+01   -0.278424959357960500E+01   -0.211221970574965345E+01   -0.288152019302000781E+03
    0.322758261812506476E+03    0.516838026262608707E+02    0.416513681152618318E+02   -0.199881960976124762E+01   -0.282346597159999702E+01   -0.203036649775708256E+01   -0.288145002944373516E+03
    0.315079531166763275E+03    0.602189303852111308E+02    0.340998851579768214E+02   -0.189207182578193001E+01   -0.283018926115053526E+01   -0.208660009757560250E+01   -0.288137612762362892E+03
    0.315079531166763275E+03    0.602189303852111308E+02    0.340998851579768214E+02   -0.189207182578193001E+01   -0.283018926115053526E+01   -0.208660009757560250E+01   -0.288137612762362892E+03
    0.324006823246970214E+03    0.601944367353253398E+02    0.320146925290889826E+02   -0.189134231118497675E+01   -0.282251242634549815E+01   -0.205162473984434968E+01   -0.288125504574231570E+03
    0.300167984679566473E+03    0.597864311274726390E+02    0.350444040759090711E+02   -0.195853151772542367E+01   -0.283082479416989585E+01   -0.208721817072263871E+01   -0.288118638861642353E+03
    0.313142458866156630E+03    0.512485325375520091E+02    0.435745221481451139E+02   -0.192961186667139839E+01   -0.277004027397507668E+01   -0.204460440300048196E+01   -0.288102357430574557E+03
    0.315714522562734771E+03    0.614902872118676029E+02    0.315350418991881760E+02   -0.185563250263799406E+01   -0.282766571181589255E+01   -0.208206335454031954E+01   -0.288100799172064796E+03
    0.315714522562734771E+03    0.614902872118676029E+02    0.315350418991881760E+02   -0.185563250263799406E+01   -0.282766571181589255E+01   -0.208206335454031954E+01   -0.288100799172064796E+03
    0.304316374757950484E+03    0.548475108492359027E+02    0.389892207878610861E+02   -0.191735576251790407E+01   -0.287331406653669497E+01   -0.212311634795925297E+01   -0.288099976315290803E+03
    0.305043669834250181E+03    0.522147295037699521E+02    0.459176621469284711E+02   -0.198529076507989188E+01   -0.286584900227804606E+01   -0.207811128241842491E+01   -0.288041118431599045E+03
    0.325354020909767144E+03    0.560919160009146083E+02    0.356902729960464029E+02   -0.190780383457803859E+01   -0.279230672203102559E+01   -0.203345195811742130E+01   -0.288037704817295776E+03
    0.311515291707650420E+03    0.578220592694882285E+02    0.381981438037130872E+02   -0.193123900474083765E+01   -0.286694256985418816E+01   -0.206398522186706046E+01   -0.288018872285757595E+03
    0.322359132965305321E+03    0.599708892624720207E+02    0.320013191071590128E+02   -0.196108188667159133E+01   -0.278802856467626015E+01   -0.203271941023293179E+01   -0.287989632218492716E+03
    0.322359132965305321E+03    0.599708892624720207E+02    0.320013191071590128E+02   -0.196108188667159133E+01   -0.278802856467626015E+01   -0.203271941023293179E+01   -0.287989632218492716E+03
    0.302067880215255570E+03    0.491783869422917519E+02    0.445311704226168956E+02   -0.196658018090523590E+01   -0.277059208649241606E+01   -0.210100898235145017E+01   -0.287978069843115577E+03
    0.309856165462911406E+03    0.471836849024430691E+02    0.497528402209026410E+02   -0.196941544154632586E+01   -0.282395828209337552E+01   -0.206795427616354166E+01   -0.287962863676252312E+03
    0.305974524490609440E+03    0.625458227146779677E+02    0.303380299118467640E+02   -0.191519956206866415E+01   -0.277414798547635888E+01   -0.208470466284481049E+01   -0.287930495655343123E+03
    0.317410577937447613E+03    0.574246948014343346E+02    0.352578895064511642E+02   -0.195916028115075291E+01   -0.283130912936013468E+01   -0.206837877203214537E+01   -0.287894583145435035E+03
    0.317410577937447613E+03    0.574246948014343346E+02    0.352578895064511642E+02   -0.195916028115075291E+01   -0.283130912936013468E+01   -0.206837877203214537E+01   -0.287894583145435035E+03
    0.322448981954992462E+03    0.517426596711587763E+02    0.410328084330829483E+02   -0.191719199483596237E+01   -0.281321648553935821E+01   -0.205824753456076737E+01   -0.287871647655494712E+03
    0.311877374973699318E+03    0.513707443033685180E+02    0.424558403714674952E+02   -0.198352283462858781E+01   -0.285462702202957352E+01   -0.208105680123686465E+01   -0.287860919821629523E+03
    0.307951257308957793E+03    0.447725450544360086E+02    0.516238923135174304E+02   -0.194631911436721650E+01   -0.276645885822981086E+01   -0.206546646138485812E+01   -0.287848109247540492E+03
    0.307951257308957793E+03    0.447725450544360086E+02    0.516238923135174304E+02   -0.194631911436721650E+01   -0.276645885822981086E+01   -0.206546646138485812E+01   -0.287848109247540492E+03
    0.314322124679719536E+03    0.554124706860504759E+02    0.344770623018252778E+02   -0.199911352983371859E+01   -0.286709432514715923E+01   -0.207476311896810550E+01   -0.287843080429995041E+03
    0.314322124679719536E+03    0.554124706860504759E+02    0.344770623018252778E+02   -0.199911352983371859E+01   -0.286709432514715923E+01   -0.207476311896810550E+01   -0.287843080429995041E+03
    0.304085179570059324E+03    0.529941214810748278E+02    0.432363297863270830E+02   -0.193500902996749780E+01   -0.274713691475271560E+01   -0.207174034701446930E+01   -0.287816155428541322E+03
    0.309329284258763039E+03    0.622084581523831091E+02    0.276085250067499395E+02   -0.193621018968994907E+01   -0.282866850436132466E+01   -0.208557524472060862E+01   -0.287805547492386097E+03
    0.309329284258763039E+03    0.622084581523831091E+02    0.276085250067499395E+02   -0.193621018968994907E+01   -0.282866850436132466E+01   -0.208557524472060862E+01   -0.287805547492386097E+03
    0.319775964213982263E+03    0.525499304433076446E+02    0.389992743992101296E+02   -0.197770204986479214E+01   -0.282964132816064762E+01   -0.204150305438701096E+01   -0.287797802750201640E+03
    0.319775964213982263E+03    0.525499304433076446E+02    0.389992743992101296E+02   -0.197770204986479214E+01   -0.282964132816064762E+01   -0.204150305438701096E+01   -0.287797802750201640E+03
    0.315038409746725279E+03    0.598479550933051172E+02    0.351427010571242917E+02   -0.194295807130670473E+01   -0.277456504962462880E+01   -0.205219765760823591E+01   -0.287786805018300981E+03
    0.308596080648085945E+03    0.471253095236785953E+02    0.501998909225114005E+02   -0.193131127319781948E+01   -0.276087252412348860E+01   -0.206472158401965711E+01   -0.287767417773384352E+03
    0.308596080648085945E+03    0.471253095236785953E+02    0.501998909225114005E+02   -0.193131127319781948E+01   -0.276087252412348860E+01   -0.206472158401965711E+01   -0.287767417773384352E+03
    0.306293448276268180E+03    0.464080384038137908E+02    0.465745907388100306E+02   -0.197940463707332048E+01   -0.274535447576507252E+01   -0.206535793302375037E+01   -0.287747635698656495E+03
    0.306293448276268180E+03    0.464080384038137908E+02    0.465745907388100306E+02   -0.197940463707332048E+01   -0.274535447576507252E+01   -0.206535793302375037E+01   -0.287747635698656495E+03
    0.312412375298874224E+03    0.544107399791115824E+02    0.340764461644028316E+02   -0.191160457706563358E+01   -0.276100674365478271E+01   -0.208523468959307356E+01   -0.287744924303033258E+03
    0.312412375298874224E+03    0.544107399791115824E+02    0.340764461644028316E+02   -0.191160457706563358E+01   -0.276100674365478271E+01   -0.208523468959307356E+01   -0.287744924303033258E+03
    0.308896782368721006E+03    0.540567267443294242E+02    0.402710085301547664E+02   -0.189061698396852296E+01   -0.286163130476072647E+01   -0.209820636160264673E+01   -0.287732081559106405E+03
    0.308896782368721006E+03    0.540567267443294242E+02    0.402710085301547664E+02   -0.189061698396852296E+01   -0.286163130476072647E+01   -0.209820636160264673E+01   -0.287732081559106405E+03
    0.312239351594874904E+03    0.478450814844167240E+02    0.437983341651584865E+02   -0.194433594549841682E+01   -0.280940922822225803E+01   -0.208106651285563293E+01   -0.287729385469283955E+03
    0.310974915886499900E+03    0.581837056446127789E+02    0.378042088035977741E+02   -0.192026760416949549E+01   -0.284740056598038027E+01   -0.206221888832829503E+01   -0.287716898860241201E+03
    0.316501142051543354E+03    0.581950039632272293E+02    0.311192540928950336E+02   -0.192150082880405870E+01   -0.284072127407396691E+01   -0.207414080826077107E+01   -0.287679590026520032E+03
    0.316501142051543354E+03    0.581950039632272293E+02    0.311192540928950336E+02   -0.192150082880405870E+01   -0.284072127407396691E+01   -0.207414080826077107E+01   -0.287679590026520032E+03
    0.309555470059870913E+03    0.473029549014589961E+02    0.482925577541170483E+02   -0.193172261140531032E+01   -0.278208180588377596E+01   -0.205763154593165964E+01   -0.287677355056107331E+03
    0.319029817005523626E+03    0.495981342840998707E+02    0.477450086613399662E+02   -0.192799386606157119E+01   -0.279681026222238893E+01   -0.204256879236146549E+01   -0.287672102912570608E+03
    0.302342424767738123E+03    0.602301770972738595E+02    0.281949314072327475E+02   -0.199272046519183843E+01   -0.282212172917735593E+01   -0.210519936786410256E+01   -0.287634898591119907E+03
    0.320214303438442755E+03    0.537542124401200283E+02    0.421993644905059710E+02   -0.194352513795504467E+01   -0.284288733452626152E+01   -0.204418390454282939E+01   -0.287634085617222865E+03
    0.320824944182839943E+03    0.542028783467394177E+02    0.352521255624123384E+02   -0.196715023622251661E+01   -0.273851653955127361E+01   -0.205541733612326505E+01   -0.287614793056442636E+03
    0.316145097098025417E+03    0.538669651248047785E+02    0.383597504792583308E+02   -0.194069143980935466E+01   -0.279692928128350449E+01   -0.204607851454314016E+01   -0.287613864817998603E+03
    0.316145097098025417E+03    0.538669651248047785E+02    0.383597504792583308E+02   -0.194069143980935466E+01   -0.279692928128350449E+01   -0.204607851454314016E+01   -0.287613864817998603E+03
    0.318476167187292901E+03    0.578015106369434122E+02    0.289279102594873194E+02   -0.191248263403984220E+01   -0.276766324660187646E+01   -0.206484716563924886E+01   -0.287609444894381284E+03
    0.318476167187292901E+03    0.578015106369434122E+02    0.289279102594873194E+02   -0.191248263403984220E+01   -0.276766324660187646E+01   -0.206484716563924886E+01   -0.287609444894381284E+03
    0.306163192169267347E+03    0.494277579849559459E+02    0.498720668057743168E+02   -0.190828880026525871E+01   -0.278764838802522430E+01   -0.206708420886076105E+01   -0.287583641463023071E+03
    0.312217175886616701E+03    0.586331425503223329E+02    0.344864717484912546E+02   -0.194863809421819623E+01   -0.274965975743933333E+01   -0.206755268539714443E+01   -0.287580681997927400E+03
    0.312217175886616701E+03    0.586331425503223329E+02    0.344864717484912546E+02   -0.194863809421819623E+01   -0.274965975743933333E+01   -0.206755268539714443E+01   -0.287580681997927400E+03
    0.326307096583845748E+03    0.569216979996756578E+02    0.311439242049204097E+02   -0.198700420147786305E+01   -0.271026680448854451E+01   -0.202592638286675486E+01   -0.287540430032029917E+03
    0.305050873217643073E+03    0.548439368605866591E+02    0.384947096559864192E+02   -0.199020959602072067E+01   -0.274100757624034674E+01   -0.207448073132149213E+01   -0.287536710483482466E+03
    0.305050873217643073E+03    0.548439368605866591E+02    0.384947096559864192E+02   -0.199020959602072067E+01   -0.274100757624034674E+01   -0.207448073132149213E+01   -0.287536710483482466E+03
    0.302636714657759455E+03    0.581759580206103664E+02    0.375962933474475207E+02   -0.192460529820202586E+01   -0.287060889580931100E+01   -0.211729897930628974E+01   -0.287491805779291781E+03
    0.306713856122762479E+03    0.621668537243686288E+02    0.303373048161702421E+02   -0.191018340105610651E+01   -0.282446658744038004E+01   -0.209367922114081084E+01   -0.287483822997415871E+03
    0.313244498331037903E+03    0.453481701656173897E+02    0.471933028111793362E+02   -0.196508062310237031E+01   -0.278691049893608334E+01   -0.205995514777832955E+01   -0.287480358848216554E+03
    0.297067966641518808E+03    0.569386128296689762E+02    0.394541765885104567E+02   -0.195423813666178536E+01   -0.284120511781504748E+01   -0.210946178061657541E+01   -0.287464425289450446E+03
    0.302562906089709429E+03    0.541938744837350299E+02    0.408209414723918229E+02   -0.193884696418014801E+01   -0.287519863387880292E+01   -0.210816906086524369E+01   -0.287443997316178070E+03
    0.302562906089709429E+03    0.541938744837350299E+02    0.408209414723918229E+02   -0.193884696418014801E+01   -0.287519863387880292E+01   -0.210816906086524369E+01   -0.287443997316178070E+03
    0.303145121325405114E+03    0.604568004432021979E+02    0.365388378811912204E+02   -0.190309237020086219E+01   -0.279927264641843276E+01   -0.208822413935032980E+01   -0.287439824889336307E+03
    0.313204364499634607E+03    0.500105274848182546E+02    0.446463257550528141E+02   -0.189425116382188863E+01   -0.280251695217140950E+01   -0.208326114767924331E+01   -0.287432580283800462E+03
    0.313204364499634607E+03    0.500105274848182546E+02    0.446463257550528141E+02   -0.189425116382188863E+01   -0.280251695217140950E+01   -0.208326114767924331E+01   -0.287432580283800462E+03
    0.308655757352864100E+03    0.548132345758115278E+02    0.394028519480135415E+02   -0.186931018806961902E+01   -0.279115232675492386E+01   -0.209809971125543404E+01   -0.287431984020454138E+03
    0.308655757352864100E+03    0.548132345758115278E+02    0.394028519480135415E+02   -0.186931018806961902E+01   -0.279115232675492386E+01   -0.209809971125543404E+01   -0.287431984020454138E+03
    0.307040839840268006E+03    0.509696333122000951E+02    0.410561924037708437E+02   -0.192439278105120049E+01   -0.279034210636158875E+01   -0.210106492016149993E+01   -0.287423949677537905E+03
    0.304005660617402555E+03    0.553119777282630025E+02    0.320020856973333636E+02   -0.199584118411878064E+01   -0.273521191239557293E+01   -0.209206464927584257E+01   -0.287406687482080429E+03
    0.322067894725886447E+03    0.535899926058089306E+02    0.353979772558871488E+02   -0.192267308413981075E+01   -0.276114634521616109E+01   -0.205338545272542827E+01   -0.287404731496456066E+03
    0.309561070172355357E+03    0.525749845894966654E+02    0.331905505707126025E+02   -0.198713542608283933E+01   -0.275213022091853787E+01   -0.208390204840167748E+01   -0.287383266857543958E+03
    0.304857086877363088E+03    0.511347852557996276E+02    0.403570611249690359E+02   -0.197852904044703948E+01   -0.284631796505460422E+01   -0.209449044075298474E+01   -0.287375967251876887E+03
    0.301546236385791644E+03    0.459149270102181291E+02    0.484496824712154819E+02   -0.198902679016631545E+01   -0.282066930841488039E+01   -0.208980399886196899E+01   -0.287375024041428333E+03
    0.322426521513795535E+03    0.584020211115700150E+02    0.283475893765351152E+02   -0.196817231894010969E+01   -0.272123935991620414E+01   -0.204814244919834998E+01   -0.287371211811302430E+03
    0.313004360276842306E+03    0.526896309687193423E+02    0.429080493106379492E+02   -0.197757232964219942E+01   -0.278691222620162193E+01   -0.203744299700222786E+01   -0.287368608757595212E+03
    0.318973090578442225E+03    0.579466469237908299E+02    0.296051767803040242E+02   -0.195470070917145322E+01   -0.282487492902631310E+01   -0.206393038365833359E+01   -0.287366355930681209E+03
    0.311124289042257885E+03    0.519893271207505592E+02    0.380239450253103541E+02   -0.194846936064191611E+01   -0.282135693862231252E+01   -0.209296694204682066E+01   -0.287365568946848953E+03
    0.299838727161270185E+03    0.579898661205811408E+02    0.364725788486671050E+02   -0.191430329543464017E+01   -0.280176277117634243E+01   -0.210319908674676137E+01   -0.287342680065977277E+03
    0.310562582455973597E+03    0.527857814002467975E+02    0.462266928092247653E+02   -0.189453342967858318E+01   -0.279012952011516102E+01   -0.207118784993531335E+01   -0.287320286792307684E+03
    0.320433875702936120E+03    0.592721023337877142E+02    0.363590870103879595E+02   -0.187301677876719297E+01   -0.280750180994463339E+01   -0.205215327732742292E+01   -0.287304553434792865E+03
    0.300664378173070418E+03    0.556454200206727307E+02    0.419345750840436509E+02   -0.196763974016609744E+01   -0.283192259031943605E+01   -0.209310914055754083E+01   -0.287296213258358591E+03
    0.300385134864292638E+03    0.549288671560329931E+02    0.414978512603678098E+02   -0.190803640949973330E+01   -0.280803334319795672E+01   -0.211378672098331499E+01   -0.287283997775759360E+03
    0.319007079131177875E+03    0.489386424074086221E+02    0.455775732756347693E+02   -0.191038463354906063E+01   -0.277413650425698899E+01   -0.205219666538267820E+01   -0.287264115313709453E+03
    0.311792294916142168E+03    0.528796644102063880E+02    0.453411650502925312E+02   -0.189456528815709158E+01   -0.280821444119730756E+01   -0.207765249293807042E+01   -0.287256062922844933E+03
    0.303289466434914971E+03    0.555034406805365919E+02    0.406456568023263216E+02   -0.188268913011051620E+01   -0.280251530935677939E+01   -0.210843247410855295E+01   -0.287231896157069741E+03
    0.303289466434914971E+03    0.555034406805365919E+02    0.406456568023263216E+02   -0.188268913011051620E+01   -0.280251530935677939E+01   -0.210843247410855295E+01   -0.287231896157069741E+03
    0.312730698522506657E+03    0.508057803324698583E+02    0.390120578383589489E+02   -0.199240020430049358E+01   -0.281035341911577863E+01   -0.207881692197463153E+01   -0.287227746998402949E+03
    0.310613035629559761E+03    0.567924676177730703E+02    0.379013379964847346E+02   -0.192000571278335141E+01   -0.275513509349449270E+01   -0.207598426318580387E+01   -0.287225307949083458E+03
    0.307935432492014002E+03    0.561961114930460184E+02    0.382837150462940770E+02   -0.192404073608407922E+01   -0.287860092791534328E+01   -0.210533595413150243E+01   -0.287218870288105904E+03
    0.307935432492014002E+03    0.561961114930460184E+02    0.382837150462940770E+02   -0.192404073608407922E+01   -0.287860092791534328E+01   -0.210533595413150243E+01   -0.287218870288105904E+03
    0.306569513781254216E+03    0.561540789370209481E+02    0.326075278185072790E+02   -0.196772191288734555E+01   -0.282328938569138810E+01   -0.208714170031489132E+01   -0.287217567133148009E+03
    0.309258031993530039E+03    0.529426091453969505E+02    0.433089874751038124E+02   -0.190377132519264713E+01   -0.278116292629341855E+01   -0.208597659652292444E+01   -0.287208004728924209E+03
    0.307006138618733871E+03    0.500450040245594963E+02    0.497092985987472602E+02   -0.188997339064926106E+01   -0.281886131265133599E+01   -0.207709013915893070E+01   -0.287203930635594133E+03
    0.312796952983507822E+03    0.546174485760155761E+02    0.443886346033248103E+02   -0.191112793992683239E+01   -0.281029193584349013E+01   -0.205087187496021750E+01   -0.287203334339412663E+03
    0.302664411013437757E+03    0.561284114592143979E+02    0.330892690084574923E+02   -0.197913190999949129E+01   -0.284002588128261202E+01   -0.210666534581209852E+01   -0.287189978948890030E+03
    0.324768874515705022E+03    0.529495132230209791E+02    0.382209393354079907E+02   -0.197352152856168561E+01   -0.275231483011202815E+01   -0.203304846458027688E+01   -0.287182060831290698E+03
    0.324630217656429068E+03    0.571555225923667081E+02    0.304960112907386005E+02   -0.197873994841976386E+01   -0.273098685716730039E+01   -0.202761653446506918E+01   -0.287153479054130457E+03
    0.313349713131232193E+03    0.558848116433361639E+02    0.328227082775339341E+02   -0.193370123237916913E+01   -0.282756556871121578E+01   -0.209132191936651823E+01   -0.287148576639685132E+03
    0.322261220108144869E+03    0.517812945758105556E+02    0.385984376643428533E+02   -0.194276030267337596E+01   -0.276549582133965544E+01   -0.204588364530069278E+01   -0.287142150012114030E+03
    0.310169504567706895E+03    0.546062990670402755E+02    0.428197314942214717E+02   -0.196994621892056587E+01   -0.281580176313790442E+01   -0.205335776325502373E+01   -0.287137048032102769E+03
    0.317916200073242862E+03    0.569264903796151316E+02    0.348224450504130019E+02   -0.196235292443035947E+01   -0.283912501192892064E+01   -0.206424815269089557E+01   -0.287125495458063938E+03
    0.322274623644003611E+03    0.584052552573356252E+02    0.295554492713512573E+02   -0.198719883834254540E+01   -0.274149141891904957E+01   -0.203998639204437371E+01   -0.287124788254022008E+03
    0.311336917613756555E+03    0.590871092587896740E+02    0.358554955343893269E+02   -0.194859646682261167E+01   -0.283050114911433948E+01   -0.207553218768778303E+01   -0.287104579395462338E+03
    0.301482850606825593E+03    0.507837727702809332E+02    0.454284422229534002E+02   -0.192496331197035353E+01   -0.278693324871153658E+01   -0.209728002925189561E+01   -0.287067519149328916E+03
    0.304446337824841919E+03    0.533994689605291981E+02    0.414000949563848195E+02   -0.196554241307359523E+01   -0.280468642974312621E+01   -0.206877689104799423E+01   -0.287032502467250367E+03
    0.309891977141084681E+03    0.577691059879465953E+02    0.326005521700519125E+02   -0.189579641944927402E+01   -0.277014081362491993E+01   -0.209433190644116340E+01   -0.287028248925481023E+03
    0.301231820478793395E+03    0.535949676950147307E+02    0.358287804122319358E+02   -0.199301329468631860E+01   -0.280116935375120280E+01   -0.209915106550700648E+01   -0.286987300489605104E+03
    0.305367399511334838E+03    0.527514261961770927E+02    0.454341400465993743E+02   -0.192543739607938180E+01   -0.278349075555210668E+01   -0.207661886457816047E+01   -0.286976859495085932E+03
    0.305367399511334838E+03    0.527514261961770927E+02    0.454341400465993743E+02   -0.192543739607938180E+01   -0.278349075555210668E+01   -0.207661886457816047E+01   -0.286976859495085932E+03
    0.322103965554091019E+03    0.571833235709579952E+02    0.327704724823856139E+02   -0.197189287499532773E+01   -0.280234806468647824E+01   -0.204526042869124058E+01   -0.286969631526029616E+03
    0.304250067213582952E+03    0.543952221039987975E+02    0.414490998739359711E+02   -0.190877355398483983E+01   -0.279240245023531086E+01   -0.210154640505885748E+01   -0.286941717965615908E+03
    0.309323298613948907E+03    0.544529624006468751E+02    0.305505498671066356E+02   -0.199806649351950139E+01   -0.277790430694481305E+01   -0.208498527829105562E+01   -0.286939294530355767E+03
    0.305245497109135499E+03    0.595070333651855279E+02    0.326694750616776872E+02   -0.198056001938984583E+01   -0.277399827625599293E+01   -0.206976919772153156E+01   -0.286936359954118359E+03
    0.306574147627320485E+03    0.497325182051929815E+02    0.412782550565012585E+02   -0.198232857192783674E+01   -0.281964262685309963E+01   -0.209066043909399069E+01   -0.286934708226344469E+03
    0.309972246104253202E+03    0.536665627361641668E+02    0.409480604369969114E+02   -0.187855996969158956E+01   -0.279148339003776780E+01   -0.208428017704810742E+01   -0.286922496842431144E+03
    0.317330317168683735E+03    0.572354646579395947E+02    0.289415801805369917E+02   -0.199098797942567751E+01   -0.279090742909581513E+01   -0.205282040886767980E+01   -0.286920705967347658E+03
    0.314577670654680674E+03    0.580524246401048103E+02    0.272057485168177422E+02   -0.195104688148019623E+01   -0.279014133018052357E+01   -0.208198074663013344E+01   -0.286903443691814630E+03
    0.305659391355279183E+03    0.542535348091883449E+02    0.402656424652484262E+02   -0.196431360893861107E+01   -0.284466970423791432E+01   -0.207577336617313746E+01   -0.286892169324966687E+03
    0.308442977917554117E+03    0.580931454763550121E+02    0.343882351636910926E+02   -0.196126589827595543E+01   -0.279964195757946932E+01   -0.208944109963875757E+01   -0.286891032349820989E+03
    0.317513646552818443E+03    0.548885009376317683E+02    0.370147324751627806E+02   -0.196245329350230335E+01   -0.283784381345169390E+01   -0.205536245511768945E+01   -0.286827556525239459E+03
    0.313154805999970506E+03    0.504474732730608721E+02    0.445283933690800424E+02   -0.190208012482592292E+01   -0.279729065636290919E+01   -0.206559535062167043E+01   -0.286812165929195658E+03
    0.313689661230469881E+03    0.533627362048376028E+02    0.363072102184988665E+02   -0.199584995458245285E+01   -0.282697117047951041E+01   -0.206212223998543642E+01   -0.286803502179947884E+03
    0.310697513660836023E+03    0.579367106282186839E+02    0.316349359483536716E+02   -0.191656645362868328E+01   -0.279953414591070127E+01   -0.208232064137338568E+01   -0.286791761067752816E+03
    0.315648624220364354E+03    0.579866622289812952E+02    0.308227712413542143E+02   -0.193855528936825072E+01   -0.281993093146541840E+01   -0.206989396243774593E+01   -0.286790229071573378E+03
    0.308792771786113519E+03    0.566091378537385879E+02    0.394142948965293485E+02   -0.191518633877496791E+01   -0.280784898207345313E+01   -0.206438129685446725E+01   -0.286787873592276924E+03
    0.306398390115455186E+03    0.512731363512091889E+02    0.443690082878401739E+02   -0.197530728815941092E+01   -0.277987008718478945E+01   -0.205964535466568543E+01   -0.286786886908397946E+03
    0.314872698246124912E+03    0.519781288534065169E+02    0.403923070381537102E+02   -0.197573325091779473E+01   -0.275620125627856893E+01   -0.205984584604323739E+01   -0.286773202194873818E+03
    0.319385941100700961E+03    0.534806849755718900E+02    0.376543567399432106E+02   -0.193465720777040184E+01   -0.280016934270186901E+01   -0.205321517576857149E+01   -0.286764668882601882E+03
    0.321031001892549170E+03    0.513832057340662516E+02    0.407469342006586572E+02   -0.197129567393081850E+01   -0.279182610597880032E+01   -0.204179406070356162E+01   -0.286758007137591449E+03
    0.299299286570873278E+03    0.544666901706797404E+02    0.397036284573137266E+02   -0.198744890455771062E+01   -0.279423448261339002E+01   -0.209078902433024938E+01   -0.286747959919899529E+03
    0.308422525917233827E+03    0.484527927830412182E+02    0.440977240958152592E+02   -0.195480828805524953E+01   -0.277388215378905834E+01   -0.207640873528726289E+01   -0.286743298986685204E+03
    0.316553152651188441E+03    0.563427454971039481E+02    0.378035638672739722E+02   -0.190687923115253599E+01   -0.285061267377616367E+01   -0.207021661894707432E+01   -0.286735246969650348E+03
    0.305218362102424464E+03    0.566467322889213776E+02    0.395387953056405053E+02   -0.189783142821905337E+01   -0.285793746886473787E+01   -0.210240430762631281E+01   -0.286731757323776151E+03
    0.314024388325212556E+03    0.582670734221539419E+02    0.361982480619404754E+02   -0.191489047748232011E+01   -0.285604976575065450E+01   -0.207309643922413622E+01   -0.286724864599981515E+03
    0.309483837907692191E+03    0.541638193733979918E+02    0.374682392358519749E+02   -0.197653251032292787E+01   -0.274397568795558744E+01   -0.207430893240553704E+01   -0.286720100259152844E+03
    0.315669140434210135E+03    0.521456988420072278E+02    0.413250077519494567E+02   -0.197377626418105501E+01   -0.273870967508550178E+01   -0.204126465258516587E+01   -0.286711036524310146E+03
    0.312235616416072105E+03    0.566249873504236945E+02    0.378967068348435916E+02   -0.187234105438104348E+01   -0.282589909716059262E+01   -0.208334320268889694E+01   -0.286708729239990191E+03
    0.308346281975944692E+03    0.580073243980270234E+02    0.361371086307698519E+02   -0.193066788311130066E+01   -0.281352397951500732E+01   -0.206803878797863483E+01   -0.286706839874512866E+03
    0.316183390074325530E+03    0.577935319222950170E+02    0.278553883080633469E+02   -0.196314902673104164E+01   -0.276758299572520228E+01   -0.207588068967709605E+01   -0.286704468826800166E+03
    0.306461394966732598E+03    0.559375916500742605E+02    0.397915767964067086E+02   -0.188743886709871789E+01   -0.278278825579664657E+01   -0.209137604664902321E+01   -0.286703181125562367E+03
    0.300122143791046824E+03    0.566422616673097110E+02    0.370520030101453344E+02   -0.199478623137032307E+01   -0.281240292659450208E+01   -0.208797108677277743E+01   -0.286702586894644696E+03
    0.307649599256369413E+03    0.585059004458260361E+02    0.271006654838937315E+02   -0.199193427263936473E+01   -0.279493631457996550E+01   -0.208720697890121398E+01   -0.286698024195717608E+03
    0.301025433383540928E+03    0.528306935696229232E+02    0.430817843280442219E+02   -0.195806174292335911E+01   -0.282301891534045346E+01   -0.210248802020729553E+01   -0.286692724758511417E+03
    0.311543526053706842E+03    0.488916664978056303E+02    0.463376487842681826E+02   -0.195924425378503209E+01   -0.282078074731257944E+01   -0.205947038324613851E+01   -0.286689440190251560E+03
    0.310989518045073225E+03    0.596896467627664649E+02    0.337272909256716602E+02   -0.195421431968641990E+01   -0.283419166826025748E+01   -0.206786805100702953E+01   -0.286668591349236408E+03
    0.303130910794443651E+03    0.550737202228103371E+02    0.384262851680290893E+02   -0.196381166073845392E+01   -0.285462231810683020E+01   -0.209625716160667253E+01   -0.286630740032261770E+03
    0.307020605701545094E+03    0.573856998466638188E+02    0.329079430709311893E+02   -0.197098029933565799E+01   -0.273874319692513746E+01   -0.207647981722166586E+01   -0.286617970259143931E+03
    0.308268236564567246E+03    0.604124337283856647E+02    0.325055079203971502E+02   -0.190037095258457933E+01   -0.281430670868850541E+01   -0.208706991762243277E+01   -0.286614786383530316E+03
    0.307814944495231032E+03    0.550766071115501603E+02    0.345329304968790964E+02   -0.193552820799896974E+01   -0.278359855620939278E+01   -0.209416358359415034E+01   -0.286476451263498291E+03
    0.311017980865716936E+03    0.536230179285149546E+02    0.375301954423158080E+02   -0.195985636157883625E+01   -0.280308582295337461E+01   -0.206483979797462425E+01   -0.286581285429095260E+03
    0.316353143560972455E+03    0.562985899777683656E+02    0.307465031881462743E+02   -0.196087135740570440E+01   -0.276058486343907683E+01   -0.206397580687334115E+01   -0.286162793852056154E+03
    0.314452435365801136E+03    0.577857691219955427E+02    0.318727592829378565E+02   -0.198564466868449641E+01   -0.273439388281945694E+01   -0.205537083646558116E+01   -0.286576345121051702E+03
    0.314844342998761306E+03    0.599301523037810782E+02    0.304548890319669106E+02   -0.193367868963751977E+01   -0.278048797011751692E+01   -0.206367297964830509E+01   -0.286109558298451361E+03
    0.309827628101692312E+03    0.597589680431591717E+02    0.352944850066014553E+02   -0.189731199785250548E+01   -0.281344224078188399E+01   -0.208427635507740305E+01   -0.286286855435974644E+03
    0.317845379922581799E+03    0.586648823547683804E+02    0.313471156080325777E+02   -0.191553934557147842E+01   -0.279811896811054517E+01   -0.206280673505304524E+01   -0.286445362536687583E+03
    0.311839022671876648E+03    0.586778210375047919E+02    0.284298898314871664E+02   -0.197550569526827635E+01   -0.275494009350136704E+01   -0.207065881853987488E+01   -0.286116527804466898E+03
    0.316761784025482029E+03    0.580709036681211614E+02    0.289753916945899377E+02   -0.193241441243554402E+01   -0.275898720735320957E+01   -0.207104827586253304E+01   -0.286514952693062924E+03
    0.310024420206508864E+03    0.558373633971579721E+02    0.375694222500255819E+02   -0.192545376186506667E+01   -0.283479961035716332E+01   -0.207564616479644792E+01   -0.286424943505658177E+03
    0.313632108186917719E+03    0.531526789575285790E+02    0.362947527678072248E+02   -0.197481057693292250E+01   -0.277533152258780946E+01   -0.205876749751969257E+01   -0.286311728777936821E+03
    0.308914616916871694E+03    0.549280491746146780E+02    0.373795441865501346E+02   -0.193923953330041310E+01   -0.277394795011997886E+01   -0.208778679878398776E+01   -0.286302982855412040E+03
    0.312816257339073502E+03    0.514937946336926871E+02    0.408525472800897518E+02   -0.196971979042167766E+01   -0.277061641908523892E+01   -0.205936202083353459E+01   -0.285873688917907259E+03
    0.312816257339073502E+03    0.514937946336926871E+02    0.408525472800897518E+02   -0.196971979042167766E+01   -0.277061641908523892E+01   -0.205936202083353459E+01   -0.285873688917907259E+03
    0.310681369820754412E+03    0.525393610734370213E+02    0.411195668792524245E+02   -0.191880364716004648E+01   -0.283425346860636207E+01   -0.208913571660040809E+01   -0.286500881413572586E+03
    0.301659878514765808E+03    0.538991904100008696E+02    0.404204188007722607E+02   -0.197389903650327003E+01   -0.281440249269986609E+01   -0.208945178876363302E+01   -0.286146983564614686E+03
    0.318954302411187427E+03    0.574443374413079653E+02    0.296272794522621545E+02   -0.199025557934477737E+01   -0.274594292244488436E+01   -0.205278100318489365E+01   -0.286476517032771255E+03
    0.307555783944148061E+03    0.530735475671636792E+02    0.431365717930177652E+02   -0.197772508685465076E+01   -0.281278368900853337E+01   -0.206962900989227228E+01   -0.286440703188184273E+03
    0.313991638107354788E+03    0.522984651733416115E+02    0.399480849419761910E+02   -0.196664074408644374E+01   -0.281038117193741765E+01   -0.206330650651194691E+01   -0.285926140150268964E+03
    0.313991638107354788E+03    0.522984651733416115E+02    0.399480849419761910E+02   -0.196664074408644374E+01   -0.281038117193741765E+01   -0.206330650651194691E+01   -0.285926140150268964E+03
    0.315656798754534464E+03    0.551396217374258626E+02    0.390804313810290012E+02   -0.191463665128517180E+01   -0.280707402307771403E+01   -0.207325657696573451E+01   -0.286505841266559457E+03
    0.314710416263692252E+03    0.579728446779195465E+02    0.372978317577062413E+02   -0.190943301945698973E+01   -0.283457020644392443E+01   -0.206898898527029873E+01   -0.286300655823879310E+03
    0.310965924481019158E+03    0.510902447435671121E+02    0.472325451077037073E+02   -0.189863150855907303E+01   -0.280617010868181804E+01   -0.206764308122012253E+01   -0.286602064833927784E+03
    0.304972947948186913E+03    0.570688092365506634E+02    0.378824657477502171E+02   -0.193025534714906111E+01   -0.282159876613184624E+01   -0.208749704241302636E+01   -0.285861383967244535E+03
    0.304972947948186913E+03    0.570688092365506634E+02    0.378824657477502171E+02   -0.193025534714906111E+01   -0.282159876613184624E+01   -0.208749704241302636E+01   -0.285861383967244535E+03
    0.313181988886829117E+03    0.523624250269167604E+02    0.387356007090549994E+02   -0.193166144066587475E+01   -0.279529516446525195E+01   -0.207536121932178386E+01   -0.286481292220220098E+03
    0.313349672992764170E+03    0.555699357394548201E+02    0.377370424785848826E+02   -0.198471111865528815E+01   -0.276264323792009936E+01   -0.204941041011273040E+01   -0.286324904872265222E+03
    0.309359743957540388E+03    0.509703188000165284E+02    0.389948323384888056E+02   -0.198661852461361366E+01   -0.278696860925620804E+01   -0.207706633009374997E+01   -0.286264714638671023E+03
    0.307292174295938878E+03    0.533037021348680398E+02    0.411687056125886812E+02   -0.199230513768403972E+01   -0.278572966625351315E+01   -0.206817203165205665E+01   -0.286324429168514939E+03
    0.313592824810945956E+03    0.581396151269074011E+02    0.346935412071822924E+02   -0.188185795011557810E+01   -0.281176474301530321E+01   -0.207977206429038430E+01   -0.286467944773108002E+03
    0.318540983847660243E+03    0.568436847300950490E+02    0.342316414552679120E+02   -0.193124966141864252E+01   -0.276364136251036863E+01   -0.205956295095767716E+01   -0.286254588808893004E+03
    0.310669339612298813E+03    0.524100504790444077E+02    0.406084320960222414E+02   -0.197193409402308051E+01   -0.277748627479384913E+01   -0.207110025621891491E+01   -0.286088175129017372E+03
    0.306902657680223797E+03    0.548737153821611088E+02    0.372143653467685311E+02   -0.193369535958088257E+01   -0.277184064339685365E+01   -0.208619951241360191E+01   -0.286078928631273186E+03
    0.304803175694297011E+03    0.553108050135787295E+02    0.371952667601862004E+02   -0.197918666238229268E+01   -0.284725382020003170E+01   -0.209662224050151114E+01   -0.286227109147667534E+03
    0.319518478810221438E+03    0.577599196663641052E+02    0.332839292773784621E+02   -0.190326122003740839E+01   -0.279558793197898003E+01   -0.205912475468465184E+01   -0.286522164418800003E+03
    0.308402011915353910E+03    0.549332658254533044E+02    0.384638259682635848E+02   -0.195351217435420454E+01   -0.284051527169797602E+01   -0.208936430471667745E+01   -0.285950660734900453E+03
    0.308402011915353910E+03    0.549332658254533044E+02    0.384638259682635848E+02   -0.195351217435420454E+01   -0.284051527169797602E+01   -0.208936430471667745E+01   -0.285950660734900453E+03
    0.306866270061311013E+03    0.489329642872849320E+02    0.458951133715054809E+02   -0.198094040341387756E+01   -0.278275478593811076E+01   -0.207148045168632189E+01   -0.286576203519622254E+03
    0.310512860937349274E+03    0.496857906212101597E+02    0.414530363295504358E+02   -0.199181808660420834E+01   -0.275457875899864790E+01   -0.206617830552713810E+01   -0.286479861164526653E+03
    0.316176480456942897E+03    0.553147028918680590E+02    0.335179737675190736E+02   -0.195232065593868076E+01   -0.280268362489124678E+01   -0.206570982073770182E+01   -0.286426585219570541E+03
    0.312970665000397389E+03    0.597819640463885733E+02    0.302660259472663213E+02   -0.193497861724497766E+01   -0.276860090644014800E+01   -0.207333047713184726E+01   -0.286204120571403905E+03
    0.314006068758471201E+03    0.529069520978791346E+02    0.399444289464401692E+02   -0.199164947161653272E+01   -0.277021883122965118E+01   -0.205248845115232248E+01   -0.286164423989130455E+03
    0.314006068758471201E+03    0.529069520978791346E+02    0.399444289464401692E+02   -0.199164947161653272E+01   -0.277021883122965118E+01   -0.205248845115232248E+01   -0.286164423989130455E+03
    0.311137254876088207E+03    0.566511643311118362E+02    0.320802327473600002E+02   -0.199954873882156048E+01   -0.282823009873661535E+01   -0.207491662561390511E+01   -0.286294680556276262E+03
    0.313915319603385853E+03    0.575193656174577441E+02    0.338397199874090191E+02   -0.195843226778372248E+01   -0.279361731315691353E+01   -0.206454130144391890E+01   -0.285588046587125177E+03
    0.313915319603385853E+03    0.575193656174577441E+02    0.338397199874090191E+02   -0.195843226778372248E+01   -0.279361731315691353E+01   -0.206454130144391890E+01   -0.285588046587125177E+03
    0.308455763857510362E+03    0.569320358624997596E+02    0.340659322793575186E+02   -0.195014151893182786E+01   -0.274382977117639637E+01   -0.207038266377647995E+01   -0.286530580026240500E+03
    0.307958547702169540E+03    0.520464542071537650E+02    0.421582742860348887E+02   -0.193486562151811636E+01   -0.280513178540085928E+01   -0.208930696387059900E+01   -0.286183409575690746E+03
    0.303119915356005606E+03    0.555700370875277940E+02    0.350527588093228886E+02   -0.198607010898958292E+01   -0.279982207355010804E+01   -0.209654315090152377E+01   -0.286000760415299339E+03
    0.303119915356005606E+03    0.555700370875277940E+02    0.350527588093228886E+02   -0.198607010898958292E+01   -0.279982207355010804E+01   -0.209654315090152377E+01   -0.286000760415299339E+03
    0.302473175493432336E+03    0.575163953490391435E+02    0.342990370974306842E+02   -0.196528665323398988E+01   -0.281483478822376654E+01   -0.209989310761603098E+01   -0.286059391546048687E+03
    0.302473175493432336E+03    0.575163953490391435E+02    0.342990370974306842E+02   -0.196528665323398988E+01   -0.281483478822376654E+01   -0.209989310761603098E+01   -0.286059391546048687E+03
    0.309633971643905738E+03    0.545806726644257694E+02    0.417479978686163662E+02   -0.189801652469942606E+01   -0.284181005373322071E+01   -0.209228632588584507E+01   -0.286408190153301518E+03
    0.310433978006404516E+03    0.552974657134237333E+02    0.349481137270983027E+02   -0.196087301976499950E+01   -0.281906206460520936E+01   -0.208385260691164653E+01   -0.285835466050189893E+03
    0.310433978006404516E+03    0.552974657134237333E+02    0.349481137270983027E+02   -0.196087301976499950E+01   -0.281906206460520936E+01   -0.208385260691164653E+01   -0.285835466050189893E+03
    0.313244424022075407E+03    0.589355602014880162E+02    0.332577468785219992E+02   -0.193539801505962883E+01   -0.280130358899831666E+01   -0.207906837259633859E+01   -0.286568960314279764E+03
    0.317951107152682084E+03    0.530138341369859560E+02    0.378372817788522298E+02   -0.194500542955872091E+01   -0.273686871465050174E+01   -0.205061488408514281E+01   -0.286611793462789592E+03
    0.312905482274131089E+03    0.558149490666217716E+02    0.402780176713906712E+02   -0.190758439094326837E+01   -0.278700009645088542E+01   -0.205517194020737781E+01   -0.286417943414866102E+03
    0.313380479757513285E+03    0.594606634190118513E+02    0.303084357340342514E+02   -0.192292474254900347E+01   -0.276801831284756217E+01   -0.206544458605464243E+01   -0.286491600637111787E+03
    0.310541227615769060E+03    0.573793163930033643E+02    0.388638218162886417E+02   -0.190815983738450479E+01   -0.278495329251187496E+01   -0.206585788421399252E+01   -0.286221060130785759E+03
    0.309474991463234687E+03    0.524325442572490914E+02    0.416947711112278796E+02   -0.191866940490171833E+01   -0.278604309774904735E+01   -0.208024629322582877E+01   -0.286069147912411722E+03
    0.306040962266058898E+03    0.552137880042197295E+02    0.348016482719936491E+02   -0.199758671499139617E+01   -0.282252486318685847E+01   -0.209173528924091379E+01   -0.286085113975002969E+03
    0.314493422954386915E+03    0.563904878286451279E+02    0.326413035216094869E+02   -0.192437826961516856E+01   -0.280756506734387212E+01   -0.208244770882677877E+01   -0.286582226479613666E+03
    0.305777777462792187E+03    0.558580206974632318E+02    0.352572985401291064E+02   -0.198711430977137860E+01   -0.278455305159289201E+01   -0.208597720121016028E+01   -0.285867929923519910E+03
    0.305777777462792187E+03    0.558580206974632318E+02    0.352572985401291064E+02   -0.198711430977137860E+01   -0.278455305159289201E+01   -0.208597720121016028E+01   -0.285867929923519910E+03
    0.306385106694978901E+03    0.491892613342368819E+02    0.430571912728769064E+02   -0.199766106767144858E+01   -0.278690446530516445E+01   -0.208028133064002008E+01   -0.286577148622516688E+03
    0.311498543740487776E+03    0.562982695263862851E+02    0.349210415032976229E+02   -0.198888215797970358E+01   -0.280648660339463563E+01   -0.206556482237078542E+01   -0.285633768659780287E+03
    0.311498543740487776E+03    0.562982695263862851E+02    0.349210415032976229E+02   -0.198888215797970358E+01   -0.280648660339463563E+01   -0.206556482237078542E+01   -0.285633768659780287E+03
