    0.242924648650310417E+03    0.195635035872128888E+02    0.291055377464839076E+02   -0.646714975272048687E+00   -0.168728582662861948E+01   -0.279099104570272871E+01   -0.314536045532458729E+03
    0.242319728645463044E+03    0.236059762991564597E+02    0.120588762423839846E+02   -0.565920545492992755E+00   -0.201344926739566032E+01   -0.262167016579805878E+01   -0.314518988079243456E+03
    0.223355616954352399E+03    0.189042508394338142E+02    0.322141023895923269E+02   -0.609914192512482467E+00   -0.198003654527363504E+01   -0.260984209454495186E+01   -0.314118307554469936E+03
    0.240290178806683343E+03    0.221309630542270241E+02    0.201957564976277553E+02   -0.590170361768582064E+00   -0.195561123118801716E+01   -0.280102091300753298E+01   -0.313883553206614010E+03
    0.230720266984761594E+03    0.219388749768680960E+02    0.112098749433515597E+02   -0.618448559366262973E+00   -0.209217195333291928E+01   -0.258365336598855455E+01   -0.313568343687958532E+03
    0.248188586507098705E+03    0.281349184916140231E+02    0.922159497462787314E+01   -0.566765304890223698E+00   -0.180203946997421438E+01   -0.268285955321588654E+01   -0.313127807400566098E+03
    0.222359050847421429E+03    0.199090929910584542E+02    0.370184597416210579E+02   -0.616855026223839475E+00   -0.191234069076286595E+01   -0.273673456562573669E+01   -0.313091435017149479E+03
    0.263576480308289206E+03    0.252421824535190247E+02    0.707314239067921791E+00   -0.633410725081267056E+00   -0.173377175716341059E+01   -0.264684689093145842E+01   -0.313027042010184402E+03
    0.236418689616841846E+03    0.262849489105683674E+02    0.734708999692950737E+01   -0.653729051633760161E+00   -0.191588043884652448E+01   -0.260838392963268229E+01   -0.312957262057503669E+03
    0.224982503384474683E+03    0.223895047905259368E+02    0.336474567464088921E+02   -0.608259328798431476E+00   -0.191665760030975374E+01   -0.266253815946259742E+01   -0.312419747991775353E+03
    0.242635811596510251E+03    0.203006956985861038E+02    0.142624368262162537E+02   -0.691300295600275838E+00   -0.184743705375741918E+01   -0.274432173820395064E+01   -0.312338003523584007E+03
    0.261512680896512450E+03    0.295660391263548590E+02    0.646225366467937601E+00   -0.556309914770011904E+00   -0.180991366538611365E+01   -0.266888324391952558E+01   -0.312305579524915629E+03
    0.251206756291638698E+03    0.179615400088517028E+02    0.341533369488369161E+02   -0.638454881470336577E+00   -0.164548302814577285E+01   -0.279795390721467996E+01   -0.312297112686713831E+03
    0.247023114886508750E+03    0.155307674084194272E+02    0.179268914523549299E+02   -0.691296127204026556E+00   -0.182322199139281871E+01   -0.275936364196041151E+01   -0.312229454002693444E+03
    0.242611595386073333E+03    0.182102405741546676E+02    0.365241112738908811E+02   -0.630701973307782104E+00   -0.175059967288062923E+01   -0.270591405704822385E+01   -0.312189056059061727E+03
    0.255455444902227441E+03    0.179170879325775196E+02    0.345228827635990543E+01   -0.697181997265357234E+00   -0.184197262176673737E+01   -0.262911882495687088E+01   -0.312185957411229538E+03
    0.240094183399710886E+03    0.181834699767540506E+02    0.186804861169114531E+02   -0.625666088522177644E+00   -0.186163549009908968E+01   -0.261945670635359740E+01   -0.311956992813632382E+03
    0.238222795938249504E+03    0.197840547026961069E+02    0.188412565577033853E+02   -0.618791068487707152E+00   -0.184643098087682933E+01   -0.266950261102210895E+01   -0.311920975282710401E+03
    0.258565149858285167E+03    0.232163593509633728E+02    0.895152456560096788E+01   -0.610585213253961534E+00   -0.179914920723302929E+01   -0.276386805912526912E+01   -0.311830458680423305E+03
    0.232089362542724956E+03    0.214145335721735464E+02    0.273038166968690490E+02   -0.628553293536099567E+00   -0.195593743775049522E+01   -0.276519499374508282E+01   -0.311820608281874058E+03
    0.233339810245238539E+03    0.175437635083897874E+02    0.385164731692362210E+02   -0.576575973378938400E+00   -0.192136142821875722E+01   -0.272742442782112615E+01   -0.311813861089409386E+03
    0.232044676232444431E+03    0.266212721705075381E+02    0.244898780482069043E+02   -0.609989224747207404E+00   -0.186189724882999919E+01   -0.276911252760598359E+01   -0.311786618893725631E+03
    0.230021138978071804E+03    0.172062962993176569E+02    0.411081720403658082E+02   -0.629498118784556526E+00   -0.188236814007776232E+01   -0.268377360755127370E+01   -0.311777385223561566E+03
    0.252389567026254213E+03    0.222615686523470089E+02    0.200638425647615115E+02   -0.638569457786047678E+00   -0.166858516339691842E+01   -0.275806770215597608E+01   -0.311731753674830770E+03
    0.261287201104314590E+03    0.171726544616797838E+02    0.219411542869340117E+02   -0.645730409949915041E+00   -0.163841963879130237E+01   -0.273614578156897004E+01   -0.311731253218026609E+03
    0.241797424473943380E+03    0.161939770964568162E+02    0.220920108054985000E+02   -0.667564939997070672E+00   -0.188520542318809214E+01   -0.261977966242751892E+01   -0.311668278109422204E+03
    0.256827019129695884E+03    0.222867828970247075E+02    0.591483674405004223E+01   -0.655711736524248634E+00   -0.182108790525535524E+01   -0.273768116223192326E+01   -0.311567782717872831E+03
    0.251636097151876783E+03    0.281472879936128493E+02    0.464313929867567765E+01   -0.590291430553721685E+00   -0.187471601380733555E+01   -0.275553823835853162E+01   -0.311545543635443209E+03
    0.227863464799973826E+03    0.260399102196237351E+02    0.164396893583754249E+02   -0.641369514945228092E+00   -0.201822831541223779E+01   -0.269692866059166114E+01   -0.311508285360246077E+03
    0.243041187571380732E+03    0.224162800777306899E+02    0.216520154300067746E+01   -0.667228368086307588E+00   -0.194304694090104424E+01   -0.264319794497494120E+01   -0.311465502738200030E+03
    0.245161802141110911E+03    0.159122071237530136E+02    0.321404350706477544E+02   -0.630522856631307249E+00   -0.183419329429914724E+01   -0.277577075771147097E+01   -0.311444701471267933E+03
    0.264037422139281375E+03    0.177449395063304536E+02    0.883471623361170089E+01   -0.648828611218271734E+00   -0.172397146412958358E+01   -0.266995299654673612E+01   -0.311343715524872891E+03
    0.233739011527730923E+03    0.220454535655082431E+02    0.248592744195677504E+02   -0.564023943896160285E+00   -0.189333456897485286E+01   -0.269183483903710075E+01   -0.311304713999989985E+03
    0.252703119476131889E+03    0.157601761283830690E+02    0.177123434987073232E+02   -0.612215135892462348E+00   -0.185044121057256294E+01   -0.263083599604503826E+01   -0.311244522458316851E+03
    0.235742270460704418E+03    0.205074001703557585E+02    0.332014642416353141E+02   -0.585776117055962553E+00   -0.178917809317010601E+01   -0.274830846509641313E+01   -0.311236841460874473E+03
    0.229912668403590430E+03    0.275512964327032535E+02    0.208158778964674269E+02   -0.607054249822090330E+00   -0.195438796715120633E+01   -0.274354691851118115E+01   -0.311119853247769413E+03
    0.243102296151108476E+03    0.230782695320531985E+02    0.563949626804076232E+01   -0.679232166072007759E+00   -0.190854170500309772E+01   -0.269200488384816472E+01   -0.311115640565088597E+03
    0.244426304724635656E+03    0.180192442122873722E+02    0.396049148980982757E+01   -0.651256386532307996E+00   -0.200284805044435998E+01   -0.262952936819927974E+01   -0.311113881075591507E+03
    0.256958186023482369E+03    0.184753397161752417E+02    0.648200015788078954E+01   -0.639602066794095370E+00   -0.178690428611573560E+01   -0.266378875281042760E+01   -0.311061345397848982E+03
    0.252091374266084870E+03    0.203759677416319001E+02    0.978602022179619269E+01   -0.617802455230298975E+00   -0.180289547938493988E+01   -0.263400861684054011E+01   -0.311028840872828482E+03
    0.240871636268267906E+03    0.228939478626315420E+02    0.227643697221216748E+02   -0.661017129435613748E+00   -0.177287641620896208E+01   -0.271306460189662246E+01   -0.310894261807788553E+03
    0.249550630637870569E+03    0.186622077952543179E+02    0.169547851974411365E+02   -0.628265743206205318E+00   -0.184217773165329257E+01   -0.279373656717060426E+01   -0.310883742836362842E+03
    0.250423446098487773E+03    0.239154729167168227E+02    0.119883216697225503E+02   -0.586959057097898862E+00   -0.189339376252309433E+01   -0.272974814248714903E+01   -0.310848881232110386E+03
    0.231611761644186146E+03    0.200600862018998818E+02    0.343199030149939901E+02   -0.575836003261849028E+00   -0.192260749147115484E+01   -0.270095001424575809E+01   -0.310841803835039514E+03
    0.244841501809965052E+03    0.177780865724437867E+02    0.623221377574708502E+01   -0.641680148895888536E+00   -0.195189739961621322E+01   -0.260032273252782486E+01   -0.310824140977946399E+03
    0.245533537226192692E+03    0.254427875313272871E+02    0.619491145717985514E+01   -0.600105231245243065E+00   -0.190476963175315195E+01   -0.259031886656208910E+01   -0.310802184275531658E+03
    0.243874762852689543E+03    0.169193665033615019E+02    0.204419685776414859E+02   -0.688802813273850845E+00   -0.178212171925964480E+01   -0.271238981494185438E+01   -0.310793543156671490E+03
    0.241934027829778728E+03    0.256367921330773463E+02    0.839584361342838115E+01   -0.655830546190642627E+00   -0.192502582076330797E+01   -0.273001533051001033E+01   -0.310781018304388681E+03
    0.246258028281108835E+03    0.210085002555371396E+02    0.203957419732058725E+02   -0.611725565378985481E+00   -0.187442546853636993E+01   -0.276199872111000477E+01   -0.310762833987966985E+03
    0.230198138863596313E+03    0.204900213339524591E+02    0.170325843663822631E+02   -0.624425117072631153E+00   -0.204092555444735568E+01   -0.262201513846880108E+01   -0.310689831656262299E+03
    0.234221963254243434E+03    0.162660660321162069E+02    0.218481910895375400E+02   -0.643388860107025895E+00   -0.197873515878239870E+01   -0.273183731085423664E+01   -0.310627127877017529E+03
    0.241161641622522524E+03    0.199319740249101898E+02    0.281404762366177152E+02   -0.588284912847397923E+00   -0.180910733259951217E+01   -0.278981227137206123E+01   -0.310570132092816266E+03
    0.230106749181503773E+03    0.199841953788972617E+02    0.236187066064929923E+02   -0.587995325206622566E+00   -0.203670948491727888E+01   -0.268114971741081343E+01   -0.310525997305262820E+03
    0.231978553321672393E+03    0.171594809732983258E+02    0.328153006341085245E+02   -0.666289913027563019E+00   -0.185305609751704936E+01   -0.276152278915845839E+01   -0.310501555455805260E+03
    0.246384871768668091E+03    0.184673032225760601E+02    0.192590469340424484E+02   -0.606633841584685918E+00   -0.183351201007865883E+01   -0.262750859893640021E+01   -0.310476999241648912E+03
    0.251682400076166942E+03    0.187522110785732465E+02    0.265003762476054838E+02   -0.583172045931996230E+00   -0.175842780629409390E+01   -0.274024067189009202E+01   -0.310466610911422435E+03
    0.233215430159844431E+03    0.187024963189581186E+02    0.216584759450658666E+02   -0.661166494824668716E+00   -0.193082391501819717E+01   -0.262051298360615847E+01   -0.310454271216807854E+03
    0.243932469293432291E+03    0.179271799427792615E+02    0.774010655491427979E+01   -0.667224188422819386E+00   -0.191688068279954216E+01   -0.263884841009462656E+01   -0.310453772729340017E+03
    0.249449754799312416E+03    0.154815990784969522E+02    0.355032632384583451E+02   -0.615016790472285413E+00   -0.174071397954741158E+01   -0.273939811507045583E+01   -0.310421453334198418E+03
    0.234165057078182798E+03    0.295698707586265783E+02    0.113406450891395743E+02   -0.603962231884471512E+00   -0.195999524079677045E+01   -0.272833014278384356E+01   -0.310406415769176760E+03
    0.253909218385102378E+03    0.150106034741181702E+02    0.200220967300293999E+02   -0.662166541630015537E+00   -0.171498432428528558E+01   -0.273585200084851143E+01   -0.310402025998352542E+03
    0.251763169620585302E+03    0.156235804812203547E+02    0.184756793173030438E+02   -0.627056912065582450E+00   -0.177028111412449296E+01   -0.266300094066958737E+01   -0.310364241580554165E+03
    0.229994394097475862E+03    0.208217031916296946E+02    0.279677226801672880E+02   -0.570088456857504200E+00   -0.198212008151816566E+01   -0.271657862326014810E+01   -0.310333313206890011E+03
    0.237042039659572453E+03    0.269277893615201016E+02    0.104000930278240045E+02   -0.560391777539033686E+00   -0.199457062985318734E+01   -0.263626385409763042E+01   -0.310316510069052697E+03
    0.251086486388138468E+03    0.174606612913268755E+02    0.932762865672671460E+01   -0.678636327449008592E+00   -0.188484775820791750E+01   -0.267357003628337830E+01   -0.310313275452177095E+03
    0.227890260853579832E+03    0.229001517628611531E+02    0.226837618740815365E+02   -0.647226246130254035E+00   -0.192994730524645308E+01   -0.266779239777006172E+01   -0.310275427788442812E+03
    0.249529166624798648E+03    0.228737696796232512E+02    0.116366999374841349E+02   -0.574491260191021480E+00   -0.191254310311060260E+01   -0.272384564781628669E+01   -0.310262119570883897E+03
    0.258189481705673927E+03    0.223700583040362133E+02    0.248823597354026349E+01   -0.643044998726062245E+00   -0.186269322932410630E+01   -0.267610434906883654E+01   -0.310225595628949463E+03
    0.230031629057540755E+03    0.168946391497487127E+02    0.228695252306532701E+02   -0.655872941175250634E+00   -0.200408824120030760E+01   -0.264733815033101028E+01   -0.310209763641840595E+03
    0.251077951283209075E+03    0.289752833600046742E+02    0.795262039477391180E+01   -0.567048410292722682E+00   -0.183883867789199784E+01   -0.269700295035238202E+01   -0.310169687820376168E+03
    0.230822241913045929E+03    0.213154648349179539E+02    0.198084287007924615E+02   -0.657787793921867037E+00   -0.198854967785502601E+01   -0.270176443679379252E+01   -0.310138684372613909E+03
    0.243676800815383700E+03    0.267942236054113714E+02    0.917453866195948819E+01   -0.659187340884431316E+00   -0.183308049295293629E+01   -0.270174194121568600E+01   -0.310112791180119075E+03
    0.230118419632719139E+03    0.173525099692643501E+02    0.250742719547531436E+02   -0.624773454788319249E+00   -0.202349176365568795E+01   -0.268220963037287374E+01   -0.310079802161121506E+03
    0.239127575225769704E+03    0.259220357947967130E+02    0.174285041172088633E+02   -0.630277953490276044E+00   -0.183774846392578595E+01   -0.276101193470822626E+01   -0.310077907185025083E+03
    0.238386615316015394E+03    0.234550004370527247E+02    0.111418087620383144E+02   -0.624707340486679419E+00   -0.199847551013576186E+01   -0.261616525991603011E+01   -0.310027942434269789E+03
    0.249277935896003157E+03    0.154379416967681600E+02    0.326998017762401005E+02   -0.647991500085989047E+00   -0.166466735232471308E+01   -0.274553363916809312E+01   -0.309999569357740143E+03
    0.235916256431996601E+03    0.154494818612255855E+02    0.326982014175119104E+02   -0.610544238177650467E+00   -0.189800185732863191E+01   -0.277482161687908979E+01   -0.309981449020877278E+03
    0.242236892313633859E+03    0.168373566525447025E+02    0.134372862811121276E+02   -0.650390773883635420E+00   -0.189942562141879034E+01   -0.269465835197130010E+01   -0.309979264337430948E+03
    0.252445431595199011E+03    0.169551414074038256E+02    0.105583442952677622E+02   -0.613791716001879983E+00   -0.185006834336346060E+01   -0.263946183568817094E+01   -0.309948219097715707E+03
    0.229130803183165852E+03    0.265540343214888708E+02    0.140238466769703383E+02   -0.605208989313835044E+00   -0.199763791634925014E+01   -0.266953316121665019E+01   -0.309913229187993181E+03
    0.246135368484911197E+03    0.226399471155126122E+02    0.201033703270239492E+02   -0.577927290431153429E+00   -0.184659156164983584E+01   -0.269966252168798349E+01   -0.309851155651804788E+03
    0.247263999398156642E+03    0.257918567469052356E+02    0.133485389240828933E+02   -0.608917786685572393E+00   -0.179148243176849098E+01   -0.275889550919331938E+01   -0.309830197075254830E+03
    0.249844237742233076E+03    0.172494087268323320E+02    0.305914325900122357E+02   -0.602720724665273488E+00   -0.175220819215285206E+01   -0.273141825952883366E+01   -0.309793497519495361E+03
    0.249506250055187166E+03    0.274384676983942200E+02    0.909246894729087529E+01   -0.602890346614111783E+00   -0.180193673223616257E+01   -0.274144689259653118E+01   -0.309790424739197420E+03
    0.243631976625308170E+03    0.170856145457125983E+02    0.167714494718983147E+02   -0.598069461220856358E+00   -0.191997067917192310E+01   -0.262843533597678736E+01   -0.309733261879192924E+03
    0.226386017635490873E+03    0.186060872848971144E+02    0.363059194037498472E+02   -0.637831705980060226E+00   -0.191858181213794898E+01   -0.271222618827630146E+01   -0.309727428749960154E+03
    0.254014498377362571E+03    0.195177436337796024E+02    0.368101887638244873E+01   -0.620518261657923231E+00   -0.193700315463182760E+01   -0.266974924789772539E+01   -0.309715596162996121E+03
    0.245159049226726069E+03    0.208361443636903303E+02    0.265970961701547068E+02   -0.626341660013415735E+00   -0.172105475682879661E+01   -0.271826007327198305E+01   -0.309698578686174073E+03
    0.233738016492146471E+03    0.233931767728413291E+02    0.211799253738430941E+02   -0.629493491094079705E+00   -0.195283676644332882E+01   -0.271512963194877877E+01   -0.309679014056188748E+03
    0.250806627116975420E+03    0.227073979165622717E+02    0.914372790632289600E+01   -0.658041070882956936E+00   -0.184686337939125256E+01   -0.271724530331051151E+01   -0.309646834331760374E+03
    0.242545413258698773E+03    0.286233532311436996E+02    0.483020414138984133E+01   -0.566597402748211465E+00   -0.195434676499863791E+01   -0.265562722812719354E+01   -0.309604859979774631E+03
    0.245524420104258212E+03    0.170417985936240228E+02    0.242108789564544971E+02   -0.585733703912390880E+00   -0.184704467935691707E+01   -0.266598163534930821E+01   -0.309575594502954630E+03
    0.239783555292620576E+03    0.219041809291906411E+02    0.260486110240029056E+02   -0.626375020056960219E+00   -0.184231174656902286E+01   -0.272703533445933388E+01   -0.309571139323874149E+03
    0.252035611610669008E+03    0.151726503879879147E+02    0.173718445223308038E+02   -0.684423528839125606E+00   -0.178884130874943859E+01   -0.270592076577137908E+01   -0.309560166029495178E+03
    0.252035611610669008E+03    0.151726503879879147E+02    0.173718445223308038E+02   -0.684423528839125606E+00   -0.178884130874943859E+01   -0.270592076577137908E+01   -0.309560166029495178E+03
    0.230719537773768138E+03    0.226830091645141358E+02    0.220391063014323301E+02   -0.579137797979465629E+00   -0.200810825361964440E+01   -0.268213336640920108E+01   -0.309559159117010722E+03
    0.242797989090869578E+03    0.246932899752995496E+02    0.799580306804423113E+01   -0.662807936470209524E+00   -0.186286162242504316E+01   -0.268300406063550145E+01   -0.309555631649195902E+03
    0.254711475172245457E+03    0.205464279395417755E+02    0.657690087730418327E+01   -0.603429126814160721E+00   -0.190973795833156523E+01   -0.266846794878124971E+01   -0.309544748515308527E+03
    0.234107265953701244E+03    0.172483973083716506E+02    0.409774901420783024E+02   -0.640962590047692515E+00   -0.180328661979901828E+01   -0.274234640829470688E+01   -0.309506119865720052E+03
    0.237266101747546969E+03    0.259351674477402554E+02    0.129108026796202022E+02   -0.632157031797471625E+00   -0.187321291628715780E+01   -0.267756171742426741E+01   -0.309421656013789061E+03
    0.240112582308702713E+03    0.229566801254159785E+02    0.118012397718771300E+02   -0.627412288674213947E+00   -0.191551190296248119E+01   -0.273817204875984910E+01   -0.309418150466765610E+03
    0.240112582308702713E+03    0.229566801254159785E+02    0.118012397718771300E+02   -0.627412288674213947E+00   -0.191551190296248119E+01   -0.273817204875984910E+01   -0.309418150466765610E+03
    0.233831207507123622E+03    0.214241257658227617E+02    0.229852238936461895E+02   -0.618810075592248987E+00   -0.194495850491250688E+01   -0.265249105085625514E+01   -0.309341322441739067E+03
    0.237194053973745270E+03    0.198923070189798779E+02    0.146740152142696338E+02   -0.678108033592350612E+00   -0.192888780099507517E+01   -0.266828834152505046E+01   -0.309276632518360771E+03
    0.237194053973745270E+03    0.198923070189798779E+02    0.146740152142696338E+02   -0.678108033592350612E+00   -0.192888780099507517E+01   -0.266828834152505046E+01   -0.309276632518360771E+03
    0.250073202037067944E+03    0.157967040317512435E+02    0.174167701049094532E+02   -0.646385379100139046E+00   -0.184435061518010457E+01   -0.275740195275559152E+01   -0.309272269150977991E+03
    0.242768523908445985E+03    0.204459808959093365E+02    0.265578739968632114E+02   -0.609064668145101962E+00   -0.179909863143723747E+01   -0.268158747213134507E+01   -0.309268694280242187E+03
    0.240033213257527706E+03    0.238277775289829137E+02    0.685621950170921934E+01   -0.666325884611736363E+00   -0.194267918440250664E+01   -0.266384717447881014E+01   -0.309247809749359647E+03
    0.249625044688572984E+03    0.171840765462502851E+02    0.804943435415708031E+01   -0.625476192438203071E+00   -0.194292909703908623E+01   -0.262287444250228718E+01   -0.309224525002196401E+03
    0.240155695656853197E+03    0.176816659142626946E+02    0.213607786423350952E+02   -0.607749045935737309E+00   -0.191850233992712571E+01   -0.275511627506904544E+01   -0.309203455150235470E+03
    0.257837981214798390E+03    0.223285188480329566E+02    0.408662331372907417E+01   -0.599616662275438195E+00   -0.184803775311147067E+01   -0.263990997153289797E+01   -0.309188139342655404E+03
    0.257837981214798390E+03    0.223285188480329566E+02    0.408662331372907417E+01   -0.599616662275438195E+00   -0.184803775311147067E+01   -0.263990997153289797E+01   -0.309188139342655404E+03
    0.251926082180590697E+03    0.262236662075431575E+02    0.223842642282356818E+01   -0.599475835473544771E+00   -0.193882715725877564E+01   -0.265872071875396632E+01   -0.309147755846810469E+03
    0.240525708779239324E+03    0.164517756706437268E+02    0.228405800721363939E+02   -0.635676020089070981E+00   -0.192821669201865253E+01   -0.275289870635830569E+01   -0.309129958668906852E+03
    0.240525708779239324E+03    0.164517756706437268E+02    0.228405800721363939E+02   -0.635676020089070981E+00   -0.192821669201865253E+01   -0.275289870635830569E+01   -0.309129958668906852E+03
    0.235815362902311847E+03    0.173017617777982124E+02    0.301061421376512506E+02   -0.647249848454416021E+00   -0.181447123511867003E+01   -0.267723069310919071E+01   -0.309121152846427208E+03
    0.249662498981438546E+03    0.157279806386757439E+02    0.154509955191730164E+02   -0.633355330103914538E+00   -0.181758787073983696E+01   -0.268179455219379825E+01   -0.309115252373522821E+03
    0.249662498981438546E+03    0.157279806386757439E+02    0.154509955191730164E+02   -0.633355330103914538E+00   -0.181758787073983696E+01   -0.268179455219379825E+01   -0.309115252373522821E+03
    0.234738883704294807E+03    0.216072022955662177E+02    0.196729098521034977E+02   -0.592324748928730216E+00   -0.192544473464502319E+01   -0.271190268406519364E+01   -0.309105537346624089E+03
    0.234738883704294807E+03    0.216072022955662177E+02    0.196729098521034977E+02   -0.592324748928730216E+00   -0.192544473464502319E+01   -0.271190268406519364E+01   -0.309105537346624089E+03
    0.246957848076564915E+03    0.195088890674527171E+02    0.163325215525094016E+02   -0.595046510703664877E+00   -0.187163414243480264E+01   -0.264019009112015635E+01   -0.309096026692986754E+03
    0.252742263359061411E+03    0.160769590376878853E+02    0.105499508947915182E+02   -0.629906675518479453E+00   -0.190546725911795845E+01   -0.266501593065777387E+01   -0.309080611403802152E+03
    0.251087665802871271E+03    0.206891171861946432E+02    0.185187128960706389E+02   -0.601292978715147974E+00   -0.176199529410826861E+01   -0.268770949169510764E+01   -0.309077916982909301E+03
    0.244439767342602352E+03    0.208557285847571201E+02    0.112957855743899405E+02   -0.673197522648794511E+00   -0.185860704310484359E+01   -0.270369056686862930E+01   -0.309033672965563767E+03
    0.244439767342602352E+03    0.208557285847571201E+02    0.112957855743899405E+02   -0.673197522648794511E+00   -0.185860704310484359E+01   -0.270369056686862930E+01   -0.309033672965563767E+03
    0.253679980788297854E+03    0.158541153448431711E+02    0.121938861955308386E+02   -0.669819920615458919E+00   -0.182613358139732074E+01   -0.269935376355195888E+01   -0.309031130633616783E+03
    0.231140447846192131E+03    0.199961462946219939E+02    0.284764069402891877E+02   -0.606573163793127756E+00   -0.195946326110173863E+01   -0.268518661885319920E+01   -0.309030207951356488E+03
    0.231140447846192131E+03    0.199961462946219939E+02    0.284764069402891877E+02   -0.606573163793127756E+00   -0.195946326110173863E+01   -0.268518661885319920E+01   -0.309030207951356488E+03
    0.235350235533061891E+03    0.173850241981012985E+02    0.339558345759137623E+02   -0.607793085508574027E+00   -0.183840300392619871E+01   -0.267015536031462775E+01   -0.309027124687035496E+03
    0.243545151917187042E+03    0.150985407579142077E+02    0.193684087640301783E+02   -0.682884861691973599E+00   -0.187352866427630071E+01   -0.269065521634827087E+01   -0.309026430351961892E+03
    0.235603637284317642E+03    0.230641238805670596E+02    0.243813577221371638E+02   -0.578233992476531844E+00   -0.191862222205524446E+01   -0.273965407619785006E+01   -0.309017756712987307E+03
    0.235603637284317642E+03    0.230641238805670596E+02    0.243813577221371638E+02   -0.578233992476531844E+00   -0.191862222205524446E+01   -0.273965407619785006E+01   -0.309017756712987307E+03
    0.247322894306696128E+03    0.162163325649956285E+02    0.135143378409042985E+02   -0.632944557978815991E+00   -0.193740173999207443E+01   -0.264258335676269862E+01   -0.309009805689702773E+03
    0.244490625643945037E+03    0.172360877176184673E+02    0.250139040903221215E+02   -0.616764751434606628E+00   -0.188297019028462054E+01   -0.274054351402226448E+01   -0.308993260084311714E+03
    0.230668155828055461E+03    0.197468735698334470E+02    0.312490402094634803E+02   -0.622789757178474623E+00   -0.190134550178216721E+01   -0.267705596976580029E+01   -0.308990508371835858E+03
    0.248960494683839357E+03    0.256180294076059667E+02    0.232975465206967769E+01   -0.595940589203678872E+00   -0.195929768667873749E+01   -0.260758454001942397E+01   -0.308959483689294530E+03
    0.233097473610317962E+03    0.192414351014847718E+02    0.306506167298027314E+02   -0.630626663215988259E+00   -0.190740559076553717E+01   -0.275060869936995367E+01   -0.308945217733520963E+03
    0.245386870568798116E+03    0.256477965285642853E+02    0.673379817106824152E+01   -0.632900206669043452E+00   -0.189967019927603165E+01   -0.272973459709229038E+01   -0.308919536788446578E+03
    0.245386870568798116E+03    0.256477965285642853E+02    0.673379817106824152E+01   -0.632900206669043452E+00   -0.189967019927603165E+01   -0.272973459709229038E+01   -0.308919536788446578E+03
    0.235839873918753227E+03    0.164132882744556952E+02    0.355667321116388848E+02   -0.661570577046135089E+00   -0.180015894698936307E+01   -0.269788193549868049E+01   -0.308905320232448787E+03
    0.246635819863782586E+03    0.177684558808616195E+02    0.320071373250075482E+02   -0.604587336984253598E+00   -0.175941734068203526E+01   -0.275878129042447062E+01   -0.308874653518326625E+03
    0.236851979693124349E+03    0.218539697793515586E+02    0.164446923329840651E+02   -0.588714861888061547E+00   -0.194005369441983078E+01   -0.264629530897251053E+01   -0.308860468890967240E+03
    0.234895148641822487E+03    0.178333959347419437E+02    0.288309583494073678E+02   -0.583043444737848748E+00   -0.193901447255634962E+01   -0.271356490843249087E+01   -0.308834308726195047E+03
    0.231948839163315029E+03    0.190871807198182530E+02    0.262810184049118547E+02   -0.597036574326798242E+00   -0.196342387391948359E+01   -0.272326987016490740E+01   -0.308772138961381074E+03
    0.231948839163315029E+03    0.190871807198182530E+02    0.262810184049118547E+02   -0.597036574326798242E+00   -0.196342387391948359E+01   -0.272326987016490740E+01   -0.308772138961381074E+03
    0.244680570367644037E+03    0.221778470907315253E+02    0.567462511668612102E+01   -0.600429044112541499E+00   -0.200215048007919316E+01   -0.264057172287002828E+01   -0.308764504209070367E+03
    0.245229977658389686E+03    0.261429860567034211E+02    0.436165535730847331E+01   -0.577378558078198267E+00   -0.197264275298884506E+01   -0.263248625713566575E+01   -0.308758239539189105E+03
    0.240385990954191072E+03    0.200212563579290830E+02    0.229349730455415681E+02   -0.637706122654290608E+00   -0.179883033724395092E+01   -0.274023047775855311E+01   -0.308757840131400769E+03
    0.240385990954191072E+03    0.200212563579290830E+02    0.229349730455415681E+02   -0.637706122654290608E+00   -0.179883033724395092E+01   -0.274023047775855311E+01   -0.308757840131400769E+03
    0.235350079942749801E+03    0.277172488221026327E+02    0.151392130835861440E+02   -0.580289708996068576E+00   -0.192674905094064375E+01   -0.268812446918466907E+01   -0.308744673285873716E+03
    0.241593383984996734E+03    0.178330903800755287E+02    0.253290401368627549E+02   -0.580073441430541736E+00   -0.189672594468582201E+01   -0.270122995398719379E+01   -0.308725093546981611E+03
    0.242317839026730979E+03    0.285556559665909084E+02    0.567208222380455318E+00   -0.601735521351621561E+00   -0.199959457908915361E+01   -0.262082781844069546E+01   -0.308711854690950418E+03
    0.256656634479999695E+03    0.229438236059276015E+02    0.628794434700872795E+01   -0.618646171326274530E+00   -0.179371633966720556E+01   -0.266748820106468942E+01   -0.308672379695049983E+03
    0.234018606460694713E+03    0.181390135103875778E+02    0.257351034906282514E+02   -0.641910728255725482E+00   -0.193999030673195572E+01   -0.266563509155717826E+01   -0.308661075313630022E+03
    0.253478394455955936E+03    0.187078451976401183E+02    0.971205267917973281E+01   -0.646110337500530374E+00   -0.179974220616211888E+01   -0.268941161427710718E+01   -0.308660648268735542E+03
    0.253478394455955936E+03    0.187078451976401183E+02    0.971205267917973281E+01   -0.646110337500530374E+00   -0.179974220616211888E+01   -0.268941161427710718E+01   -0.308660648268735542E+03
    0.243202223765443563E+03    0.274029495993597791E+02    0.105091090777542746E+02   -0.572467934342505647E+00   -0.191087017450851859E+01   -0.271011912443028002E+01   -0.308638385160557220E+03
    0.241028813021312061E+03    0.169070952685431521E+02    0.319901894147660428E+02   -0.589383926175210737E+00   -0.185568233095271884E+01   -0.271828157550930039E+01   -0.308627854400029150E+03
    0.241028813021312061E+03    0.169070952685431521E+02    0.319901894147660428E+02   -0.589383926175210737E+00   -0.185568233095271884E+01   -0.271828157550930039E+01   -0.308627854400029150E+03
    0.243478936156759858E+03    0.207837351287030287E+02    0.139520453089288363E+02   -0.591054622309103994E+00   -0.194138397364973447E+01   -0.272494716333824716E+01   -0.308619327483616644E+03
    0.241725898578198326E+03    0.164771799364528526E+02    0.243738749237007575E+02   -0.621986313185427964E+00   -0.185685519777100927E+01   -0.264213328190402352E+01   -0.308611873841765146E+03
    0.247597936214449760E+03    0.184781947881619821E+02    0.604603693683842813E+01   -0.637968416955660311E+00   -0.195165093208684293E+01   -0.265491402846995550E+01   -0.308578444052250063E+03
    0.247597936214449760E+03    0.184781947881619821E+02    0.604603693683842813E+01   -0.637968416955660311E+00   -0.195165093208684293E+01   -0.265491402846995550E+01   -0.308578444052250063E+03
    0.233650811794340541E+03    0.252317479890277241E+02    0.152515625207231160E+02   -0.588484745809071619E+00   -0.196442115914304072E+01   -0.265340993924352198E+01   -0.308565054876278737E+03
    0.244567382771078428E+03    0.224071862011808065E+02    0.859713549541577748E+01   -0.661832340451562251E+00   -0.190221691282520911E+01   -0.263781252267379251E+01   -0.308562248640422126E+03
    0.249626530955429530E+03    0.245228505729289381E+02    0.148973574011476617E+01   -0.599824318694933467E+00   -0.193894151004758997E+01   -0.261187098452775146E+01   -0.308540969041481105E+03
    0.249626530955429530E+03    0.245228505729289381E+02    0.148973574011476617E+01   -0.599824318694933467E+00   -0.193894151004758997E+01   -0.261187098452775146E+01   -0.308540969041481105E+03
    0.247369778335424456E+03    0.181443064561406544E+02    0.105824037842765772E+02   -0.637581704656393411E+00   -0.194675939914269769E+01   -0.267127123427430524E+01   -0.308535409361611926E+03
    0.247369778335424456E+03    0.181443064561406544E+02    0.105824037842765772E+02   -0.637581704656393411E+00   -0.194675939914269769E+01   -0.267127123427430524E+01   -0.308535409361611926E+03
    0.234442922227824710E+03    0.216426661260021973E+02    0.231251271821998543E+02   -0.579538046842794197E+00   -0.195340924130390703E+01   -0.269406404964787694E+01   -0.308454510073172401E+03
    0.244387378607664914E+03    0.178995745123856373E+02    0.267521104342655143E+02   -0.637285923511417884E+00   -0.182675435461150415E+01   -0.272636358216896468E+01   -0.308417266901592143E+03
    0.234483330912505551E+03    0.209894328747962042E+02    0.194413751791199161E+02   -0.632172149054017085E+00   -0.197494332738588896E+01   -0.271233368249038698E+01   -0.308413548520843619E+03
    0.234483330912505551E+03    0.209894328747962042E+02    0.194413751791199161E+02   -0.632172149054017085E+00   -0.197494332738588896E+01   -0.271233368249038698E+01   -0.308413548520843619E+03
    0.249235657838894781E+03    0.161877433871628895E+02    0.240713075456047640E+02   -0.599246620911798145E+00   -0.183425418025369114E+01   -0.272900750731802777E+01   -0.308393653377618307E+03
    0.241933729374099357E+03    0.192377798932716964E+02    0.283765430098563201E+02   -0.610300165699828590E+00   -0.178452987404164798E+01   -0.269366681487369819E+01   -0.308391887350433080E+03
    0.237819667627248663E+03    0.167687000680168055E+02    0.278675228969451751E+02   -0.603693331590789750E+00   -0.191606549477796473E+01   -0.266856520629373950E+01   -0.308389960864021077E+03
    0.237819667627248663E+03    0.167687000680168055E+02    0.278675228969451751E+02   -0.603693331590789750E+00   -0.191606549477796473E+01   -0.266856520629373950E+01   -0.308389960864021077E+03
    0.238356662044303988E+03    0.155710363663670890E+02    0.321348213195815973E+02   -0.596698306459863881E+00   -0.189718041173815899E+01   -0.270003978395691169E+01   -0.308382366842530416E+03
    0.238356662044303988E+03    0.155710363663670890E+02    0.321348213195815973E+02   -0.596698306459863881E+00   -0.189718041173815899E+01   -0.270003978395691169E+01   -0.308382366842530416E+03
    0.240275753506357972E+03    0.185208735226930301E+02    0.250780373326305579E+02   -0.614388093987552786E+00   -0.189914466113392288E+01   -0.276062510442865250E+01   -0.308375082017685997E+03
    0.240275753506357972E+03    0.185208735226930301E+02    0.250780373326305579E+02   -0.614388093987552786E+00   -0.189914466113392288E+01   -0.276062510442865250E+01   -0.308375082017685997E+03
    0.247141850884255433E+03    0.150761515394049006E+02    0.247563557913088594E+02   -0.643028786854583423E+00   -0.184721290582652697E+01   -0.270545098863249578E+01   -0.308363350454479871E+03
    0.243455715623371191E+03    0.287733256839404774E+02    0.428915232515447009E+01   -0.585853255481341595E+00   -0.194278021410902713E+01   -0.267764350296571818E+01   -0.308360957916323457E+03
    0.243455715623371191E+03    0.287733256839404774E+02    0.428915232515447009E+01   -0.585853255481341595E+00   -0.194278021410902713E+01   -0.267764350296571818E+01   -0.308360957916323457E+03
    0.242846484366702413E+03    0.179080203274417968E+02    0.240559888962497261E+02   -0.643503101955236190E+00   -0.186932786528969830E+01   -0.273285819681048059E+01   -0.308358795750071351E+03
    0.244168951553892697E+03    0.210249927366456362E+02    0.200683364625302758E+02   -0.620603680229281585E+00   -0.183739240067748777E+01   -0.266381904148563997E+01   -0.308312450301120521E+03
    0.244168951553892697E+03    0.210249927366456362E+02    0.200683364625302758E+02   -0.620603680229281585E+00   -0.183739240067748777E+01   -0.266381904148563997E+01   -0.308312450301120521E+03
    0.238339444528557379E+03    0.203218733815830284E+02    0.291728636229056377E+02   -0.594982386157858034E+00   -0.185143674313426221E+01   -0.270990829850033732E+01   -0.308305554326026424E+03
    0.241501771597053050E+03    0.229632613824457366E+02    0.178775492894485915E+02   -0.597557587123210610E+00   -0.186042154778099444E+01   -0.266085379773335395E+01   -0.308279484135762175E+03
    0.232822798392576686E+03    0.246761952466164338E+02    0.174613496103521086E+02   -0.602465539232214242E+00   -0.196727243129029383E+01   -0.271464805495985750E+01   -0.308261449485264734E+03
    0.244473945005187375E+03    0.283291243678892144E+02    0.887698438890588726E+01   -0.582599940378256909E+00   -0.188119743258721606E+01   -0.269189912913016460E+01   -0.308254490890383863E+03
    0.249191930890365938E+03    0.189063155755442871E+02    0.160626585546118363E+02   -0.599455485123493004E+00   -0.188480367265827775E+01   -0.268911634612609429E+01   -0.308253813750036443E+03
    0.249191930890365938E+03    0.189063155755442871E+02    0.160626585546118363E+02   -0.599455485123493004E+00   -0.188480367265827775E+01   -0.268911634612609429E+01   -0.308253813750036443E+03
    0.247219383784808457E+03    0.162072934005000313E+02    0.169102794344807350E+02   -0.644430551620382763E+00   -0.182489256566854530E+01   -0.266549847397368200E+01   -0.308250144884494034E+03
    0.238387834839389143E+03    0.183103439080569004E+02    0.342761576547404090E+02   -0.624820970861583946E+00   -0.178278014432083287E+01   -0.271685713225045200E+01   -0.308249332507596023E+03
    0.238387834839389143E+03    0.183103439080569004E+02    0.342761576547404090E+02   -0.624820970861583946E+00   -0.178278014432083287E+01   -0.271685713225045200E+01   -0.308249332507596023E+03
    0.237061448737940680E+03    0.159823591461400234E+02    0.280005814783704388E+02   -0.641070703394537977E+00   -0.186140024562174666E+01   -0.265548845564437697E+01   -0.308226082631277336E+03
    0.237061448737940680E+03    0.159823591461400234E+02    0.280005814783704388E+02   -0.641070703394537977E+00   -0.186140024562174666E+01   -0.265548845564437697E+01   -0.308226082631277336E+03
    0.241485886028590670E+03    0.160509739020552971E+02    0.315779732517272471E+02   -0.655739063859772875E+00   -0.178342140605401300E+01   -0.269133776274928094E+01   -0.308224368940816419E+03
    0.246382168884902342E+03    0.181326334149894421E+02    0.271103398750742883E+02   -0.609226854305141341E+00   -0.175770697547804877E+01   -0.270524455954838006E+01   -0.308220533442035844E+03
    0.250922223462330720E+03    0.174186214038613976E+02    0.211274970969568514E+02   -0.621631871940588665E+00   -0.175026705684143979E+01   -0.272845613180050783E+01   -0.308217540804151440E+03
    0.250922223462330720E+03    0.174186214038613976E+02    0.211274970969568514E+02   -0.621631871940588665E+00   -0.175026705684143979E+01   -0.272845613180050783E+01   -0.308217540804151440E+03
    0.243125258203099179E+03    0.170871390865840524E+02    0.341389083786278036E+02   -0.613087973731693214E+00   -0.176646615847130795E+01   -0.276923082059981551E+01   -0.308185828403999665E+03
    0.237832540409221252E+03    0.243610609766672042E+02    0.215541727609014835E+02   -0.615933118599103713E+00   -0.184869053187121679E+01   -0.273517376618171726E+01   -0.308183585944342326E+03
    0.248493208792883848E+03    0.170065357131278354E+02    0.145424109128161447E+02   -0.602278415444298831E+00   -0.189582577448466028E+01   -0.269518788747218485E+01   -0.308177923898229949E+03
    0.245421134557782949E+03    0.206255855164473196E+02    0.997164241082882796E+01   -0.620165915819966163E+00   -0.194589083064839241E+01   -0.271389988434535390E+01   -0.308177335537394470E+03
    0.248864707620358416E+03    0.201742596084509920E+02    0.610776197824292044E+01   -0.623369445040901304E+00   -0.191787295407509539E+01   -0.268390268927216891E+01   -0.308141331586161073E+03
    0.236906631025194230E+03    0.268482110478007705E+02    0.159491293045755924E+02   -0.604914638131188287E+00   -0.191096573828522787E+01   -0.272042499530057302E+01   -0.308139555485975848E+03
    0.236906631025194230E+03    0.268482110478007705E+02    0.159491293045755924E+02   -0.604914638131188287E+00   -0.191096573828522787E+01   -0.272042499530057302E+01   -0.308139555485975848E+03
    0.238753809568484058E+03    0.244181138128770314E+02    0.108275280623406704E+02   -0.604146133600195867E+00   -0.197248882928810132E+01   -0.262543929862004477E+01   -0.308132550021005670E+03
    0.238841074166695449E+03    0.168429309400630771E+02    0.235799464477612091E+02   -0.614474281869972883E+00   -0.189605781459145728E+01   -0.264966677574365628E+01   -0.308116933704368591E+03
    0.243642801617547264E+03    0.210626488834275349E+02    0.622249630017874811E+01   -0.642158811451011280E+00   -0.194121350056106645E+01   -0.265350521261376482E+01   -0.308109388770071348E+03
    0.244301347104194377E+03    0.152317282431823546E+02    0.292051550723532038E+02   -0.644622232922119398E+00   -0.180849989041438586E+01   -0.267601119701100387E+01   -0.308108844004446155E+03
    0.236090992782156434E+03    0.192211760881975344E+02    0.282159975554047300E+02   -0.633618741680423980E+00   -0.182107593454155681E+01   -0.270778189489566801E+01   -0.308108302925358430E+03
    0.252087043006123167E+03    0.197237479038407102E+02    0.165588276007657562E+02   -0.642911081389579531E+00   -0.177325481296221765E+01   -0.269078884559716380E+01   -0.308105884615912260E+03
    0.240334189789715566E+03    0.261463149349265471E+02    0.128765241227910785E+02   -0.621233472939827225E+00   -0.189632427865200981E+01   -0.273167169347473271E+01   -0.308084910410036628E+03
    0.247775930232654247E+03    0.213139033720361581E+02    0.189572175472711812E+02   -0.604277606271100165E+00   -0.181397912442573661E+01   -0.268511754735910113E+01   -0.308084690092376263E+03
    0.240227294259070021E+03    0.249976796786164961E+02    0.582682677959172679E+01   -0.644677881400397057E+00   -0.195961089610374373E+01   -0.263915009396901956E+01   -0.308071801816836455E+03
    0.245982038083850455E+03    0.227875438306465092E+02    0.162406878007577866E+02   -0.601052603141793318E+00   -0.183855457594156779E+01   -0.266720710157029428E+01   -0.308069717487479579E+03
    0.244567620820938060E+03    0.261077452252873421E+02    0.438032317442594099E+01   -0.614815093241918964E+00   -0.196909385669468007E+01   -0.268449269930392598E+01   -0.308069426888750513E+03
    0.247625894911075221E+03    0.284014032153849278E+02    0.176523060594646675E+00   -0.612680019233133644E+00   -0.192146323948655295E+01   -0.265134345139689698E+01   -0.308063295409551586E+03
    0.244274394279575318E+03    0.288602191831504058E+02    0.687993608899962172E+01   -0.609548619504673761E+00   -0.187159778457040149E+01   -0.267389696868971205E+01   -0.308049971605655401E+03
    0.248050191884524395E+03    0.213806519604617975E+02    0.697642088213215850E+01   -0.609572605913766719E+00   -0.192206932540786246E+01   -0.269684472168062950E+01   -0.308049165355515868E+03
    0.248050191884524395E+03    0.213806519604617975E+02    0.697642088213215850E+01   -0.609572605913766719E+00   -0.192206932540786246E+01   -0.269684472168062950E+01   -0.308049165355515868E+03
    0.250784787552519987E+03    0.182356375472145338E+02    0.191526982134777093E+02   -0.601551759230935623E+00   -0.178784520570103589E+01   -0.271604651654180085E+01   -0.308033903180743437E+03
    0.241001950192144420E+03    0.177644460100012829E+02    0.294971160758691155E+02   -0.640325082058775807E+00   -0.176812898443872268E+01   -0.273660879105851240E+01   -0.308021385994239267E+03
    0.243062780944214268E+03    0.249141449988119064E+02    0.161144127719942887E+02   -0.601165116582220049E+00   -0.183564372301652035E+01   -0.273746100434018524E+01   -0.308013035480123449E+03
    0.241468161970513421E+03    0.183488016683282886E+02    0.256632213022605740E+02   -0.595094357017128317E+00   -0.182730822985216435E+01   -0.271441464606815730E+01   -0.308008497135998653E+03
    0.248995210299325691E+03    0.247379816255070395E+02    0.276898242240657888E+01   -0.616914060626609473E+00   -0.194327650924010364E+01   -0.267938689701167609E+01   -0.308005467241434985E+03
    0.236207306889723554E+03    0.156046378521258422E+02    0.335471106509616490E+02   -0.633407494037593333E+00   -0.186848695602100445E+01   -0.275757722728584920E+01   -0.307997631106047436E+03
    0.248661859743186938E+03    0.185194891676956743E+02    0.898664774201980343E+01   -0.640133638015084605E+00   -0.187427327028834423E+01   -0.266085243102094715E+01   -0.307934459028484071E+03
    0.238646457158892673E+03    0.213249491676269116E+02    0.168388022818736935E+02   -0.606554288697903177E+00   -0.189306093342303217E+01   -0.269341739685573911E+01   -0.307932005991227072E+03
    0.238646457158892673E+03    0.213249491676269116E+02    0.168388022818736935E+02   -0.606554288697903177E+00   -0.189306093342303217E+01   -0.269341739685573911E+01   -0.307932005991227072E+03
    0.236762893328605202E+03    0.183994215483439980E+02    0.208242209387247712E+02   -0.605928296757346274E+00   -0.197249979950581178E+01   -0.269799977999026641E+01   -0.307908914373465620E+03
    0.236762893328605202E+03    0.183994215483439980E+02    0.208242209387247712E+02   -0.605928296757346274E+00   -0.197249979950581178E+01   -0.269799977999026641E+01   -0.307908914373465620E+03
    0.236907487333206234E+03    0.176740711090801561E+02    0.283723635231918436E+02   -0.620130152938867862E+00   -0.191318596848973388E+01   -0.273986926230948979E+01   -0.307907537653303166E+03
    0.237159401290709638E+03    0.203132760045685856E+02    0.215094908561412979E+02   -0.588679977940668842E+00   -0.194622648876302051E+01   -0.268025643733094077E+01   -0.307906397496655359E+03
    0.250807918406723786E+03    0.254986661118964193E+02    0.834046572323878799E+01   -0.606523998592973124E+00   -0.183645103731918136E+01   -0.266406495567838775E+01   -0.307905719955554332E+03
    0.250637424736671278E+03    0.178980956043001633E+02    0.978922773801548374E+01   -0.625944764139098497E+00   -0.189972112635028911E+01   -0.269355873683614666E+01   -0.307898322143869621E+03
    0.232607611549735651E+03    0.156030129512660700E+02    0.339018425967401029E+02   -0.630740866812161682E+00   -0.188648601657747950E+01   -0.272082209371799477E+01   -0.307880679457100598E+03
    0.251010907578174681E+03    0.234639432936838901E+02    0.447601812344426975E+01   -0.594731791797047826E+00   -0.190710523647195473E+01   -0.264602169127883213E+01   -0.307877833571331905E+03
    0.242708161409664456E+03    0.220400077822865370E+02    0.131963659746294937E+02   -0.645503242475238714E+00   -0.190477587892442757E+01   -0.272311468046456184E+01   -0.307872623205933905E+03
    0.241279412417011514E+03    0.266730852331623645E+02    0.988507441620590477E+01   -0.585104523034619461E+00   -0.192775453880886727E+01   -0.265540747208617889E+01   -0.307814027181303402E+03
    0.242575082856593895E+03    0.197711373408013671E+02    0.201843869803136116E+02   -0.599120487768560306E+00   -0.187773934665589848E+01   -0.266043927893791698E+01   -0.307798307280194990E+03
    0.235243888677929675E+03    0.162118111000380765E+02    0.234289990404278647E+02   -0.643764355583909431E+00   -0.195000850234350676E+01   -0.269214454997679464E+01   -0.307788749637611545E+03
    0.237665799219606896E+03    0.158362278917200570E+02    0.388040966723074945E+02   -0.608706203049312888E+00   -0.180482010799428427E+01   -0.272667038375599269E+01   -0.307779786689143350E+03
    0.240440464856976348E+03    0.257477099140343100E+02    0.141133078439610333E+02   -0.588530652983923153E+00   -0.189807376945997630E+01   -0.267241970980097676E+01   -0.307756664646277954E+03
    0.234235522643317580E+03    0.160602497266123798E+02    0.346651251449733024E+02   -0.608934203703598742E+00   -0.190146668846991029E+01   -0.270991225146467585E+01   -0.307754886342329485E+03
    0.253164547152542212E+03    0.154437290251657284E+02    0.180635173452459519E+02   -0.639765995949296506E+00   -0.178533833442694290E+01   -0.270897215902926725E+01   -0.307742031190153000E+03
    0.238330671374842353E+03    0.161426088250546229E+02    0.306466568578964242E+02   -0.600909935402565765E+00   -0.187735896919778722E+01   -0.268579078010080963E+01   -0.307739035188320656E+03
    0.242822124335319927E+03    0.211763508983964037E+02    0.116144315919554408E+02   -0.614927097516910548E+00   -0.193047174085370976E+01   -0.271601037094290287E+01   -0.307733313157413193E+03
    0.239915876363737482E+03    0.172557207808166879E+02    0.267543989257093138E+02   -0.657099900179582530E+00   -0.183025290568816468E+01   -0.268385822794128703E+01   -0.307722995589727702E+03
    0.236502113956414803E+03    0.249419507691901963E+02    0.165732460469601826E+02   -0.625731008694864643E+00   -0.191192769177844402E+01   -0.268527632860781740E+01   -0.307709937466388510E+03
    0.234895162356334424E+03    0.244325758246704794E+02    0.187413015093986388E+02   -0.615307442619072775E+00   -0.190458984166357048E+01   -0.271564883704483462E+01   -0.307699553605701226E+03
    0.234017657387826063E+03    0.190983258704816770E+02    0.293619009263574817E+02   -0.617089573864628704E+00   -0.185868006740356884E+01   -0.271406385652804616E+01   -0.307687697067618728E+03
    0.247591127318153013E+03    0.256480372996255284E+02    0.100817594509273860E+02   -0.602134018153783535E+00   -0.185787198185754021E+01   -0.266515107818556940E+01   -0.307682179531176359E+03
    0.240898652087063084E+03    0.222158287301826540E+02    0.194978919475239287E+02   -0.593303150979938021E+00   -0.190341859625888388E+01   -0.273399211811484744E+01   -0.307680851115921996E+03
    0.251766239987354254E+03    0.197885259424899331E+02    0.807034224076419093E+01   -0.627198294130409506E+00   -0.187582807783028871E+01   -0.270021190107608167E+01   -0.307657632366390601E+03
    0.245373914933694863E+03    0.157038821686800247E+02    0.276910762282778684E+02   -0.605737796674923779E+00   -0.184047898317800507E+01   -0.274291829890839756E+01   -0.307656246123334768E+03
    0.233640403134922053E+03    0.198124827510000827E+02    0.229290614138681939E+02   -0.628997389004448682E+00   -0.194743156646160798E+01   -0.267410725910331859E+01   -0.307654469439620982E+03
    0.245667931220174523E+03    0.194932345203081105E+02    0.177002642954086191E+02   -0.594085044543974705E+00   -0.186433556895354191E+01   -0.272568945839873722E+01   -0.307649883542711734E+03
    0.242021595436562819E+03    0.187368929746737187E+02    0.159986788716427313E+02   -0.646436287743343385E+00   -0.190435368473387978E+01   -0.264072400163709098E+01   -0.307649803764684293E+03
    0.239389690147755971E+03    0.166688518082458152E+02    0.229366923119448423E+02   -0.631152746810991427E+00   -0.186384486758223544E+01   -0.268628291810153907E+01   -0.307640019491671922E+03
    0.239705321674393872E+03    0.228160798086295138E+02    0.224989119437101479E+02   -0.595702064100820383E+00   -0.184873690635535981E+01   -0.270985691040741994E+01   -0.307635592956206040E+03
    0.242050058817900549E+03    0.225145856328831471E+02    0.797423866221068778E+01   -0.649744459862115376E+00   -0.193497507399158453E+01   -0.264113189546861804E+01   -0.307629179757491045E+03
    0.242610563379878187E+03    0.182863354732500767E+02    0.172939171949792971E+02   -0.597980329436608393E+00   -0.191991991362557091E+01   -0.269697077928997908E+01   -0.307620204991816593E+03
    0.240702738145333882E+03    0.158567495838384254E+02    0.275919713775953035E+02   -0.637057022330881795E+00   -0.181695895746923419E+01   -0.268107578493321297E+01   -0.307599411743799067E+03
    0.253139742035826686E+03    0.188206081519469421E+02    0.853347271573905175E+01   -0.636231989009643506E+00   -0.185522665471594439E+01   -0.266077456273972768E+01   -0.307590402177171086E+03
    0.235719370534756138E+03    0.158490983351762793E+02    0.267895347510565571E+02   -0.633449400616570735E+00   -0.192776028099164609E+01   -0.271731821374119065E+01   -0.307588303515631651E+03
    0.238707159442781631E+03    0.223251271293536817E+02    0.222347977354951780E+02   -0.612024221527863510E+00   -0.184441240707754828E+01   -0.269146048256717485E+01   -0.307582226300290245E+03
    0.234457418130230309E+03    0.150182460603214487E+02    0.330428915547132007E+02   -0.615547708975333174E+00   -0.190231687337717381E+01   -0.270289033069394735E+01   -0.307579481285496058E+03
    0.235779131957020212E+03    0.220914121674515087E+02    0.145780714869651451E+02   -0.617763737199766405E+00   -0.196817669363891312E+01   -0.264554228806126090E+01   -0.307557341893088278E+03
    0.246442730408378935E+03    0.216679101924009032E+02    0.969628066912822106E+01   -0.645788917592852174E+00   -0.188886926300877422E+01   -0.271027021633291776E+01   -0.307531718554474992E+03
    0.241860343327300285E+03    0.248667789555179155E+02    0.725726976901087539E+01   -0.626499472879515240E+00   -0.191906827707980976E+01   -0.267934468079788157E+01   -0.307530375451634484E+03
    0.244604280241329889E+03    0.272744613381036061E+02    0.519746711613435952E+01   -0.620256443190812412E+00   -0.190838958324903918E+01   -0.263749617561183758E+01   -0.307519266586233414E+03
    0.245263877412012306E+03    0.254214282613543894E+02    0.926174337491243982E+01   -0.633947482743599577E+00   -0.187792483255218801E+01   -0.270973190753724946E+01   -0.307508454465655007E+03
    0.237964976270037141E+03    0.215273697902149124E+02    0.162014220734952659E+02   -0.621258376346040642E+00   -0.191162806216512715E+01   -0.271304532834944911E+01   -0.307502808504100926E+03
    0.244877381139297455E+03    0.243716134080660254E+02    0.738841058500943149E+01   -0.619606706930559525E+00   -0.193877698497416295E+01   -0.263463995206411727E+01   -0.307482344147058711E+03
    0.240355132421544113E+03    0.183205170702626852E+02    0.200526547442322247E+02   -0.597022336011369115E+00   -0.191983915118295423E+01   -0.270048665338427352E+01   -0.307477093810020108E+03
    0.247209889630634336E+03    0.200454663472723631E+02    0.130815418132932226E+02   -0.609046391796889575E+00   -0.188649731501375473E+01   -0.264652870063137646E+01   -0.307473239560233083E+03
    0.250953842234955914E+03    0.209726933903106385E+02    0.104116071704776019E+02   -0.646505442159340138E+00   -0.183835361994904223E+01   -0.270234499765050717E+01   -0.307457761631674202E+03
    0.250355208253167319E+03    0.189695782929674266E+02    0.144159788842352761E+02   -0.639879445528369617E+00   -0.180889780438547532E+01   -0.272663636023782496E+01   -0.307453706014405839E+03
    0.242511123250817064E+03    0.221954059447079679E+02    0.150126551213568078E+02   -0.643311406196947155E+00   -0.186281258403260552E+01   -0.272906760057791864E+01   -0.307450064260064721E+03
    0.238459693774270676E+03    0.197991986032869782E+02    0.178382453571019930E+02   -0.658269886075075084E+00   -0.188748299643843587E+01   -0.268888647888394283E+01   -0.307442337479963044E+03
    0.249310464014962662E+03    0.153643766782768427E+02    0.200887455542436157E+02   -0.640912711162221926E+00   -0.182790763737406392E+01   -0.271253156664710415E+01   -0.306999308953598586E+03
    0.245881331751061197E+03    0.191153980373787107E+02    0.189076572903379159E+02   -0.616215859520643727E+00   -0.181209824697170530E+01   -0.269466558998720673E+01   -0.307296744892924551E+03
    0.239292324641189595E+03    0.178668935528919803E+02    0.307126345031813379E+02   -0.617958446320821642E+00   -0.181615340455348928E+01   -0.272012424667876740E+01   -0.306948370991072636E+03
    0.238564651298686357E+03    0.231560006872494100E+02    0.944540154348933747E+01   -0.629211965868830214E+00   -0.198096161737058840E+01   -0.265465353722279662E+01   -0.307423673207772310E+03
    0.248677669691547550E+03    0.250159602969221346E+02    0.104312001907121985E+02   -0.608213521126507617E+00   -0.185557048833769089E+01   -0.268494443326849463E+01   -0.307397650723634683E+03
    0.247552590565954290E+03    0.207723873583108443E+02    0.105895570798680989E+02   -0.611572202134419651E+00   -0.190870596462152520E+01   -0.265378992624675902E+01   -0.307061965217480747E+03
    0.247552590565954290E+03    0.207723873583108443E+02    0.105895570798680989E+02   -0.611572202134419651E+00   -0.190870596462152520E+01   -0.265378992624675902E+01   -0.307061965217480747E+03
    0.242533940797286647E+03    0.265746923278932066E+02    0.722965552239982223E+01   -0.604675621532013263E+00   -0.193661623827213702E+01   -0.263980016778448512E+01   -0.307294365914494506E+03
    0.235110201804910929E+03    0.189611757903918559E+02    0.239977030170339276E+02   -0.611830635851905669E+00   -0.193513399269122455E+01   -0.267057713314760203E+01   -0.307357246819463796E+03
    0.238752608756392164E+03    0.176430681086268173E+02    0.309491307672294411E+02   -0.632941557141002198E+00   -0.183865380776719967E+01   -0.273355435129818991E+01   -0.307252016003850486E+03
    0.242992929045708280E+03    0.152332130336875036E+02    0.298001525670497998E+02   -0.625482974897455080E+00   -0.182630055442558037E+01   -0.273504973673109664E+01   -0.306640435080779923E+03
    0.242688553602050632E+03    0.208678472594832627E+02    0.174970175269755401E+02   -0.597052996713992590E+00   -0.191774730557619355E+01   -0.270557893992306031E+01   -0.307241944699232306E+03
    0.246688109660612611E+03    0.157759716363645399E+02    0.164631023857147198E+02   -0.642413670251614555E+00   -0.188276005507182664E+01   -0.267934321163607336E+01   -0.307034779003125720E+03
    0.242112873633665458E+03    0.235563274342491482E+02    0.103029694058468522E+02   -0.610373686057783305E+00   -0.195429839442418274E+01   -0.265375163668396130E+01   -0.307062853928415052E+03
    0.244599256351788000E+03    0.272582576493862341E+02    0.584668864007732836E+01   -0.626013880026407232E+00   -0.191971974540464130E+01   -0.267316697118159974E+01   -0.307427958025120915E+03
    0.240430412553026798E+03    0.173607079313700403E+02    0.278291497092366775E+02   -0.617606531189207164E+00   -0.184645843714369251E+01   -0.270584702464132310E+01   -0.306513364417347816E+03
    0.239112154030799871E+03    0.179960436914004056E+02    0.187201433477731278E+02   -0.620735603722674112E+00   -0.194803672169362740E+01   -0.267626285109107753E+01   -0.307032046473077457E+03
    0.240472212545174870E+03    0.165039491380928283E+02    0.274836147504963542E+02   -0.640870519940243133E+00   -0.182201065894208392E+01   -0.273124149679053252E+01   -0.306960692901011612E+03
    0.239551318168245928E+03    0.157515971055800321E+02    0.336146238841744207E+02   -0.642193151419828689E+00   -0.179847340832227931E+01   -0.269868039241385071E+01   -0.307412847547688216E+03
    0.241253139343804548E+03    0.253726512157384860E+02    0.908664306855772352E+01   -0.635205171891366716E+00   -0.192986948526563284E+01   -0.266574234684214462E+01   -0.307312206283427258E+03
    0.240618552175752797E+03    0.162512563007984134E+02    0.238270334051354880E+02   -0.609319647103486295E+00   -0.191437409729163788E+01   -0.268215686294754008E+01   -0.307326300427125830E+03
    0.246372930707199629E+03    0.193747330354050185E+02    0.145645040511177619E+02   -0.630506065832275198E+00   -0.185332668332353423E+01   -0.266715672130073145E+01   -0.306659690026388944E+03
    0.249628415896154905E+03    0.195177151609458406E+02    0.155283974507419984E+02   -0.599513624937336731E+00   -0.184902721581811846E+01   -0.271597970920656406E+01   -0.307370906701337447E+03
    0.247176727610119599E+03    0.184729487456228298E+02    0.191911260007506570E+02   -0.627344791529464318E+00   -0.180793830522884647E+01   -0.270532083893019770E+01   -0.306624674394667920E+03
    0.247176727610119599E+03    0.184729487456228298E+02    0.191911260007506570E+02   -0.627344791529464318E+00   -0.180793830522884647E+01   -0.270532083893019770E+01   -0.306624674394667920E+03
    0.237050629561253231E+03    0.175703601412412844E+02    0.218178543281771553E+02   -0.643131956102694913E+00   -0.189680527708996638E+01   -0.269640230737099174E+01   -0.307250267847475698E+03
    0.238389894263647108E+03    0.165786095849268698E+02    0.277978612767835074E+02   -0.658707905030445184E+00   -0.185564162897876628E+01   -0.270777432652575634E+01   -0.307337498231580241E+03
    0.237496233786474136E+03    0.191687675073442385E+02    0.250555334122376223E+02   -0.622541279996801755E+00   -0.187620811207424221E+01   -0.266890563632774702E+01   -0.307434068672395199E+03
    0.246578921061504786E+03    0.191106469588144492E+02    0.193702760460086481E+02   -0.643387130660397322E+00   -0.182629919830386744E+01   -0.269605498683992995E+01   -0.307153395838346910E+03
    0.240413376534830462E+03    0.198842671004458218E+02    0.160318916787265628E+02   -0.639688602887996671E+00   -0.190978101817014534E+01   -0.271370893984208417E+01   -0.307009324400080970E+03
    0.249322614112984525E+03    0.163804792673073258E+02    0.197891832742750005E+02   -0.639412302493007623E+00   -0.181749281871536228E+01   -0.272816191867209001E+01   -0.307041304064224732E+03
    0.250294147868048100E+03    0.203890671197840341E+02    0.172843961335361413E+02   -0.618906194992210112E+00   -0.179214617528361453E+01   -0.270207345000163501E+01   -0.307221181196099906E+03
    0.236658785478613709E+03    0.192717729029340958E+02    0.270423463390534167E+02   -0.626700984114300974E+00   -0.186945067184382396E+01   -0.273319226900991863E+01   -0.306994322644009230E+03
    0.248746448487118130E+03    0.170204433206725518E+02    0.208109094703709481E+02   -0.614377275646916354E+00   -0.181883686558447355E+01   -0.271597798468948470E+01   -0.306875744841586538E+03
    0.248746448487118130E+03    0.170204433206725518E+02    0.208109094703709481E+02   -0.614377275646916354E+00   -0.181883686558447355E+01   -0.271597798468948470E+01   -0.306875744841586538E+03
    0.241251592352921620E+03    0.186360936632701488E+02    0.213826007784344441E+02   -0.619916369118276966E+00   -0.189287630940844576E+01   -0.269674142482771639E+01   -0.306362837421148811E+03
    0.241251592352921620E+03    0.186360936632701488E+02    0.213826007784344441E+02   -0.619916369118276966E+00   -0.189287630940844576E+01   -0.269674142482771639E+01   -0.306362837421148811E+03
    0.242922905497519139E+03    0.210828294911878089E+02    0.152651333130637372E+02   -0.617362642051840327E+00   -0.186617091015069270E+01   -0.269989224293783447E+01   -0.306713746709813165E+03
    0.242922905497519139E+03    0.210828294911878089E+02    0.152651333130637372E+02   -0.617362642051840327E+00   -0.186617091015069270E+01   -0.269989224293783447E+01   -0.306713746709813165E+03
    0.241886799350265647E+03    0.227012426417190660E+02    0.107996262801573515E+02   -0.620102612247460439E+00   -0.192564125835901523E+01   -0.268075669894859381E+01   -0.306461646453068226E+03
    0.241886799350265647E+03    0.227012426417190660E+02    0.107996262801573515E+02   -0.620102612247460439E+00   -0.192564125835901523E+01   -0.268075669894859381E+01   -0.306461646453068226E+03
    0.244297275291097918E+03    0.223055652184996731E+02    0.151154940334176402E+02   -0.617905563955370773E+00   -0.186448910357184028E+01   -0.273129468647040241E+01   -0.306810994457667846E+03
    0.235106808092929072E+03    0.206845776486229269E+02    0.236699334397890198E+02   -0.624189635589291747E+00   -0.191261863822542444E+01   -0.269445821888986403E+01   -0.307128909379410857E+03
    0.243972950697456525E+03    0.151873011916661209E+02    0.239747631295166244E+02   -0.629803023847575361E+00   -0.183509243166382530E+01   -0.269596997966954577E+01   -0.306914311294633649E+03
    0.239890810858635575E+03    0.185841650244081578E+02    0.249815695874440777E+02   -0.643938573612619969E+00   -0.184730752325126502E+01   -0.270233157475241859E+01   -0.306894904223924470E+03
    0.239890810858635575E+03    0.185841650244081578E+02    0.249815695874440777E+02   -0.643938573612619969E+00   -0.184730752325126502E+01   -0.270233157475241859E+01   -0.306894904223924470E+03
    0.237935839154143309E+03    0.153497503237751189E+02    0.355307196878770171E+02   -0.635322820493280371E+00   -0.181518876200290502E+01   -0.274294741631674466E+01   -0.307282346773836821E+03
    0.237566937763556467E+03    0.194570887093310176E+02    0.202667529560738870E+02   -0.652981347090944020E+00   -0.189447094314525888E+01   -0.267302918694698377E+01   -0.307349386673049935E+03
    0.238019866328552553E+03    0.179453303762146241E+02    0.297724481856700933E+02   -0.627913344395369721E+00   -0.184742886155074881E+01   -0.269215455143076943E+01   -0.307395311521511303E+03
    0.237675684436055462E+03    0.187825575923061869E+02    0.174589987462083869E+02   -0.644601168132022284E+00   -0.193332076949290577E+01   -0.267811955509920585E+01   -0.307089891636614425E+03
    0.238116974628186938E+03    0.172056680021176405E+02    0.321783278394546244E+02   -0.614106101439950924E+00   -0.183704466349265982E+01   -0.271381444610704614E+01   -0.306972034566857701E+03
    0.244689963829222307E+03    0.180356562262025761E+02    0.161092562199558316E+02   -0.643685662320261587E+00   -0.188390641912975565E+01   -0.267057538408585016E+01   -0.306646219935923341E+03
    0.247399534197580721E+03    0.178509973513703493E+02    0.198422255663760509E+02   -0.625289756507804162E+00   -0.183644100068547056E+01   -0.269038356836650250E+01   -0.306651816908450428E+03
    0.247399534197580721E+03    0.178509973513703493E+02    0.198422255663760509E+02   -0.625289756507804162E+00   -0.183644100068547056E+01   -0.269038356836650250E+01   -0.306651816908450428E+03
    0.244501275356999230E+03    0.178531911799149796E+02    0.166052940976050074E+02   -0.638310878551437977E+00   -0.188570730171141365E+01   -0.268136898678551194E+01   -0.306380588313482804E+03
    0.244501275356999230E+03    0.178531911799149796E+02    0.166052940976050074E+02   -0.638310878551437977E+00   -0.188570730171141365E+01   -0.268136898678551194E+01   -0.306380588313482804E+03
    0.246756861170186966E+03    0.179017432132578875E+02    0.182062463485026917E+02   -0.628775089237340712E+00   -0.182458161399763652E+01   -0.270290468231633563E+01   -0.306672915313046929E+03
    0.246879459006240893E+03    0.253260838859573738E+02    0.996908027301119937E+01   -0.610973693208930246E+00   -0.185714779062960278E+01   -0.270833412195714063E+01   -0.307051322809972021E+03
    0.247019392000169489E+03    0.200620922962074069E+02    0.174345353221008139E+02   -0.650143327645585689E+00   -0.179966005688497344E+01   -0.269492298478965653E+01   -0.307372831524130731E+03
    0.246589125869924203E+03    0.211003704934035312E+02    0.150325633983173415E+02   -0.610731107449283384E+00   -0.185457536169956527E+01   -0.265942355553773568E+01   -0.307283460487481307E+03
    0.239791160312065273E+03    0.201011958167297315E+02    0.119751446834995701E+02   -0.642278890728267715E+00   -0.194747956170702685E+01   -0.266402480930334740E+01   -0.307313195121456715E+03
    0.240841522950893989E+03    0.174229573266622673E+02    0.229417816847471769E+02   -0.615430287123944320E+00   -0.192024059095507860E+01   -0.271797141303586054E+01   -0.307379018983016806E+03
    0.242709982485186288E+03    0.270515559022383876E+02    0.631719380126295960E+01   -0.609230924581209532E+00   -0.194136687471578595E+01   -0.267642501966352153E+01   -0.307086668568939444E+03
    0.244528625025268440E+03    0.219493058933053220E+02    0.198783433721336493E+02   -0.603504849679146194E+00   -0.183511944555503193E+01   -0.272679837841767858E+01   -0.307091035936585513E+03
    0.248395523884901905E+03    0.187976199651698010E+02    0.129140037139008914E+02   -0.633108659286762965E+00   -0.188667392957298108E+01   -0.270712403253564160E+01   -0.307110975259311488E+03
    0.246150221370821782E+03    0.182101120284881759E+02    0.148939204039855770E+02   -0.621833430467616299E+00   -0.191689110632947646E+01   -0.267872861769209925E+01   -0.307211146743624283E+03
    0.243751859253100491E+03    0.153433668544129862E+02    0.227712993700437210E+02   -0.665640521863050338E+00   -0.183014612090154283E+01   -0.269400025497344009E+01   -0.307417109761595782E+03
    0.243269388123221745E+03    0.167927404547396257E+02    0.187667201288144589E+02   -0.615679201783848162E+00   -0.192041689839488794E+01   -0.267706110573454170E+01   -0.307130562236612832E+03
    0.243425140839123628E+03    0.170865288517193434E+02    0.183604119218765156E+02   -0.632408369808733717E+00   -0.188911138919982613E+01   -0.268509907682350457E+01   -0.306392074654382156E+03
    0.243425140839123628E+03    0.170865288517193434E+02    0.183604119218765156E+02   -0.632408369808733717E+00   -0.188911138919982613E+01   -0.268509907682350457E+01   -0.306392074654382156E+03
    0.247640822629034687E+03    0.171227295490723925E+02    0.197503135423660687E+02   -0.651144496357612068E+00   -0.179388014222192549E+01   -0.271857656085539467E+01   -0.307260412079167736E+03
