    0.931709884847184782E+02    0.499532347868160898E+02    0.174440483092937768E+02   -0.631216419421273933E+00   -0.183132365618343607E+01   -0.500616330077581217E+00   -0.315637596701507675E+03
    0.855231143330517369E+02    0.527472035766335452E+02    0.335911733110150195E+02   -0.630509614682112751E+00   -0.191845297176169405E+01   -0.566999724673632688E+00   -0.314708624969222910E+03
    0.833947169554036236E+02    0.384582289222077733E+02    0.517522539428536135E+02   -0.671369056949319365E+00   -0.191194226132162615E+01   -0.576928084032907851E+00   -0.313583335675217313E+03
    0.871133993014366297E+02    0.543163828211066715E+02    0.255081653101887014E+02   -0.669687711969658928E+00   -0.194431311096507886E+01   -0.640663116390085996E+00   -0.313574217022603932E+03
    0.887547505299675663E+02    0.468901674912314874E+02    0.354937076706495560E+02   -0.711897880220815349E+00   -0.200821533148949838E+01   -0.610220934139157123E+00   -0.313445699580077360E+03
    0.874034543617610780E+02    0.479010828079300879E+02    0.361292531666153991E+02   -0.730308178586403622E+00   -0.194129406265143212E+01   -0.608663974030580146E+00   -0.313441818531430499E+03
    0.838163437541097949E+02    0.472333917999535018E+02    0.445860872922263880E+02   -0.620999881044757007E+00   -0.191026216903554280E+01   -0.567698154913579778E+00   -0.313229730096293451E+03
    0.894524815947275158E+02    0.420483919969647175E+02    0.398837221108562900E+02   -0.736248550242720068E+00   -0.195137684927871935E+01   -0.555822561644963464E+00   -0.313014962759145988E+03
    0.812069166484487681E+02    0.409580669998895388E+02    0.510265514186104312E+02   -0.733940849573356369E+00   -0.193862151452829035E+01   -0.593424190302107579E+00   -0.312960302196701150E+03
    0.887766696630013001E+02    0.397011660440113303E+02    0.471799937809934846E+02   -0.671409484475227414E+00   -0.197128976191253025E+01   -0.567567185857192236E+00   -0.312940823667928214E+03
    0.913407874955448733E+02    0.519598619228036043E+02    0.251108204382212286E+02   -0.626227957339774211E+00   -0.188334827127719207E+01   -0.510499869356916935E+00   -0.312922864666004784E+03
    0.834517506586934275E+02    0.396580385377601914E+02    0.525867069107792133E+02   -0.642207007832383603E+00   -0.193068555640702955E+01   -0.572726469244628333E+00   -0.312809206098090385E+03
    0.867443996399124586E+02    0.397872249115831664E+02    0.455500063291782098E+02   -0.679182557099828665E+00   -0.190570876484891905E+01   -0.554732036663959871E+00   -0.312621103596621424E+03
    0.863868369912665059E+02    0.490728749441765402E+02    0.345374707539659695E+02   -0.629517035225918287E+00   -0.189454332706380613E+01   -0.566613403839477670E+00   -0.312392657449196463E+03
    0.892788397035086518E+02    0.467440666785911674E+02    0.367965849370848233E+02   -0.609373437626802072E+00   -0.196488644610766272E+01   -0.618717685913507953E+00   -0.312385429853726976E+03
    0.913772787523951564E+02    0.512407347698268723E+02    0.219982594549715813E+02   -0.633854707613649593E+00   -0.188267286158396430E+01   -0.584999853502051081E+00   -0.312384041015272260E+03
    0.829364566833445593E+02    0.499124540112223656E+02    0.401517701774487108E+02   -0.684636643219963981E+00   -0.192978193754075433E+01   -0.602304710039347935E+00   -0.312273101779369540E+03
    0.898760240169267490E+02    0.531721650471604192E+02    0.259879249740547209E+02   -0.609789539352976862E+00   -0.188536128158596927E+01   -0.549787335766698693E+00   -0.312247290258234671E+03
    0.872430455462588696E+02    0.522167317328310006E+02    0.308652885094116343E+02   -0.630999848118735773E+00   -0.186519432661565476E+01   -0.598365129196774426E+00   -0.312136483490571436E+03
    0.880759277698936245E+02    0.447131137857854810E+02    0.393580208134981220E+02   -0.735273191235067403E+00   -0.197537749774909055E+01   -0.577426097394095894E+00   -0.312123997998376240E+03
    0.878905625880402539E+02    0.406808332045092129E+02    0.432444067838085502E+02   -0.718871453984948339E+00   -0.196175436488988364E+01   -0.600748604557983512E+00   -0.312076482031112505E+03
    0.847934421877096014E+02    0.523385467850219612E+02    0.320050706881837570E+02   -0.675011825071158089E+00   -0.186630483345355924E+01   -0.556640451624807131E+00   -0.311982610697642144E+03
    0.836090663747177842E+02    0.425102913188581013E+02    0.449760684054126827E+02   -0.726919963140967740E+00   -0.193325892397446131E+01   -0.590755669218546053E+00   -0.311935693452722546E+03
    0.929717057615995088E+02    0.466710008882210161E+02    0.315473124869717445E+02   -0.623076277430424152E+00   -0.192757504176840455E+01   -0.572082551795767280E+00   -0.311901698987176644E+03
    0.876062792958729801E+02    0.505821824743811348E+02    0.350351370300857923E+02   -0.619189218220760562E+00   -0.188433388158586745E+01   -0.533966460479676552E+00   -0.311713628526609000E+03
    0.889791157806672004E+02    0.504971883241741253E+02    0.277737180452598835E+02   -0.633770600979726151E+00   -0.185976213533544166E+01   -0.530732516843086533E+00   -0.311379137202738320E+03
    0.864431557838027373E+02    0.448679706147020312E+02    0.421371962847760244E+02   -0.665964783809407157E+00   -0.197228413430443994E+01   -0.630199372242287836E+00   -0.311271825004050754E+03
    0.876211480814176156E+02    0.422269217711791640E+02    0.448536192800445193E+02   -0.713360620516613864E+00   -0.195132734042711498E+01   -0.546454690377276009E+00   -0.311265544024603400E+03
    0.833157182178380538E+02    0.423735493886012762E+02    0.496262729652860273E+02   -0.655525699708438436E+00   -0.195464328441992063E+01   -0.580317036035125078E+00   -0.311184289877640936E+03
    0.879750672137693357E+02    0.528249364874414056E+02    0.286828541812643572E+02   -0.611675496134871599E+00   -0.190090891540233220E+01   -0.582887710371204459E+00   -0.311139293984081121E+03
    0.931951526956314211E+02    0.448567658847134396E+02    0.303092413277402315E+02   -0.694063756622759875E+00   -0.187746982288851916E+01   -0.527004873052631773E+00   -0.311099361165128926E+03
    0.840690787741685313E+02    0.428258531622101941E+02    0.455832817279128193E+02   -0.686361998349322100E+00   -0.185843695595936742E+01   -0.546208998051862515E+00   -0.311095792558906851E+03
    0.831419281503765859E+02    0.418352017890593544E+02    0.468551988917161211E+02   -0.698358929782076254E+00   -0.192738411538030507E+01   -0.592257408591573498E+00   -0.310978067769684571E+03
    0.840960515303703176E+02    0.496741989393302106E+02    0.367177525646160348E+02   -0.664829919234696920E+00   -0.184477406099138452E+01   -0.571862263764305823E+00   -0.310856188909624962E+03
    0.903464656133068189E+02    0.508824535678173007E+02    0.295941489280814523E+02   -0.649775341199689382E+00   -0.189676385990647089E+01   -0.517712888119079562E+00   -0.310800219486338051E+03
    0.851360820363138089E+02    0.477429105702890269E+02    0.392311342039680255E+02   -0.712004542352194347E+00   -0.197235993865909376E+01   -0.597835216822831583E+00   -0.310783356396270335E+03
    0.851589323627895993E+02    0.482508408522130807E+02    0.376902201081355273E+02   -0.709942052930359946E+00   -0.187302022425088777E+01   -0.585499532228877850E+00   -0.310758407379103062E+03
    0.843559795287135756E+02    0.445510837672626252E+02    0.448508742378818326E+02   -0.698152761294172475E+00   -0.185786621344504321E+01   -0.553631730317272197E+00   -0.310754091994821920E+03
    0.897485383293481789E+02    0.502543645487607336E+02    0.267485380727659994E+02   -0.707698082237812720E+00   -0.183290259580279424E+01   -0.516577120836089865E+00   -0.310664336053186787E+03
    0.846485854083280316E+02    0.525617933962888273E+02    0.321443864213841408E+02   -0.658750900383987315E+00   -0.187885080190586251E+01   -0.590904278878916056E+00   -0.310645062964710746E+03
    0.873809382162564532E+02    0.477851449241361550E+02    0.328280436410079588E+02   -0.653200200513199380E+00   -0.182484495133615954E+01   -0.557794507173408505E+00   -0.310640536832201519E+03
    0.900797396599804188E+02    0.460553859409171054E+02    0.307637324145683309E+02   -0.709630006560199478E+00   -0.182834057791995019E+01   -0.515800098726739265E+00   -0.310635870641600604E+03
    0.848437419925810019E+02    0.467464478543989088E+02    0.376296938214937029E+02   -0.709053298419757949E+00   -0.189387490911745293E+01   -0.585148445683419727E+00   -0.310624750634422185E+03
    0.890026718794328673E+02    0.474984560197069428E+02    0.357378812033187288E+02   -0.675842786115801397E+00   -0.193572115058275407E+01   -0.537297495782525836E+00   -0.310616138677536014E+03
    0.847515331537332486E+02    0.455450738671411415E+02    0.427609656821933655E+02   -0.698334374933356594E+00   -0.192921809966478830E+01   -0.613743983981740016E+00   -0.310590254814808191E+03
    0.859889251722168666E+02    0.452893265462661105E+02    0.425432372241490455E+02   -0.662344323507039423E+00   -0.194734339089013142E+01   -0.562210959934551280E+00   -0.310569789138403280E+03
    0.893228329397492331E+02    0.495860489577978285E+02    0.294506982916163089E+02   -0.633758806603860192E+00   -0.192823694410101631E+01   -0.592014798936363107E+00   -0.310554064996238822E+03
    0.859303839223787378E+02    0.467505690549246253E+02    0.400297508351202183E+02   -0.621289240472346238E+00   -0.185422097024329990E+01   -0.545273264097737353E+00   -0.310515686302162521E+03
    0.873406086608753611E+02    0.497019465635131539E+02    0.337767314540039791E+02   -0.652914027872667058E+00   -0.189269840808321077E+01   -0.536576211574446127E+00   -0.310491340205824429E+03
    0.898168121546840723E+02    0.426066731086199937E+02    0.380453945686909876E+02   -0.689290849139546635E+00   -0.192932645948309811E+01   -0.559646535919767985E+00   -0.310403198720908392E+03
    0.866060397638939463E+02    0.444916757041035851E+02    0.399609248424687991E+02   -0.641537529877211021E+00   -0.196631229578414835E+01   -0.635002828825458554E+00   -0.310332478407347594E+03
    0.824043909180864347E+02    0.450000156081693206E+02    0.440944438624235389E+02   -0.656289097323837556E+00   -0.192527607124585520E+01   -0.628836521049437103E+00   -0.310321658411539374E+03
    0.889917663126049092E+02    0.493978949766378506E+02    0.312451919295494349E+02   -0.613067979271834540E+00   -0.185982539495106813E+01   -0.576781100314341710E+00   -0.310275377748479741E+03
    0.890276683831043840E+02    0.422448495963117807E+02    0.407310895401964572E+02   -0.722381645230138814E+00   -0.192767627385227547E+01   -0.548848459797804722E+00   -0.310256577101352434E+03
    0.896264582875110420E+02    0.471647339474869085E+02    0.369588564744164998E+02   -0.686556301043894868E+00   -0.194914549246512481E+01   -0.575836211747549953E+00   -0.310255717607053043E+03
    0.888546914637922214E+02    0.498300133555076172E+02    0.272186561169935146E+02   -0.675662061657657187E+00   -0.188746117114202261E+01   -0.591276017407266874E+00   -0.310237722376850854E+03
    0.880708672678315452E+02    0.521600649208790159E+02    0.299939502869564407E+02   -0.615000077333246908E+00   -0.186879363730063197E+01   -0.561289426219483190E+00   -0.310231877515647625E+03
    0.900331178012736899E+02    0.486661461809302267E+02    0.317836957205568282E+02   -0.676309891687123521E+00   -0.194578644636194253E+01   -0.556529376023558342E+00   -0.310220898682385950E+03
    0.829735447745833312E+02    0.417152229347699048E+02    0.481739114745927637E+02   -0.699233413360700329E+00   -0.193644052054470106E+01   -0.616259894672972486E+00   -0.310207060897958627E+03
    0.873918666933845998E+02    0.520113652286518118E+02    0.266562460193878010E+02   -0.690369811511517550E+00   -0.189286688077736254E+01   -0.592261531456230728E+00   -0.310186800396464434E+03
    0.891035952305910826E+02    0.497518112426855765E+02    0.311946019325566688E+02   -0.640124423377194107E+00   -0.188502098554593367E+01   -0.599918596788331371E+00   -0.310096874033818324E+03
    0.888122621798962513E+02    0.502893414869812574E+02    0.306054683504961353E+02   -0.623188884936716869E+00   -0.188326020405453254E+01   -0.547665893297673900E+00   -0.310087398541591256E+03
    0.873242236449031850E+02    0.512484743749936342E+02    0.333360620938645553E+02   -0.660085114043594601E+00   -0.186719522920677350E+01   -0.522938787589609877E+00   -0.310087032553291806E+03
    0.907166478516183190E+02    0.507324331027111270E+02    0.267249054529901464E+02   -0.623115316365329130E+00   -0.190235696010004318E+01   -0.579738141881207980E+00   -0.310082758065523535E+03
    0.904038790383259396E+02    0.511247270587446110E+02    0.289040118421852910E+02   -0.627449849403627580E+00   -0.192337225180564708E+01   -0.589041361203119340E+00   -0.310031076880151659E+03
    0.887573009320676789E+02    0.483402187693116900E+02    0.326320250329098798E+02   -0.623878583513271190E+00   -0.191266512775987496E+01   -0.581609875357497863E+00   -0.309971223608678486E+03
    0.848795807903783697E+02    0.460709482335137750E+02    0.400945992835674545E+02   -0.665185796686148745E+00   -0.195177103294876853E+01   -0.602074764653700800E+00   -0.309970742641613697E+03
    0.851158212201367377E+02    0.456995731843181829E+02    0.437647569865227055E+02   -0.641125381200102540E+00   -0.196789451510638336E+01   -0.592008785819578165E+00   -0.309959543921946420E+03
    0.851158212201367377E+02    0.456995731843181829E+02    0.437647569865227055E+02   -0.641125381200102540E+00   -0.196789451510638336E+01   -0.592008785819578165E+00   -0.309959543921946420E+03
    0.850512338383137489E+02    0.416525758534295605E+02    0.469859776520559578E+02   -0.710149141032709430E+00   -0.190908005535222158E+01   -0.551706002940525408E+00   -0.309944355506235524E+03
    0.887795761999959865E+02    0.492949523214190108E+02    0.322337408815036000E+02   -0.617209283796612551E+00   -0.190849808696646672E+01   -0.573682103325784176E+00   -0.309937841816563719E+03
    0.882170110290349641E+02    0.535708656613605072E+02    0.263344820835630458E+02   -0.651564826473174152E+00   -0.189775139376508739E+01   -0.597538940405105024E+00   -0.309936327714287529E+03
    0.883834228774706787E+02    0.468561405409628122E+02    0.365178226721091903E+02   -0.692337890382181964E+00   -0.196138666840272746E+01   -0.567662397865791757E+00   -0.309885062904459119E+03
    0.896010582429149878E+02    0.510754099410567264E+02    0.267801532064085208E+02   -0.634359762475150246E+00   -0.183309591815971418E+01   -0.514629030584275782E+00   -0.309780441098879749E+03
    0.889255018688923968E+02    0.450416818806326020E+02    0.389444457576445302E+02   -0.632490343845729441E+00   -0.183361758474859760E+01   -0.508476326233116893E+00   -0.309761037693930291E+03
    0.841810766549431406E+02    0.488841022768522819E+02    0.395566636681992208E+02   -0.687772845864551119E+00   -0.190073201080825482E+01   -0.573296272953538466E+00   -0.309740600490394286E+03
    0.858289684828603754E+02    0.449282753991168775E+02    0.445209395483545833E+02   -0.694076111795203898E+00   -0.193966491070908886E+01   -0.560169170098629099E+00   -0.309691297175349803E+03
    0.886053892403602390E+02    0.471322835061713192E+02    0.349353676307742731E+02   -0.642385411429122311E+00   -0.196753705003119483E+01   -0.620887042996762339E+00   -0.309677901158916598E+03
    0.916007856380265082E+02    0.461014416494664090E+02    0.322406769597046647E+02   -0.709682107042369559E+00   -0.189561172463602423E+01   -0.519778194006605965E+00   -0.309654447908231759E+03
    0.877686218061142966E+02    0.484912428725651878E+02    0.332687525213821260E+02   -0.637053935591928688E+00   -0.193252520893046187E+01   -0.600220653347608657E+00   -0.309643263839564383E+03
    0.851344989660679232E+02    0.502005579773312434E+02    0.363532838901336888E+02   -0.658755143774197860E+00   -0.187023516331879280E+01   -0.555237747961983885E+00   -0.309630255903878378E+03
    0.904243674111261413E+02    0.497131969215489136E+02    0.261802302734890162E+02   -0.670717503339524956E+00   -0.183000234322661215E+01   -0.532809185889824732E+00   -0.309630218620690130E+03
    0.869124094727189629E+02    0.444039975130636151E+02    0.389365844769824037E+02   -0.696283545563150863E+00   -0.192683982042137214E+01   -0.574953315824633382E+00   -0.309597131637321922E+03
    0.875411715563001565E+02    0.490367463471445717E+02    0.317683843143796842E+02   -0.668365696523560038E+00   -0.181508589061571324E+01   -0.500630527462012864E+00   -0.309595532100492051E+03
    0.888815093654787489E+02    0.499381082076834062E+02    0.270612155462436519E+02   -0.691326385867837345E+00   -0.182836598915442861E+01   -0.520308211523003106E+00   -0.309595488824849269E+03
    0.888815093654787489E+02    0.499381082076834062E+02    0.270612155462436519E+02   -0.691326385867837345E+00   -0.182836598915442861E+01   -0.520308211523003106E+00   -0.309595488824849269E+03
    0.870459989915131587E+02    0.501365138511202986E+02    0.323170214196748802E+02   -0.682751398528081088E+00   -0.182957660061781735E+01   -0.548032935811325395E+00   -0.309570847702186597E+03
    0.870459989915131587E+02    0.501365138511202986E+02    0.323170214196748802E+02   -0.682751398528081088E+00   -0.182957660061781735E+01   -0.548032935811325395E+00   -0.309570847702186597E+03
    0.861069548390051551E+02    0.440505227488813631E+02    0.441329905195239505E+02   -0.647408675848398563E+00   -0.185757380922333537E+01   -0.550500164828307437E+00   -0.309549865400250440E+03
    0.868571414485675746E+02    0.440059476658806545E+02    0.414414902005103087E+02   -0.702093455358168805E+00   -0.197881392763767860E+01   -0.589223480288942003E+00   -0.309540657174347871E+03
    0.862955478547486763E+02    0.450773166342770395E+02    0.401634387222057043E+02   -0.668363298890905844E+00   -0.188690720960534786E+01   -0.601718933477395357E+00   -0.309503652140052964E+03
    0.862955478547486763E+02    0.450773166342770395E+02    0.401634387222057043E+02   -0.668363298890905844E+00   -0.188690720960534786E+01   -0.601718933477395357E+00   -0.309503652140052964E+03
    0.875446964744022580E+02    0.494265253203262063E+02    0.325052423830191657E+02   -0.700477617956829279E+00   -0.195061414160096014E+01   -0.591751816213305304E+00   -0.309500941631616968E+03
    0.825288317092216346E+02    0.438289591463969828E+02    0.451991261714513328E+02   -0.671727726876776954E+00   -0.194767915228255939E+01   -0.630741271160844441E+00   -0.309491421190120320E+03
    0.888826910762018514E+02    0.488320306569778424E+02    0.318058455713645856E+02   -0.655070121460541888E+00   -0.185353735111590012E+01   -0.577843360152910268E+00   -0.309478069806614940E+03
    0.844848521674735622E+02    0.458297793095068684E+02    0.424531200143403780E+02   -0.715104599695980392E+00   -0.190245975924485622E+01   -0.582181512331837681E+00   -0.309475068418309888E+03
    0.856514459884127461E+02    0.487503055365360254E+02    0.380086464492719145E+02   -0.653584207058532707E+00   -0.187068361833434516E+01   -0.540679047509618371E+00   -0.309442026301283363E+03
    0.914038264916214018E+02    0.468041437054698690E+02    0.305689551806506827E+02   -0.646065222337899092E+00   -0.190301223823758692E+01   -0.560146014677186166E+00   -0.309428919923363480E+03
    0.914038264916214018E+02    0.468041437054698690E+02    0.305689551806506827E+02   -0.646065222337899092E+00   -0.190301223823758692E+01   -0.560146014677186166E+00   -0.309428919923363480E+03
    0.856601758570451040E+02    0.499065628135035340E+02    0.374465630542772203E+02   -0.651745370932756529E+00   -0.187558527444031675E+01   -0.564181243139942890E+00   -0.309410616898607998E+03
    0.847388597579496547E+02    0.479100356346212308E+02    0.377286491398513633E+02   -0.693875383899449361E+00   -0.187462521925675740E+01   -0.566737593021450436E+00   -0.309382687703670797E+03
    0.872455449380505854E+02    0.463298615410662151E+02    0.388189332472838018E+02   -0.692482896548041849E+00   -0.184274960549537536E+01   -0.537694529451665293E+00   -0.309361958413884054E+03
    0.857635538904919628E+02    0.457894133982038554E+02    0.424969852904378982E+02   -0.644784371455041638E+00   -0.185532228682026457E+01   -0.534371567034960471E+00   -0.309330158245568782E+03
    0.857635538904919628E+02    0.457894133982038554E+02    0.424969852904378982E+02   -0.644784371455041638E+00   -0.185532228682026457E+01   -0.534371567034960471E+00   -0.309330158245568782E+03
    0.899561699176550604E+02    0.459937959372804386E+02    0.344965865855655451E+02   -0.707159290438961641E+00   -0.190601518414984894E+01   -0.524502800673102509E+00   -0.309327546896876129E+03
    0.918940398963468397E+02    0.457676892065118750E+02    0.343129486260186596E+02   -0.674651810328336765E+00   -0.191906294706675573E+01   -0.554132589269153542E+00   -0.309308441251529359E+03
    0.836154439260328246E+02    0.436039516630343229E+02    0.473001006067585621E+02   -0.658086237407502050E+00   -0.195302278428159348E+01   -0.590489618437154640E+00   -0.309272005354769533E+03
    0.860499201060754899E+02    0.437633463987496043E+02    0.461937193055896955E+02   -0.653017261367445645E+00   -0.192239541691381022E+01   -0.568155512163361021E+00   -0.309260046200719671E+03
    0.843084409396140870E+02    0.477362767956497933E+02    0.399646317807902633E+02   -0.706050904394443402E+00   -0.194430241809274640E+01   -0.600937484406285805E+00   -0.309249851430197964E+03
    0.843084409396140870E+02    0.477362767956497933E+02    0.399646317807902633E+02   -0.706050904394443402E+00   -0.194430241809274640E+01   -0.600937484406285805E+00   -0.309249851430197964E+03
    0.914874470946774494E+02    0.476350929031605475E+02    0.302909750600098491E+02   -0.699711312455111756E+00   -0.189077884135153673E+01   -0.552538185403860904E+00   -0.309243837690346425E+03
    0.914874470946774494E+02    0.476350929031605475E+02    0.302909750600098491E+02   -0.699711312455111756E+00   -0.189077884135153673E+01   -0.552538185403860904E+00   -0.309243837690346425E+03
    0.863890969382806446E+02    0.511772225600275377E+02    0.328585009251958624E+02   -0.668178038783873163E+00   -0.185411557032016328E+01   -0.536522952555713584E+00   -0.309237563782813538E+03
    0.847809895674342187E+02    0.461263866669677753E+02    0.416293366844806272E+02   -0.666807620210172036E+00   -0.199141192280048607E+01   -0.618447761029043530E+00   -0.309218977143460677E+03
    0.872746996484346909E+02    0.411095756535491006E+02    0.440893969686638272E+02   -0.692450526622725882E+00   -0.193649025895692595E+01   -0.573952086045693033E+00   -0.309158070178400635E+03
    0.872746996484346909E+02    0.411095756535491006E+02    0.440893969686638272E+02   -0.692450526622725882E+00   -0.193649025895692595E+01   -0.573952086045693033E+00   -0.309158070178400635E+03
    0.880338478714079571E+02    0.469648955190801303E+02    0.339208935163216481E+02   -0.695600516755498832E+00   -0.193601429949030623E+01   -0.611912218052636625E+00   -0.309140052891720757E+03
    0.904350369577678777E+02    0.488259883264589263E+02    0.312424654747270907E+02   -0.696254979777769512E+00   -0.190847870840444389E+01   -0.531005746697869707E+00   -0.309130312089912024E+03
    0.904350369577678777E+02    0.488259883264589263E+02    0.312424654747270907E+02   -0.696254979777769512E+00   -0.190847870840444389E+01   -0.531005746697869707E+00   -0.309130312089912024E+03
    0.900752398781076522E+02    0.441505173622348224E+02    0.387556612445634627E+02   -0.633241480571073323E+00   -0.190556386894086782E+01   -0.547434078602683449E+00   -0.309001589463974994E+03
    0.871619155219413528E+02    0.468661628739815441E+02    0.399856946093939243E+02   -0.683050536005868958E+00   -0.186594267896930210E+01   -0.527114004904002620E+00   -0.308995505891355890E+03
    0.892129956304569873E+02    0.481256240000692230E+02    0.359759273129720896E+02   -0.619272850008119935E+00   -0.189660957913942241E+01   -0.562843089982689726E+00   -0.308976900582866676E+03
    0.892129956304569873E+02    0.481256240000692230E+02    0.359759273129720896E+02   -0.619272850008119935E+00   -0.189660957913942241E+01   -0.562843089982689726E+00   -0.308976900582866676E+03
    0.897380109171168669E+02    0.487174083363256472E+02    0.306814955414787249E+02   -0.710652413511438041E+00   -0.190368877636419853E+01   -0.540635720967134414E+00   -0.308961610395972912E+03
    0.903161421996116189E+02    0.512528872137155105E+02    0.264332267442579472E+02   -0.679139678461240015E+00   -0.187199701116801820E+01   -0.536565950371683975E+00   -0.308955737980325864E+03
    0.907032662240919336E+02    0.482620907965317372E+02    0.308956883335923145E+02   -0.665302077744325038E+00   -0.187989551426412960E+01   -0.572272251301190860E+00   -0.308955362080608495E+03
    0.907032662240919336E+02    0.482620907965317372E+02    0.308956883335923145E+02   -0.665302077744325038E+00   -0.187989551426412960E+01   -0.572272251301190860E+00   -0.308955362080608495E+03
    0.897240798048047878E+02    0.452187945588471649E+02    0.389641973194279387E+02   -0.656641981146171672E+00   -0.195801199550355975E+01   -0.578818312178815297E+00   -0.308952307774482620E+03
    0.897240798048047878E+02    0.452187945588471649E+02    0.389641973194279387E+02   -0.656641981146171672E+00   -0.195801199550355975E+01   -0.578818312178815297E+00   -0.308952307774482620E+03
    0.885126886474338335E+02    0.461916641772864267E+02    0.364006086450107276E+02   -0.725829645040682481E+00   -0.190006314120272624E+01   -0.541699302076669387E+00   -0.308951556621770806E+03
    0.895361325463605624E+02    0.501391223551907288E+02    0.288261244763028124E+02   -0.650623893922673835E+00   -0.185327997694895896E+01   -0.511787957592217069E+00   -0.308945773428137898E+03
    0.908767461157086700E+02    0.471155385736433985E+02    0.334308774095295362E+02   -0.648381991501845834E+00   -0.192455483375615999E+01   -0.547911345214388223E+00   -0.308896404505850910E+03
    0.908767461157086700E+02    0.471155385736433985E+02    0.334308774095295362E+02   -0.648381991501845834E+00   -0.192455483375615999E+01   -0.547911345214388223E+00   -0.308896404505850910E+03
    0.882102336390621957E+02    0.486293672466146063E+02    0.310128183632116290E+02   -0.676504413079255906E+00   -0.181917744382361635E+01   -0.512514490166257275E+00   -0.308888428161138336E+03
    0.867170355078690704E+02    0.446843813069480831E+02    0.417274344105685131E+02   -0.669453738993724956E+00   -0.194413740865044615E+01   -0.614069364695392750E+00   -0.308887148034995960E+03
    0.848163579385262665E+02    0.465406391890191315E+02    0.408369283141614332E+02   -0.631018915534458102E+00   -0.194730164177453346E+01   -0.625163015298427549E+00   -0.308880639330591293E+03
    0.892733695279429327E+02    0.447935498300406323E+02    0.375255591267325315E+02   -0.637504489835247545E+00   -0.187299964741706493E+01   -0.567292524787690322E+00   -0.308865969387467999E+03
    0.892733695279429327E+02    0.447935498300406323E+02    0.375255591267325315E+02   -0.637504489835247545E+00   -0.187299964741706493E+01   -0.567292524787690322E+00   -0.308865969387467999E+03
    0.909483934842010910E+02    0.465335228923599971E+02    0.314395594389176480E+02   -0.709970923640821816E+00   -0.187675060115084280E+01   -0.535193326094909327E+00   -0.308860250282007996E+03
    0.876680629457250262E+02    0.510714151992095680E+02    0.305632480463352074E+02   -0.663128386899622280E+00   -0.194184838426010686E+01   -0.602100965679460476E+00   -0.308850547821608757E+03
    0.866550657030437037E+02    0.420176579362664171E+02    0.453685363361835954E+02   -0.694721461960158049E+00   -0.196605579574087264E+01   -0.584186148715944320E+00   -0.308807690680012286E+03
    0.914848423690550732E+02    0.493836249725203871E+02    0.290642692251021941E+02   -0.666698056718195931E+00   -0.190955256123191663E+01   -0.560299568778540369E+00   -0.308752948822284509E+03
    0.914848423690550732E+02    0.493836249725203871E+02    0.290642692251021941E+02   -0.666698056718195931E+00   -0.190955256123191663E+01   -0.560299568778540369E+00   -0.308752948822284509E+03
    0.857330198859399388E+02    0.479099108123007582E+02    0.373878605289013990E+02   -0.702421080714151991E+00   -0.189968458088511083E+01   -0.560642776470048343E+00   -0.308730669122219979E+03
    0.865238479429273326E+02    0.482277157072865776E+02    0.387994671528897825E+02   -0.635851372633593037E+00   -0.194069143296354341E+01   -0.604263277829871548E+00   -0.308721154140611020E+03
    0.888032808955808406E+02    0.423697212864541228E+02    0.408237329174341994E+02   -0.687009425217876890E+00   -0.191286110572379942E+01   -0.578111364356173940E+00   -0.308703015465618194E+03
    0.888032808955808406E+02    0.423697212864541228E+02    0.408237329174341994E+02   -0.687009425217876890E+00   -0.191286110572379942E+01   -0.578111364356173940E+00   -0.308703015465618194E+03
    0.889503662496470895E+02    0.498838809647900518E+02    0.332533284502622166E+02   -0.632650493685708692E+00   -0.189284604069556472E+01   -0.575803344779166171E+00   -0.308680015540653358E+03
    0.889503662496470895E+02    0.498838809647900518E+02    0.332533284502622166E+02   -0.632650493685708692E+00   -0.189284604069556472E+01   -0.575803344779166171E+00   -0.308680015540653358E+03
    0.885857478177889988E+02    0.478848941473337248E+02    0.326783968893283614E+02   -0.716930455083041318E+00   -0.187337846223023163E+01   -0.557174390037111777E+00   -0.308671190584850478E+03
    0.882353444477590187E+02    0.480406259756054652E+02    0.353367052079907964E+02   -0.683442352314703516E+00   -0.196846884087115992E+01   -0.598116983396541624E+00   -0.308583121283065225E+03
    0.882353444477590187E+02    0.480406259756054652E+02    0.353367052079907964E+02   -0.683442352314703516E+00   -0.196846884087115992E+01   -0.598116983396541624E+00   -0.308583121283065225E+03
    0.875849961338160199E+02    0.458655376468220695E+02    0.386363411518788382E+02   -0.652924238498887588E+00   -0.195781619978558608E+01   -0.586957300782236402E+00   -0.308579255299546674E+03
    0.875849961338160199E+02    0.458655376468220695E+02    0.386363411518788382E+02   -0.652924238498887588E+00   -0.195781619978558608E+01   -0.586957300782236402E+00   -0.308579255299546674E+03
    0.861743010358834880E+02    0.443403751389210541E+02    0.399089018886893925E+02   -0.697548014527502813E+00   -0.189370603763007406E+01   -0.575643529548854449E+00   -0.308568728751345418E+03
    0.861743010358834880E+02    0.443403751389210541E+02    0.399089018886893925E+02   -0.697548014527502813E+00   -0.189370603763007406E+01   -0.575643529548854449E+00   -0.308568728751345418E+03
    0.875425511056012908E+02    0.498081999614939690E+02    0.350093556406482520E+02   -0.631189951063416688E+00   -0.193183684129123101E+01   -0.590606816825228087E+00   -0.308548852762284582E+03
    0.884871616362246556E+02    0.479936783242494869E+02    0.326230556185860792E+02   -0.640023717879671938E+00   -0.186384791415583728E+01   -0.557873507798484880E+00   -0.308536429720929959E+03
    0.855680902336956137E+02    0.435136921623775592E+02    0.458925989426634970E+02   -0.689119301618834390E+00   -0.194916307434306857E+01   -0.578133077928172590E+00   -0.308530517807892238E+03
    0.869512451971616258E+02    0.492415815402056296E+02    0.367503914680110455E+02   -0.639466375055446345E+00   -0.193154175539166229E+01   -0.601056349296421821E+00   -0.308522278223438150E+03
    0.906605628749578329E+02    0.484263119913958064E+02    0.294263407095201579E+02   -0.654741263973051435E+00   -0.187552475071309521E+01   -0.528111800950570309E+00   -0.308519817686625970E+03
    0.895550987942511227E+02    0.478904260971881115E+02    0.347899436709213177E+02   -0.646047375041350902E+00   -0.185088661860187509E+01   -0.530746186617269355E+00   -0.308519406043640231E+03
    0.895550987942511227E+02    0.478904260971881115E+02    0.347899436709213177E+02   -0.646047375041350902E+00   -0.185088661860187509E+01   -0.530746186617269355E+00   -0.308519406043640231E+03
    0.880967305897166710E+02    0.485262018166542006E+02    0.328665571278092230E+02   -0.645565587810294161E+00   -0.190247670140916747E+01   -0.573424287097334062E+00   -0.308516639505355386E+03
    0.881680631437824900E+02    0.513335698580306357E+02    0.302057285276169907E+02   -0.690367507397654956E+00   -0.189019641698783003E+01   -0.553630452102810811E+00   -0.308482450535452358E+03
    0.881414916836136655E+02    0.497898635813822850E+02    0.322703957988163666E+02   -0.694155206665947544E+00   -0.187595817966669665E+01   -0.527302804284898841E+00   -0.308470879408277597E+03
    0.912484826184346645E+02    0.458949721902099625E+02    0.346592675527585783E+02   -0.662544745021744319E+00   -0.191106544309085224E+01   -0.534401575727779132E+00   -0.308463911815885524E+03
    0.912484826184346645E+02    0.458949721902099625E+02    0.346592675527585783E+02   -0.662544745021744319E+00   -0.191106544309085224E+01   -0.534401575727779132E+00   -0.308463911815885524E+03
    0.857941897209960729E+02    0.452775009477051498E+02    0.437875180878229600E+02   -0.663544959663435741E+00   -0.194144666000664357E+01   -0.570665289487528149E+00   -0.308458950966705459E+03
    0.857941897209960729E+02    0.452775009477051498E+02    0.437875180878229600E+02   -0.663544959663435741E+00   -0.194144666000664357E+01   -0.570665289487528149E+00   -0.308458950966705459E+03
    0.877743259027654688E+02    0.507655959815579507E+02    0.310775463298568937E+02   -0.666484566901171416E+00   -0.194304776682328151E+01   -0.608593139108557502E+00   -0.308450817901485550E+03
    0.877743259027654688E+02    0.507655959815579507E+02    0.310775463298568937E+02   -0.666484566901171416E+00   -0.194304776682328151E+01   -0.608593139108557502E+00   -0.308450817901485550E+03
    0.854699683178484406E+02    0.504019449535970239E+02    0.342005172097976100E+02   -0.672103760531350236E+00   -0.191484738618775574E+01   -0.598490016641151534E+00   -0.308443874358823223E+03
    0.854699683178484406E+02    0.504019449535970239E+02    0.342005172097976100E+02   -0.672103760531350236E+00   -0.191484738618775574E+01   -0.598490016641151534E+00   -0.308443874358823223E+03
    0.872195358069307076E+02    0.505547588510168424E+02    0.301677575541216711E+02   -0.683833725121188341E+00   -0.187020760201811864E+01   -0.561186769741497393E+00   -0.308443064928680201E+03
    0.862735115016374863E+02    0.449616743247377286E+02    0.419118105836454546E+02   -0.700699011398924432E+00   -0.196986973483899153E+01   -0.601333912231462264E+00   -0.308416552717253694E+03
    0.900547942947944335E+02    0.491808388817345019E+02    0.293238780936387506E+02   -0.676675749117768621E+00   -0.189200016513255131E+01   -0.536396765050621838E+00   -0.308415692422136431E+03
    0.900547942947944335E+02    0.491808388817345019E+02    0.293238780936387506E+02   -0.676675749117768621E+00   -0.189200016513255131E+01   -0.536396765050621838E+00   -0.308415692422136431E+03
    0.896157835805544494E+02    0.507004034789339642E+02    0.294384751994032854E+02   -0.631097002391764361E+00   -0.189123955070607241E+01   -0.578065159376361049E+00   -0.308414956983249681E+03
    0.896157835805544494E+02    0.507004034789339642E+02    0.294384751994032854E+02   -0.631097002391764361E+00   -0.189123955070607241E+01   -0.578065159376361049E+00   -0.308414956983249681E+03
    0.872341646389003671E+02    0.511642079400560092E+02    0.329508418235643035E+02   -0.676567047884807371E+00   -0.189769781033087526E+01   -0.569437562503913419E+00   -0.308410246904867108E+03
    0.872341646389003671E+02    0.511642079400560092E+02    0.329508418235643035E+02   -0.676567047884807371E+00   -0.189769781033087526E+01   -0.569437562503913419E+00   -0.308410246904867108E+03
    0.885197525593938082E+02    0.467449298936376465E+02    0.392383032143203323E+02   -0.669591028020351420E+00   -0.192115171393445872E+01   -0.550414358689145011E+00   -0.308391906554295815E+03
    0.891956852434535534E+02    0.505770760519803133E+02    0.304451592045775321E+02   -0.691421724431984019E+00   -0.189966153020918349E+01   -0.559393250426011068E+00   -0.308391395882858433E+03
    0.854799832772683175E+02    0.443211686229677966E+02    0.427117506839497310E+02   -0.646464379511664022E+00   -0.188616778156657849E+01   -0.582541458626682829E+00   -0.308390890021811856E+03
    0.854799832772683175E+02    0.443211686229677966E+02    0.427117506839497310E+02   -0.646464379511664022E+00   -0.188616778156657849E+01   -0.582541458626682829E+00   -0.308390890021811856E+03
    0.913091347646231100E+02    0.481187451313433598E+02    0.304088743826546626E+02   -0.675601265536952322E+00   -0.189410824855852300E+01   -0.528655637579890314E+00   -0.308380619107981545E+03
    0.883607605622407135E+02    0.519966562117507536E+02    0.280232073116515608E+02   -0.672367698588318907E+00   -0.188176608315499538E+01   -0.555562976106094730E+00   -0.308380418638674030E+03
    0.844040313983605444E+02    0.442300980220262119E+02    0.436688670338958929E+02   -0.711742413829566045E+00   -0.192575864386605411E+01   -0.593876077891076104E+00   -0.308376992974273605E+03
    0.860858571065556930E+02    0.455163470793175478E+02    0.398904475954051563E+02   -0.689199450213646259E+00   -0.194572014716785890E+01   -0.619824962432098392E+00   -0.308338514439062919E+03
    0.860858571065556930E+02    0.455163470793175478E+02    0.398904475954051563E+02   -0.689199450213646259E+00   -0.194572014716785890E+01   -0.619824962432098392E+00   -0.308338514439062919E+03
    0.874006278584060539E+02    0.482558250018635420E+02    0.365393221597358959E+02   -0.660193156701320172E+00   -0.190851350348029425E+01   -0.548549530688257736E+00   -0.308327413159296270E+03
    0.870019206650472796E+02    0.437689302405046305E+02    0.412817866978556935E+02   -0.695951165133018579E+00   -0.185809310017496476E+01   -0.532583715557486403E+00   -0.308301155307817169E+03
    0.850271393340091350E+02    0.434834002680027112E+02    0.455162879755334444E+02   -0.688615671559728915E+00   -0.189649838365756152E+01   -0.570067083204994329E+00   -0.308291741086261027E+03
    0.913740370593183968E+02    0.469353183231441307E+02    0.328444516160374462E+02   -0.677623416005658230E+00   -0.191107566621445368E+01   -0.556926487318940122E+00   -0.308287789449230445E+03
    0.877495531862893330E+02    0.501063097575568435E+02    0.327502750064574428E+02   -0.663747709739577640E+00   -0.195125723410825080E+01   -0.604890713031676519E+00   -0.308266236124365946E+03
    0.898106434512896641E+02    0.483671910769265310E+02    0.306851790903259349E+02   -0.641302316050320620E+00   -0.184233622371329453E+01   -0.537056017345744596E+00   -0.308262034399098411E+03
    0.861659393810633816E+02    0.424661238731040669E+02    0.440327746487648710E+02   -0.692973319940766830E+00   -0.191291870466270475E+01   -0.562440321799772658E+00   -0.308252985949470485E+03
    0.901790284059358385E+02    0.499629804924690646E+02    0.285174279813834417E+02   -0.687532553249112777E+00   -0.188038527446635384E+01   -0.532563983506629146E+00   -0.308228318288738706E+03
    0.904440833001755919E+02    0.486411692946598464E+02    0.284840548906082063E+02   -0.695248660057406154E+00   -0.187974394722943972E+01   -0.552165318282730411E+00   -0.308210699600183830E+03
    0.902596388921314627E+02    0.456899491647769338E+02    0.354949289540351742E+02   -0.641036355218244980E+00   -0.185686523021852334E+01   -0.533752058979447774E+00   -0.308201603532559716E+03
    0.882982924317267361E+02    0.472665874169453275E+02    0.345729372234691326E+02   -0.641175603132301708E+00   -0.186061266015030768E+01   -0.544786489911749161E+00   -0.308181387476015288E+03
    0.882982924317267361E+02    0.472665874169453275E+02    0.345729372234691326E+02   -0.641175603132301708E+00   -0.186061266015030768E+01   -0.544786489911749161E+00   -0.308181387476015288E+03
    0.871762428908843816E+02    0.502725676293913182E+02    0.318933949740071867E+02   -0.694267890639995278E+00   -0.191821305116044472E+01   -0.584066922590345428E+00   -0.308162756785327929E+03
    0.882134215505013657E+02    0.479773313130203007E+02    0.343808032279128710E+02   -0.706552941900321807E+00   -0.186214238138892241E+01   -0.540511597262052668E+00   -0.308160479759458553E+03
    0.893063224575072780E+02    0.478339872511079420E+02    0.306055530966400369E+02   -0.693299552592540502E+00   -0.185085475867384641E+01   -0.533744695243469902E+00   -0.308158842887094920E+03
    0.893063224575072780E+02    0.478339872511079420E+02    0.306055530966400369E+02   -0.693299552592540502E+00   -0.185085475867384641E+01   -0.533744695243469902E+00   -0.308158842887094920E+03
    0.856243734812723432E+02    0.437991389696385482E+02    0.426232494283522598E+02   -0.696773699312556172E+00   -0.188011388317400052E+01   -0.563180018309964225E+00   -0.308152814878900074E+03
    0.844389746749716181E+02    0.439221139079907346E+02    0.450164801003855999E+02   -0.700123203822440754E+00   -0.195158709398202435E+01   -0.591393099671807754E+00   -0.308152393176808687E+03
    0.900007860297606754E+02    0.461791064821315089E+02    0.332317399542310739E+02   -0.697502968364623221E+00   -0.186465765100075154E+01   -0.545943538794759764E+00   -0.308108648915787285E+03
    0.879048949335702190E+02    0.469357279649065902E+02    0.352957156893855171E+02   -0.680468414745024397E+00   -0.182729114251979485E+01   -0.519367890117380604E+00   -0.308091138802755495E+03
    0.890887615961916595E+02    0.450620772809031536E+02    0.373720482293923197E+02   -0.686052716116891670E+00   -0.188919537082255817E+01   -0.522290415409832232E+00   -0.308062943739985599E+03
    0.890887615961916595E+02    0.450620772809031536E+02    0.373720482293923197E+02   -0.686052716116891670E+00   -0.188919537082255817E+01   -0.522290415409832232E+00   -0.308062943739985599E+03
    0.893212554847865761E+02    0.458787329041292651E+02    0.379309021300382696E+02   -0.634254065379929566E+00   -0.188832708261532800E+01   -0.539052537891142158E+00   -0.308020447459333184E+03
    0.890935151988776255E+02    0.453293043944090641E+02    0.371551218324879997E+02   -0.699637069624446939E+00   -0.187208214829665276E+01   -0.513463527585031887E+00   -0.308010589389404686E+03
    0.872465440148249627E+02    0.513561091644255328E+02    0.310415998901196737E+02   -0.668319380622866444E+00   -0.187875061202849247E+01   -0.580733731596435820E+00   -0.308007123794638687E+03
    0.887351508549434271E+02    0.480635069466872338E+02    0.345430654434437159E+02   -0.696311251735988179E+00   -0.188916566372754624E+01   -0.526920694141068680E+00   -0.307998474065058645E+03
    0.886623200667570188E+02    0.446273609380805141E+02    0.407755331189994834E+02   -0.652880430008137003E+00   -0.187574836689063162E+01   -0.537345636152811501E+00   -0.307986145257631165E+03
    0.884026544227478155E+02    0.447082687120572260E+02    0.374744658477976955E+02   -0.675200668136433757E+00   -0.185410687710888289E+01   -0.547863535701696769E+00   -0.307984702424106160E+03
    0.876896998664280289E+02    0.461652099574837678E+02    0.386444816173149235E+02   -0.704528184308352845E+00   -0.190893359720251921E+01   -0.574375158011157794E+00   -0.307968874564607518E+03
    0.868424306882299959E+02    0.493952930911779049E+02    0.337529593538338659E+02   -0.671645109610162105E+00   -0.184286739647898612E+01   -0.541985267296765549E+00   -0.307960948820053943E+03
    0.855901149392723539E+02    0.473366728252338831E+02    0.389604151682910569E+02   -0.691694852257447979E+00   -0.188907454396546948E+01   -0.556901091656818448E+00   -0.307938420740006165E+03
    0.889330410911900344E+02    0.464064226541573959E+02    0.340615065140207633E+02   -0.673570861100474483E+00   -0.184403229757343090E+01   -0.520752610577590591E+00   -0.307923769617193500E+03
    0.877607650338879068E+02    0.479772988309853687E+02    0.357825519612341836E+02   -0.703460345706382384E+00   -0.193389541347124538E+01   -0.571838141573953962E+00   -0.307921021155886933E+03
    0.877607650338879068E+02    0.479772988309853687E+02    0.357825519612341836E+02   -0.703460345706382384E+00   -0.193389541347124538E+01   -0.571838141573953962E+00   -0.307921021155886933E+03
    0.873696447981169371E+02    0.481013066991421780E+02    0.353425716587769116E+02   -0.698743026403428225E+00   -0.190472341827618163E+01   -0.552359904446619421E+00   -0.307914701044078015E+03
    0.879947748994068917E+02    0.489762037068438403E+02    0.323971109837671349E+02   -0.690219934344697306E+00   -0.190321395325278320E+01   -0.596085731195771018E+00   -0.307906412692402341E+03
    0.875328253668077707E+02    0.443591137563079911E+02    0.397776495230659464E+02   -0.657602231712241414E+00   -0.189081847510059986E+01   -0.556100262415567315E+00   -0.307898441174624281E+03
    0.876005860698279264E+02    0.466909153140202449E+02    0.368085021107136470E+02   -0.634191941630651845E+00   -0.190707305920981618E+01   -0.587374294706453526E+00   -0.307892918234816818E+03
    0.850099099434842742E+02    0.449540404439931933E+02    0.418569072287834913E+02   -0.705421763166786508E+00   -0.193483079161942961E+01   -0.591568302777469412E+00   -0.307892562622288665E+03
    0.862789808886671779E+02    0.451471495057134291E+02    0.412111289248758723E+02   -0.652149841106185457E+00   -0.191742355737203707E+01   -0.606116214508832130E+00   -0.307878162763333819E+03
    0.874543974756732183E+02    0.447098140894488267E+02    0.420636973767333728E+02   -0.681361376100412697E+00   -0.193443774414868153E+01   -0.580984719904659386E+00   -0.307867501440373246E+03
    0.877645425917598629E+02    0.488160322525023247E+02    0.318113575601808662E+02   -0.697287355838287271E+00   -0.187403621270237064E+01   -0.561322224064496833E+00   -0.307864081839072185E+03
    0.867042432887054701E+02    0.502164833224201459E+02    0.337725961965312180E+02   -0.674749153153005210E+00   -0.192828382930919440E+01   -0.605396818596844799E+00   -0.307856120056934230E+03
    0.877822096519503674E+02    0.484704154173419965E+02    0.326950512734351122E+02   -0.697732853659575047E+00   -0.188773957930214165E+01   -0.557372471224474975E+00   -0.307841898695751752E+03
    0.862664243507893218E+02    0.469068612793461668E+02    0.380295967282895191E+02   -0.701237391532524068E+00   -0.189967275518636791E+01   -0.559475089132350778E+00   -0.307841685263816885E+03
    0.866352706034893743E+02    0.475569803442159795E+02    0.392180319671355022E+02   -0.642503969256998708E+00   -0.192778685223340673E+01   -0.598188381558768523E+00   -0.307836612083450859E+03
    0.900908044956601088E+02    0.477349256543368483E+02    0.345898574656008009E+02   -0.671962383044852229E+00   -0.189181499025747990E+01   -0.536042194897883295E+00   -0.307810323698740262E+03
    0.889589495548394069E+02    0.446451666965423186E+02    0.389120983591571203E+02   -0.638626835259417103E+00   -0.188265507001742560E+01   -0.553599028572643093E+00   -0.307797818013447227E+03
    0.903302906731542947E+02    0.467221906664582036E+02    0.338662575675292530E+02   -0.676788459645493390E+00   -0.192432018030484464E+01   -0.580992611348138066E+00   -0.307789064881348054E+03
    0.898766383811038310E+02    0.465173323572557180E+02    0.343311933092119688E+02   -0.647191439209736652E+00   -0.184724125076549139E+01   -0.525416578926138911E+00   -0.307779299871282944E+03
    0.893051919102013869E+02    0.474083501040855140E+02    0.344133786477151560E+02   -0.687085485687610742E+00   -0.188572339115184850E+01   -0.566616070144891015E+00   -0.307722977917178298E+03
    0.866019130983990095E+02    0.462572003170437114E+02    0.379700958626014256E+02   -0.691772448595851408E+00   -0.193423780977054660E+01   -0.610725003280306211E+00   -0.307713002553873480E+03
    0.866019130983990095E+02    0.462572003170437114E+02    0.379700958626014256E+02   -0.691772448595851408E+00   -0.193423780977054660E+01   -0.610725003280306211E+00   -0.307713002553873480E+03
    0.883722428232774178E+02    0.459079183464207006E+02    0.354584260912491871E+02   -0.680190505647153110E+00   -0.192227016834249897E+01   -0.585080707944925837E+00   -0.307704913827438759E+03
    0.877037433167079001E+02    0.426971542741783310E+02    0.438283615231206269E+02   -0.665667272314778735E+00   -0.191345888802832298E+01   -0.555932206226239956E+00   -0.307694787227304403E+03
    0.859795998268346864E+02    0.443168407699228126E+02    0.431783479441034359E+02   -0.692271963679522928E+00   -0.193472695192414501E+01   -0.594056818798297304E+00   -0.307672529703543205E+03
    0.859795998268346864E+02    0.443168407699228126E+02    0.431783479441034359E+02   -0.692271963679522928E+00   -0.193472695192414501E+01   -0.594056818798297304E+00   -0.307672529703543205E+03
    0.890877164961100618E+02    0.445508454092069002E+02    0.375363385836691421E+02   -0.673205281666060529E+00   -0.187951613388163508E+01   -0.564307587223802365E+00   -0.307670685180992280E+03
    0.886156786245363293E+02    0.432396078386198894E+02    0.403029411413902778E+02   -0.669472058439971818E+00   -0.187959466858725044E+01   -0.548261531753998721E+00   -0.307666518445907059E+03
    0.894570449987594145E+02    0.440348676482900174E+02    0.395284849007817698E+02   -0.649875555052983556E+00   -0.189564660628166193E+01   -0.545319549161924488E+00   -0.307664323556943657E+03
    0.887505850086930508E+02    0.492809695662925762E+02    0.333784002545685183E+02   -0.637425254467858249E+00   -0.192384711216942561E+01   -0.581913917592204122E+00   -0.307660232031209546E+03
    0.866727533454076990E+02    0.469705851377305592E+02    0.386903375452644767E+02   -0.657438320598856762E+00   -0.186299127142547505E+01   -0.564467576855014475E+00   -0.307646648141129731E+03
    0.884570133739182438E+02    0.435962783434480485E+02    0.390860957276196004E+02   -0.680783893823793118E+00   -0.191812229923730970E+01   -0.579650501933519191E+00   -0.307643571551487241E+03
    0.900664696091428709E+02    0.485157019753692182E+02    0.333870794705865066E+02   -0.645663989258022486E+00   -0.190251304320054482E+01   -0.548105098673878466E+00   -0.307638297927006818E+03
    0.900486277114932534E+02    0.496493409347381913E+02    0.291952058674649457E+02   -0.661300950397910592E+00   -0.189403829514913058E+01   -0.577455823382113653E+00   -0.307638098125630790E+03
    0.875266894599395329E+02    0.472211533538164048E+02    0.374529452324291725E+02   -0.677315790178690813E+00   -0.185629406446068157E+01   -0.544392268247848587E+00   -0.307630652229458519E+03
    0.844519862689187732E+02    0.436695788475054627E+02    0.449064436428638487E+02   -0.678987812011709657E+00   -0.196482768610971670E+01   -0.608848774129392645E+00   -0.307621963267154342E+03
    0.894686680247896646E+02    0.456901777887067340E+02    0.381828781297191711E+02   -0.661085400006211632E+00   -0.188808786146105967E+01   -0.550412515879684872E+00   -0.307597058159903099E+03
    0.860189785272498852E+02    0.434186492827463724E+02    0.441925245686227939E+02   -0.692458887530942979E+00   -0.194453849294184500E+01   -0.592350907561347562E+00   -0.307586393425725305E+03
    0.899432209268465357E+02    0.470893721270850349E+02    0.359201335331766813E+02   -0.647049299410590750E+00   -0.189826845447901671E+01   -0.542226347497026140E+00   -0.307584037955154656E+03
    0.877769470929366804E+02    0.455474719489760105E+02    0.382671574068045430E+02   -0.642709140171103810E+00   -0.190296341350772025E+01   -0.571838341880000378E+00   -0.307580141162219547E+03
    0.882783482691216506E+02    0.483866427068538769E+02    0.326257989110419189E+02   -0.691086274078861695E+00   -0.184951428503045334E+01   -0.529135141137490272E+00   -0.307579378935849718E+03
    0.856244727081910639E+02    0.457090392949618689E+02    0.414163361695012497E+02   -0.679042788963642119E+00   -0.187549146603324801E+01   -0.565917316518410818E+00   -0.307571346420386817E+03
    0.870771893299511675E+02    0.485968291254101459E+02    0.339308916346144827E+02   -0.679675227669299886E+00   -0.185151666482981514E+01   -0.552085633265390729E+00   -0.307565460863835369E+03
    0.884424148433838297E+02    0.485529181844492683E+02    0.318787921947236477E+02   -0.693107096851572679E+00   -0.185459327861323264E+01   -0.536122969252567305E+00   -0.307557582308124154E+03
    0.865386429938834993E+02    0.473186197508159907E+02    0.360410179636351202E+02   -0.682038381440791541E+00   -0.192710669831642112E+01   -0.602417989878440974E+00   -0.307555878987885876E+03
    0.873050491482085249E+02    0.461749692792315187E+02    0.370059410906752930E+02   -0.663874909535003166E+00   -0.190600718133711022E+01   -0.600033711747694820E+00   -0.307539769119718699E+03
    0.886100412384639071E+02    0.448597870071366387E+02    0.388386921814251593E+02   -0.646712177676855404E+00   -0.186711515733218492E+01   -0.545015679966633471E+00   -0.307539439090130088E+03
    0.868283975005898014E+02    0.431428025122129242E+02    0.439791428293643492E+02   -0.662626556306840753E+00   -0.189838673477143516E+01   -0.554784591868322519E+00   -0.307533019890174103E+03
    0.877612856402654984E+02    0.463092586868409057E+02    0.379108117663324222E+02   -0.672044051692765709E+00   -0.186522799925828631E+01   -0.521773753544788832E+00   -0.307519421934833986E+03
    0.883924937535678055E+02    0.482150790195355015E+02    0.333394528612803143E+02   -0.680097663124513918E+00   -0.190429626237626271E+01   -0.554924168860445821E+00   -0.307517874346102303E+03
    0.899208559921168131E+02    0.485867092883199589E+02    0.304936115052092944E+02   -0.688483447432591600E+00   -0.187155363079221293E+01   -0.551472851816911191E+00   -0.307517800061667799E+03
    0.887352247445957545E+02    0.483429621397660370E+02    0.356091787036400689E+02   -0.642529093281149155E+00   -0.188407459879818306E+01   -0.557740180459186607E+00   -0.307516698578731166E+03
    0.857515475625922932E+02    0.475835673340586141E+02    0.390972661687290781E+02   -0.689112786252625842E+00   -0.189144335537146047E+01   -0.566316432116924062E+00   -0.307504579340496377E+03
    0.892353527259338222E+02    0.457486405087364787E+02    0.372686167282629199E+02   -0.679646742912989987E+00   -0.186152078780278640E+01   -0.521072973310535481E+00   -0.307485073102027570E+03
    0.867605835007859980E+02    0.477083505179836820E+02    0.355971194260460422E+02   -0.662829639566394180E+00   -0.187155748935349742E+01   -0.567773147643452436E+00   -0.307481990295771539E+03
    0.865219228824909976E+02    0.453936580182549605E+02    0.415436099668028618E+02   -0.651893346041864330E+00   -0.188311160402695021E+01   -0.550114175170540065E+00   -0.307475671348336107E+03
    0.895167237685258925E+02    0.452964209237277231E+02    0.372921913923284407E+02   -0.683825136870909178E+00   -0.190704545538933234E+01   -0.569864390424192901E+00   -0.307444544568476260E+03
    0.863205251237648952E+02    0.445549729691239662E+02    0.423055447906625446E+02   -0.640494498885153751E+00   -0.193323091040644690E+01   -0.597453674531227108E+00   -0.307443298027338130E+03
    0.867413061889548516E+02    0.461769838928285736E+02    0.396466180682855693E+02   -0.666974855756608864E+00   -0.195090783492323450E+01   -0.592173356901630754E+00   -0.306951943208470993E+03
    0.864416686965761585E+02    0.448469054381999328E+02    0.428936372421552292E+02   -0.663747430734800581E+00   -0.194061777727313767E+01   -0.586623937195366096E+00   -0.307107917553487198E+03
    0.863213060668398242E+02    0.433973987232890295E+02    0.433604531411623952E+02   -0.674820518161818761E+00   -0.191918736805873036E+01   -0.569442025404204522E+00   -0.307251988957181652E+03
    0.866355652429973162E+02    0.442382399504201942E+02    0.415594878452867533E+02   -0.686937864148414512E+00   -0.187338068040800465E+01   -0.550906498599995853E+00   -0.307388827202493644E+03
    0.879271498219416827E+02    0.465867686867933912E+02    0.385620603320854300E+02   -0.647545821164054569E+00   -0.188127764828464472E+01   -0.539667226673693712E+00   -0.307293029775452851E+03
    0.874644003530158756E+02    0.487777894203826747E+02    0.359754872287451946E+02   -0.681186255765221960E+00   -0.190910193237135051E+01   -0.579313999485284725E+00   -0.307431318581617575E+03
    0.874157075783982549E+02    0.484513387118394121E+02    0.360625722268463136E+02   -0.686001220606469841E+00   -0.192151381140015221E+01   -0.585172430640154229E+00   -0.307158751001004930E+03
    0.879312883016195741E+02    0.470778707902627858E+02    0.377063779275204354E+02   -0.669520303287145291E+00   -0.188165786816432012E+01   -0.561988857210141468E+00   -0.307163504466503070E+03
    0.879312883016195741E+02    0.470778707902627858E+02    0.377063779275204354E+02   -0.669520303287145291E+00   -0.188165786816432012E+01   -0.561988857210141468E+00   -0.307163504466503070E+03
    0.890739515163231061E+02    0.495592077778749101E+02    0.304510055889022908E+02   -0.687660271809890533E+00   -0.187508919984656752E+01   -0.555738241696952517E+00   -0.307276096802576092E+03
    0.872076017567303410E+02    0.497202759184035727E+02    0.338669811124077782E+02   -0.665876860381739100E+00   -0.190614059365627875E+01   -0.594593909995477343E+00   -0.307184040957938976E+03
    0.850453242002232770E+02    0.469125145795543546E+02    0.399328201628595778E+02   -0.681910915713290766E+00   -0.193776217972765008E+01   -0.600113557487872207E+00   -0.307311563582268832E+03
    0.897415744221455896E+02    0.491056778817623965E+02    0.318122216377393094E+02   -0.656212261607099112E+00   -0.189447394754375775E+01   -0.547161753711559395E+00   -0.307154141360216954E+03
    0.882813374492798886E+02    0.453719059081145346E+02    0.374701935757860625E+02   -0.678374589340614342E+00   -0.193730039695143219E+01   -0.584263096511326907E+00   -0.307080697305219815E+03
    0.893560405553883044E+02    0.442085286086901306E+02    0.400242158938264296E+02   -0.665406276465025481E+00   -0.191478939573735407E+01   -0.558411815844740200E+00   -0.307402314907328332E+03
    0.884882710420027365E+02    0.480070070004847125E+02    0.329751405802869186E+02   -0.685767024886357657E+00   -0.191476921967115588E+01   -0.594010488346687460E+00   -0.307359996754517283E+03
    0.899623490929057397E+02    0.466311900964210224E+02    0.344338399184876351E+02   -0.690963251363296393E+00   -0.188444068097672135E+01   -0.537829942645566828E+00   -0.307110295244969507E+03
    0.899623490929057397E+02    0.466311900964210224E+02    0.344338399184876351E+02   -0.690963251363296393E+00   -0.188444068097672135E+01   -0.537829942645566828E+00   -0.307110295244969507E+03
    0.854109267184273193E+02    0.441174992867661047E+02    0.446228530801215726E+02   -0.662837908890196559E+00   -0.192244882560611385E+01   -0.584596860811792407E+00   -0.307241097583220380E+03
    0.872690003859045618E+02    0.492775730530671439E+02    0.339366849890101037E+02   -0.676945522566884783E+00   -0.185794293443247960E+01   -0.540187662168247318E+00   -0.307420630062539601E+03
    0.876647416002913786E+02    0.472897586778493348E+02    0.353100939397055598E+02   -0.654186075918287147E+00   -0.191168512647057320E+01   -0.585385599340424445E+00   -0.307307833626155627E+03
    0.878647598654515889E+02    0.472227742350362760E+02    0.361898157845404000E+02   -0.658635877875217490E+00   -0.187623814786688770E+01   -0.543548372418869441E+00   -0.306943436939011860E+03
    0.878151459180352560E+02    0.501632149986848859E+02    0.315913726183087178E+02   -0.673814619672141069E+00   -0.187166546798242739E+01   -0.564662239188918669E+00   -0.307158507025673487E+03
    0.869066434073407237E+02    0.456491987697094146E+02    0.412727366677465497E+02   -0.668526538385159075E+00   -0.192049832790108077E+01   -0.560002205139176645E+00   -0.307143235528237255E+03
    0.878181298604784502E+02    0.464368465451979802E+02    0.370868756823648127E+02   -0.644904955554080672E+00   -0.187125126502710293E+01   -0.556164091924633563E+00   -0.307257989438796130E+03
    0.877253896441434762E+02    0.454231359615969481E+02    0.380434523932421556E+02   -0.683942258925534619E+00   -0.192426355388346826E+01   -0.586208535479141091E+00   -0.306590514207028946E+03
    0.877253896441434762E+02    0.454231359615969481E+02    0.380434523932421556E+02   -0.683942258925534619E+00   -0.192426355388346826E+01   -0.586208535479141091E+00   -0.306590514207028946E+03
    0.885896219967130776E+02    0.464122517872152116E+02    0.384117050008823355E+02   -0.639473123364392659E+00   -0.192628440952261615E+01   -0.573779375972768513E+00   -0.307377839320232965E+03
    0.871942943897579283E+02    0.474311113595123146E+02    0.354043372545923631E+02   -0.672733810932716114E+00   -0.190083215401031480E+01   -0.583899915544764614E+00   -0.306901715464822644E+03
    0.898862113865247068E+02    0.487141098507584616E+02    0.299812477258900607E+02   -0.661014856503357118E+00   -0.189173139770034293E+01   -0.569265555312833627E+00   -0.307416593669461406E+03
    0.897446901184394932E+02    0.486748626783450575E+02    0.323589509727068716E+02   -0.673715201299189603E+00   -0.189755479733626742E+01   -0.554694574282442066E+00   -0.306890456915520986E+03
    0.883427925392403779E+02    0.440876354816567755E+02    0.412995528634441484E+02   -0.680483274510979452E+00   -0.191956295758593121E+01   -0.549986477167572652E+00   -0.307354994488093780E+03
    0.878117761690805736E+02    0.453217013542668283E+02    0.388915806617665041E+02   -0.689180565043781668E+00   -0.191571410575295054E+01   -0.566219170316331510E+00   -0.306444176068469460E+03
    0.878117761690805736E+02    0.453217013542668283E+02    0.388915806617665041E+02   -0.689180565043781668E+00   -0.191571410575295054E+01   -0.566219170316331510E+00   -0.306444176068469460E+03
    0.891899565777608245E+02    0.481226470152693722E+02    0.343394217879038237E+02   -0.657225114325626469E+00   -0.190964839169298095E+01   -0.572697564866343711E+00   -0.306608004594717727E+03
    0.891899565777608245E+02    0.481226470152693722E+02    0.343394217879038237E+02   -0.657225114325626469E+00   -0.190964839169298095E+01   -0.572697564866343711E+00   -0.306608004594717727E+03
    0.892637420440823774E+02    0.443390846764388300E+02    0.394171108151564979E+02   -0.658128068266187416E+00   -0.188235012886828068E+01   -0.541395831804094563E+00   -0.307334922599332344E+03
    0.878996336005056378E+02    0.492628695643465591E+02    0.343785753828509044E+02   -0.677308428705416077E+00   -0.191726846731363798E+01   -0.576718513285110479E+00   -0.306969865421173949E+03
    0.879622122019582662E+02    0.454503489761757180E+02    0.397057864175247275E+02   -0.659231306361816483E+00   -0.191201078353838949E+01   -0.578819284068863738E+00   -0.306698040969802548E+03
    0.879622122019582662E+02    0.454503489761757180E+02    0.397057864175247275E+02   -0.659231306361816483E+00   -0.191201078353838949E+01   -0.578819284068863738E+00   -0.306698040969802548E+03
    0.870768922446882385E+02    0.468450587972254837E+02    0.379744081694626558E+02   -0.665732374392938864E+00   -0.193144983036299411E+01   -0.603298075085990426E+00   -0.306789801113822136E+03
    0.896579963212610096E+02    0.455487892727010077E+02    0.358245055057708370E+02   -0.672293580597657536E+00   -0.189484193903710207E+01   -0.554055922363214215E+00   -0.306758065477162972E+03
    0.880422066202502123E+02    0.483473688985869998E+02    0.326666646911216816E+02   -0.694110385785927653E+00   -0.187556974802962695E+01   -0.561434742922390928E+00   -0.307227525162780296E+03
    0.897177903134785453E+02    0.458147124489352535E+02    0.360748208160406207E+02   -0.649502975616079947E+00   -0.186256035700749267E+01   -0.535983405521567313E+00   -0.307387240005573744E+03
    0.890387508882310073E+02    0.476918375381126793E+02    0.334674669230382804E+02   -0.660655723215032298E+00   -0.184871072209003651E+01   -0.521655275212653535E+00   -0.307271886923816737E+03
    0.885564447361966245E+02    0.455898282564334139E+02    0.393863515774457724E+02   -0.675734354150778982E+00   -0.192414683143952603E+01   -0.557451125684439219E+00   -0.307063560755514288E+03
    0.886474855329189921E+02    0.446954131941354760E+02    0.398456311966645558E+02   -0.661723143687654947E+00   -0.192754074018218868E+01   -0.579784676071780858E+00   -0.307029159257180595E+03
    0.868473306564645071E+02    0.447061248568864755E+02    0.407154761735265112E+02   -0.665561026356919605E+00   -0.192608239069698506E+01   -0.577798738059725814E+00   -0.306982647313973246E+03
    0.879463038993859243E+02    0.472310806781948216E+02    0.350816732347501059E+02   -0.661984008978600436E+00   -0.185417100424998438E+01   -0.544507668279677670E+00   -0.307124326396654396E+03
    0.899662666777727225E+02    0.474745400238235575E+02    0.347004338598180055E+02   -0.639654980259987349E+00   -0.189511031892392356E+01   -0.549423687561690244E+00   -0.307393264830968121E+03
    0.894504318907761018E+02    0.459311294127205372E+02    0.373342707895002093E+02   -0.666386199233820919E+00   -0.193295642211420726E+01   -0.573330239099476557E+00   -0.307098237203948486E+03
    0.861731972336193621E+02    0.443730498110207492E+02    0.426323897470682454E+02   -0.693762030275883346E+00   -0.191563890250752222E+01   -0.566777572072345581E+00   -0.307058465275634944E+03
    0.883507439798124778E+02    0.459261543301178392E+02    0.388536328648439451E+02   -0.642594481190269962E+00   -0.192315031601329189E+01   -0.583547019932472377E+00   -0.307130305132820126E+03
    0.850932685700396547E+02    0.441418082761142472E+02    0.438235607819693271E+02   -0.665422171675691176E+00   -0.191023939842542823E+01   -0.582447870571693560E+00   -0.307245081951875648E+03
    0.896098517009300792E+02    0.469072140991584092E+02    0.336365790934516014E+02   -0.654731015356520007E+00   -0.188457502646550457E+01   -0.561166626186848649E+00   -0.306921794811348491E+03
    0.896098517009300792E+02    0.469072140991584092E+02    0.336365790934516014E+02   -0.654731015356520007E+00   -0.188457502646550457E+01   -0.561166626186848649E+00   -0.306921794811348491E+03
    0.873782607766991646E+02    0.490653934979644859E+02    0.344172698869154772E+02   -0.676956599328127684E+00   -0.187709971892119221E+01   -0.554089582926383883E+00   -0.306839546517251620E+03
    0.884716049928383654E+02    0.452330949863256251E+02    0.368686990008562248E+02   -0.666161354603906020E+00   -0.189862829757578089E+01   -0.570057568189749730E+00   -0.307180101561870117E+03
    0.871446307141183354E+02    0.449114241081921932E+02    0.419580007413165248E+02   -0.665056128425563831E+00   -0.191384464941417987E+01   -0.574029309460333703E+00   -0.306975622221954950E+03
    0.871446307141183354E+02    0.449114241081921932E+02    0.419580007413165248E+02   -0.665056128425563831E+00   -0.191384464941417987E+01   -0.574029309460333703E+00   -0.306975622221954950E+03
    0.887545021414833428E+02    0.489794545069088016E+02    0.333889372447555317E+02   -0.667341449016018329E+00   -0.191503553935130011E+01   -0.584911227176237336E+00   -0.306955516993711058E+03
    0.883162395495512413E+02    0.477989504026317604E+02    0.350283614431217885E+02   -0.700223841733244257E+00   -0.188761385733843245E+01   -0.550095459932420816E+00   -0.307137068114197518E+03
    0.863973518308267927E+02    0.461254207242228915E+02    0.406483230815865824E+02   -0.684989644330220360E+00   -0.189047213590756091E+01   -0.562570093841787244E+00   -0.307134690746377146E+03
    0.860680465345928383E+02    0.445300923719450665E+02    0.425001509156826174E+02   -0.694709224077118437E+00   -0.194147802996959129E+01   -0.592603447167227237E+00   -0.307202225218039018E+03
    0.882069948861298911E+02    0.477938706006716671E+02    0.340765998403832455E+02   -0.683925739231047380E+00   -0.186638046570542504E+01   -0.542355710888426046E+00   -0.306780886258169517E+03
    0.882069948861298911E+02    0.477938706006716671E+02    0.340765998403832455E+02   -0.683925739231047380E+00   -0.186638046570542504E+01   -0.542355710888426046E+00   -0.306780886258169517E+03
    0.865945903614060768E+02    0.466208933260319043E+02    0.398144189986825765E+02   -0.641308090593575297E+00   -0.192500199435676755E+01   -0.596194187643143803E+00   -0.307168482382441425E+03
