    0.258736926725041030E+03    0.302824852304075840E+02    0.872460129395424389E+02   -0.181104648130118639E+01   -0.280375117566960963E+01   -0.618364440898953482E+00   -0.295472971992351972E+03
    0.254663531043929083E+03    0.333204835373895989E+02    0.890540789308942067E+02   -0.191474791072113804E+01   -0.289835518661448699E+01   -0.636905739169071339E+00   -0.294961357001473004E+03
    0.259690839473341043E+03    0.357735818361712674E+02    0.871405739250817248E+02   -0.190138951097768882E+01   -0.288375088051362560E+01   -0.625795394027109264E+00   -0.293979015072783511E+03
    0.261221225279334647E+03    0.341000413700674727E+02    0.823660597760391227E+02   -0.188902704428863721E+01   -0.284046078478019792E+01   -0.567749842194522625E+00   -0.293949396115006550E+03
    0.262677259961395350E+03    0.373530226469653286E+02    0.789850437180721627E+02   -0.191617081355588303E+01   -0.278481175138832437E+01   -0.575680739712051803E+00   -0.293709288117190567E+03
    0.269933340078556228E+03    0.393594871931731092E+02    0.681641635508114803E+02   -0.190740021442666663E+01   -0.279145168027905521E+01   -0.615907340325389185E+00   -0.293277943008296177E+03
    0.271426653862214607E+03    0.330545969270490048E+02    0.794424313029272895E+02   -0.189825614260276154E+01   -0.292160572608424562E+01   -0.577028957282591737E+00   -0.293091443168741819E+03
    0.271897986539701208E+03    0.359455647971554129E+02    0.709799446580127835E+02   -0.190718499879213610E+01   -0.287737623235971274E+01   -0.608913953197007807E+00   -0.292980138098334123E+03
    0.262991438761149084E+03    0.344335871687653992E+02    0.822111671276815485E+02   -0.183186752095260807E+01   -0.292778323963747233E+01   -0.636740526222420389E+00   -0.292868456376846552E+03
    0.264750964956121095E+03    0.313914383531440713E+02    0.745918099343557088E+02   -0.189796127467952647E+01   -0.277806694077212102E+01   -0.640611119645227767E+00   -0.292830435381266341E+03
    0.271477680015670501E+03    0.329658529829883022E+02    0.704395870063320473E+02   -0.189219432513325403E+01   -0.276275131735568191E+01   -0.584899871585681019E+00   -0.292826956074970553E+03
    0.264340822365311624E+03    0.329591942155467308E+02    0.898661280247478231E+02   -0.190910240229893557E+01   -0.286900484452392357E+01   -0.574102344042515700E+00   -0.292804390347138167E+03
    0.269622925912688743E+03    0.372337395158249223E+02    0.827855477936137447E+02   -0.185255158460669533E+01   -0.280951093593548062E+01   -0.567616951225359045E+00   -0.292637737383875560E+03
    0.258173439769911056E+03    0.340284622302682465E+02    0.826531531521952303E+02   -0.184938877655599310E+01   -0.282651938546893389E+01   -0.604584153431315663E+00   -0.292618882016335988E+03
    0.264535443088982674E+03    0.318928191736841171E+02    0.897548895026297942E+02   -0.190084563238707704E+01   -0.282172164316138741E+01   -0.541734887160685297E+00   -0.292612713809896491E+03
    0.256797087043108263E+03    0.340003530558523863E+02    0.765206408693186546E+02   -0.184616305780999190E+01   -0.284495124185879789E+01   -0.653721192470789969E+00   -0.292591356110187746E+03
    0.265939802099009000E+03    0.391722942139267758E+02    0.675159963928314113E+02   -0.189270893998554968E+01   -0.279170205537538108E+01   -0.637182101776404330E+00   -0.292580856152200624E+03
    0.273279395064511846E+03    0.338321182942812158E+02    0.833421565832749849E+02   -0.188939213338597001E+01   -0.293216890932534602E+01   -0.546464062620303448E+00   -0.292499608612603708E+03
    0.267129702575280987E+03    0.392453632524595619E+02    0.806118503164982769E+02   -0.189813076187500362E+01   -0.288263806497941433E+01   -0.593656910244537261E+00   -0.292491009137813251E+03
    0.260831987568456157E+03    0.377198855987982782E+02    0.715923450564026496E+02   -0.189287337674817491E+01   -0.277849838088387058E+01   -0.635380243796448418E+00   -0.292407895810760976E+03
    0.264911997712849882E+03    0.365990763478640702E+02    0.854880900739765366E+02   -0.184578265574315581E+01   -0.284251540260303548E+01   -0.602927154704998358E+00   -0.292147949885595665E+03
    0.264296881203928081E+03    0.386831692622486543E+02    0.700938690962508701E+02   -0.186178052721023768E+01   -0.276699085434554304E+01   -0.613532193583885110E+00   -0.292142567596125218E+03
    0.276978347384701635E+03    0.347314247398871316E+02    0.735020857798847231E+02   -0.187338364515773748E+01   -0.281862874434333532E+01   -0.588068088870250971E+00   -0.292104231942649164E+03
    0.266334295914090262E+03    0.345121738269078264E+02    0.768707498244433367E+02   -0.184574283495786773E+01   -0.277016898760579178E+01   -0.589809472823922043E+00   -0.292027290715080198E+03
    0.257513115773777429E+03    0.344281932555921202E+02    0.824801681532285471E+02   -0.191185650710619282E+01   -0.283597182734902020E+01   -0.633372903176635749E+00   -0.291966752553776530E+03
    0.264213664570020399E+03    0.395257889345831117E+02    0.822660046890025853E+02   -0.188110490022897547E+01   -0.285517653213723399E+01   -0.596143976117056607E+00   -0.291845779719582481E+03
    0.267979144110085599E+03    0.308529441094356294E+02    0.763703180843767910E+02   -0.186473862866087248E+01   -0.276117656976435111E+01   -0.601228491416172517E+00   -0.291760899873923790E+03
    0.265497106983853485E+03    0.293478263883269932E+02    0.820394139625445007E+02   -0.188929980926743779E+01   -0.287838615431014766E+01   -0.618086789073255094E+00   -0.291727718512562831E+03
    0.269161952948418843E+03    0.367943887564931060E+02    0.872513124638818311E+02   -0.189688822670164092E+01   -0.287806063362207354E+01   -0.544747873968446594E+00   -0.291692321856319381E+03
    0.258317855813873280E+03    0.308580597855425509E+02    0.778286121847410186E+02   -0.184604893613653931E+01   -0.281319072278542537E+01   -0.656394014822035299E+00   -0.291649908240481807E+03
    0.266342975889797231E+03    0.394588601761563496E+02    0.848138962713360058E+02   -0.185185398717226435E+01   -0.291426643656046691E+01   -0.566532430293271716E+00   -0.291644905552554519E+03
    0.267144297912051627E+03    0.309499733888860078E+02    0.787710678634979899E+02   -0.183338803084744661E+01   -0.280159259193216936E+01   -0.619418813995249007E+00   -0.291644695551636232E+03
    0.269376078313506866E+03    0.346601402748546690E+02    0.717733274468659630E+02   -0.188267534575026185E+01   -0.279582676049033285E+01   -0.584553818564093497E+00   -0.291636163963602598E+03
    0.267475270114672639E+03    0.374356555071284518E+02    0.875557863156041236E+02   -0.184878551938691094E+01   -0.289835837563689314E+01   -0.571319462593918637E+00   -0.291614056969266926E+03
    0.261865527872596829E+03    0.325266238765964815E+02    0.852856393409222306E+02   -0.188544377809894259E+01   -0.287832561496899020E+01   -0.569559456394999053E+00   -0.291552775307403522E+03
    0.268195208440803640E+03    0.339450096734898068E+02    0.881293227898382838E+02   -0.190016285464395063E+01   -0.284502064452180781E+01   -0.514861059478995298E+00   -0.291495472791096688E+03
    0.266643022087807026E+03    0.352019242203996470E+02    0.683773532062987073E+02   -0.188649607623231930E+01   -0.275517608439022998E+01   -0.629901668394939218E+00   -0.291453856278177682E+03
    0.264190562781387825E+03    0.328678753013204101E+02    0.835141514407607133E+02   -0.187325313355353895E+01   -0.290562838456146855E+01   -0.577066289679669886E+00   -0.291448305212496678E+03
    0.271340724047739400E+03    0.373338369673263060E+02    0.700509489593165569E+02   -0.184930688817953337E+01   -0.277873839431666481E+01   -0.598832698238521477E+00   -0.291436450665912162E+03
    0.271296533791936668E+03    0.376635299716654970E+02    0.859451896364749643E+02   -0.189412378199355058E+01   -0.290095839666177380E+01   -0.510352732905152706E+00   -0.291430813166215330E+03
    0.267480818212897077E+03    0.393689407009768928E+02    0.798910964424159005E+02   -0.187055453951104722E+01   -0.284160328507288629E+01   -0.590546182514442020E+00   -0.291420191248558012E+03
    0.268553631030740007E+03    0.319877867464342778E+02    0.719349243502208111E+02   -0.186594244298036172E+01   -0.276503597943128998E+01   -0.623474916317730887E+00   -0.291377925712447450E+03
    0.266239071221800884E+03    0.341149970833529181E+02    0.858061582707067458E+02   -0.188591579242360829E+01   -0.295014670516658084E+01   -0.533012210323692504E+00   -0.291370912670448433E+03
    0.258990119789308494E+03    0.347904587350382570E+02    0.813221979428424646E+02   -0.184271849584278558E+01   -0.288196429803497312E+01   -0.656589485705725728E+00   -0.291370329158439574E+03
    0.260538270116080753E+03    0.342678013597341078E+02    0.815032248237799166E+02   -0.185159059998293962E+01   -0.277733368647028467E+01   -0.613341554532316202E+00   -0.291361876084806511E+03
    0.262231694457341234E+03    0.353536615029640799E+02    0.883298913896395419E+02   -0.186137741376964638E+01   -0.288098667443678824E+01   -0.531886139459093243E+00   -0.291358238997515059E+03
    0.263606821158147113E+03    0.369955917915355883E+02    0.793032894484571358E+02   -0.186547331351952983E+01   -0.286026227558181256E+01   -0.585524713817633824E+00   -0.291333311827712578E+03
    0.267918024846275728E+03    0.305020196941942565E+02    0.869681725102746981E+02   -0.189535653572452301E+01   -0.286308531602075300E+01   -0.545748405979031848E+00   -0.291324969208508094E+03
    0.259827350908954884E+03    0.326043550389149317E+02    0.837710465116919210E+02   -0.188469791200157721E+01   -0.284653508380304787E+01   -0.590908056506132873E+00   -0.291238475148849830E+03
    0.267058039327014626E+03    0.317017766766382181E+02    0.871778727555713004E+02   -0.188876142358483268E+01   -0.281604925933918837E+01   -0.536692896257476626E+00   -0.291205190916935464E+03
    0.269187885949629447E+03    0.364587833567303150E+02    0.676840645659256097E+02   -0.187656397093621474E+01   -0.280386877841182081E+01   -0.604223058065817220E+00   -0.291189772800653941E+03
    0.259987300806138705E+03    0.368215149262583452E+02    0.860802530787273668E+02   -0.188233408122595947E+01   -0.294985542676867851E+01   -0.611430069223624084E+00   -0.291172181107320625E+03
    0.260724330847443412E+03    0.311244900933764335E+02    0.882145919259149309E+02   -0.189804142068576498E+01   -0.287005639999482920E+01   -0.570371964903868545E+00   -0.291159108005975156E+03
    0.266672498021000820E+03    0.321902304039999976E+02    0.769880908106106574E+02   -0.190652957441938642E+01   -0.281553509692391657E+01   -0.589682241646376504E+00   -0.291154911516215179E+03
    0.266516372071487979E+03    0.375307529251829806E+02    0.715068584605459989E+02   -0.187032475638601903E+01   -0.283188183323914178E+01   -0.642640716254228028E+00   -0.291133253874293359E+03
    0.268418511198316594E+03    0.371040112778758129E+02    0.865955377252349479E+02   -0.185108430197484464E+01   -0.296128797011342115E+01   -0.542966974472563813E+00   -0.291117423735602813E+03
    0.267000883103575120E+03    0.368984319707429336E+02    0.836245696270239876E+02   -0.190469208825037661E+01   -0.281855679205091869E+01   -0.558711080753095946E+00   -0.291112103585734644E+03
    0.273181096394699239E+03    0.362376782029972091E+02    0.660835089076976487E+02   -0.188970995163498512E+01   -0.278505757007660426E+01   -0.615550655757295395E+00   -0.291074655905262489E+03
    0.264753261791161435E+03    0.362237830995133834E+02    0.877881042489586889E+02   -0.188817617879996202E+01   -0.294924658546163698E+01   -0.584969143264082447E+00   -0.291062631298743327E+03
    0.259323973964877439E+03    0.369404299754616048E+02    0.869898501470583767E+02   -0.190179295333010057E+01   -0.290025068192308666E+01   -0.564830728437132557E+00   -0.291061151682620903E+03
    0.255749995534145967E+03    0.324236651106704059E+02    0.825279285471192026E+02   -0.188547397554106277E+01   -0.284775223815874412E+01   -0.636367857481634047E+00   -0.291049505964700131E+03
    0.270744072879430064E+03    0.332042227605813736E+02    0.724500459026636179E+02   -0.185332566664783593E+01   -0.278246502784023608E+01   -0.622138589361179051E+00   -0.291038589221648181E+03
    0.264815132267078411E+03    0.300470391191414663E+02    0.818809706796086374E+02   -0.184479012794478980E+01   -0.281589358570343329E+01   -0.606829773949034035E+00   -0.291022204399915495E+03
    0.263820475645756972E+03    0.336209296176850998E+02    0.834046720598724107E+02   -0.189921649908553070E+01   -0.293474696664743995E+01   -0.610732787685268175E+00   -0.290956077589866140E+03
    0.257126040337190261E+03    0.342745789540058539E+02    0.788473208195869972E+02   -0.185439043891953781E+01   -0.279853126382580664E+01   -0.641091761822592865E+00   -0.290937000745222917E+03
    0.273463313880353780E+03    0.342682052872752507E+02    0.808883717653708487E+02   -0.184964099839813967E+01   -0.284369541601228137E+01   -0.576514345844234111E+00   -0.290929029388383356E+03
    0.267536944197514629E+03    0.368679669162835353E+02    0.683072961827340777E+02   -0.184670091165202988E+01   -0.281813707019963688E+01   -0.633660820628945132E+00   -0.290884197623535442E+03
    0.268741633001295099E+03    0.382302811692177329E+02    0.763196352421381903E+02   -0.185248812428502285E+01   -0.286145215397452857E+01   -0.603894505397057468E+00   -0.290870564372013291E+03
    0.269213313819564462E+03    0.364907649457669976E+02    0.673242688024820950E+02   -0.187014363886913504E+01   -0.276024189675815768E+01   -0.620066878933546395E+00   -0.290818210676730416E+03
    0.264390898373241100E+03    0.347034311490782770E+02    0.845833937585187812E+02   -0.187759283337154859E+01   -0.285988871248936771E+01   -0.622164993445634362E+00   -0.290744677758746889E+03
    0.264390898373241100E+03    0.347034311490782770E+02    0.845833937585187812E+02   -0.187759283337154859E+01   -0.285988871248936771E+01   -0.622164993445634362E+00   -0.290744677758746889E+03
    0.269529260061287800E+03    0.344372859513652188E+02    0.752427081875491695E+02   -0.189267568460483981E+01   -0.287221454296429624E+01   -0.594973109804971312E+00   -0.290730798160523648E+03
    0.268096177687244335E+03    0.363181377768564886E+02    0.672280486669094302E+02   -0.190227523315458336E+01   -0.280058982041383553E+01   -0.616056522700380693E+00   -0.290689838903012856E+03
    0.258948640845368345E+03    0.305728327275453751E+02    0.851182773086726598E+02   -0.187481152786178495E+01   -0.280113045857241305E+01   -0.620331286066248655E+00   -0.290689464341378027E+03
    0.270454443985703449E+03    0.334830575634620544E+02    0.837150482147924180E+02   -0.190316108734062617E+01   -0.283442239721852296E+01   -0.533768768989008713E+00   -0.290683054858898743E+03
    0.266366951597832610E+03    0.374481790529897935E+02    0.849669255551526419E+02   -0.185883568739804694E+01   -0.295289824411170176E+01   -0.551105914246942774E+00   -0.290682412635097023E+03
    0.260994418583429308E+03    0.340944357956188284E+02    0.823937141071596528E+02   -0.186869458449238834E+01   -0.292825714864773223E+01   -0.637234418936177160E+00   -0.290670660888289831E+03
    0.267879032007119065E+03    0.355062188464937236E+02    0.817004122538102848E+02   -0.190820542633690216E+01   -0.291343339038232418E+01   -0.576804158295847191E+00   -0.290660311836282631E+03
    0.266106274286430562E+03    0.324352862654403964E+02    0.835389362754407472E+02   -0.187581083773322077E+01   -0.284530531275900200E+01   -0.557021696868727823E+00   -0.290639342480879293E+03
    0.270576881424448345E+03    0.339650273677792995E+02    0.854131609241056111E+02   -0.185704415655437938E+01   -0.288252607744234757E+01   -0.582408527740993609E+00   -0.290623728491674058E+03
    0.264980234183432685E+03    0.302126992125254255E+02    0.840349006583133900E+02   -0.189108403338761133E+01   -0.283711406895444851E+01   -0.578473552147447556E+00   -0.290602907624118188E+03
    0.271198758212808627E+03    0.354109603743444694E+02    0.861463082882754350E+02   -0.185450917706200391E+01   -0.288120787757027230E+01   -0.541765577622796091E+00   -0.290563563837771596E+03
    0.266117489458096941E+03    0.354997826366918048E+02    0.879225755041969705E+02   -0.186374374333852066E+01   -0.286492469556743501E+01   -0.516059313205254000E+00   -0.290508825973979356E+03
    0.260459082565760809E+03    0.372853167453390455E+02    0.844799024636501912E+02   -0.190539411543818016E+01   -0.288349578386473482E+01   -0.589845427095962105E+00   -0.290506392804898212E+03
    0.265312273883231796E+03    0.302145327481675636E+02    0.849663388836055873E+02   -0.185848310298199548E+01   -0.286975855767981836E+01   -0.587498909519369228E+00   -0.290498427909483325E+03
    0.271501199975910367E+03    0.318613363128743536E+02    0.778573229433755927E+02   -0.187861906406672752E+01   -0.285942143936168458E+01   -0.603770338202736401E+00   -0.290404459619701754E+03
    0.269325837090122491E+03    0.390509010344627754E+02    0.752685891036796022E+02   -0.188312651152382871E+01   -0.284689338012735549E+01   -0.597627253104870082E+00   -0.290395584898597804E+03
    0.270116455199610925E+03    0.379980973682751397E+02    0.705107617188208877E+02   -0.188355337897247654E+01   -0.278274010136736338E+01   -0.606524690495382934E+00   -0.290385371009929486E+03
    0.267081494550744765E+03    0.327737775018003532E+02    0.782883154372349708E+02   -0.187846400378888179E+01   -0.277935218997488986E+01   -0.577281942135284165E+00   -0.290376460105404874E+03
    0.270844286851166657E+03    0.377714802619733092E+02    0.785447893507617465E+02   -0.189647038855504468E+01   -0.288293284049586429E+01   -0.567940149618974210E+00   -0.290373812680918036E+03
    0.270844286851166657E+03    0.377714802619733092E+02    0.785447893507617465E+02   -0.189647038855504468E+01   -0.288293284049586429E+01   -0.567940149618974210E+00   -0.290373812680918036E+03
    0.267848647777218787E+03    0.371270040543847344E+02    0.735679764255067710E+02   -0.189572744324181119E+01   -0.284409059357953176E+01   -0.588806443316439942E+00   -0.290372975729305551E+03
    0.267848647777218787E+03    0.371270040543847344E+02    0.735679764255067710E+02   -0.189572744324181119E+01   -0.284409059357953176E+01   -0.588806443316439942E+00   -0.290372975729305551E+03
    0.272243750677082687E+03    0.344754644436290434E+02    0.798423738183511063E+02   -0.190455583854774235E+01   -0.281701884410002767E+01   -0.548556511483609732E+00   -0.290356063160743361E+03
    0.272243750677082687E+03    0.344754644436290434E+02    0.798423738183511063E+02   -0.190455583854774235E+01   -0.281701884410002767E+01   -0.548556511483609732E+00   -0.290356063160743361E+03
    0.270044578762986134E+03    0.349642286532438931E+02    0.762394232253360400E+02   -0.187160383056882607E+01   -0.286232867238290378E+01   -0.624329495192723627E+00   -0.290353031904583929E+03
    0.268629746520448919E+03    0.362923286570625905E+02    0.891088542080955648E+02   -0.186719663192406538E+01   -0.293892514430325669E+01   -0.527722461514400276E+00   -0.290331115240966085E+03
    0.269954541762076474E+03    0.320569477719291598E+02    0.762305098548637119E+02   -0.187343344136529044E+01   -0.286068702096156491E+01   -0.615432545131036512E+00   -0.290330559913980210E+03
    0.263622616711731609E+03    0.362352519101885662E+02    0.817808492146706101E+02   -0.190693268189240817E+01   -0.282706916076210213E+01   -0.600499779598443695E+00   -0.290325495672252259E+03
    0.260431559777328971E+03    0.315372672296739616E+02    0.824053792412382222E+02   -0.187819906215881871E+01   -0.289485847120050988E+01   -0.647685123290382414E+00   -0.290310141265724951E+03
    0.268577862536704856E+03    0.354299487339209378E+02    0.871045374212863095E+02   -0.189954621091921871E+01   -0.291053231994180184E+01   -0.548529854505826364E+00   -0.290283761275405027E+03
    0.268577862536704856E+03    0.354299487339209378E+02    0.871045374212863095E+02   -0.189954621091921871E+01   -0.291053231994180184E+01   -0.548529854505826364E+00   -0.290283761275405027E+03
    0.268595916647769911E+03    0.323724265647125335E+02    0.884969907249288212E+02   -0.185287640437241952E+01   -0.287606934171011597E+01   -0.545846405860518136E+00   -0.290236302355914290E+03
    0.268595916647769911E+03    0.323724265647125335E+02    0.884969907249288212E+02   -0.185287640437241952E+01   -0.287606934171011597E+01   -0.545846405860518136E+00   -0.290236302355914290E+03
    0.271559035436216902E+03    0.368457216487218204E+02    0.803281328932487781E+02   -0.188472211400796441E+01   -0.288491320132212525E+01   -0.547802830164693333E+00   -0.290189119375021221E+03
    0.272280372725029338E+03    0.387814291391963906E+02    0.700731427073125133E+02   -0.187831766034827652E+01   -0.280490679790292186E+01   -0.591328742685746089E+00   -0.290175951961929286E+03
    0.268255589259591488E+03    0.361748635134026628E+02    0.827881773647936257E+02   -0.191416554452445276E+01   -0.285923338376598402E+01   -0.561310141701365950E+00   -0.290165360771999644E+03
    0.268255589259591488E+03    0.361748635134026628E+02    0.827881773647936257E+02   -0.191416554452445276E+01   -0.285923338376598402E+01   -0.561310141701365950E+00   -0.290165360771999644E+03
    0.269917250280016106E+03    0.361950436454381617E+02    0.820638903770779109E+02   -0.186730174384953029E+01   -0.288532581062629045E+01   -0.593411247651905782E+00   -0.290150659862319401E+03
    0.266671205624345760E+03    0.385767253909905037E+02    0.820527594521674928E+02   -0.186371499818774411E+01   -0.284331553334146481E+01   -0.568969868967091230E+00   -0.290130020687778483E+03
    0.267885049991174355E+03    0.391695576718360599E+02    0.687826649574935232E+02   -0.189444315738774738E+01   -0.281466776744035130E+01   -0.608722992499918014E+00   -0.290106866269231432E+03
    0.267885049991174355E+03    0.391695576718360599E+02    0.687826649574935232E+02   -0.189444315738774738E+01   -0.281466776744035130E+01   -0.608722992499918014E+00   -0.290106866269231432E+03
    0.270601556386216942E+03    0.353430447168636732E+02    0.813659790377045198E+02   -0.189356003136586026E+01   -0.281199164110192656E+01   -0.543144127213276207E+00   -0.290104350254636074E+03
    0.265832373939304716E+03    0.310116502663272620E+02    0.827628623317714300E+02   -0.189719662643004439E+01   -0.280023657640644474E+01   -0.579090795013206261E+00   -0.290101953440289947E+03
    0.261551562994501865E+03    0.361586528806835474E+02    0.886074799140121883E+02   -0.184865991116008588E+01   -0.295456555079008787E+01   -0.561354758672193643E+00   -0.290086827641851869E+03
    0.260172560512495522E+03    0.305211996136129571E+02    0.846371651166826666E+02   -0.188868291515071007E+01   -0.287824690194644406E+01   -0.635016011143386905E+00   -0.290075646939921228E+03
    0.260172560512495522E+03    0.305211996136129571E+02    0.846371651166826666E+02   -0.188868291515071007E+01   -0.287824690194644406E+01   -0.635016011143386905E+00   -0.290075646939921228E+03
    0.270305269147687682E+03    0.370139593317883282E+02    0.839076636250782713E+02   -0.188787078973346611E+01   -0.284932686583556416E+01   -0.535640271837274362E+00   -0.290026220780173844E+03
    0.265767407785080650E+03    0.381998000363491457E+02    0.868074895711839076E+02   -0.188889269992683229E+01   -0.289382881354666699E+01   -0.561578740948193378E+00   -0.290014098736976052E+03
    0.265767407785080650E+03    0.381998000363491457E+02    0.868074895711839076E+02   -0.188889269992683229E+01   -0.289382881354666699E+01   -0.561578740948193378E+00   -0.290014098736976052E+03
    0.270980392764146984E+03    0.347466885794807894E+02    0.829902800100017259E+02   -0.190249216864324033E+01   -0.284366762750209912E+01   -0.540639158249801355E+00   -0.289996245587275212E+03
    0.265668278047764318E+03    0.337324916060249151E+02    0.843351545200643073E+02   -0.184863353168812128E+01   -0.292097942876631311E+01   -0.590058346886404461E+00   -0.289991574482460123E+03
    0.270518704890337006E+03    0.329095857257412874E+02    0.775318652881126127E+02   -0.185862046166790962E+01   -0.278446376248123961E+01   -0.591057840197106277E+00   -0.289989417627892692E+03
    0.267207815178279873E+03    0.334152180557002083E+02    0.861329689946418284E+02   -0.187662632301577026E+01   -0.282685638184893850E+01   -0.535712125718067700E+00   -0.289925178420028544E+03
    0.261769742125884136E+03    0.342384678106480891E+02    0.869493969932410664E+02   -0.190878921220127906E+01   -0.290229139751843679E+01   -0.572297195186038721E+00   -0.289904607019691753E+03
    0.267712578804333305E+03    0.332091184765349965E+02    0.886413131535165633E+02   -0.189188446120394405E+01   -0.290143138734210293E+01   -0.552888270937233806E+00   -0.289889054527708936E+03
    0.267154006511237299E+03    0.332543372065177039E+02    0.867464009259882403E+02   -0.184933467924329520E+01   -0.285123767603194400E+01   -0.591613515507855237E+00   -0.289851275399312954E+03
    0.266947659683572397E+03    0.337392091107886927E+02    0.812928392789258254E+02   -0.191094273815597226E+01   -0.280693102064569144E+01   -0.577070710881451898E+00   -0.289801248985144127E+03
    0.265808009958651780E+03    0.357496739867403122E+02    0.895820142915959110E+02   -0.184375619361381715E+01   -0.291205467817110986E+01   -0.553741709641047741E+00   -0.289784803716035526E+03
    0.265808009958651780E+03    0.357496739867403122E+02    0.895820142915959110E+02   -0.184375619361381715E+01   -0.291205467817110986E+01   -0.553741709641047741E+00   -0.289784803716035526E+03
    0.258829870044816687E+03    0.352188525965669470E+02    0.879276586355245939E+02   -0.189033102599216574E+01   -0.294102830335653742E+01   -0.595352784590316375E+00   -0.289782891915234643E+03
    0.260540687318000664E+03    0.344212678385919588E+02    0.839725257611741256E+02   -0.183359653190390648E+01   -0.284525002702677732E+01   -0.621599592029868919E+00   -0.289755574034767335E+03
    0.260540687318000664E+03    0.344212678385919588E+02    0.839725257611741256E+02   -0.183359653190390648E+01   -0.284525002702677732E+01   -0.621599592029868919E+00   -0.289755574034767335E+03
    0.270325248783544566E+03    0.347126708434797280E+02    0.841054732748579283E+02   -0.185206409576988795E+01   -0.287124502850180363E+01   -0.555921484848421965E+00   -0.289742088188274863E+03
    0.269399646492700924E+03    0.362261743536551748E+02    0.780355057297457506E+02   -0.189922980539911790E+01   -0.281138661279028845E+01   -0.589113629410459527E+00   -0.289739646000977586E+03
    0.260073705935201303E+03    0.339447972138555869E+02    0.804219114146400074E+02   -0.186698779690549355E+01   -0.289154993382887771E+01   -0.645875079923279749E+00   -0.289732360102289590E+03
    0.260073705935201303E+03    0.339447972138555869E+02    0.804219114146400074E+02   -0.186698779690549355E+01   -0.289154993382887771E+01   -0.645875079923279749E+00   -0.289732360102289590E+03
    0.272562341729068578E+03    0.352047935498145819E+02    0.817725588177167708E+02   -0.187754604696988769E+01   -0.285851163777523709E+01   -0.567481798131617587E+00   -0.289728602319958213E+03
    0.272562341729068578E+03    0.352047935498145819E+02    0.817725588177167708E+02   -0.187754604696988769E+01   -0.285851163777523709E+01   -0.567481798131617587E+00   -0.289728602319958213E+03
    0.264140567666626339E+03    0.379668206649341329E+02    0.863323419282007194E+02   -0.188277377805418777E+01   -0.293661288463762782E+01   -0.575284389924560102E+00   -0.289708382727053731E+03
    0.264140567666626339E+03    0.379668206649341329E+02    0.863323419282007194E+02   -0.188277377805418777E+01   -0.293661288463762782E+01   -0.575284389924560102E+00   -0.289708382727053731E+03
    0.266848147119853820E+03    0.353336515951853869E+02    0.706862635119848477E+02   -0.186150507298866863E+01   -0.282530737181331393E+01   -0.625505073424732938E+00   -0.289685143042033701E+03
    0.266848147119853820E+03    0.353336515951853869E+02    0.706862635119848477E+02   -0.186150507298866863E+01   -0.282530737181331393E+01   -0.625505073424732938E+00   -0.289685143042033701E+03
    0.263943312746279503E+03    0.330275585568814307E+02    0.858538892352412972E+02   -0.185832128177193923E+01   -0.289099862278257858E+01   -0.626961600478800118E+00   -0.289655775484864193E+03
    0.263943312746279503E+03    0.330275585568814307E+02    0.858538892352412972E+02   -0.185832128177193923E+01   -0.289099862278257858E+01   -0.626961600478800118E+00   -0.289655775484864193E+03
    0.266209210426069887E+03    0.365995473722368843E+02    0.825318746233426737E+02   -0.189754337866816858E+01   -0.281692118019797277E+01   -0.563206817941620308E+00   -0.289638138079308703E+03
    0.266209210426069887E+03    0.365995473722368843E+02    0.825318746233426737E+02   -0.189754337866816858E+01   -0.281692118019797277E+01   -0.563206817941620308E+00   -0.289638138079308703E+03
    0.263572386600701350E+03    0.367358091609848145E+02    0.846271661942162865E+02   -0.186330792131480338E+01   -0.282705903823433946E+01   -0.589829721194896184E+00   -0.289635499975638254E+03
    0.263855197006035326E+03    0.369824043476308333E+02    0.776658958279788720E+02   -0.188352754640944653E+01   -0.288210057899615801E+01   -0.618802585406363903E+00   -0.289634684089363077E+03
    0.259344932597381501E+03    0.326778003083048389E+02    0.877561714690230872E+02   -0.188139314715870776E+01   -0.292752072210820646E+01   -0.620746280008669160E+00   -0.289628510619534325E+03
    0.258824788684669727E+03    0.349858561453698940E+02    0.879062526102919577E+02   -0.188283381236664127E+01   -0.285025888587719400E+01   -0.605368267980177510E+00   -0.289621783959763832E+03
    0.258824788684669727E+03    0.349858561453698940E+02    0.879062526102919577E+02   -0.188283381236664127E+01   -0.285025888587719400E+01   -0.605368267980177510E+00   -0.289621783959763832E+03
    0.258551602511421891E+03    0.330099056120566203E+02    0.800099729887063233E+02   -0.185523481559506043E+01   -0.283851870297585362E+01   -0.656411329433904900E+00   -0.289553909392393223E+03
    0.265552738428151827E+03    0.364434832504592521E+02    0.848689069656154658E+02   -0.190440214301298782E+01   -0.290304585343011468E+01   -0.575130518771448607E+00   -0.289547383882119334E+03
    0.265552738428151827E+03    0.364434832504592521E+02    0.848689069656154658E+02   -0.190440214301298782E+01   -0.290304585343011468E+01   -0.575130518771448607E+00   -0.289547383882119334E+03
    0.257379446659887094E+03    0.325489797589843022E+02    0.896022344164891535E+02   -0.186723111219233084E+01   -0.291992959569133514E+01   -0.623273293295022235E+00   -0.289540286032408915E+03
    0.257379446659887094E+03    0.325489797589843022E+02    0.896022344164891535E+02   -0.186723111219233084E+01   -0.291992959569133514E+01   -0.623273293295022235E+00   -0.289540286032408915E+03
    0.260807247846353675E+03    0.336811035280570081E+02    0.761512148510776825E+02   -0.187669418778407660E+01   -0.285266056483762886E+01   -0.647698109559800006E+00   -0.289518609962426922E+03
    0.260807247846353675E+03    0.336811035280570081E+02    0.761512148510776825E+02   -0.187669418778407660E+01   -0.285266056483762886E+01   -0.647698109559800006E+00   -0.289518609962426922E+03
    0.261131205951127299E+03    0.323885555589182843E+02    0.860469919163184045E+02   -0.190062344925360538E+01   -0.288634170051934191E+01   -0.615853033676637018E+00   -0.289499719939062572E+03
    0.260244951911303133E+03    0.361782231289109149E+02    0.873637780304183735E+02   -0.187257301058115488E+01   -0.289417287452269933E+01   -0.611853646292029651E+00   -0.289484866043656268E+03
    0.260244951911303133E+03    0.361782231289109149E+02    0.873637780304183735E+02   -0.187257301058115488E+01   -0.289417287452269933E+01   -0.611853646292029651E+00   -0.289484866043656268E+03
    0.265000239169724580E+03    0.313309869019753648E+02    0.849006327338631195E+02   -0.185993643755831362E+01   -0.289120670235624866E+01   -0.625810252619360963E+00   -0.289483446228426772E+03
    0.265000239169724580E+03    0.313309869019753648E+02    0.849006327338631195E+02   -0.185993643755831362E+01   -0.289120670235624866E+01   -0.625810252619360963E+00   -0.289483446228426772E+03
    0.257696353492131266E+03    0.327110895593263677E+02    0.866859275742209689E+02   -0.186028345591469968E+01   -0.283731361672837457E+01   -0.631076542233039106E+00   -0.289474638903374455E+03
    0.258004620343752151E+03    0.347523809785436839E+02    0.803953756716087327E+02   -0.186138629714886439E+01   -0.285449785481756857E+01   -0.642035366393415075E+00   -0.289459099027180685E+03
    0.258004620343752151E+03    0.347523809785436839E+02    0.803953756716087327E+02   -0.186138629714886439E+01   -0.285449785481756857E+01   -0.642035366393415075E+00   -0.289459099027180685E+03
    0.270284788430591675E+03    0.317860600416274970E+02    0.763574601641013260E+02   -0.187507728292318587E+01   -0.281138223778398988E+01   -0.600854383159157734E+00   -0.289449458313429545E+03
    0.256736135319309199E+03    0.346883188431626053E+02    0.895565727957443443E+02   -0.185877076228987725E+01   -0.292055533486496044E+01   -0.600694071206361535E+00   -0.289388494455677289E+03
    0.264581531656553182E+03    0.336975621574599842E+02    0.763612230388441873E+02   -0.189690351515947664E+01   -0.285998176689654215E+01   -0.624790109590684040E+00   -0.289379390417811464E+03
    0.266915890217724382E+03    0.336983373546718354E+02    0.711714548005811594E+02   -0.188889440536545594E+01   -0.280907885633098608E+01   -0.627923295097815526E+00   -0.289336990702196431E+03
    0.260643176314450841E+03    0.353921545288318384E+02    0.778756078846857918E+02   -0.187811660062568309E+01   -0.282586949753281846E+01   -0.641310934737183036E+00   -0.289332667032887002E+03
    0.260643176314450841E+03    0.353921545288318384E+02    0.778756078846857918E+02   -0.187811660062568309E+01   -0.282586949753281846E+01   -0.641310934737183036E+00   -0.289332667032887002E+03
    0.262122070202350926E+03    0.301652313172484448E+02    0.828197897078199645E+02   -0.188339784880953531E+01   -0.282766394753260375E+01   -0.615152458682811876E+00   -0.289325516384736147E+03
    0.262122070202350926E+03    0.301652313172484448E+02    0.828197897078199645E+02   -0.188339784880953531E+01   -0.282766394753260375E+01   -0.615152458682811876E+00   -0.289325516384736147E+03
    0.267335743684498539E+03    0.325927782948628604E+02    0.784233599384478595E+02   -0.190407009688944462E+01   -0.280755622508457847E+01   -0.606636270115753717E+00   -0.289325464761063756E+03
    0.266964772471000799E+03    0.378570189883850148E+02    0.747286158388182571E+02   -0.187782547206277339E+01   -0.281335638266074950E+01   -0.589041576396181821E+00   -0.289314554532680006E+03
    0.260796608141536524E+03    0.350065283039245259E+02    0.809055014484150803E+02   -0.185229288686431692E+01   -0.285429334382935540E+01   -0.617874757086758208E+00   -0.289310446147118228E+03
    0.260796608141536524E+03    0.350065283039245259E+02    0.809055014484150803E+02   -0.185229288686431692E+01   -0.285429334382935540E+01   -0.617874757086758208E+00   -0.289310446147118228E+03
    0.264675590053410247E+03    0.316863507998255862E+02    0.823150675837690784E+02   -0.186392391359904241E+01   -0.284487542954497696E+01   -0.592259559561827409E+00   -0.289305130525265383E+03
    0.264675590053410247E+03    0.316863507998255862E+02    0.823150675837690784E+02   -0.186392391359904241E+01   -0.284487542954497696E+01   -0.592259559561827409E+00   -0.289305130525265383E+03
    0.260094400951483465E+03    0.345471220513465056E+02    0.884386250779086112E+02   -0.189631713906595811E+01   -0.292342610516945101E+01   -0.593198666570887045E+00   -0.289296141143567297E+03
    0.267183843776627100E+03    0.329832846418297621E+02    0.793907009788847660E+02   -0.190993417541997523E+01   -0.281936764232778980E+01   -0.589136098259869456E+00   -0.289277121390943535E+03
    0.267183843776627100E+03    0.329832846418297621E+02    0.793907009788847660E+02   -0.190993417541997523E+01   -0.281936764232778980E+01   -0.589136098259869456E+00   -0.289277121390943535E+03
    0.265482530091547289E+03    0.345999408639214039E+02    0.848570336581885698E+02   -0.190881315737561685E+01   -0.287127273123548088E+01   -0.582929496636353850E+00   -0.289276496162481351E+03
    0.265482530091547289E+03    0.345999408639214039E+02    0.848570336581885698E+02   -0.190881315737561685E+01   -0.287127273123548088E+01   -0.582929496636353850E+00   -0.289276496162481351E+03
    0.257146674590585178E+03    0.326549109104796287E+02    0.860480111446584317E+02   -0.188119858515597249E+01   -0.286686578241365853E+01   -0.619904142904854183E+00   -0.289249772765636237E+03
    0.266515639275670594E+03    0.359634354498442050E+02    0.894380519526274185E+02   -0.187579190918240357E+01   -0.294329424301921394E+01   -0.538419351764353404E+00   -0.289247673478713125E+03
    0.271579056065426869E+03    0.343216184817402592E+02    0.728725298976435454E+02   -0.187812481978846790E+01   -0.281636939659034136E+01   -0.613166568537603318E+00   -0.289241454162137188E+03
    0.267856875043199977E+03    0.363238077996548157E+02    0.838389621664936442E+02   -0.190194432225868115E+01   -0.287160653624904194E+01   -0.547322183950951668E+00   -0.289238628254395735E+03
    0.267856875043199977E+03    0.363238077996548157E+02    0.838389621664936442E+02   -0.190194432225868115E+01   -0.287160653624904194E+01   -0.547322183950951668E+00   -0.289238628254395735E+03
    0.268435397015777710E+03    0.341671550143848179E+02    0.838144288564200792E+02   -0.186933306205902872E+01   -0.290703230134512047E+01   -0.596401103500331597E+00   -0.289230651184036844E+03
    0.262937900407980408E+03    0.310803291207975931E+02    0.877110519389774481E+02   -0.186964502787122222E+01   -0.291875235718299697E+01   -0.602868573165090460E+00   -0.289211172726494965E+03
    0.260449251991731046E+03    0.323110054956073185E+02    0.866222647340112530E+02   -0.185565869960047447E+01   -0.291931331723778165E+01   -0.628672521267970019E+00   -0.289198710852383385E+03
    0.260506326603971274E+03    0.317006182617206633E+02    0.821565894559119272E+02   -0.186954082023967039E+01   -0.286933361514592633E+01   -0.627085779000313259E+00   -0.289196211476781116E+03
    0.267056277790343017E+03    0.344900992466811545E+02    0.780650765824176744E+02   -0.187185622312986566E+01   -0.289037212187200154E+01   -0.616270000189086176E+00   -0.289187752896998404E+03
    0.264111890770877551E+03    0.343507254252175898E+02    0.798839699605139941E+02   -0.185723064501949220E+01   -0.289061273465312008E+01   -0.631838647347405580E+00   -0.289150724147161725E+03
    0.264930951272375239E+03    0.338744875687565354E+02    0.825047253599443451E+02   -0.185143780422455673E+01   -0.281138891810659564E+01   -0.584499496326225554E+00   -0.289142657436400725E+03
    0.264930951272375239E+03    0.338744875687565354E+02    0.825047253599443451E+02   -0.185143780422455673E+01   -0.281138891810659564E+01   -0.584499496326225554E+00   -0.289142657436400725E+03
    0.265713425139617982E+03    0.375127516252839399E+02    0.796652860422568665E+02   -0.186341575108996960E+01   -0.287106484022835984E+01   -0.603624124701971354E+00   -0.289129916437202155E+03
    0.270700008266861630E+03    0.346261434785881406E+02    0.754315172416323207E+02   -0.186484422903989300E+01   -0.285284594967335448E+01   -0.607082028182184263E+00   -0.289121642395852518E+03
    0.260890014753008586E+03    0.317267787141990496E+02    0.880302278916394982E+02   -0.189342688832069839E+01   -0.286549094935147908E+01   -0.585266269073017043E+00   -0.289114992592792760E+03
    0.260890014753008586E+03    0.317267787141990496E+02    0.880302278916394982E+02   -0.189342688832069839E+01   -0.286549094935147908E+01   -0.585266269073017043E+00   -0.289114992592792760E+03
    0.263464871392340797E+03    0.380019449557294138E+02    0.864781050077364739E+02   -0.187753029750089273E+01   -0.289425163654243489E+01   -0.578777897042025646E+00   -0.289113045214793488E+03
    0.263464871392340797E+03    0.380019449557294138E+02    0.864781050077364739E+02   -0.187753029750089273E+01   -0.289425163654243489E+01   -0.578777897042025646E+00   -0.289113045214793488E+03
    0.262839839453656850E+03    0.356238349886008763E+02    0.847344944402274507E+02   -0.185497117706886350E+01   -0.282682098854564456E+01   -0.582396253788719065E+00   -0.289090782964710456E+03
    0.263274503167342971E+03    0.374851252206276371E+02    0.888636120788967787E+02   -0.187491906668019004E+01   -0.291538091610527728E+01   -0.569169764751597196E+00   -0.289081313069758949E+03
    0.271110567163347127E+03    0.368528110292810780E+02    0.735914150006431100E+02   -0.186683467991202545E+01   -0.281655534919578621E+01   -0.595890174259637195E+00   -0.289062475005687759E+03
    0.259002138952312691E+03    0.340713194870957636E+02    0.839918593800902471E+02   -0.187555295666700372E+01   -0.282291859870305561E+01   -0.623210296563136090E+00   -0.289052735894737395E+03
    0.270129688095848735E+03    0.336711177324501847E+02    0.811620243314802110E+02   -0.186941583606364237E+01   -0.284593401653441447E+01   -0.601052928273433373E+00   -0.289050534737813450E+03
    0.265551334997672257E+03    0.318456529169962543E+02    0.852429460673765789E+02   -0.184245263805093007E+01   -0.285741103577594435E+01   -0.609623416961114550E+00   -0.289033900696931767E+03
    0.263198681850526725E+03    0.339064257122883816E+02    0.890479309947336617E+02   -0.189227708807447459E+01   -0.290115399271594665E+01   -0.583224448824527286E+00   -0.289033292743850495E+03
    0.263899217628400777E+03    0.374238344833772487E+02    0.851218587305892811E+02   -0.185854982723944495E+01   -0.288901615582520188E+01   -0.576962499428839148E+00   -0.289017679193965307E+03
    0.271142890900272505E+03    0.338840127715864128E+02    0.777837843117332994E+02   -0.185769171541355571E+01   -0.282741826725081680E+01   -0.600269480471992800E+00   -0.289005273533120089E+03
    0.261045736628993780E+03    0.323178705007288656E+02    0.880941236228507449E+02   -0.186952241946099251E+01   -0.293451672378076367E+01   -0.603419253118711474E+00   -0.288999982047395349E+03
    0.266829353078427118E+03    0.327053574081620440E+02    0.853660914919090317E+02   -0.188493907512846159E+01   -0.281557182931782712E+01   -0.563692062121751380E+00   -0.288989064602003111E+03
    0.265954032612598837E+03    0.332491451892564029E+02    0.878026669371308088E+02   -0.184591450793491618E+01   -0.289433480210826533E+01   -0.587336477482214736E+00   -0.288976339422205740E+03
    0.267867191710286534E+03    0.354055185551356999E+02    0.883094218297847959E+02   -0.187738026615823861E+01   -0.291956902841729171E+01   -0.538375140770211313E+00   -0.288972179390850386E+03
    0.263683826671575503E+03    0.330003733249618421E+02    0.897443785641105762E+02   -0.189220361907690759E+01   -0.290433580635142574E+01   -0.553943158058097129E+00   -0.288964775189009401E+03
    0.264620126498823822E+03    0.370626031809611405E+02    0.880237821922372632E+02   -0.185856154589865374E+01   -0.293756317949282231E+01   -0.555231716607221593E+00   -0.288951251248717540E+03
    0.266245021514858536E+03    0.368720339256184957E+02    0.866716228015091446E+02   -0.185649867123770673E+01   -0.290788818690202167E+01   -0.555978547999021355E+00   -0.288948543619373027E+03
    0.265213717840063055E+03    0.367099243781586182E+02    0.864464622327631815E+02   -0.187826984872952596E+01   -0.294726003672849579E+01   -0.564884439189379250E+00   -0.288944513051302124E+03
    0.264791817748984556E+03    0.316052034078287818E+02    0.869164624168884643E+02   -0.189623032994803031E+01   -0.285669323571782519E+01   -0.578101395426966480E+00   -0.288937390706597284E+03
    0.263222676339638042E+03    0.335361462440906095E+02    0.873016610958603536E+02   -0.184174323242428328E+01   -0.291062337928044590E+01   -0.599468516133927931E+00   -0.288934102976272754E+03
    0.264939299113979928E+03    0.317048185447145734E+02    0.836242297849274934E+02   -0.186112940202103916E+01   -0.283895877466028024E+01   -0.585466212911482486E+00   -0.288933060281191274E+03
    0.264939299113979928E+03    0.317048185447145734E+02    0.836242297849274934E+02   -0.186112940202103916E+01   -0.283895877466028024E+01   -0.585466212911482486E+00   -0.288933060281191274E+03
    0.262572612558314859E+03    0.363239430655013464E+02    0.892241520646933850E+02   -0.188046678914715337E+01   -0.286794859008275260E+01   -0.546613949755184514E+00   -0.288932692255898075E+03
    0.266901506000423865E+03    0.319869919384222605E+02    0.857239176075476621E+02   -0.186239699818844029E+01   -0.290051525406545929E+01   -0.599639740098206531E+00   -0.288922465403848946E+03
    0.265832497232274193E+03    0.365640348507466371E+02    0.727558102250128513E+02   -0.189539011815029523E+01   -0.282427245947572558E+01   -0.623463053592280048E+00   -0.288913856652863785E+03
    0.263806336990819773E+03    0.342939229582804401E+02    0.875498333539345452E+02   -0.186456918741437860E+01   -0.283816746110272256E+01   -0.587465189587933700E+00   -0.288909291090886825E+03
    0.263433499936190458E+03    0.353297624927725309E+02    0.734863053779129984E+02   -0.188273821335676539E+01   -0.282742608141165386E+01   -0.641816050534409044E+00   -0.288889919316460748E+03
    0.267292961348327253E+03    0.345072586690590981E+02    0.822778443499499872E+02   -0.185534647961437327E+01   -0.283193334671313890E+01   -0.571878808723292220E+00   -0.288875349059960740E+03
    0.264002885417689583E+03    0.365484025123487015E+02    0.884297206050760138E+02   -0.188654561468471815E+01   -0.294797551262583291E+01   -0.539045045993566951E+00   -0.288870276478436494E+03
    0.261902392133095759E+03    0.348923192699118374E+02    0.791264869603313912E+02   -0.188443613739364180E+01   -0.286067149429495826E+01   -0.637464600541195026E+00   -0.288841070787732747E+03
    0.259701679860662750E+03    0.320933466179029807E+02    0.855650849121544752E+02   -0.186345176925227873E+01   -0.288381006426537345E+01   -0.613806407313009394E+00   -0.288840509323389028E+03
    0.269387623212286201E+03    0.327924439693088701E+02    0.811149802264205562E+02   -0.189306971991521689E+01   -0.286089575787593331E+01   -0.595231920161081174E+00   -0.288837754228612482E+03
    0.263074590670929013E+03    0.333875493751726680E+02    0.811128107037035306E+02   -0.190147112587538492E+01   -0.286511887446704971E+01   -0.608717872780153435E+00   -0.288810598330684797E+03
    0.258497628885345875E+03    0.338927810419462077E+02    0.874588311726355272E+02   -0.186281386630491830E+01   -0.287128261452145361E+01   -0.596161123559610040E+00   -0.288795638895849379E+03
    0.263452103310808809E+03    0.357360104494572681E+02    0.723231046451216031E+02   -0.187576800681727685E+01   -0.281706386802800290E+01   -0.631487457889579051E+00   -0.288790628030266703E+03
    0.263551623573350696E+03    0.364535927451229327E+02    0.740327085547293109E+02   -0.186489565747875430E+01   -0.281394475477856520E+01   -0.622552083672422096E+00   -0.288788789831156350E+03
    0.266492582789064045E+03    0.343560508365274302E+02    0.844227759434115796E+02   -0.186480975912898783E+01   -0.283353313417617336E+01   -0.557526701907897326E+00   -0.288758260230388032E+03
    0.264267369217554858E+03    0.344768657393327089E+02    0.891941404213862938E+02   -0.189508237531777191E+01   -0.289848210274331874E+01   -0.550183732933245739E+00   -0.288753843594682337E+03
    0.268283265300098265E+03    0.365659677801089202E+02    0.782493449900294991E+02   -0.186308052103692057E+01   -0.281804770791008341E+01   -0.595876005662272501E+00   -0.288729375087777612E+03
    0.258366315168205631E+03    0.318778604005333328E+02    0.887720815166883170E+02   -0.186096912060797193E+01   -0.285940614370746093E+01   -0.606214577488080053E+00   -0.288703293494172954E+03
    0.260579451933350924E+03    0.347603315663886576E+02    0.852184079744304057E+02   -0.186588829726330996E+01   -0.291111234292292931E+01   -0.608179998788454412E+00   -0.288676126024903454E+03
    0.264652647536021107E+03    0.351367882374900233E+02    0.732473589559925529E+02   -0.185689471688661301E+01   -0.281207876605204854E+01   -0.631221839002500396E+00   -0.288672504386160199E+03
    0.269145809995885656E+03    0.352241505517210456E+02    0.831939343315661688E+02   -0.188413897365479577E+01   -0.286473244227500645E+01   -0.548882765614310486E+00   -0.288657186217667970E+03
    0.266451636582756464E+03    0.373327474119274854E+02    0.870000017156570635E+02   -0.187553154161078561E+01   -0.290456678987442540E+01   -0.538227512645657491E+00   -0.288635682926473578E+03
    0.271084160312143297E+03    0.348869554931571173E+02    0.799498020265817360E+02   -0.187380842625250255E+01   -0.283038338522295163E+01   -0.568281600914817719E+00   -0.288629454369779864E+03
    0.269415187167527222E+03    0.329924870995101287E+02    0.833796832890897548E+02   -0.188102760953701797E+01   -0.285556217486086927E+01   -0.588124308272955254E+00   -0.288618051041316392E+03
    0.263581720410595494E+03    0.333137891527250432E+02    0.870248667181203928E+02   -0.189219530113905332E+01   -0.289337630667696821E+01   -0.564211398049450530E+00   -0.288617389927520719E+03
    0.269925311659917384E+03    0.336524714924414283E+02    0.800004401775856735E+02   -0.188066575441377148E+01   -0.287260541802133451E+01   -0.592493494951781052E+00   -0.288611481847221739E+03
    0.261330291293551170E+03    0.327150754968626885E+02    0.870733842815664332E+02   -0.186663374365589219E+01   -0.282331259040029714E+01   -0.595732427487694949E+00   -0.288606281450719166E+03
    0.266075605724471927E+03    0.335195732351265150E+02    0.883815446350103571E+02   -0.187023177349100966E+01   -0.292971419853224280E+01   -0.567235886613242535E+00   -0.288601521240898364E+03
    0.265893239891841517E+03    0.333090852287686090E+02    0.731817963513392726E+02   -0.188239058369508383E+01   -0.280205341042047529E+01   -0.627534797790739951E+00   -0.288597931700752667E+03
    0.265048851573011916E+03    0.363287141446968604E+02    0.822013565994390092E+02   -0.189324005359382164E+01   -0.288156876337424395E+01   -0.578821295076806130E+00   -0.288596681423492441E+03
    0.263790626243764336E+03    0.332286794141449775E+02    0.823577964161250407E+02   -0.190516209707669293E+01   -0.283351739966450378E+01   -0.595314034978009943E+00   -0.288588577243085467E+03
    0.269402669593473718E+03    0.328484071166151850E+02    0.829579276902997975E+02   -0.187611673303252791E+01   -0.282369300282905522E+01   -0.567890328185194360E+00   -0.288585219373143786E+03
    0.265427841811541100E+03    0.371451739690170939E+02    0.863812784984565951E+02   -0.188027190614581752E+01   -0.291635823912839687E+01   -0.568093660581618032E+00   -0.288583410675602181E+03
    0.271038032898303413E+03    0.346239100216211710E+02    0.802402989782337244E+02   -0.186965109177166600E+01   -0.285757545420727865E+01   -0.578810231105435946E+00   -0.288582541094690498E+03
    0.262456517906596957E+03    0.328153416721575013E+02    0.853219266492552180E+02   -0.184190338204672543E+01   -0.287056817191914160E+01   -0.608837591492653374E+00   -0.288567400576699868E+03
    0.261196687720647560E+03    0.328513049665148458E+02    0.789573999677581071E+02   -0.187296447917349207E+01   -0.280534723427026789E+01   -0.634725826740682120E+00   -0.288563911528624203E+03
    0.262729377007674657E+03    0.343013970793032428E+02    0.790389360918624249E+02   -0.188209866002451820E+01   -0.279224815024635831E+01   -0.607641288956243475E+00   -0.288542941307813123E+03
    0.267697339680279697E+03    0.350633558126763063E+02    0.787940185104108366E+02   -0.187399006099750420E+01   -0.285397490691541389E+01   -0.583812933184730820E+00   -0.288542284769983269E+03
    0.270627887407341234E+03    0.351801474729810479E+02    0.818575608624757933E+02   -0.186992877258847345E+01   -0.285618625471056209E+01   -0.567960908829586941E+00   -0.288540508519270531E+03
    0.265675969635713898E+03    0.362254457935186451E+02    0.869726071396255520E+02   -0.188662826039408316E+01   -0.286213934723220476E+01   -0.551016248731662106E+00   -0.288539351684311782E+03
    0.263684556010972415E+03    0.331926346058729749E+02    0.834007437249311465E+02   -0.187962234163647968E+01   -0.289297854842945856E+01   -0.595701579077946963E+00   -0.288526973086918701E+03
    0.261664436413363887E+03    0.325918492591985398E+02    0.773918922722495921E+02   -0.187399487473302706E+01   -0.282960404353653727E+01   -0.637253537669996817E+00   -0.288524129777859969E+03
    0.265483024318145510E+03    0.358806411234883029E+02    0.729940811858758281E+02   -0.188310499448838842E+01   -0.279164283806432723E+01   -0.612337721442826943E+00   -0.288522855180777640E+03
    0.262808561090079706E+03    0.353719714733937067E+02    0.876689211537996727E+02   -0.189365430940378809E+01   -0.286448668575174503E+01   -0.571382140751166112E+00   -0.288520502376607624E+03
    0.266615805903376554E+03    0.357857263221525272E+02    0.865597371530296726E+02   -0.188920375938603358E+01   -0.286241634804361089E+01   -0.550311753431951711E+00   -0.288505412963441700E+03
    0.267909992830389740E+03    0.349940702552864380E+02    0.800561233268295069E+02   -0.186478767478006890E+01   -0.288066351477771931E+01   -0.594538320025337796E+00   -0.288504091823916326E+03
    0.265107566759800648E+03    0.324943760923036109E+02    0.860239148683668020E+02   -0.185290805387223667E+01   -0.284502760852409642E+01   -0.577364503942216167E+00   -0.288493576714011340E+03
    0.265412450573274555E+03    0.374406516812444750E+02    0.829006640260355994E+02   -0.187459557532446563E+01   -0.287413533348148542E+01   -0.590089664988675988E+00   -0.288493565007161692E+03
    0.261192484671300235E+03    0.329433095868410390E+02    0.811382277304831661E+02   -0.184910979042334178E+01   -0.281992149292399175E+01   -0.629422083983016023E+00   -0.288485886626281626E+03
    0.259165777427569139E+03    0.349309964453101216E+02    0.843640457463117599E+02   -0.188373433179755412E+01   -0.284946713920826289E+01   -0.608822698598594059E+00   -0.288478309067277110E+03
    0.267065424846215194E+03    0.331477640934786564E+02    0.776097164112090496E+02   -0.187826889267901143E+01   -0.284875109146269123E+01   -0.604233531519254186E+00   -0.288470560663090396E+03
    0.267954383746865062E+03    0.333913311384926601E+02    0.800402745213981603E+02   -0.185981308193276185E+01   -0.286903869059328187E+01   -0.602409286754682416E+00   -0.288459342784378009E+03
    0.260855547967258929E+03    0.328097139380175946E+02    0.825275947665155485E+02   -0.187051265893088092E+01   -0.283061674851491940E+01   -0.607507882678160804E+00   -0.288452179425528243E+03
    0.264586371355824781E+03    0.319957142915883992E+02    0.856721934962140921E+02   -0.185124432270062278E+01   -0.289036415140350567E+01   -0.609809471234667111E+00   -0.288439483687045708E+03
    0.267099718333820420E+03    0.337662168106351146E+02    0.837810605074982817E+02   -0.186880868572026548E+01   -0.284842492719940443E+01   -0.561925641682647470E+00   -0.288426469945419001E+03
    0.268358370739617499E+03    0.366789370336399116E+02    0.809797879008722390E+02   -0.186775163495396690E+01   -0.283931722014639565E+01   -0.578391298223644768E+00   -0.288415017047414324E+03
    0.266692423836122316E+03    0.347366841308297296E+02    0.845287246547202500E+02   -0.185711962101894490E+01   -0.284135671828039582E+01   -0.567012076247949359E+00   -0.288401634972630177E+03
    0.262376854830749153E+03    0.372279940852166717E+02    0.861589460654244164E+02   -0.187828296578176857E+01   -0.288408730933182111E+01   -0.577064491020652603E+00   -0.288376970805395217E+03
    0.263994293113684193E+03    0.332620366944064116E+02    0.846999387865214430E+02   -0.188849896747682577E+01   -0.282322080462821123E+01   -0.573404293097063089E+00   -0.288366238392887226E+03
    0.263814212192091986E+03    0.350208131275386449E+02    0.736528876987157020E+02   -0.188084982009469459E+01   -0.282006588925549462E+01   -0.627781344793042706E+00   -0.288356047807784591E+03
    0.266059030662148245E+03    0.349824378707332926E+02    0.849009807774303340E+02   -0.186492768162060862E+01   -0.286859986543639955E+01   -0.568349312018825437E+00   -0.287704524076029656E+03
    0.267103306784128165E+03    0.328483585153059536E+02    0.802244271194460197E+02   -0.186393223978058309E+01   -0.280888372250228224E+01   -0.605044196943657298E+00   -0.287923568504206287E+03
    0.266330578245353195E+03    0.325548785795166111E+02    0.821273608218155289E+02   -0.186260055243408673E+01   -0.285662804405368664E+01   -0.622139330863297868E+00   -0.288278280502859388E+03
    0.265233391874447818E+03    0.326418938215605579E+02    0.886271481179368266E+02   -0.185963180890925672E+01   -0.287994894180071848E+01   -0.577263278923508594E+00   -0.288165152304384492E+03
    0.261965233054056682E+03    0.344579144620774542E+02    0.880792916565646209E+02   -0.186551098657696990E+01   -0.290518334497180941E+01   -0.604788464889282729E+00   -0.288238535705549168E+03
    0.260349030484181640E+03    0.341946003494500275E+02    0.800187723959098776E+02   -0.186948889002785523E+01   -0.283594918026000764E+01   -0.632742118816466803E+00   -0.288008415414675483E+03
    0.262422389343885527E+03    0.349458494358502492E+02    0.825503337922752394E+02   -0.188017706421345809E+01   -0.288900512838558354E+01   -0.607321963618584260E+00   -0.288139791405626397E+03
    0.266258071606013743E+03    0.344341561913146492E+02    0.867284450039549171E+02   -0.186842492160938844E+01   -0.287652812538012093E+01   -0.554412813011873951E+00   -0.287878556586002389E+03
    0.261064827952161579E+03    0.331311999236196542E+02    0.842810746746248896E+02   -0.188118991776547029E+01   -0.283244669947229610E+01   -0.612753844714284401E+00   -0.287797783499958314E+03
    0.264023121050748614E+03    0.335519190097341209E+02    0.867198127554313061E+02   -0.187790882005824278E+01   -0.288626579560791452E+01   -0.600830259991697258E+00   -0.287807894693852461E+03
    0.262159998186775454E+03    0.335769284137545725E+02    0.863212341813156598E+02   -0.189110539210282846E+01   -0.289481269915360784E+01   -0.591399505309197160E+00   -0.288014557819646711E+03
    0.267112700159146129E+03    0.340240645053164030E+02    0.790912261937762082E+02   -0.187286612659773533E+01   -0.285084969135983890E+01   -0.608199509385556780E+00   -0.287269513837737577E+03
    0.267112700159146129E+03    0.340240645053164030E+02    0.790912261937762082E+02   -0.187286612659773533E+01   -0.285084969135983890E+01   -0.608199509385556780E+00   -0.287269513837737577E+03
    0.266255716153612639E+03    0.325214180377542661E+02    0.819081998077003703E+02   -0.186956365599287433E+01   -0.283140848368719578E+01   -0.617880825453497096E+00   -0.288260624830092354E+03
    0.262700925003097041E+03    0.368609863173442704E+02    0.832067315348391219E+02   -0.187679757768011379E+01   -0.286288212491612404E+01   -0.603240897653606556E+00   -0.288334284880654366E+03
    0.266442585139498760E+03    0.328700382758330392E+02    0.836310003251670224E+02   -0.187560590231182345E+01   -0.284972612894465360E+01   -0.571643928504961707E+00   -0.288114429857468338E+03
    0.261285684249496171E+03    0.329982561894315296E+02    0.824832327246975154E+02   -0.184969214547918037E+01   -0.285124426045801860E+01   -0.621986115397251016E+00   -0.288297559048255266E+03
    0.264830775470368167E+03    0.338460001468003213E+02    0.839177802791913905E+02   -0.186773359448214848E+01   -0.288190508148840596E+01   -0.609435975051934253E+00   -0.287414775322134574E+03
    0.264830775470368167E+03    0.338460001468003213E+02    0.839177802791913905E+02   -0.186773359448214848E+01   -0.288190508148840596E+01   -0.609435975051934253E+00   -0.287414775322134574E+03
    0.265816536033091950E+03    0.344000755929208566E+02    0.876632948453854652E+02   -0.186008446106380698E+01   -0.290919550405211957E+01   -0.572375143228437189E+00   -0.288017878140982987E+03
    0.267383082088269191E+03    0.360425299358676767E+02    0.812547314033592158E+02   -0.187606580500847309E+01   -0.284857458370731420E+01   -0.590719939800430804E+00   -0.287645665047531907E+03
    0.267737250048150031E+03    0.333734219952917073E+02    0.834500378198211763E+02   -0.187593279310392935E+01   -0.286792823563056576E+01   -0.592340248427938754E+00   -0.287570251635026466E+03
    0.264487615013780214E+03    0.362252131933472015E+02    0.846565838563986972E+02   -0.188271485497972768E+01   -0.287470823091681549E+01   -0.576632286073298417E+00   -0.287641124035701864E+03
    0.265602543981649376E+03    0.324734710293967197E+02    0.814572072698450427E+02   -0.185589087169996803E+01   -0.283981935348873993E+01   -0.620296618356123375E+00   -0.287816357086911751E+03
    0.265107714896646939E+03    0.318110008351505869E+02    0.816562451106303797E+02   -0.186419065041945209E+01   -0.281519388753040234E+01   -0.608280574560036147E+00   -0.287811334627926271E+03
    0.262243232764880986E+03    0.318559416278535039E+02    0.844973725337281820E+02   -0.185096504015271290E+01   -0.284209209325935452E+01   -0.615091901170536026E+00   -0.288002219774593300E+03
    0.264666264760588888E+03    0.339625430126092880E+02    0.823179811596785243E+02   -0.187767612388744176E+01   -0.281052902478304611E+01   -0.580223775946338449E+00   -0.288128811401924452E+03
    0.266953530758970942E+03    0.324260208515537158E+02    0.811854350467036028E+02   -0.187859412448364660E+01   -0.284512550534136022E+01   -0.609796617373318028E+00   -0.287571739028159413E+03
    0.266953530758970942E+03    0.324260208515537158E+02    0.811854350467036028E+02   -0.187859412448364660E+01   -0.284512550534136022E+01   -0.609796617373318028E+00   -0.287571739028159413E+03
    0.267474040092529492E+03    0.346761531427682144E+02    0.831394787110703817E+02   -0.187956013488165752E+01   -0.287647943235027981E+01   -0.592869889327261035E+00   -0.287723481964407824E+03
    0.266653971425129782E+03    0.346930606906253232E+02    0.796073971038720885E+02   -0.187174144857026969E+01   -0.282575921988960976E+01   -0.604083566575202013E+00   -0.287186610990652810E+03
    0.266653971425129782E+03    0.346930606906253232E+02    0.796073971038720885E+02   -0.187174144857026969E+01   -0.282575921988960976E+01   -0.604083566575202013E+00   -0.287186610990652810E+03
    0.263306892790518418E+03    0.335105777041176864E+02    0.858111439402532170E+02   -0.187521845508707163E+01   -0.287734845079187984E+01   -0.587971335487942337E+00   -0.287177563168296842E+03
    0.263306892790518418E+03    0.335105777041176864E+02    0.858111439402532170E+02   -0.187521845508707163E+01   -0.287734845079187984E+01   -0.587971335487942337E+00   -0.287177563168296842E+03
    0.265837489116208985E+03    0.337039873610081173E+02    0.771337779558270853E+02   -0.185544401889903909E+01   -0.282909895398897770E+01   -0.628156492204821060E+00   -0.287981022019342049E+03
    0.267582096284340992E+03    0.331345626621326659E+02    0.800640672508945244E+02   -0.185349174291185848E+01   -0.285682186102579250E+01   -0.614420541629945305E+00   -0.288308571781618980E+03
    0.263529148400904717E+03    0.337810813825188490E+02    0.753865776399343872E+02   -0.187584073326459411E+01   -0.282886316089623246E+01   -0.633121015990381952E+00   -0.288098286864156023E+03
    0.265815395729726106E+03    0.314289861417264724E+02    0.854058124725666659E+02   -0.188569306339054621E+01   -0.285486500185672876E+01   -0.588827884594222084E+00   -0.288159685197002830E+03
    0.267214682188567565E+03    0.324017842175977790E+02    0.835057044679336684E+02   -0.185473741569186323E+01   -0.283006677808965357E+01   -0.589586454868584742E+00   -0.288270458671466599E+03
    0.262582666494369960E+03    0.349141106417887812E+02    0.891954419360414761E+02   -0.186501398279360275E+01   -0.291390040290209340E+01   -0.581014301936691346E+00   -0.287862189324541532E+03
    0.262152302419753141E+03    0.333241803299370716E+02    0.850104839153120082E+02   -0.188952577569621694E+01   -0.288834087820905028E+01   -0.611659069498825314E+00   -0.288048173832123837E+03
    0.260569654723436429E+03    0.347142504220724959E+02    0.867844999437388509E+02   -0.186433783392048524E+01   -0.286740556506425559E+01   -0.603721918765605992E+00   -0.287696240277377854E+03
    0.261181731007024382E+03    0.333485569220413467E+02    0.872765873360690136E+02   -0.184779285863656795E+01   -0.287159231907373558E+01   -0.611187011159647575E+00   -0.288102748245013345E+03
    0.265639141097146762E+03    0.344316153632636173E+02    0.861154924672806317E+02   -0.186663735096965300E+01   -0.285773913367179189E+01   -0.557106960147281338E+00   -0.288088025772812216E+03
    0.262362773482920886E+03    0.347611248529506440E+02    0.888384124785642655E+02   -0.187011957544910068E+01   -0.288124305375528422E+01   -0.580168971566274116E+00   -0.287662455707346226E+03
    0.267396393977984985E+03    0.329583818834541091E+02    0.778357078908566962E+02   -0.189409273833051706E+01   -0.281338051394800681E+01   -0.607795888909390403E+00   -0.288153102101163995E+03
    0.266957513008349167E+03    0.324152684884493425E+02    0.803056454675921287E+02   -0.187269114015404647E+01   -0.281386671396987254E+01   -0.609931120578452113E+00   -0.287891343839129604E+03
    0.264047008456138201E+03    0.342308794419190008E+02    0.870898196044129236E+02   -0.185853401372327465E+01   -0.287929410307846823E+01   -0.590402215747121151E+00   -0.287513753006745674E+03
    0.264369188212532663E+03    0.326614569780997073E+02    0.870457387214702862E+02   -0.187575630767472479E+01   -0.285820207515252900E+01   -0.594199202881039668E+00   -0.287837219953899989E+03
    0.260062706382481394E+03    0.330890718946882103E+02    0.866090708179458630E+02   -0.185935961211674572E+01   -0.283867046536039380E+01   -0.614027467894434853E+00   -0.288298505579565131E+03
    0.265288202021711299E+03    0.329697472078986493E+02    0.836930916848986470E+02   -0.187118982099216069E+01   -0.287124900034757280E+01   -0.582466543707636397E+00   -0.288133475981244146E+03
    0.260692175827985466E+03    0.332264757433591384E+02    0.844297619375108894E+02   -0.189128960358237541E+01   -0.288169618675940153E+01   -0.617731897809387753E+00   -0.288355857757821923E+03
    0.267984699995758206E+03    0.351802910780736511E+02    0.771695448676182139E+02   -0.187903785829247938E+01   -0.283244013749278212E+01   -0.598333522215870328E+00   -0.287456664300159844E+03
    0.267984699995758206E+03    0.351802910780736511E+02    0.771695448676182139E+02   -0.187903785829247938E+01   -0.283244013749278212E+01   -0.598333522215870328E+00   -0.287456664300159844E+03
    0.266146009640665966E+03    0.334114684153452330E+02    0.778729687040753618E+02   -0.187057560750882601E+01   -0.283697836746366105E+01   -0.621325791305403552E+00   -0.287347882014732022E+03
    0.266146009640665966E+03    0.334114684153452330E+02    0.778729687040753618E+02   -0.187057560750882601E+01   -0.283697836746366105E+01   -0.621325791305403552E+00   -0.287347882014732022E+03
    0.264960940415236962E+03    0.363539042236361212E+02    0.877200682242991263E+02   -0.187443425023020538E+01   -0.293609220003473359E+01   -0.558018901207348872E+00   -0.288322525209855144E+03
    0.262177908457561728E+03    0.335262165831349535E+02    0.798045084064893331E+02   -0.185966331548285280E+01   -0.284489346411213084E+01   -0.637607957711303630E+00   -0.287886091528265410E+03
    0.270022180490108155E+03    0.348880421449883968E+02    0.746705331589862169E+02   -0.187872766717705386E+01   -0.282544312422642463E+01   -0.607082868436351841E+00   -0.288138244678346211E+03
