    0.405421553477266059E+03    0.573632838045443307E+02    0.181138788013298822E+02   -0.178163811494670599E+01   -0.126411775172456808E+01   -0.203936333696692085E+01   -0.297940212893031287E+03
    0.349777555621091381E+03    0.639520110828645656E+02    0.101732015187237206E+02   -0.181044883544333901E+01   -0.137002962881348922E+01   -0.217130737941857621E+01   -0.297192725442837514E+03
    0.360411959256186094E+03    0.608088623007252878E+02    0.178047624294009026E+02   -0.174474531226021257E+01   -0.125866195646431422E+01   -0.219129001393619438E+01   -0.296984504457392120E+03
    0.328753386718494482E+03    0.621846026719622529E+02    0.156608191003851172E+02   -0.165832549274410157E+01   -0.149399500461665324E+01   -0.221924060314643334E+01   -0.296673290301209533E+03
    0.341685120555302547E+03    0.588584814448778033E+02    0.154115356051099202E+02   -0.181033970885518980E+01   -0.142942062346263055E+01   -0.222439536939878435E+01   -0.296359101919174975E+03
    0.337712820508937284E+03    0.677357376324183633E+02    0.717451960297107316E+01   -0.173701356855998545E+01   -0.146908950952154327E+01   -0.218070973713895766E+01   -0.296354916126501621E+03
    0.370591164108396242E+03    0.616156475690920473E+02    0.850780552095722697E+01   -0.170371461380103328E+01   -0.151738499067531407E+01   -0.215979390263954896E+01   -0.296208672354959788E+03
    0.349425276178564445E+03    0.680105112325152845E+02    0.749442852621745814E+01   -0.174324581854459026E+01   -0.150257154605952437E+01   -0.208843934979972667E+01   -0.296154044117525132E+03
    0.360255648111702499E+03    0.630815611547291439E+02    0.892805291446183524E+01   -0.172719538460426181E+01   -0.154381597693964090E+01   -0.215712944446811417E+01   -0.295996393320650611E+03
    0.375186803365786773E+03    0.568257319723851779E+02    0.205482169611496772E+02   -0.168055198062358269E+01   -0.132948953122176672E+01   -0.213023216181498043E+01   -0.295993878451809451E+03
    0.358959407355295014E+03    0.639911016091670035E+02    0.115944614711409084E+02   -0.165043826256460324E+01   -0.142317223732665976E+01   -0.220151507373040900E+01   -0.295977995902261796E+03
    0.393964921704535925E+03    0.640664867066670212E+02    0.581628309427528656E+01   -0.172663276854736747E+01   -0.140827604525997674E+01   -0.209272456513106020E+01   -0.295774132075930595E+03
    0.388741175740642404E+03    0.621130838981749136E+02    0.116042778244839493E+02   -0.164301990617806681E+01   -0.137412560189083455E+01   -0.211477815468339525E+01   -0.295682422492651824E+03
    0.390930369873721759E+03    0.650891374548865258E+02    0.671403556904482279E+01   -0.165722765740064193E+01   -0.139732715799034501E+01   -0.210907280365937977E+01   -0.295241453625616941E+03
    0.362783671376871325E+03    0.524930442630831209E+02    0.269670913637320382E+02   -0.174412337823605945E+01   -0.129553430183332852E+01   -0.215988121082112627E+01   -0.295178690926731065E+03
    0.366607747468172818E+03    0.657387408575169303E+02    0.796384442701082218E+01   -0.175805288361251399E+01   -0.137385882038603824E+01   -0.211029481827647070E+01   -0.295005261158052917E+03
    0.386399684546091066E+03    0.625406300387979925E+02    0.131542107213428441E+02   -0.178991626564360384E+01   -0.127750897603279112E+01   -0.208364676863314768E+01   -0.294963214489935865E+03
    0.347446074300922930E+03    0.691510029612026642E+02    0.761985889324100629E+01   -0.169405840800403773E+01   -0.149951920863181787E+01   -0.209999752771759862E+01   -0.294935224761340407E+03
    0.344093240319180438E+03    0.664815617196738060E+02    0.113724354675038235E+02   -0.171120554266301816E+01   -0.139752336206259731E+01   -0.219009488951346132E+01   -0.294864354619699498E+03
    0.381545604852619931E+03    0.562137085028676537E+02    0.216043418775358980E+02   -0.180616298931935959E+01   -0.123024527806843542E+01   -0.210174224679008015E+01   -0.294827561232107200E+03
    0.395316985645023294E+03    0.614502785459629450E+02    0.133480447410191481E+02   -0.169333726066488421E+01   -0.135455635294352739E+01   -0.207137725328099220E+01   -0.294754652667435323E+03
    0.371894641998165980E+03    0.568796349331305962E+02    0.173150381548757117E+02   -0.182358828082711621E+01   -0.131108422672633651E+01   -0.213151335067444769E+01   -0.294624326457095663E+03
    0.359233388414732929E+03    0.570209860890846159E+02    0.173642506399035632E+02   -0.176004087731507530E+01   -0.137403447502930853E+01   -0.216124379905361153E+01   -0.294533231229271792E+03
    0.358758736024396910E+03    0.677242929948089625E+02    0.106400060591704939E+02   -0.168466056343828852E+01   -0.142172233724220121E+01   -0.208263561342635839E+01   -0.294456080849177567E+03
    0.347176093866985468E+03    0.617650535002718968E+02    0.120499896947505221E+02   -0.177050852896919486E+01   -0.152634397233227403E+01   -0.217469303614153242E+01   -0.294441841371721011E+03
    0.379503510346593657E+03    0.631466634864059060E+02    0.100397917231165010E+02   -0.170002476672318381E+01   -0.145598023123732867E+01   -0.212751511723562103E+01   -0.294384528288163779E+03
    0.358011021832531128E+03    0.612376494915618821E+02    0.147650248513118001E+02   -0.178124301002763619E+01   -0.134610549431447835E+01   -0.218915371371880907E+01   -0.294378083520586983E+03
    0.351086549057943785E+03    0.679417572846327857E+02    0.823770327584525575E+01   -0.165739956649071396E+01   -0.153558270057003532E+01   -0.211072731406839109E+01   -0.294372651966118326E+03
    0.384227596433662825E+03    0.615119750341309199E+02    0.912669544702240110E+01   -0.171301174942973122E+01   -0.138755071148366049E+01   -0.215143404410413508E+01   -0.294344831597296718E+03
    0.347080640858886113E+03    0.627211855863851540E+02    0.170725760548846353E+02   -0.177120064989619186E+01   -0.136908937375811290E+01   -0.212448099488656883E+01   -0.294248524119146339E+03
    0.362462536910487643E+03    0.577281409243132160E+02    0.196372004101398012E+02   -0.169966143563371230E+01   -0.141197711362828993E+01   -0.215916792204648056E+01   -0.294162321945527765E+03
    0.334421228964763941E+03    0.663942210879654624E+02    0.115237224442984534E+02   -0.171388970868929702E+01   -0.146091080320500266E+01   -0.219050812888146718E+01   -0.294158468009205080E+03
    0.379701996360203339E+03    0.601965175558314201E+02    0.181731982943023560E+02   -0.166897048123570202E+01   -0.132035822547646453E+01   -0.212523007553158827E+01   -0.294122082323690279E+03
    0.355258625892698319E+03    0.583512464087330542E+02    0.167398701672568926E+02   -0.172717739068435527E+01   -0.143545301935770997E+01   -0.220162629995763703E+01   -0.294090944635764060E+03
    0.349695895007465026E+03    0.621729031263560756E+02    0.186086990616416159E+02   -0.169468356127600250E+01   -0.141247062431853099E+01   -0.213753993439462775E+01   -0.294066235066098102E+03
    0.344430478087523568E+03    0.603441787494298438E+02    0.203714950140364977E+02   -0.170035735867576077E+01   -0.140147918124218096E+01   -0.217273525772515974E+01   -0.293941756899709503E+03
    0.372627799151193244E+03    0.665250466196409604E+02    0.763549907960658292E+01   -0.172945044675904880E+01   -0.137708132228774738E+01   -0.209499473768030908E+01   -0.293808465908239100E+03
    0.363910433535445009E+03    0.629779602781136703E+02    0.180925142483227042E+02   -0.172292863288436027E+01   -0.128529450336624573E+01   -0.213989684093024124E+01   -0.293780263696454881E+03
    0.350973648886247929E+03    0.670531326502882905E+02    0.108722794626966159E+02   -0.175578539749467866E+01   -0.139953235775457685E+01   -0.211575214818976276E+01   -0.293777714602466062E+03
    0.348095929285890918E+03    0.560038199547495665E+02    0.228780693773441683E+02   -0.179561349445068785E+01   -0.132194075607499650E+01   -0.218021827891310416E+01   -0.293757824751528460E+03
    0.392080972313363532E+03    0.621617204420787814E+02    0.109411617714543894E+02   -0.172998549488787434E+01   -0.134084002391067592E+01   -0.211115744361221891E+01   -0.293732213376662685E+03
    0.369043369625179707E+03    0.592916731260810579E+02    0.200981645210417810E+02   -0.177722514811347199E+01   -0.134441906509515352E+01   -0.208755996825494350E+01   -0.293692352522529461E+03
    0.359167528413426737E+03    0.650246640751856830E+02    0.100184325603894742E+02   -0.176245319115949250E+01   -0.149727495108983355E+01   -0.210302959850919802E+01   -0.293676797821472746E+03
    0.349932704333778190E+03    0.617803329836567556E+02    0.142679583083122203E+02   -0.165232281914393653E+01   -0.146233837953260259E+01   -0.218121771504403839E+01   -0.293651037641639334E+03
    0.343694020073237482E+03    0.602998651696988333E+02    0.169055407168387042E+02   -0.182261690771343687E+01   -0.139995308057141576E+01   -0.215924271792005218E+01   -0.293568515050305223E+03
    0.371056616781151149E+03    0.647735617047440684E+02    0.849756148509111142E+01   -0.170081000709439079E+01   -0.150391784180402688E+01   -0.211646889859056175E+01   -0.293553728296048973E+03
    0.349388430607738599E+03    0.595520603480421471E+02    0.173423567129992868E+02   -0.178860889242600973E+01   -0.142128585609460045E+01   -0.217915681858189014E+01   -0.293547101064658307E+03
    0.391137621059440903E+03    0.589566048243914480E+02    0.180636478875922535E+02   -0.175524024605101103E+01   -0.126320659178188444E+01   -0.208496482411026562E+01   -0.293513453874748222E+03
    0.358212840520186887E+03    0.584858987231619594E+02    0.160254314668677509E+02   -0.174786523681487593E+01   -0.134542010931185074E+01   -0.220464694771821756E+01   -0.293503341099793090E+03
    0.355264175989164187E+03    0.640783162623713736E+02    0.159424729072448201E+02   -0.166821368105038981E+01   -0.134578573368001386E+01   -0.216300784225082188E+01   -0.293486397223072174E+03
    0.367753642585649573E+03    0.641316524228604834E+02    0.152104176466697609E+02   -0.168210307737883502E+01   -0.130705349443049590E+01   -0.212823068251794378E+01   -0.293485964337747760E+03
    0.387420922672641836E+03    0.602497742951022559E+02    0.123153292754027515E+02   -0.175413491898085683E+01   -0.137086636337206946E+01   -0.212534923069285142E+01   -0.293423857738399590E+03
    0.349881220230858332E+03    0.574505107481233068E+02    0.204936332320647736E+02   -0.175381245589653023E+01   -0.132513059114539278E+01   -0.219515630998546385E+01   -0.293397840520969055E+03
    0.345721045693165820E+03    0.647599240096165829E+02    0.149974278899164037E+02   -0.173970724338485727E+01   -0.136712584817357663E+01   -0.216404026667227800E+01   -0.293396400431952600E+03
    0.351356389167272312E+03    0.616808551600784440E+02    0.124975593607262478E+02   -0.179946423594668881E+01   -0.147450769187223418E+01   -0.213942416519041867E+01   -0.293388434008864692E+03
    0.356709225005592771E+03    0.596592237473213700E+02    0.160288833146998222E+02   -0.174743398503704084E+01   -0.132697268190820350E+01   -0.219415714018136399E+01   -0.293362560126681728E+03
    0.368148293024468501E+03    0.636176779163442490E+02    0.148037611085278122E+02   -0.178189683327933168E+01   -0.131436186853899994E+01   -0.211263864563444903E+01   -0.293307500857840353E+03
    0.347114896647686862E+03    0.652501253547845579E+02    0.130796825098069949E+02   -0.171907505757665047E+01   -0.143171475655786451E+01   -0.211936925988190428E+01   -0.293265050307299987E+03
    0.366784261232540189E+03    0.572954248284673469E+02    0.192724336471268742E+02   -0.175827901542209108E+01   -0.139465731662044967E+01   -0.214458738886862355E+01   -0.293211020135711465E+03
    0.341731086710880277E+03    0.615208524096215328E+02    0.134626803080395305E+02   -0.177747664160691721E+01   -0.145130997802374861E+01   -0.217067609332645883E+01   -0.293200075251687736E+03
    0.382975462283509444E+03    0.611280625856694471E+02    0.114897117250282097E+02   -0.172544158875217546E+01   -0.134306739714058576E+01   -0.214909780734393419E+01   -0.293185803831608951E+03
    0.334553934579498616E+03    0.620524130392896609E+02    0.155944275895940123E+02   -0.173009600480691095E+01   -0.148783834038663643E+01   -0.218165774696299009E+01   -0.293125575749260520E+03
    0.356222404950488112E+03    0.590737163078239149E+02    0.205928088996478387E+02   -0.178309898508033693E+01   -0.129767882858878347E+01   -0.216284219966169378E+01   -0.293120151736817775E+03
    0.352515224593490814E+03    0.581593426362822399E+02    0.164142763921657711E+02   -0.176928014787752064E+01   -0.144855184342349630E+01   -0.217313801814661067E+01   -0.293084798225868440E+03
    0.372122417244212158E+03    0.597265381924940044E+02    0.163870554383121174E+02   -0.174427408403511697E+01   -0.134805608460499426E+01   -0.216051422205629917E+01   -0.293084438989747696E+03
    0.330721045721508744E+03    0.642251477348685569E+02    0.134950398300448544E+02   -0.169934258981745612E+01   -0.149609607920201926E+01   -0.218597463648056056E+01   -0.293084259621832302E+03
    0.371270147320404874E+03    0.597522360303732043E+02    0.157685904554604868E+02   -0.172457376714717103E+01   -0.137395263444138971E+01   -0.216756804823884330E+01   -0.293065295204571044E+03
    0.356822655938504852E+03    0.602037146951209081E+02    0.165339607724338045E+02   -0.179389903890822611E+01   -0.134736838424082750E+01   -0.217568293354395559E+01   -0.293063127384797156E+03
    0.367822022094579495E+03    0.667072837703351240E+02    0.776168502089286605E+01   -0.168736294838640122E+01   -0.140638751745632851E+01   -0.210755059885923091E+01   -0.292974081767259236E+03
    0.379480971208075005E+03    0.634769101071546942E+02    0.114302367620001402E+02   -0.175747436958515113E+01   -0.138767865677621982E+01   -0.206654328358645145E+01   -0.292960897174552770E+03
    0.367380663417624078E+03    0.603989686362734020E+02    0.154863162669726488E+02   -0.175112174829668588E+01   -0.133733215518632553E+01   -0.211775300494262364E+01   -0.292954453433106039E+03
    0.379043117317309282E+03    0.595803522471807767E+02    0.117882186082708547E+02   -0.178776624969041764E+01   -0.137555707672163918E+01   -0.214156660627950624E+01   -0.292926097557121011E+03
    0.375513978980729348E+03    0.554241073979338807E+02    0.220498418773443703E+02   -0.175530719120382606E+01   -0.127026561240444069E+01   -0.214045867179861204E+01   -0.292823408460858673E+03
    0.351056935737421952E+03    0.613576898181348724E+02    0.112718113182703981E+02   -0.171545084780637924E+01   -0.148007462609433293E+01   -0.219807881876757172E+01   -0.292823267849387037E+03
    0.361844798467854844E+03    0.610276378556057750E+02    0.139838989362266055E+02   -0.179040891159848292E+01   -0.134307058276756419E+01   -0.217157783479112920E+01   -0.292796368804810584E+03
    0.375309332494021419E+03    0.623092231417230806E+02    0.171878073525635244E+02   -0.169943350268162341E+01   -0.134539584076846919E+01   -0.208928762010449143E+01   -0.292774018200897842E+03
    0.340095290394655478E+03    0.674510903013653262E+02    0.103019255337160480E+02   -0.164893004251728881E+01   -0.147711304518549991E+01   -0.216779616200216285E+01   -0.292762311109555128E+03
    0.356397359713080334E+03    0.590238841618493453E+02    0.193843215480746203E+02   -0.169338801931493932E+01   -0.135432962960032111E+01   -0.218885942135031097E+01   -0.292751183546931202E+03
    0.351862784616618171E+03    0.629773452036390538E+02    0.109156441574893783E+02   -0.168711385985408557E+01   -0.153903865539677209E+01   -0.216308533379934609E+01   -0.292720751808240550E+03
    0.358046356862991729E+03    0.620250560060064231E+02    0.142344759068666011E+02   -0.169657678136431711E+01   -0.149389664559950908E+01   -0.213183257557019612E+01   -0.292709488554243649E+03
    0.354359213157129716E+03    0.645644014445990706E+02    0.112691746382499041E+02   -0.179253917896410653E+01   -0.138627457068677185E+01   -0.213487317770276919E+01   -0.292662063489103957E+03
    0.335864064319452837E+03    0.647728246819249165E+02    0.126304961862818868E+02   -0.172598932106302083E+01   -0.146956596860068811E+01   -0.216718207067144508E+01   -0.292628207335182367E+03
    0.352012205187123357E+03    0.611859906911325453E+02    0.179717195257107427E+02   -0.179376381914879524E+01   -0.134979031079117373E+01   -0.213503201243367124E+01   -0.292602830336126715E+03
    0.352012205187123357E+03    0.611859906911325453E+02    0.179717195257107427E+02   -0.179376381914879524E+01   -0.134979031079117373E+01   -0.213503201243367124E+01   -0.292602830336126715E+03
    0.357967833266637342E+03    0.625541760919204819E+02    0.114425896862473362E+02   -0.171164824345473821E+01   -0.144586800946945671E+01   -0.219171380027791241E+01   -0.292588522232339130E+03
    0.368228922077129255E+03    0.587313112080045698E+02    0.167322691003445065E+02   -0.173914652592215391E+01   -0.134630794632985418E+01   -0.218053124272245302E+01   -0.292584435988692462E+03
    0.371238193264126664E+03    0.670130784727685693E+02    0.906862442531960156E+01   -0.166316055038054111E+01   -0.144317295911326426E+01   -0.209759213974324110E+01   -0.292577290083128787E+03
    0.371248791640280103E+03    0.654278574101818009E+02    0.108736847567794275E+02   -0.173596807156285493E+01   -0.143550501663192320E+01   -0.207613487021075160E+01   -0.292569811170592970E+03
    0.376114638491450989E+03    0.588410269076790158E+02    0.147895140937963667E+02   -0.175061391572623259E+01   -0.131363473813372411E+01   -0.216079832623141632E+01   -0.292553483331453435E+03
    0.358798743163794654E+03    0.652895124974831873E+02    0.124405478615394962E+02   -0.165823735158246111E+01   -0.139563029916522940E+01   -0.213047323398650823E+01   -0.292513933752395360E+03
    0.358798743163794654E+03    0.652895124974831873E+02    0.124405478615394962E+02   -0.165823735158246111E+01   -0.139563029916522940E+01   -0.213047323398650823E+01   -0.292513933752395360E+03
    0.370480833129066525E+03    0.592272966232020650E+02    0.178314910814850087E+02   -0.175486446355342585E+01   -0.138384952581468124E+01   -0.212996999439540158E+01   -0.292510666863354686E+03
    0.359620671220877284E+03    0.588554627674428588E+02    0.175968907845139739E+02   -0.168683242466707117E+01   -0.138879974467978906E+01   -0.218312315564569470E+01   -0.292499165680533395E+03
    0.349787349703750579E+03    0.632868218800912459E+02    0.137684155871916083E+02   -0.171005250308253776E+01   -0.147168643145365952E+01   -0.212802595049198784E+01   -0.292459554790163565E+03
    0.367131834982873954E+03    0.678854979648324672E+02    0.608046852030972218E+01   -0.167174009960985814E+01   -0.147013459299816751E+01   -0.210048637862403709E+01   -0.292426973629146858E+03
    0.364439932590664853E+03    0.628534126502946080E+02    0.137168024588554545E+02   -0.167124725771073690E+01   -0.145525643653037373E+01   -0.211974760877581891E+01   -0.292383750438591051E+03
    0.358695665405077079E+03    0.623856252647499687E+02    0.927130472417165485E+01   -0.171072637385053095E+01   -0.145644655467594597E+01   -0.218778597588650658E+01   -0.292383553829395282E+03
    0.366845626490636846E+03    0.664693353149824020E+02    0.959717783228041554E+01   -0.175550142211152305E+01   -0.137391643957136478E+01   -0.210859572893105751E+01   -0.292380683314013709E+03
    0.354764239509560696E+03    0.670837696008630076E+02    0.101502934859632319E+02   -0.170844716688080767E+01   -0.139585180024383626E+01   -0.212437285020036049E+01   -0.292373094502527806E+03
    0.354764239509560696E+03    0.670837696008630076E+02    0.101502934859632319E+02   -0.170844716688080767E+01   -0.139585180024383626E+01   -0.212437285020036049E+01   -0.292373094502527806E+03
    0.369485578775776673E+03    0.583203523444186800E+02    0.197104284707729533E+02   -0.177142682120641948E+01   -0.135124700667242936E+01   -0.212192109687311570E+01   -0.292339979399735739E+03
    0.356993803743475041E+03    0.596386448511738863E+02    0.148410757443125796E+02   -0.175513933878589778E+01   -0.137804149573084000E+01   -0.220027815338555133E+01   -0.292312461132141777E+03
    0.356935890813272067E+03    0.639871912127593916E+02    0.105293590109625370E+02   -0.178338874389174284E+01   -0.143149132342209806E+01   -0.215084587329923504E+01   -0.292271808349091259E+03
    0.381123134080545753E+03    0.590224681641058311E+02    0.134447509117892885E+02   -0.178910220404095677E+01   -0.135895620623080982E+01   -0.211736342202700945E+01   -0.292259941122659313E+03
    0.357670265742004005E+03    0.638687701033301494E+02    0.102268145131471755E+02   -0.167870351211030155E+01   -0.142966712432925114E+01   -0.218971234037823148E+01   -0.292245023140646595E+03
    0.357670265742004005E+03    0.638687701033301494E+02    0.102268145131471755E+02   -0.167870351211030155E+01   -0.142966712432925114E+01   -0.218971234037823148E+01   -0.292245023140646595E+03
    0.366318462721735727E+03    0.653729634047802506E+02    0.913794336683562669E+01   -0.166452190937896560E+01   -0.149599288152210175E+01   -0.210708158379517041E+01   -0.292241761865175704E+03
    0.360817562616387647E+03    0.604446199332930547E+02    0.145072908941630700E+02   -0.180767489532611747E+01   -0.140487373818095884E+01   -0.213907372607203339E+01   -0.292225321761945281E+03
    0.360817562616387647E+03    0.604446199332930547E+02    0.145072908941630700E+02   -0.180767489532611747E+01   -0.140487373818095884E+01   -0.213907372607203339E+01   -0.292225321761945281E+03
    0.354134101792226261E+03    0.622285898018472778E+02    0.166346031651223214E+02   -0.172445794627988835E+01   -0.142723447137963233E+01   -0.212081573781202604E+01   -0.292190099272997998E+03
    0.361562122210038410E+03    0.600541659493899971E+02    0.138312738886569342E+02   -0.175241544926934667E+01   -0.135211929897155758E+01   -0.217492393910158821E+01   -0.292181176278796045E+03
    0.354054170669774010E+03    0.682353656139156186E+02    0.919217122723122237E+01   -0.168907750845651305E+01   -0.143587912245393312E+01   -0.212046415224310536E+01   -0.292168046711307966E+03
    0.367422743933768402E+03    0.620070568161814890E+02    0.162485042716046557E+02   -0.178466888225044862E+01   -0.132129608642447383E+01   -0.210087047700490137E+01   -0.292119629750895513E+03
    0.361692839577875304E+03    0.586328389228153881E+02    0.188836901379334350E+02   -0.176505159038557058E+01   -0.138980253526868047E+01   -0.214466935656423452E+01   -0.292112599258753903E+03
    0.361692839577875304E+03    0.586328389228153881E+02    0.188836901379334350E+02   -0.176505159038557058E+01   -0.138980253526868047E+01   -0.214466935656423452E+01   -0.292112599258753903E+03
    0.368200168049047420E+03    0.590145011403738948E+02    0.160710775011386069E+02   -0.171085497279301890E+01   -0.141675526621383874E+01   -0.216015215781657055E+01   -0.292101830123093634E+03
    0.360896344496535221E+03    0.638307255270831746E+02    0.103100145566404517E+02   -0.176822316223738252E+01   -0.148435767240241057E+01   -0.210967614213257626E+01   -0.292095588315305122E+03
    0.366628956825427565E+03    0.637807850580233335E+02    0.120970397371028966E+02   -0.170953052275346584E+01   -0.146791733987548412E+01   -0.211989044528022763E+01   -0.292058473311582190E+03
    0.366628956825427565E+03    0.637807850580233335E+02    0.120970397371028966E+02   -0.170953052275346584E+01   -0.146791733987548412E+01   -0.211989044528022763E+01   -0.292058473311582190E+03
    0.368849536726100837E+03    0.574537483513649221E+02    0.223471846517625039E+02   -0.174595836806665750E+01   -0.127033032315003425E+01   -0.213229568489385279E+01   -0.292027912298524257E+03
    0.376105827571646785E+03    0.631145805553935304E+02    0.106817024058214205E+02   -0.176144693359323368E+01   -0.136720189327743835E+01   -0.213450818488032912E+01   -0.292017911130837660E+03
    0.385177931489936043E+03    0.581478624130811568E+02    0.167235550644334268E+02   -0.177840663449464076E+01   -0.131734365327797232E+01   -0.210923224255265573E+01   -0.292017866341442186E+03
    0.364774389227714835E+03    0.646175605287789665E+02    0.786485118483349943E+01   -0.173442796192979976E+01   -0.141091310199055164E+01   -0.216296678699822786E+01   -0.292012056378077546E+03
    0.364774389227714835E+03    0.646175605287789665E+02    0.786485118483349943E+01   -0.173442796192979976E+01   -0.141091310199055164E+01   -0.216296678699822786E+01   -0.292012056378077546E+03
    0.372311749616602583E+03    0.620955237796539592E+02    0.124689757211343490E+02   -0.176885089952047991E+01   -0.144094410879165880E+01   -0.210476924696762335E+01   -0.292011457360110001E+03
    0.357288788398319809E+03    0.616283260697455546E+02    0.183268462888405992E+02   -0.174114442410635717E+01   -0.135183544609522244E+01   -0.211617392167928875E+01   -0.292005174509374456E+03
    0.360984264040955395E+03    0.651015271631763426E+02    0.121335515561373910E+02   -0.172984245208211984E+01   -0.143146079198164977E+01   -0.212219636831099034E+01   -0.291957771158525929E+03
    0.365892290261056871E+03    0.648639419441246048E+02    0.100975153528219668E+02   -0.168778892679489179E+01   -0.137148130495599041E+01   -0.215298990635989718E+01   -0.291953709717969048E+03
    0.365892290261056871E+03    0.648639419441246048E+02    0.100975153528219668E+02   -0.168778892679489179E+01   -0.137148130495599041E+01   -0.215298990635989718E+01   -0.291953709717969048E+03
    0.368336434049504760E+03    0.649148943690632052E+02    0.102693133683154407E+02   -0.177768282274716438E+01   -0.137063026716390191E+01   -0.210805238979941922E+01   -0.291943563347507165E+03
    0.368336434049504760E+03    0.649148943690632052E+02    0.102693133683154407E+02   -0.177768282274716438E+01   -0.137063026716390191E+01   -0.210805238979941922E+01   -0.291943563347507165E+03
    0.364160362073966610E+03    0.642637976304941105E+02    0.952047287412902676E+01   -0.173488207617937418E+01   -0.148254951165188675E+01   -0.209893884785935469E+01   -0.291899261651422762E+03
    0.365914824536663787E+03    0.605314086413572170E+02    0.105806797693768697E+02   -0.174370279733861322E+01   -0.143394418207248253E+01   -0.216910535544865013E+01   -0.291830212343429707E+03
    0.340854644702880705E+03    0.660200186346514215E+02    0.122862076376897313E+02   -0.170010144378642969E+01   -0.145641652071873184E+01   -0.216229662878881035E+01   -0.291822084458942243E+03
    0.365333682064181573E+03    0.624488364837328263E+02    0.123239313406475937E+02   -0.180298222379940620E+01   -0.138115930080691474E+01   -0.212089421345251283E+01   -0.291817857491505151E+03
    0.354846323599961977E+03    0.606763704104547656E+02    0.139319402995397361E+02   -0.176621996759390121E+01   -0.140301444576104517E+01   -0.219145401123379457E+01   -0.291800592336488307E+03
    0.351138741429476795E+03    0.656289268515228912E+02    0.835088014577485360E+01   -0.168026234250515683E+01   -0.152585512473088447E+01   -0.215816517671976715E+01   -0.291762829060140177E+03
    0.371669447538629129E+03    0.609968785582836830E+02    0.142928546687032849E+02   -0.171701156059371063E+01   -0.141728740020859756E+01   -0.210829565573713307E+01   -0.291760559988848627E+03
    0.377425249855499146E+03    0.584037720591549814E+02    0.195386499496686170E+02   -0.174977169224363083E+01   -0.130988428522381151E+01   -0.211905662869172851E+01   -0.291749115202295911E+03
    0.352196734568452825E+03    0.630294038793691200E+02    0.118899535299839361E+02   -0.168620811433472761E+01   -0.143829514178138118E+01   -0.216798423738325230E+01   -0.291748066322608793E+03
    0.367925431737541658E+03    0.630107149568759439E+02    0.102605764021842720E+02   -0.173471759636761380E+01   -0.136175204035060227E+01   -0.215460255782527277E+01   -0.291740608526979372E+03
    0.367925431737541658E+03    0.630107149568759439E+02    0.102605764021842720E+02   -0.173471759636761380E+01   -0.136175204035060227E+01   -0.215460255782527277E+01   -0.291740608526979372E+03
    0.357264817639151829E+03    0.662455957512836449E+02    0.664267183880093270E+01   -0.167936001154246428E+01   -0.148373633320397946E+01   -0.215602139878947874E+01   -0.291739960291904993E+03
    0.357264817639151829E+03    0.662455957512836449E+02    0.664267183880093270E+01   -0.167936001154246428E+01   -0.148373633320397946E+01   -0.215602139878947874E+01   -0.291739960291904993E+03
    0.377456342584901108E+03    0.569867219303418580E+02    0.185487131531657496E+02   -0.175812160213968283E+01   -0.130978638499514588E+01   -0.214108998677500573E+01   -0.291738691148583030E+03
    0.370688120224987927E+03    0.640417806244236942E+02    0.115025059774437004E+02   -0.175687130175445372E+01   -0.142457371858408455E+01   -0.210319395935750908E+01   -0.291726218311220862E+03
    0.344103857195480600E+03    0.666569979974138960E+02    0.911247486022070419E+01   -0.166338357316231478E+01   -0.148286723852860347E+01   -0.216784643759440243E+01   -0.291718053335220873E+03
    0.371804991178611999E+03    0.600756752256674176E+02    0.131686903387253125E+02   -0.176510404991689085E+01   -0.141303013182157611E+01   -0.211956722423186594E+01   -0.291690778476492994E+03
    0.371804991178611999E+03    0.600756752256674176E+02    0.131686903387253125E+02   -0.176510404991689085E+01   -0.141303013182157611E+01   -0.211956722423186594E+01   -0.291690778476492994E+03
    0.351158158222986629E+03    0.612929431925552635E+02    0.147971245213462446E+02   -0.177221373319007225E+01   -0.146013861179896232E+01   -0.215731991869969075E+01   -0.291684684016550307E+03
    0.351158158222986629E+03    0.612929431925552635E+02    0.147971245213462446E+02   -0.177221373319007225E+01   -0.146013861179896232E+01   -0.215731991869969075E+01   -0.291684684016550307E+03
    0.373817966997342637E+03    0.653643656906379675E+02    0.119524840628555467E+02   -0.170458379411006500E+01   -0.134598062518316008E+01   -0.211579972088189283E+01   -0.291650420679160220E+03
    0.358352647823703535E+03    0.660789139377459662E+02    0.994615326820808576E+01   -0.164119815608915420E+01   -0.146808007884341407E+01   -0.213777029039081334E+01   -0.291592902766328848E+03
    0.350482359210550044E+03    0.653519227370097582E+02    0.116694218281514335E+02   -0.173057904604640145E+01   -0.139615282958012910E+01   -0.216686091386871205E+01   -0.291565812880436795E+03
    0.350482359210550044E+03    0.653519227370097582E+02    0.116694218281514335E+02   -0.173057904604640145E+01   -0.139615282958012910E+01   -0.216686091386871205E+01   -0.291565812880436795E+03
    0.348903312727669629E+03    0.623445926944608146E+02    0.165286986602276365E+02   -0.176190441470684345E+01   -0.136995261455892225E+01   -0.216347913281310689E+01   -0.291562238228928436E+03
    0.348903312727669629E+03    0.623445926944608146E+02    0.165286986602276365E+02   -0.176190441470684345E+01   -0.136995261455892225E+01   -0.216347913281310689E+01   -0.291562238228928436E+03
    0.367288480279557916E+03    0.574619159844709131E+02    0.184921195165383878E+02   -0.177867248298410940E+01   -0.131528411951548585E+01   -0.214496381498760647E+01   -0.291513125167109365E+03
    0.367288480279557916E+03    0.574619159844709131E+02    0.184921195165383878E+02   -0.177867248298410940E+01   -0.131528411951548585E+01   -0.214496381498760647E+01   -0.291513125167109365E+03
    0.383449998964293570E+03    0.636405534139247351E+02    0.117695546325364706E+02   -0.168723033550203727E+01   -0.135476963159328712E+01   -0.210430154705278660E+01   -0.291486275586661009E+03
    0.358531942525253783E+03    0.636479067421645652E+02    0.136417996278818361E+02   -0.174180843839521149E+01   -0.141496931754005506E+01   -0.214369375684404417E+01   -0.291477019432704424E+03
    0.358531942525253783E+03    0.636479067421645652E+02    0.136417996278818361E+02   -0.174180843839521149E+01   -0.141496931754005506E+01   -0.214369375684404417E+01   -0.291477019432704424E+03
    0.362135909824992325E+03    0.649317938875571343E+02    0.919886502180809629E+01   -0.165783192547482505E+01   -0.145713177338743272E+01   -0.215974896675937966E+01   -0.291473964567981568E+03
    0.375942408291830816E+03    0.651485233142893776E+02    0.116017117524127542E+02   -0.172263752799470149E+01   -0.133800635642435140E+01   -0.210154985322053278E+01   -0.291454936409919583E+03
    0.375942408291830816E+03    0.651485233142893776E+02    0.116017117524127542E+02   -0.172263752799470149E+01   -0.133800635642435140E+01   -0.210154985322053278E+01   -0.291454936409919583E+03
    0.346368588701427825E+03    0.651443526339462267E+02    0.101692124320181723E+02   -0.171293939731308420E+01   -0.144612714856352320E+01   -0.216318535728022132E+01   -0.291445533956886663E+03
    0.346368588701427825E+03    0.651443526339462267E+02    0.101692124320181723E+02   -0.171293939731308420E+01   -0.144612714856352320E+01   -0.216318535728022132E+01   -0.291445533956886663E+03
    0.368745017798245783E+03    0.629895010113740454E+02    0.119594436975694958E+02   -0.176024773038346938E+01   -0.145029499029384379E+01   -0.210184732631337567E+01   -0.291444118478741302E+03
    0.363322423903232561E+03    0.589723744789148512E+02    0.161684468048764280E+02   -0.176090228039532581E+01   -0.133331726500899128E+01   -0.216171352319459498E+01   -0.291410345164912997E+03
    0.355824786268592845E+03    0.624814689377486872E+02    0.124828748000650851E+02   -0.177990862836964969E+01   -0.143489275802058835E+01   -0.212753929798164343E+01   -0.291396914563110329E+03
    0.355824786268592845E+03    0.624814689377486872E+02    0.124828748000650851E+02   -0.177990862836964969E+01   -0.143489275802058835E+01   -0.212753929798164343E+01   -0.291396914563110329E+03
    0.378651823769809766E+03    0.596175828062221029E+02    0.146716743614204148E+02   -0.172765531729527666E+01   -0.133385098509434608E+01   -0.213098127139048366E+01   -0.291340412127409195E+03
    0.357758527022066971E+03    0.626122262050011216E+02    0.137983977423001321E+02   -0.178822537532503412E+01   -0.139380990179179354E+01   -0.212121745374923654E+01   -0.291325372667246995E+03
    0.358737315756347982E+03    0.646330197709914387E+02    0.783738033974857107E+01   -0.170068467327663697E+01   -0.151447752771468425E+01   -0.214769217065617646E+01   -0.291319011339000156E+03
    0.355637471206428017E+03    0.644074047712660871E+02    0.125897118725134369E+02   -0.173004713562698687E+01   -0.138775143529653566E+01   -0.216741400044220089E+01   -0.291292238401743191E+03
    0.381159012323506090E+03    0.620894845085239240E+02    0.146219496810232013E+02   -0.174424241241271250E+01   -0.133716841038885836E+01   -0.210088904596156922E+01   -0.291262491991096056E+03
    0.381159012323506090E+03    0.620894845085239240E+02    0.146219496810232013E+02   -0.174424241241271250E+01   -0.133716841038885836E+01   -0.210088904596156922E+01   -0.291262491991096056E+03
    0.362424476461024369E+03    0.626079967069372927E+02    0.168403538572633771E+02   -0.173783171172630801E+01   -0.135263544899280941E+01   -0.210598614588386379E+01   -0.291254457708912810E+03
    0.365827462179950885E+03    0.600676463865372909E+02    0.183519522225494498E+02   -0.177784854580060792E+01   -0.133562588285458927E+01   -0.211258358867608820E+01   -0.291222210843269806E+03
    0.361223340292899820E+03    0.656345337110821987E+02    0.919555711900908079E+01   -0.171025092188510053E+01   -0.149594054554005362E+01   -0.211287476514263339E+01   -0.291215560943424180E+03
    0.346993813715225826E+03    0.602877246679715100E+02    0.164107416409625095E+02   -0.175435541897285519E+01   -0.142830514244478812E+01   -0.218642027141171136E+01   -0.291202645291875569E+03
    0.346993813715225826E+03    0.602877246679715100E+02    0.164107416409625095E+02   -0.175435541897285519E+01   -0.142830514244478812E+01   -0.218642027141171136E+01   -0.291202645291875569E+03
    0.354640196971989781E+03    0.657161296287116699E+02    0.909023867738597957E+01   -0.166629387570214060E+01   -0.144911175842219331E+01   -0.216500105202509951E+01   -0.291182341549516138E+03
    0.357073138049332158E+03    0.601157214465105270E+02    0.149500442251792123E+02   -0.175901501496329171E+01   -0.140592022318320931E+01   -0.218269585431124913E+01   -0.291167611207852758E+03
    0.357073138049332158E+03    0.601157214465105270E+02    0.149500442251792123E+02   -0.175901501496329171E+01   -0.140592022318320931E+01   -0.218269585431124913E+01   -0.291167611207852758E+03
    0.348019195836132155E+03    0.642450867601202305E+02    0.998265291837033253E+01   -0.168313214957080182E+01   -0.149566118187651087E+01   -0.216909964512170461E+01   -0.291163958761237836E+03
    0.348019195836132155E+03    0.642450867601202305E+02    0.998265291837033253E+01   -0.168313214957080182E+01   -0.149566118187651087E+01   -0.216909964512170461E+01   -0.291163958761237836E+03
    0.361665435710545353E+03    0.662184027840602880E+02    0.106858164426963231E+02   -0.167050225374874683E+01   -0.140050757604215370E+01   -0.214256806105920550E+01   -0.291131565871033956E+03
    0.361665435710545353E+03    0.662184027840602880E+02    0.106858164426963231E+02   -0.167050225374874683E+01   -0.140050757604215370E+01   -0.214256806105920550E+01   -0.291131565871033956E+03
    0.364041434825058218E+03    0.627736466583556734E+02    0.896303298643354296E+01   -0.174565770487126048E+01   -0.144886033674082304E+01   -0.213953216067268492E+01   -0.291110991065398025E+03
    0.364041434825058218E+03    0.627736466583556734E+02    0.896303298643354296E+01   -0.174565770487126048E+01   -0.144886033674082304E+01   -0.213953216067268492E+01   -0.291110991065398025E+03
    0.354306864237384843E+03    0.673187023177295885E+02    0.976262523503381630E+01   -0.167313635353628287E+01   -0.144818646966093878E+01   -0.213037705377043096E+01   -0.291097063443389118E+03
    0.354306864237384843E+03    0.673187023177295885E+02    0.976262523503381630E+01   -0.167313635353628287E+01   -0.144818646966093878E+01   -0.213037705377043096E+01   -0.291097063443389118E+03
    0.363865849336373174E+03    0.623923757797188401E+02    0.145242548219643943E+02   -0.175177979531072703E+01   -0.142453593204641282E+01   -0.211932430373535130E+01   -0.291084419721189533E+03
    0.380898871771532072E+03    0.605657178412529262E+02    0.138134533277842522E+02   -0.175288230440069737E+01   -0.137314052885071924E+01   -0.211862565967833794E+01   -0.291078448992784331E+03
    0.367281995273845666E+03    0.661386923503513628E+02    0.964237506384500342E+01   -0.173815101646420267E+01   -0.137973888911601872E+01   -0.210782707239417011E+01   -0.291066500620567922E+03
    0.365340244528342623E+03    0.597243667510744061E+02    0.175541274237587928E+02   -0.172817668295964877E+01   -0.130747078216434232E+01   -0.216100176695210244E+01   -0.291057769358470409E+03
    0.365340244528342623E+03    0.597243667510744061E+02    0.175541274237587928E+02   -0.172817668295964877E+01   -0.130747078216434232E+01   -0.216100176695210244E+01   -0.291057769358470409E+03
    0.359202645922260103E+03    0.634918259462241110E+02    0.147123626339551059E+02   -0.175631509981163347E+01   -0.139436026648975786E+01   -0.211154315310874319E+01   -0.291055469359730864E+03
    0.359202645922260103E+03    0.634918259462241110E+02    0.147123626339551059E+02   -0.175631509981163347E+01   -0.139436026648975786E+01   -0.211154315310874319E+01   -0.291055469359730864E+03
    0.360733212618711434E+03    0.622817991488672646E+02    0.140911278295731783E+02   -0.168964273385356289E+01   -0.139835281942775147E+01   -0.217661139624637023E+01   -0.291047560310597419E+03
    0.360733212618711434E+03    0.622817991488672646E+02    0.140911278295731783E+02   -0.168964273385356289E+01   -0.139835281942775147E+01   -0.217661139624637023E+01   -0.291047560310597419E+03
    0.369343616744376448E+03    0.646079504567744323E+02    0.128167493050021335E+02   -0.169647276167794092E+01   -0.138567974851851816E+01   -0.209413476412790800E+01   -0.291046430366311313E+03
    0.361869224587485178E+03    0.645416111712591629E+02    0.123024225655972685E+02   -0.172376280493149903E+01   -0.142186880849965314E+01   -0.213521824747361144E+01   -0.291032158792655764E+03
    0.352848367083055564E+03    0.622564385572861099E+02    0.109167605497345139E+02   -0.174587762480482178E+01   -0.146005008918135237E+01   -0.218267950585633841E+01   -0.291016044445020100E+03
    0.352848367083055564E+03    0.622564385572861099E+02    0.109167605497345139E+02   -0.174587762480482178E+01   -0.146005008918135237E+01   -0.218267950585633841E+01   -0.291016044445020100E+03
    0.367116707302818952E+03    0.649596788188827929E+02    0.101381463178005369E+02   -0.166256845279936627E+01   -0.142472761555052641E+01   -0.214588956255481467E+01   -0.291015311029369002E+03
    0.369602043978713880E+03    0.586693077874102329E+02    0.174318588858826793E+02   -0.175844014834347440E+01   -0.136603357429825722E+01   -0.214519729202774334E+01   -0.291010977414161516E+03
    0.362635161067444358E+03    0.627917765004349278E+02    0.113636100749056155E+02   -0.167217510846225714E+01   -0.145007696258096708E+01   -0.216479910683709820E+01   -0.291001597163557392E+03
    0.355779771012718697E+03    0.638035087949230899E+02    0.140728318050915426E+02   -0.170569355644405451E+01   -0.144876923910498534E+01   -0.212084451668568796E+01   -0.290975065080474167E+03
    0.355779771012718697E+03    0.638035087949230899E+02    0.140728318050915426E+02   -0.170569355644405451E+01   -0.144876923910498534E+01   -0.212084451668568796E+01   -0.290975065080474167E+03
    0.346136875005835805E+03    0.652887018955911316E+02    0.120876803601973108E+02   -0.169001347484949949E+01   -0.145742503929979605E+01   -0.214342386621530334E+01   -0.290962293076021353E+03
    0.346136875005835805E+03    0.652887018955911316E+02    0.120876803601973108E+02   -0.169001347484949949E+01   -0.145742503929979605E+01   -0.214342386621530334E+01   -0.290962293076021353E+03
    0.374924279954182396E+03    0.629208318446489514E+02    0.121071074756104000E+02   -0.168981781489048810E+01   -0.139610523674450526E+01   -0.210901387701881893E+01   -0.290957960846101003E+03
    0.369603258599277069E+03    0.607627156494479621E+02    0.148856994270568102E+02   -0.178471039874540827E+01   -0.132775619331406403E+01   -0.212619773264240131E+01   -0.290950733511992098E+03
    0.369603258599277069E+03    0.607627156494479621E+02    0.148856994270568102E+02   -0.178471039874540827E+01   -0.132775619331406403E+01   -0.212619773264240131E+01   -0.290950733511992098E+03
    0.361208920783939220E+03    0.627433401642155602E+02    0.114900410507480775E+02   -0.170151363264018296E+01   -0.149368587653668072E+01   -0.214589333050095199E+01   -0.290922240176241303E+03
    0.371157514359034963E+03    0.622999298993224286E+02    0.980946374065974247E+01   -0.176382518412726874E+01   -0.139635578469104726E+01   -0.213254346399429640E+01   -0.290918503900456130E+03
    0.366211181577481113E+03    0.628677311796489278E+02    0.108284567270156913E+02   -0.168655198857043409E+01   -0.141084021171862761E+01   -0.215121206600234638E+01   -0.290913915076013154E+03
    0.361354152552286280E+03    0.656131594159478624E+02    0.123109298797956512E+02   -0.171971245354783231E+01   -0.136749349601808623E+01   -0.211606718883143774E+01   -0.290913780997251649E+03
    0.361354152552286280E+03    0.656131594159478624E+02    0.123109298797956512E+02   -0.171971245354783231E+01   -0.136749349601808623E+01   -0.211606718883143774E+01   -0.290913780997251649E+03
    0.356811434746940904E+03    0.654085206385993985E+02    0.736386265933273254E+01   -0.169566821105751231E+01   -0.149583757877347034E+01   -0.214278301151004058E+01   -0.290907502285635871E+03
    0.374689656454798239E+03    0.636164992280753694E+02    0.109105444385047932E+02   -0.171297304344671519E+01   -0.143077935838072889E+01   -0.212046323170907369E+01   -0.290892755268853250E+03
    0.369828179376122591E+03    0.603436577027983603E+02    0.124972291424752910E+02   -0.177603214710166402E+01   -0.140954177895698507E+01   -0.213434607491371864E+01   -0.290891432398314521E+03
    0.369828179376122591E+03    0.603436577027983603E+02    0.124972291424752910E+02   -0.177603214710166402E+01   -0.140954177895698507E+01   -0.213434607491371864E+01   -0.290891432398314521E+03
    0.372373273760922416E+03    0.599288022535702680E+02    0.184091346352061223E+02   -0.173087062423386984E+01   -0.134608967037463612E+01   -0.210655290080816915E+01   -0.290891428465795741E+03
    0.351052633600179206E+03    0.624185981732839679E+02    0.144553468180012263E+02   -0.169873384828793261E+01   -0.147499350056433021E+01   -0.215090699424104503E+01   -0.290873630467692465E+03
    0.365691977950358933E+03    0.639721488446627404E+02    0.138630847544876126E+02   -0.171749858315004333E+01   -0.140255719567032466E+01   -0.211669829812560195E+01   -0.290849829635359640E+03
    0.370030556339575639E+03    0.591559743973373955E+02    0.199500146602288204E+02   -0.174408774200462968E+01   -0.130284326196223721E+01   -0.212172262605163464E+01   -0.290849696170523714E+03
    0.344031410757409446E+03    0.654998026018966613E+02    0.117843348986909060E+02   -0.170149458943986520E+01   -0.144828029299407213E+01   -0.216915867948443530E+01   -0.290845470782678376E+03
    0.344031410757409446E+03    0.654998026018966613E+02    0.117843348986909060E+02   -0.170149458943986520E+01   -0.144828029299407213E+01   -0.216915867948443530E+01   -0.290845470782678376E+03
    0.364312952459841199E+03    0.591560969155345049E+02    0.149691194248619297E+02   -0.176117277486898116E+01   -0.136498172673376739E+01   -0.217349341472655411E+01   -0.290842100955267824E+03
    0.354041026228248256E+03    0.624130105285399281E+02    0.138582317437566829E+02   -0.174098656230590598E+01   -0.136696601007763885E+01   -0.216715172102606868E+01   -0.290840918100054921E+03
    0.357236575648600251E+03    0.584381656735646189E+02    0.179710812685329131E+02   -0.176205164017543403E+01   -0.139084834456191819E+01   -0.216632456832617493E+01   -0.290840555625023910E+03
    0.375732814185665404E+03    0.640846650704425258E+02    0.825149832837150221E+01   -0.172709074099624571E+01   -0.140334173357409941E+01   -0.213119302450881465E+01   -0.290833076109934950E+03
    0.360340101686705168E+03    0.607479847068795564E+02    0.141538667139823371E+02   -0.172591285485546897E+01   -0.137276464533163844E+01   -0.218658202729776674E+01   -0.290819431399553537E+03
    0.375560026455342779E+03    0.618389683263286472E+02    0.125540645560388864E+02   -0.168901649331339732E+01   -0.137662209256059564E+01   -0.214319448237553445E+01   -0.290814095698932761E+03
    0.378892893157495052E+03    0.587510804214281848E+02    0.169747033471282549E+02   -0.175971269351719384E+01   -0.132844103038075101E+01   -0.211133038811461304E+01   -0.290804937109322054E+03
    0.364371318090406703E+03    0.603711768450436068E+02    0.185583614092813498E+02   -0.170913576132546519E+01   -0.132665084316672965E+01   -0.213848230177619358E+01   -0.290792883676557494E+03
    0.367162015221371973E+03    0.621025732964508990E+02    0.161595484811894821E+02   -0.169090075479401647E+01   -0.137038529476711357E+01   -0.213362178942288327E+01   -0.290754237405618710E+03
    0.364391106931160152E+03    0.592741299001880648E+02    0.149026248583064831E+02   -0.172623575679117369E+01   -0.140002875894517209E+01   -0.217621795827215481E+01   -0.290742779874682185E+03
    0.353957875188361015E+03    0.599290178097397259E+02    0.153746250609286133E+02   -0.176151614487959995E+01   -0.138669580865993081E+01   -0.218503219428818252E+01   -0.290723411427663564E+03
    0.366493890421104879E+03    0.641078188602974706E+02    0.115384695059650291E+02   -0.173561390304328755E+01   -0.141943496523984325E+01   -0.209436492787361983E+01   -0.290711781884154277E+03
    0.373996011058999159E+03    0.626647702361311119E+02    0.153202795942677135E+02   -0.173359567303190176E+01   -0.131449150655981106E+01   -0.211394564300272325E+01   -0.290710334712348072E+03
    0.360659894880959200E+03    0.626772961744129162E+02    0.104700851022079480E+02   -0.172492355370746031E+01   -0.140943141233475688E+01   -0.217659860430010133E+01   -0.290675524775143515E+03
    0.352749612451678388E+03    0.638507801551844665E+02    0.144738632257564319E+02   -0.173507207609302516E+01   -0.136898461221283196E+01   -0.214933411828204601E+01   -0.290673243065996132E+03
    0.367817588250148219E+03    0.617765565394364415E+02    0.114850550828081950E+02   -0.175906126120768791E+01   -0.144549794250604502E+01   -0.213845295071903818E+01   -0.290665335253612739E+03
    0.371405499096036465E+03    0.631953703330360526E+02    0.927494196584384589E+01   -0.174703715518322467E+01   -0.139045110429996166E+01   -0.213382409684830954E+01   -0.290657382069733387E+03
    0.371405499096036465E+03    0.631953703330360526E+02    0.927494196584384589E+01   -0.174703715518322467E+01   -0.139045110429996166E+01   -0.213382409684830954E+01   -0.290657382069733387E+03
    0.368698379794065147E+03    0.633285816975921918E+02    0.124172829211690097E+02   -0.175502663179404528E+01   -0.138839739449456645E+01   -0.209627317024727455E+01   -0.290650827105660824E+03
    0.368698379794065147E+03    0.633285816975921918E+02    0.124172829211690097E+02   -0.175502663179404528E+01   -0.138839739449456645E+01   -0.209627317024727455E+01   -0.290650827105660824E+03
    0.358273975857574783E+03    0.620837485521134838E+02    0.166184864631264517E+02   -0.171152228587157884E+01   -0.139097892861566907E+01   -0.212670927305445101E+01   -0.290642679439719757E+03
    0.360571725689670927E+03    0.649584322676106183E+02    0.118193890373519306E+02   -0.168014151933738365E+01   -0.145880787148766111E+01   -0.212082061249735743E+01   -0.290639881231371248E+03
    0.365651571812067345E+03    0.633783803866686029E+02    0.112626769208871274E+02   -0.177411996577571562E+01   -0.141516108443052713E+01   -0.212598899167758537E+01   -0.290617530959584826E+03
    0.372496692372179098E+03    0.652076859581466124E+02    0.868332039713008896E+01   -0.167668228802318753E+01   -0.142374803502778735E+01   -0.212472547087895114E+01   -0.290608724365907506E+03
    0.348790962800957061E+03    0.619139199457413483E+02    0.146275172791898633E+02   -0.169691788374962593E+01   -0.144998544672757745E+01   -0.218349656713359908E+01   -0.290603897635569638E+03
    0.371792411878962298E+03    0.605135352912921718E+02    0.145121524659539833E+02   -0.169699735715315048E+01   -0.137810237392741231E+01   -0.214384309646781812E+01   -0.290589867487741742E+03
    0.365439604887386395E+03    0.630868943997607943E+02    0.140089798256244737E+02   -0.173047472911387157E+01   -0.140401156338815492E+01   -0.209854071416433818E+01   -0.290585248308933501E+03
    0.371986170794285158E+03    0.639820352152217566E+02    0.108465452685029451E+02   -0.174382710415214226E+01   -0.142884791593266325E+01   -0.209056020261978404E+01   -0.290579789660760696E+03
    0.365863515399959113E+03    0.665775061816686389E+02    0.986503800230762984E+01   -0.169993787798193141E+01   -0.140585480028775822E+01   -0.211634230279911062E+01   -0.290577896522763638E+03
    0.366486405357720002E+03    0.631530112489551740E+02    0.110303169791456845E+02   -0.169837519191942765E+01   -0.145045825394179406E+01   -0.215164300131303765E+01   -0.290558231634851950E+03
    0.377373089142220294E+03    0.599898105244497657E+02    0.159278791580202785E+02   -0.172739709021562615E+01   -0.134181207348712173E+01   -0.211346282878994485E+01   -0.290539634997630060E+03
    0.356870506905971467E+03    0.652742886475286923E+02    0.994888726882164320E+01   -0.175480636961592951E+01   -0.143543520580427142E+01   -0.213550055556736185E+01   -0.290519998680777348E+03
    0.362333560004604578E+03    0.611391834284258664E+02    0.180782895591032329E+02   -0.172091524621202474E+01   -0.133627673046843021E+01   -0.214441310014564568E+01   -0.290511909464264590E+03
    0.370827075154507213E+03    0.601204142711792642E+02    0.136834644329330128E+02   -0.177250786298851160E+01   -0.135388940333911911E+01   -0.214581049273815605E+01   -0.290503888292622833E+03
    0.369667704712545003E+03    0.644183617393165946E+02    0.108335381673990536E+02   -0.173469115431207221E+01   -0.143632195563938048E+01   -0.209119124845276705E+01   -0.290493655223339147E+03
    0.372018166417950965E+03    0.640536385186679809E+02    0.121744612000387225E+02   -0.172394514125095744E+01   -0.133878873887993577E+01   -0.212029977954256221E+01   -0.290485096352200173E+03
    0.357942521141498105E+03    0.644987640055461782E+02    0.121901021011049142E+02   -0.174509443604627168E+01   -0.139242120065388164E+01   -0.211986154056787690E+01   -0.290479005357086294E+03
    0.355886178907638964E+03    0.592428034801846621E+02    0.176008199839700623E+02   -0.173098973733356432E+01   -0.140080682798310829E+01   -0.216855307851865664E+01   -0.290459989174016869E+03
    0.353756123611141447E+03    0.657155473136939747E+02    0.963899684177940053E+01   -0.168374824352188313E+01   -0.143721514303109998E+01   -0.216076105353952119E+01   -0.290445658973847742E+03
    0.363764265981073379E+03    0.663331983481669454E+02    0.799281520601295981E+01   -0.169698020996459631E+01   -0.146118198421395595E+01   -0.212732918506873370E+01   -0.290444135982865305E+03
    0.376787149043070315E+03    0.597795948842807405E+02    0.158977944326902474E+02   -0.176233684510211908E+01   -0.131606676097942521E+01   -0.212467807687085575E+01   -0.290440537814273625E+03
    0.368666529542824662E+03    0.652881319776118687E+02    0.110108416666604043E+02   -0.173630816866728654E+01   -0.138774975846350257E+01   -0.211252218612342135E+01   -0.290426989012913964E+03
    0.370275845181122634E+03    0.605634223371297864E+02    0.120868479677212211E+02   -0.173067716050595544E+01   -0.142564222398770912E+01   -0.215258675051624637E+01   -0.290423131525662711E+03
    0.361804126704582018E+03    0.616820331486049724E+02    0.118621875272515744E+02   -0.171000792475657404E+01   -0.142255708294807448E+01   -0.215965406545451444E+01   -0.290423087353497124E+03
    0.373642178915490433E+03    0.620283607290687016E+02    0.137429088867688058E+02   -0.169766529660858279E+01   -0.138871107602576704E+01   -0.211354294926924258E+01   -0.290409110733554201E+03
    0.369087276428210089E+03    0.620001091619130449E+02    0.122960396397456915E+02   -0.173566081721327925E+01   -0.142087043003719415E+01   -0.214725239572396776E+01   -0.290381417399534882E+03
    0.356804802911515310E+03    0.630990470299474140E+02    0.129699191887080989E+02   -0.171787643110788646E+01   -0.143743009256671161E+01   -0.212736819637834129E+01   -0.290378571982917606E+03
    0.372599433520423247E+03    0.600145320167072001E+02    0.153130637697266181E+02   -0.177527410993238788E+01   -0.137115573763941878E+01   -0.211987071259703796E+01   -0.290370768719961177E+03
    0.357260572082429974E+03    0.632172128740999071E+02    0.115918193736201633E+02   -0.172314381300903330E+01   -0.140317075171461969E+01   -0.215218772220290866E+01   -0.290366402046217615E+03
    0.368079956234119265E+03    0.628444113296226590E+02    0.881999463927988714E+01   -0.174310780578339886E+01   -0.144436560480295673E+01   -0.213986965907414062E+01   -0.290361906801862233E+03
    0.360033838067374575E+03    0.616246493900263346E+02    0.151468890533239247E+02   -0.175569174586200760E+01   -0.135151270392007539E+01   -0.213749048730940494E+01   -0.290353914787778990E+03
    0.364082624358755709E+03    0.647753908874563535E+02    0.880207737201844331E+01   -0.175178867509363068E+01   -0.143864910922444733E+01   -0.213265963014689364E+01   -0.290348273846201664E+03
    0.357176418011342037E+03    0.608209960594849122E+02    0.167963660025962760E+02   -0.174521157274564986E+01   -0.139905907417958275E+01   -0.213293969589301646E+01   -0.290334084279993533E+03
    0.374619667484636977E+03    0.646886898909594095E+02    0.102101994483719611E+02   -0.173378585277788133E+01   -0.140757615742570774E+01   -0.210297878038157116E+01   -0.290329341080062932E+03
    0.360620744824592293E+03    0.600758293937960133E+02    0.177248023100905883E+02   -0.173630688601693883E+01   -0.139347162763117183E+01   -0.214035575908490827E+01   -0.290313186644147265E+03
    0.354617400712640688E+03    0.629834752508490965E+02    0.152275450195594537E+02   -0.173856362178529134E+01   -0.136825282570332618E+01   -0.215654564519423353E+01   -0.290299406404944762E+03
    0.361981928311766637E+03    0.596431484337590021E+02    0.146616226878806568E+02   -0.176742115985766368E+01   -0.137910166782321819E+01   -0.216461456541787012E+01   -0.290291653542748350E+03
    0.374933263524619520E+03    0.607485086168564123E+02    0.127984679658247469E+02   -0.173133286756637683E+01   -0.140899354133490573E+01   -0.212525379907151279E+01   -0.290273264736100998E+03
    0.373301556812513013E+03    0.647643300160666229E+02    0.103019925595301309E+02   -0.171212903421175167E+01   -0.143208140010977858E+01   -0.209499919140247481E+01   -0.290270673314281396E+03
    0.356466573793095620E+03    0.656367207668237711E+02    0.107409163386445421E+02   -0.173021256426659509E+01   -0.144609593751731769E+01   -0.212282050060569905E+01   -0.290241983879854956E+03
    0.357078138137254541E+03    0.641196527806403367E+02    0.105484903049884728E+02   -0.171109695863798450E+01   -0.141999674925588004E+01   -0.217360811400753651E+01   -0.290236107000358913E+03
    0.377102197559034721E+03    0.649316369866625962E+02    0.973494764739293927E+01   -0.171628734895878798E+01   -0.139625070149459507E+01   -0.209940701360243409E+01   -0.290229541924894761E+03
    0.372723262277490051E+03    0.638226964309939433E+02    0.128902072849109981E+02   -0.172135066964518435E+01   -0.139800595552949658E+01   -0.209461643205196024E+01   -0.290217532780383181E+03
    0.365809731470349902E+03    0.607966997798332827E+02    0.145820698276221403E+02   -0.176271855653637810E+01   -0.140264338351705686E+01   -0.212063566739628406E+01   -0.290210204117771639E+03
    0.360933696304367174E+03    0.647386442408720768E+02    0.111858996393097279E+02   -0.168407688700158786E+01   -0.139778027241536540E+01   -0.215508925619690839E+01   -0.290205375506388293E+03
    0.372024481202756249E+03    0.608943751881658244E+02    0.116499678410010468E+02   -0.173805519844863587E+01   -0.141186048404718156E+01   -0.214850794251706834E+01   -0.290189478581068272E+03
    0.372525074701163305E+03    0.600261598861981938E+02    0.135180677978831980E+02   -0.174391642325530638E+01   -0.140533929419404280E+01   -0.213989358034391408E+01   -0.290188595982540619E+03
    0.368002338194432355E+03    0.586236724156461335E+02    0.178760832158349849E+02   -0.172694271841465463E+01   -0.134171268269791755E+01   -0.215341362558403926E+01   -0.290180464021697162E+03
    0.373505384866899078E+03    0.625539631075254761E+02    0.107303505442990943E+02   -0.172397319103518187E+01   -0.137883405967036343E+01   -0.214610213077025103E+01   -0.290149491294187953E+03
    0.366171565312510722E+03    0.654887702341549414E+02    0.105477520519141645E+02   -0.172311401253607643E+01   -0.138711859454361641E+01   -0.212923704896303168E+01   -0.290139556530374477E+03
    0.363953359681962695E+03    0.639553855376224121E+02    0.132067463690278757E+02   -0.170099536019811826E+01   -0.142027765194724198E+01   -0.210938767810360694E+01   -0.290132208411160150E+03
    0.366846148354677268E+03    0.606408319149296275E+02    0.145662775436095586E+02   -0.173019530804403066E+01   -0.139321183561824813E+01   -0.212881472407554728E+01   -0.290130230691730048E+03
    0.366064675158213618E+03    0.639868245584463935E+02    0.112638432983974521E+02   -0.173415759728893981E+01   -0.138288829580064965E+01   -0.211613082268056996E+01   -0.290129517841933136E+03
    0.354951354235729468E+03    0.633798738275560325E+02    0.112982819718243039E+02   -0.174822830380702277E+01   -0.142364555097367451E+01   -0.216964417966550016E+01   -0.290117733960161047E+03
    0.371730540619580268E+03    0.594935353701399521E+02    0.165674964617114355E+02   -0.173487014436337139E+01   -0.134599863642483575E+01   -0.212669550049850553E+01   -0.290115410021585660E+03
    0.362726294455951177E+03    0.592411031372084480E+02    0.164006720649378082E+02   -0.176702864921000069E+01   -0.135709434209015467E+01   -0.215190007230927893E+01   -0.290098840175132636E+03
    0.360709901362114522E+03    0.644344818777946102E+02    0.111022486280903525E+02   -0.168755385383333012E+01   -0.144041070877209099E+01   -0.215495882053613341E+01   -0.290093909029531972E+03
    0.369735769383215370E+03    0.639575021926849985E+02    0.110148443749583507E+02   -0.170591366771696706E+01   -0.145139753475117050E+01   -0.211454291515536630E+01   -0.290092178317256867E+03
    0.364034862410686742E+03    0.651417309290787756E+02    0.122597173769180472E+02   -0.170654633160061020E+01   -0.139718263784711305E+01   -0.212344229286460129E+01   -0.290090631480395302E+03
    0.375872942623513950E+03    0.622034985631086883E+02    0.116469215681586959E+02   -0.172112980125458948E+01   -0.136441196408510668E+01   -0.213200332265398895E+01   -0.290084373845269283E+03
    0.360645271313526337E+03    0.592435092099422462E+02    0.175197766317515402E+02   -0.173124072266814033E+01   -0.136006191656393383E+01   -0.215689739194492169E+01   -0.290078433277739521E+03
    0.363697688568499245E+03    0.641776425579247842E+02    0.127614482982066182E+02   -0.172356703102315301E+01   -0.135615642040749274E+01   -0.212872101802996871E+01   -0.290056874718172708E+03
    0.356588906533952922E+03    0.643423778675518037E+02    0.113105541140476600E+02   -0.170229697981994565E+01   -0.143631739731020258E+01   -0.215679251162001506E+01   -0.289210378893666075E+03
    0.353134002835614751E+03    0.643078458745246593E+02    0.119354840556879083E+02   -0.171807891675364299E+01   -0.141186193744100819E+01   -0.215126055738071464E+01   -0.289736801964818142E+03
    0.354614408745653748E+03    0.638716324736325731E+02    0.974193366562442620E+01   -0.172978817222020220E+01   -0.146018069732388267E+01   -0.216393123272975529E+01   -0.289853497167327589E+03
    0.353799835493024432E+03    0.651069214435349011E+02    0.111732840532030142E+02   -0.171413105205384642E+01   -0.142386339060432965E+01   -0.214833139700069653E+01   -0.289473390104045336E+03
    0.353820443282341330E+03    0.626287531561282407E+02    0.120956425741774893E+02   -0.176197871786708893E+01   -0.143090862865302881E+01   -0.216006512508057291E+01   -0.289739034039555008E+03
    0.355465565494165276E+03    0.632426597040213778E+02    0.112260254401937747E+02   -0.170515243133133643E+01   -0.146543599773297006E+01   -0.216324939720886356E+01   -0.289477536528450742E+03
    0.351624769902205912E+03    0.629641224925324039E+02    0.119670432238495259E+02   -0.171529958857251419E+01   -0.146891149859641357E+01   -0.215757440116782551E+01   -0.289870788575277516E+03
    0.356808252938634041E+03    0.635793651913777680E+02    0.133877737326412714E+02   -0.168897737707714501E+01   -0.143383805985504087E+01   -0.214733406837431717E+01   -0.289573417909837531E+03
    0.359427732259582854E+03    0.627690405256009782E+02    0.114767339166276834E+02   -0.170616309302906410E+01   -0.143203842319022123E+01   -0.216856586844899368E+01   -0.289505681323501108E+03
    0.359427732259582854E+03    0.627690405256009782E+02    0.114767339166276834E+02   -0.170616309302906410E+01   -0.143203842319022123E+01   -0.216856586844899368E+01   -0.289505681323501108E+03
    0.360049525622693295E+03    0.640888615256460668E+02    0.112349951408320798E+02   -0.167460103409425187E+01   -0.144170218471128830E+01   -0.214663136006333177E+01   -0.289855214368206816E+03
    0.351573370613184693E+03    0.640314474341371920E+02    0.108587862649149951E+02   -0.170498281971067334E+01   -0.148453646496297020E+01   -0.216420962965440644E+01   -0.289945966103085425E+03
    0.355869549903275640E+03    0.644142462039057335E+02    0.100557248933662784E+02   -0.171610783635759678E+01   -0.146409697127162253E+01   -0.213523058581816727E+01   -0.289754302385672531E+03
    0.357960114468178006E+03    0.632776245803147361E+02    0.115692215828852873E+02   -0.174997742753936114E+01   -0.140989463346482280E+01   -0.216138273172389228E+01   -0.289740047563184760E+03
    0.350139147320344648E+03    0.625419185461915745E+02    0.121709784094982574E+02   -0.173977510281130576E+01   -0.144246797244625702E+01   -0.217405310233750670E+01   -0.290000783369691078E+03
    0.353507454494405692E+03    0.626112179686818848E+02    0.131768364808308558E+02   -0.171243489765867496E+01   -0.141901774923007507E+01   -0.217778840604365742E+01   -0.289696765097311982E+03
    0.360138731041565734E+03    0.645170092180749037E+02    0.110588346650755298E+02   -0.169789782464647998E+01   -0.143908370740394376E+01   -0.213230673926028169E+01   -0.289050313900965079E+03
    0.360138731041565734E+03    0.645170092180749037E+02    0.110588346650755298E+02   -0.169789782464647998E+01   -0.143908370740394376E+01   -0.213230673926028169E+01   -0.289050313900965079E+03
    0.355450131144012687E+03    0.654939680994214086E+02    0.100066449182573756E+02   -0.172695000557928058E+01   -0.145612728086028054E+01   -0.213224079606725470E+01   -0.289696592782829725E+03
    0.367289050680653361E+03    0.639312458448986902E+02    0.102292406869616759E+02   -0.173253469708174079E+01   -0.141722214494492449E+01   -0.212862551508882447E+01   -0.288854677239105513E+03
    0.367289050680653361E+03    0.639312458448986902E+02    0.102292406869616759E+02   -0.173253469708174079E+01   -0.141722214494492449E+01   -0.212862551508882447E+01   -0.288854677239105513E+03
    0.367282326565065489E+03    0.644426424268092433E+02    0.119114704029368177E+02   -0.170099491287374849E+01   -0.137643540102678563E+01   -0.212960226097027228E+01   -0.289534900810816339E+03
    0.361163030529056016E+03    0.643643581018033757E+02    0.119417316241229496E+02   -0.173009279595539955E+01   -0.140297286206025240E+01   -0.211632000564125189E+01   -0.289630851356459630E+03
    0.362077243452372784E+03    0.643532585089591578E+02    0.989083140760977209E+01   -0.174504917649678726E+01   -0.141348112268557280E+01   -0.213161588576603256E+01   -0.289591507997467716E+03
    0.362077243452372784E+03    0.643532585089591578E+02    0.989083140760977209E+01   -0.174504917649678726E+01   -0.141348112268557280E+01   -0.213161588576603256E+01   -0.289591507997467716E+03
    0.363005803025033345E+03    0.643083661147209682E+02    0.106768688078080398E+02   -0.174713440378059581E+01   -0.139824339744159709E+01   -0.214387117115487325E+01   -0.289904635959823736E+03
    0.364736437801480690E+03    0.655928091339126240E+02    0.950834562473659872E+01   -0.171797051778932430E+01   -0.143618377393876906E+01   -0.211007352098145073E+01   -0.289525842595281972E+03
    0.364736437801480690E+03    0.655928091339126240E+02    0.950834562473659872E+01   -0.171797051778932430E+01   -0.143618377393876906E+01   -0.211007352098145073E+01   -0.289525842595281972E+03
    0.361626351364593063E+03    0.642031223492026157E+02    0.120004643257882879E+02   -0.171356459304838471E+01   -0.138969980676661176E+01   -0.214046971632078975E+01   -0.289066982848671501E+03
    0.361626351364593063E+03    0.642031223492026157E+02    0.120004643257882879E+02   -0.171356459304838471E+01   -0.138969980676661176E+01   -0.214046971632078975E+01   -0.289066982848671501E+03
    0.369415962354921930E+03    0.648181334586334970E+02    0.961036558652539696E+01   -0.171629291569765918E+01   -0.142554613455831847E+01   -0.210924585990227476E+01   -0.289396874235939379E+03
    0.369415962354921930E+03    0.648181334586334970E+02    0.961036558652539696E+01   -0.171629291569765918E+01   -0.142554613455831847E+01   -0.210924585990227476E+01   -0.289396874235939379E+03
    0.364465860022345282E+03    0.644458946352187638E+02    0.989469567348413648E+01   -0.173398806856206411E+01   -0.142864321108280157E+01   -0.211685271168360245E+01   -0.289419915329419325E+03
    0.364465860022345282E+03    0.644458946352187638E+02    0.989469567348413648E+01   -0.173398806856206411E+01   -0.142864321108280157E+01   -0.211685271168360245E+01   -0.289419915329419325E+03
    0.359079506219788698E+03    0.653724022483428513E+02    0.100950962144359764E+02   -0.172803801351585151E+01   -0.143661177940123119E+01   -0.213154817686152187E+01   -0.289441961828670628E+03
    0.362102702861514331E+03    0.635982234017358294E+02    0.140286309390138406E+02   -0.169974227318272764E+01   -0.141545671026116504E+01   -0.212192939867143249E+01   -0.289929023589640394E+03
    0.368966600510477349E+03    0.645048283630501089E+02    0.102715321837243128E+02   -0.170394242856851785E+01   -0.141748533749820127E+01   -0.210929582698640949E+01   -0.289902207807500190E+03
    0.370546913316648840E+03    0.640690928321527338E+02    0.128202901056350083E+02   -0.172423228121305128E+01   -0.137782147680995593E+01   -0.209944019361223866E+01   -0.289763752243484362E+03
    0.369106209702778187E+03    0.635903139825054211E+02    0.118075798994748791E+02   -0.168418163631488405E+01   -0.140867986720327476E+01   -0.213816612534307016E+01   -0.289762435583037302E+03
    0.366062991113778480E+03    0.648296783733796360E+02    0.101504189800902633E+02   -0.173110251645391222E+01   -0.139799209977170413E+01   -0.213604148387979098E+01   -0.289668708775947209E+03
    0.366386031131011009E+03    0.624683807145371972E+02    0.112328840862021977E+02   -0.171775676170045499E+01   -0.140143821844532668E+01   -0.215344049466872356E+01   -0.289355746215849194E+03
    0.368499811831307966E+03    0.632999017331537459E+02    0.146514381540677618E+02   -0.172591588796316597E+01   -0.134047557742229118E+01   -0.212525339485373888E+01   -0.290011196149691614E+03
    0.369731833975298514E+03    0.629262917418256293E+02    0.122771252095492329E+02   -0.176220008760572755E+01   -0.140210571232967962E+01   -0.210302657621450528E+01   -0.290053772801864170E+03
    0.364614333982089931E+03    0.624666264268868403E+02    0.131634308468306447E+02   -0.170290350700344773E+01   -0.139047906368675700E+01   -0.216094931676476509E+01   -0.289617166713723009E+03
    0.367211428844333511E+03    0.637768107455473796E+02    0.121552873730885764E+02   -0.169698411803097970E+01   -0.137519303556499239E+01   -0.213986518269775461E+01   -0.289609504831132313E+03
    0.362325295494711213E+03    0.630424819699169205E+02    0.118253700766826633E+02   -0.173012557192856198E+01   -0.138886558892564493E+01   -0.215176632991726358E+01   -0.289109363072081123E+03
    0.362325295494711213E+03    0.630424819699169205E+02    0.118253700766826633E+02   -0.173012557192856198E+01   -0.138886558892564493E+01   -0.215176632991726358E+01   -0.289109363072081123E+03
    0.360905992287634376E+03    0.626934892669457611E+02    0.136786798686704945E+02   -0.173861679903561028E+01   -0.140061296964957771E+01   -0.214085853324309605E+01   -0.288811030466077455E+03
    0.360905992287634376E+03    0.626934892669457611E+02    0.136786798686704945E+02   -0.173861679903561028E+01   -0.140061296964957771E+01   -0.214085853324309605E+01   -0.288811030466077455E+03
    0.364507370595351858E+03    0.624323850624566674E+02    0.127770569727688290E+02   -0.171970321437884932E+01   -0.137660977122625861E+01   -0.215693548223451836E+01   -0.289229392714057155E+03
    0.362261370714958048E+03    0.619359711113552649E+02    0.138620486435143029E+02   -0.172822865393863712E+01   -0.142002863784290678E+01   -0.212644968107420773E+01   -0.289611647371950767E+03
    0.359530375595763076E+03    0.616229266555374195E+02    0.141734606369389571E+02   -0.174935952092286096E+01   -0.140034095374040501E+01   -0.215191180198560517E+01   -0.288976262825688536E+03
    0.359530375595763076E+03    0.616229266555374195E+02    0.141734606369389571E+02   -0.174935952092286096E+01   -0.140034095374040501E+01   -0.215191180198560517E+01   -0.288976262825688536E+03
    0.367060122987303430E+03    0.607979794724308533E+02    0.161193210174372865E+02   -0.172912543100441130E+01   -0.136438542121709450E+01   -0.213444469382851665E+01   -0.289068012456516499E+03
    0.367060122987303430E+03    0.607979794724308533E+02    0.161193210174372865E+02   -0.172912543100441130E+01   -0.136438542121709450E+01   -0.213444469382851665E+01   -0.289068012456516499E+03
    0.360246544696399667E+03    0.609682199319557085E+02    0.140362882316999666E+02   -0.174614189978461631E+01   -0.140026937868344215E+01   -0.214896150374726380E+01   -0.289454356109013247E+03
    0.361810189609925601E+03    0.619480439579354538E+02    0.154542595371556768E+02   -0.174478990373308074E+01   -0.133585256352764947E+01   -0.215163974143678338E+01   -0.290037572578843026E+03
    0.364464927740103008E+03    0.615328244432493037E+02    0.143624952609923007E+02   -0.175706096995939576E+01   -0.136979859223266121E+01   -0.214008276130877828E+01   -0.289106384899083537E+03
    0.364464927740103008E+03    0.615328244432493037E+02    0.143624952609923007E+02   -0.175706096995939576E+01   -0.136979859223266121E+01   -0.214008276130877828E+01   -0.289106384899083537E+03
    0.360452980267434327E+03    0.622006605924381546E+02    0.135858415134607018E+02   -0.175277820187506261E+01   -0.138026934636842191E+01   -0.215535522309089655E+01   -0.289340745846140862E+03
    0.370619551273389220E+03    0.604708168986243066E+02    0.137473337766166015E+02   -0.172874640607966268E+01   -0.135941817241806517E+01   -0.215113158901117441E+01   -0.289979826264786993E+03
    0.364261668988195709E+03    0.622931072591566561E+02    0.133365272570341080E+02   -0.173686704457783980E+01   -0.136027324045275289E+01   -0.215005325169952943E+01   -0.289338314401505897E+03
    0.370367634329367036E+03    0.608638968737132089E+02    0.145949302716044116E+02   -0.173358407222506750E+01   -0.134739244392152724E+01   -0.215200951799727713E+01   -0.289727145763713509E+03
    0.361994357397148633E+03    0.607481245431902153E+02    0.148831940713786341E+02   -0.174594363947131836E+01   -0.135717365570270498E+01   -0.217063305554307151E+01   -0.290050467048392193E+03
    0.359295238282184187E+03    0.613959408910798885E+02    0.131527486183607643E+02   -0.173311683952403617E+01   -0.141040791702214974E+01   -0.216566010717264801E+01   -0.289247934745880059E+03
    0.362236282278898557E+03    0.608578507680702927E+02    0.164141978556566350E+02   -0.170433560778075721E+01   -0.138832809093904164E+01   -0.214979964790689060E+01   -0.289821172638055998E+03
    0.353855949877882551E+03    0.610086315983588889E+02    0.161194092508952060E+02   -0.174709910705861815E+01   -0.139260277602849869E+01   -0.216549308910302685E+01   -0.289746738222096610E+03
    0.352446094432680297E+03    0.626667300141023063E+02    0.145821729847388042E+02   -0.170796111466281841E+01   -0.140466078931095839E+01   -0.216050408931637561E+01   -0.289731165054827443E+03
