    0.316384287198019535E+03    0.476503138977766270E+02    0.196648712556336740E+02   -0.159778871490290042E+01   -0.181766279787346918E+01   -0.221445410690147781E+01   -0.300956861300376772E+03
    0.321506276638383667E+03    0.297678513968289877E+02    0.318437055007493264E+02   -0.170189918571784982E+01   -0.176616857554074369E+01   -0.216402788688447334E+01   -0.298894886565143963E+03
    0.326936064130421016E+03    0.434169619585416697E+02    0.286054882021097470E+02   -0.174075749801407031E+01   -0.185765868576267135E+01   -0.207518612541763980E+01   -0.296123539602133519E+03
    0.348051003811381293E+03    0.377543121065908878E+02    0.667776837405168155E+01   -0.173782168972491791E+01   -0.185052563040182516E+01   -0.211347503232455924E+01   -0.296119699091916289E+03
    0.330168567510920298E+03    0.318301240623900590E+02    0.903184461338668143E+01   -0.169725212483021215E+01   -0.192702051632208304E+01   -0.210844183966853738E+01   -0.296095367775732370E+03
    0.345261504571128796E+03    0.373325367500792566E+02    0.581536468189172684E+01   -0.170447885096126917E+01   -0.188754689453174485E+01   -0.206607716930322560E+01   -0.295890046391678766E+03
    0.340216897175993211E+03    0.358114127229583801E+02    0.347149976581576354E+02   -0.168696621366643362E+01   -0.183565241708417282E+01   -0.205306416190841023E+01   -0.295815241983112912E+03
    0.326951124418302527E+03    0.395050773234593180E+02    0.188542773989711208E+02   -0.161360891158776520E+01   -0.189918807388262989E+01   -0.212516306961065160E+01   -0.295692423178833508E+03
    0.319335827799959247E+03    0.336781594429740068E+02    0.306267229860180024E+02   -0.167624533076136206E+01   -0.180187974526275108E+01   -0.217471699524731044E+01   -0.295363168368111701E+03
    0.328438956166690673E+03    0.397441631723328754E+02    0.482007656986349797E+01   -0.167726072682651384E+01   -0.185871606245976873E+01   -0.219674013131099688E+01   -0.295335453781608805E+03
    0.348091500927743994E+03    0.384325681782767603E+02    0.972601150380423718E+01   -0.178020569148891972E+01   -0.190391542786393031E+01   -0.205157322059324176E+01   -0.295277561458053867E+03
    0.351011304829542723E+03    0.376791274640139591E+02    0.641085066688923533E+01   -0.164854502173004214E+01   -0.188583194568508938E+01   -0.209567136775704776E+01   -0.295143606815867201E+03
    0.330279479025176556E+03    0.441739718070840013E+02    0.321459154507511746E+01   -0.172797892916824436E+01   -0.189136941428145122E+01   -0.211299048101073605E+01   -0.295138332083244620E+03
    0.341226192933836387E+03    0.458322898483322660E+02    0.699352189117102085E+01   -0.165651315710631786E+01   -0.185182342748449003E+01   -0.212199854632319074E+01   -0.295089356030418060E+03
    0.346251031440966187E+03    0.382690829258160363E+02    0.200225326697485926E+02   -0.178086945583822587E+01   -0.188643726865018313E+01   -0.205308665037722005E+01   -0.295051062549574908E+03
    0.338232615954206210E+03    0.471267922841986007E+02    0.193970775533114903E+02   -0.168600129298514689E+01   -0.187822074588193488E+01   -0.208270783650173552E+01   -0.294972828072141681E+03
    0.316895801979440591E+03    0.456242676315130780E+02    0.146976603391840133E+02   -0.161915180822429705E+01   -0.189176453687114865E+01   -0.216612300307125905E+01   -0.294761257018326830E+03
    0.343302100380036052E+03    0.451528734949241510E+02    0.143327268009869666E+02   -0.169217343070014170E+01   -0.184104710404534844E+01   -0.212809092789234233E+01   -0.294722503295644572E+03
    0.321848821864254091E+03    0.400861041710324599E+02    0.300434985101535723E+02   -0.165161373306272363E+01   -0.181716227066701119E+01   -0.212345652814988295E+01   -0.294652326432978271E+03
    0.333233049604948746E+03    0.454266218968182187E+02    0.669609799567958408E+01   -0.170041870818567675E+01   -0.183892547632264192E+01   -0.213894882183039226E+01   -0.294592980057599107E+03
    0.329713602943146213E+03    0.397312605129782668E+02    0.658684022980955319E+01   -0.178000725514176783E+01   -0.187356851692154258E+01   -0.211982179245347702E+01   -0.294405139149836828E+03
    0.356293511695961797E+03    0.381029574560006381E+02    0.214489969623274810E+02   -0.169900042978469612E+01   -0.186699221035225715E+01   -0.204099442730378389E+01   -0.294347310859376194E+03
    0.339523018984890939E+03    0.357533632326583444E+02    0.158310188162713334E+02   -0.172146538272342253E+01   -0.186747787169349588E+01   -0.211932784191132573E+01   -0.294252679818123170E+03
    0.333635136541931445E+03    0.426038281090167317E+02    0.133620460474302742E+02   -0.177744065042526089E+01   -0.189726660728610352E+01   -0.208155915594856689E+01   -0.294230011975115929E+03
    0.338780855399373763E+03    0.341390752596737315E+02    0.219640167509031770E+02   -0.171297871595589846E+01   -0.181631320437281096E+01   -0.212153839888463835E+01   -0.294212902406347212E+03
    0.317293370114386846E+03    0.467886513067751793E+02    0.219877039922454038E+02   -0.171267821977781609E+01   -0.187539547149322239E+01   -0.211599898057981584E+01   -0.294177810121537334E+03
    0.333981604356069397E+03    0.387894802292057150E+02    0.148140220540581691E+02   -0.175266946576471083E+01   -0.188094891793595798E+01   -0.212186191804255753E+01   -0.294115815490282102E+03
    0.334746887455434489E+03    0.409635310547852924E+02    0.173485167533807321E+02   -0.172598099614084299E+01   -0.179181962300779940E+01   -0.215858139074315503E+01   -0.294085229034562644E+03
    0.314658428043035485E+03    0.414318646498621348E+02    0.230310542576325084E+02   -0.162589915717618938E+01   -0.182675542759834020E+01   -0.219300734090900828E+01   -0.294011745189186968E+03
    0.316900115977661528E+03    0.339027415280360032E+02    0.274168085969885880E+02   -0.170979271361643392E+01   -0.184282543324609271E+01   -0.216222413904747501E+01   -0.293990577756343441E+03
    0.315966213496596879E+03    0.405983790790313606E+02    0.347030052267488927E+02   -0.164127177783855838E+01   -0.186705277353607935E+01   -0.209278221067484660E+01   -0.293970799621721994E+03
    0.349408973908025928E+03    0.389472364792170112E+02    0.142682777194721364E+02   -0.176695130308869075E+01   -0.188398089661076074E+01   -0.203796921649221208E+01   -0.293960659337334164E+03
    0.333944092339262170E+03    0.392022155739212792E+02    0.132756575122853899E+02   -0.168832531806863351E+01   -0.179695639851545219E+01   -0.216824041474046192E+01   -0.293952992494977252E+03
    0.313813413539836063E+03    0.405636022726508827E+02    0.185110103484892186E+02   -0.173366728632164913E+01   -0.188744317309597864E+01   -0.212771418713008797E+01   -0.293888825696695960E+03
    0.350283617472305536E+03    0.405455322100760043E+02    0.138516835436346568E+02   -0.164850599798975339E+01   -0.188269232915562479E+01   -0.207521952496996764E+01   -0.293804069595232534E+03
    0.324509592720214471E+03    0.371541936603659764E+02    0.204027536566766017E+02   -0.172780601279069090E+01   -0.179351999347409774E+01   -0.218022595458700286E+01   -0.293745958928081677E+03
    0.325134376069837060E+03    0.431063063032148861E+02    0.146445046325561954E+02   -0.162425845871553198E+01   -0.185925465676097867E+01   -0.216655629692245011E+01   -0.293742711612466280E+03
    0.315706962223149731E+03    0.394776712596251187E+02    0.221341379974450163E+02   -0.169584902907772461E+01   -0.186999393489911658E+01   -0.217441843556571701E+01   -0.293685324626203453E+03
    0.323403172775163625E+03    0.390733979944586736E+02    0.158241206170284237E+02   -0.178372839043349196E+01   -0.187223845811789569E+01   -0.211260405194412249E+01   -0.293677827235408699E+03
    0.329200084413185323E+03    0.449703709297964735E+02    0.132510000714332090E+02   -0.166760215699578573E+01   -0.180951600810332613E+01   -0.218673675738999718E+01   -0.293482675590141866E+03
    0.324749885385022196E+03    0.382535914585464170E+02    0.138580766513101175E+02   -0.175096909075882667E+01   -0.182805556432671090E+01   -0.214809589793271405E+01   -0.293462728271822868E+03
    0.343356104220602845E+03    0.442783370541272987E+02    0.165223604962164003E+02   -0.167021318224734916E+01   -0.188582366159957293E+01   -0.208141570041325874E+01   -0.293425661457699107E+03
    0.320924360294631242E+03    0.392698004595454364E+02    0.216442457853091028E+02   -0.163796370981525308E+01   -0.184850135503875923E+01   -0.218434925981980843E+01   -0.293421923752738508E+03
    0.336605620181994937E+03    0.369671363362785428E+02    0.270616329122632315E+02   -0.175839867046764575E+01   -0.185939619816649038E+01   -0.207322114905789512E+01   -0.293409058643729850E+03
    0.313390913528051613E+03    0.362956668319190499E+02    0.183393653923470943E+02   -0.170876756321557299E+01   -0.187142610418196953E+01   -0.215518835238392992E+01   -0.293384133271829569E+03
    0.321077378783325059E+03    0.433120368755720833E+02    0.873395703570886361E+01   -0.172595612461300107E+01   -0.189144404141873590E+01   -0.216143363821243284E+01   -0.293372901912846430E+03
    0.333574871198320920E+03    0.414733855559774582E+02    0.175075034215541372E+02   -0.172791389867095679E+01   -0.188026797834563064E+01   -0.207757999995537768E+01   -0.293357799559189857E+03
    0.310966947559214418E+03    0.364594226952552845E+02    0.319596983389700782E+02   -0.162942317062602915E+01   -0.185528148958473249E+01   -0.215857095607479810E+01   -0.293324233261369841E+03
    0.348154466838604833E+03    0.416373103295801172E+02    0.915576839001490939E+01   -0.176555786076903298E+01   -0.187668641477893727E+01   -0.206443107825747907E+01   -0.293286718092554565E+03
    0.347759824650290284E+03    0.401752948562234309E+02    0.171269383960710755E+02   -0.165694226380505305E+01   -0.188618686301115690E+01   -0.209040472179819092E+01   -0.293211300555839330E+03
    0.346623152635791087E+03    0.371937379683105291E+02    0.175363943224739067E+02   -0.167063848104380464E+01   -0.183665251524551221E+01   -0.211054420712476221E+01   -0.293180300267898474E+03
    0.317800053703428262E+03    0.341210429816756928E+02    0.262996741898063497E+02   -0.169594638845993928E+01   -0.181758388594984521E+01   -0.216248374789704778E+01   -0.293171904881445471E+03
    0.330996740506885146E+03    0.382727041496215961E+02    0.246371986972005956E+02   -0.173285240250386652E+01   -0.188994332734019976E+01   -0.209172369025298677E+01   -0.293161049731333264E+03
    0.319809764226570394E+03    0.406612931391720451E+02    0.839462432201806408E+01   -0.171954167753493925E+01   -0.185284993217540439E+01   -0.217489226742652786E+01   -0.293150848672486063E+03
    0.339169028630869889E+03    0.351911364400693145E+02    0.144576782653285143E+02   -0.166743227614242895E+01   -0.189523221940294118E+01   -0.210870641321125074E+01   -0.293142985991794660E+03
    0.321772992668780148E+03    0.409787695008192401E+02    0.188638706712655448E+02   -0.173689401204027072E+01   -0.187158485872945501E+01   -0.210979108597074960E+01   -0.293067438367611658E+03
    0.340860305495797149E+03    0.358147119339631104E+02    0.132104577423704335E+02   -0.174455592003230198E+01   -0.183668689624446690E+01   -0.211820654459996760E+01   -0.293039420801782114E+03
    0.341255124559676574E+03    0.401670250308844459E+02    0.722791147337621176E+01   -0.172667627970897297E+01   -0.191907729361347945E+01   -0.207216766702133182E+01   -0.293028010587579843E+03
    0.346910705460012764E+03    0.368674714750950301E+02    0.246677015108582225E+02   -0.170234039166662576E+01   -0.184396346509309250E+01   -0.206105671877351204E+01   -0.293020382515371864E+03
    0.343088546123579363E+03    0.421018095474364245E+02    0.111009068538968592E+02   -0.173362743895458271E+01   -0.188278591316709498E+01   -0.206824619613711835E+01   -0.293016702854646439E+03
    0.340341446161926910E+03    0.371023326211934830E+02    0.194595218072937861E+02   -0.171058193367552236E+01   -0.181134901338157550E+01   -0.212756478434820773E+01   -0.292981460093452654E+03
    0.315939715676416938E+03    0.426093622798947820E+02    0.143213509016963449E+02   -0.165394784068596379E+01   -0.185203399679798864E+01   -0.221005920872379047E+01   -0.292973071530199491E+03
    0.318322415093353811E+03    0.351639702639647425E+02    0.162689332949918573E+02   -0.169837379279234280E+01   -0.192296045314300690E+01   -0.213171874019530438E+01   -0.292949973093558413E+03
    0.328286794815080441E+03    0.476285106902588780E+02    0.148479585213876106E+02   -0.170994084790471446E+01   -0.185005552563662734E+01   -0.213737273196982658E+01   -0.292918909919740258E+03
    0.323294776133229561E+03    0.444298366545951993E+02    0.154006985901276803E+02   -0.165911843661742142E+01   -0.182785658635274140E+01   -0.217368947598144180E+01   -0.292917539760860791E+03
    0.329756927555595610E+03    0.365267361430536468E+02    0.995821609185076184E+01   -0.167378392048690849E+01   -0.187302038549911143E+01   -0.216774252553916069E+01   -0.292905265668483821E+03
    0.337242404669766870E+03    0.405022065406360383E+02    0.106679595214852423E+02   -0.169565653882981815E+01   -0.185073167660665860E+01   -0.211311934813055302E+01   -0.292901181418042484E+03
    0.321634191565751166E+03    0.345828507690374067E+02    0.196559327597366682E+02   -0.175818475628267312E+01   -0.188953214193523067E+01   -0.211279298110518354E+01   -0.292895178780181368E+03
    0.332235427371120409E+03    0.366877100891770098E+02    0.270757975300842944E+02   -0.173677723395594708E+01   -0.182378258749178723E+01   -0.211288593313128148E+01   -0.292894902209077713E+03
    0.323303889185159562E+03    0.350622673061920267E+02    0.136013272536653957E+02   -0.174334772353809475E+01   -0.188256368023485043E+01   -0.214984369992806545E+01   -0.292875399276921087E+03
    0.333302785481479020E+03    0.461510517615186018E+02    0.188883629449287547E+02   -0.167995298022499129E+01   -0.186472713718837113E+01   -0.210534792172722351E+01   -0.292819825377926350E+03
    0.327456914235200770E+03    0.354689910299903204E+02    0.639138129028991386E+01   -0.171253812633641389E+01   -0.187782236044082462E+01   -0.215426876793286759E+01   -0.292813157653843859E+03
    0.317743607497406572E+03    0.358002371950940557E+02    0.303940843596476284E+02   -0.165695460784636706E+01   -0.182623142213915202E+01   -0.215873588074802125E+01   -0.292790426638693532E+03
    0.337323519208873051E+03    0.347759543836984193E+02    0.231061359494176060E+02   -0.169770818623084097E+01   -0.183781545004432911E+01   -0.209643626901365021E+01   -0.292785495097795888E+03
    0.328263558023327505E+03    0.384872534172581027E+02    0.155827267796597049E+02   -0.163717101297748435E+01   -0.185370169976935850E+01   -0.216946569397131261E+01   -0.292768361217443044E+03
    0.319890223941075476E+03    0.399777345698003757E+02    0.223413667684701771E+02   -0.167409962289963543E+01   -0.181655683654145683E+01   -0.218753130384996952E+01   -0.292718255161756190E+03
    0.315274729784816145E+03    0.381128824615585415E+02    0.223941393084295264E+02   -0.170517304074178067E+01   -0.186284817904863487E+01   -0.217341074678766510E+01   -0.292628690431574569E+03
    0.315274729784816145E+03    0.381128824615585415E+02    0.223941393084295264E+02   -0.170517304074178067E+01   -0.186284817904863487E+01   -0.217341074678766510E+01   -0.292628690431574569E+03
    0.335095481522432010E+03    0.347713612777153855E+02    0.101255499559630007E+02   -0.171882527646226890E+01   -0.188534037466421789E+01   -0.212204234515598067E+01   -0.292625209777949522E+03
    0.321903580180290191E+03    0.379252848505331244E+02    0.130458695550143471E+02   -0.168841686026339866E+01   -0.183715609929833201E+01   -0.220165335041298471E+01   -0.292600778862933055E+03
    0.321903580180290191E+03    0.379252848505331244E+02    0.130458695550143471E+02   -0.168841686026339866E+01   -0.183715609929833201E+01   -0.220165335041298471E+01   -0.292600778862933055E+03
    0.322839976305006928E+03    0.397354160572154882E+02    0.218383191913165966E+02   -0.162792303265354876E+01   -0.189233829813446386E+01   -0.213670451923178817E+01   -0.292593697231862052E+03
    0.321551156829238266E+03    0.400952179205149690E+02    0.757742650901695480E+01   -0.170950356474370357E+01   -0.186117735330679190E+01   -0.216995665439820140E+01   -0.292585589523772853E+03
    0.333270404968316427E+03    0.370288958449343042E+02    0.175777727016899021E+02   -0.177564162493587530E+01   -0.188061692359866139E+01   -0.209477272962847660E+01   -0.292585153294342945E+03
    0.340395586372439197E+03    0.362030896505202122E+02    0.161396267324327773E+02   -0.168979330451293608E+01   -0.182934037670962790E+01   -0.212978830728996460E+01   -0.292583063835218638E+03
    0.330702979162409008E+03    0.349516696675416512E+02    0.954025942155342044E+01   -0.170142767648699866E+01   -0.191935411395343691E+01   -0.210547158334191842E+01   -0.292548041760158526E+03
    0.343847147292619240E+03    0.376430090603127567E+02    0.115418581918979832E+02   -0.173103263496310444E+01   -0.183820444389723225E+01   -0.211520736858893388E+01   -0.292483767784163035E+03
    0.327324907247241242E+03    0.371081422370304495E+02    0.150806996161121543E+02   -0.172723026213130582E+01   -0.186569088837321884E+01   -0.211139058846163108E+01   -0.292402661603173101E+03
    0.327324907247241242E+03    0.371081422370304495E+02    0.150806996161121543E+02   -0.172723026213130582E+01   -0.186569088837321884E+01   -0.211139058846163108E+01   -0.292402661603173101E+03
    0.336667179465260801E+03    0.442657467900686115E+02    0.119468300542848045E+02   -0.164644618466962789E+01   -0.186115646323064943E+01   -0.214336154029327375E+01   -0.292392073425638671E+03
    0.336667179465260801E+03    0.442657467900686115E+02    0.119468300542848045E+02   -0.164644618466962789E+01   -0.186115646323064943E+01   -0.214336154029327375E+01   -0.292392073425638671E+03
    0.344349977256695922E+03    0.399983889139350666E+02    0.121142148864160077E+02   -0.166280123709720451E+01   -0.190855010322549234E+01   -0.208417008475828647E+01   -0.292334843897460928E+03
    0.311308587231821491E+03    0.405271690976209982E+02    0.195070815679399630E+02   -0.164123372582028515E+01   -0.187115312163613212E+01   -0.218816745762510134E+01   -0.292317147086827788E+03
    0.332058252830574531E+03    0.428465575176533662E+02    0.119188907925923520E+02   -0.166981210862569007E+01   -0.188025771928290175E+01   -0.211595830871926083E+01   -0.292295790064441292E+03
    0.328489999718505601E+03    0.371418122721760255E+02    0.191913748996709650E+02   -0.176091938135317494E+01   -0.185710539834631194E+01   -0.212856339841140807E+01   -0.292291939197342174E+03
    0.320232143615671589E+03    0.378842052461574355E+02    0.121548539077482456E+02   -0.175449830459011702E+01   -0.187238646780264517E+01   -0.213958393542670988E+01   -0.292280368580363984E+03
    0.320232143615671589E+03    0.378842052461574355E+02    0.121548539077482456E+02   -0.175449830459011702E+01   -0.187238646780264517E+01   -0.213958393542670988E+01   -0.292280368580363984E+03
    0.334345708218054426E+03    0.421296338206899463E+02    0.606526432263430504E+01   -0.173034889058804620E+01   -0.186286776570805723E+01   -0.211703303506696505E+01   -0.292270039000259032E+03
    0.316848097523508102E+03    0.387600727896002226E+02    0.217978203244526192E+02   -0.168749178127548571E+01   -0.188812449554901129E+01   -0.215942643719646776E+01   -0.292219357651046550E+03
    0.327306280022081637E+03    0.393581950374446379E+02    0.267334824426734237E+02   -0.169590662967431949E+01   -0.189816363490467310E+01   -0.208663090828943165E+01   -0.292208856746951085E+03
    0.327306280022081637E+03    0.393581950374446379E+02    0.267334824426734237E+02   -0.169590662967431949E+01   -0.189816363490467310E+01   -0.208663090828943165E+01   -0.292208856746951085E+03
    0.335851641612029198E+03    0.365045540100688299E+02    0.244127495054193950E+02   -0.170049854453761906E+01   -0.182439695495416232E+01   -0.212260819094905528E+01   -0.292183848838807705E+03
    0.335851641612029198E+03    0.365045540100688299E+02    0.244127495054193950E+02   -0.170049854453761906E+01   -0.182439695495416232E+01   -0.212260819094905528E+01   -0.292183848838807705E+03
    0.340607735305195206E+03    0.373227041173695255E+02    0.134280179208854697E+02   -0.177371139216538976E+01   -0.188665470635028498E+01   -0.206894373019089262E+01   -0.292176041471035205E+03
    0.340607735305195206E+03    0.373227041173695255E+02    0.134280179208854697E+02   -0.177371139216538976E+01   -0.188665470635028498E+01   -0.206894373019089262E+01   -0.292176041471035205E+03
    0.325627295976292373E+03    0.371930087252657415E+02    0.240991017892685875E+02   -0.164935223380739293E+01   -0.183749561265745509E+01   -0.214108471297757541E+01   -0.292169423200728147E+03
    0.321757971965620811E+03    0.412297164599525701E+02    0.141320348245313685E+02   -0.165319474980816183E+01   -0.190942992671580658E+01   -0.213749036355058664E+01   -0.292166369381216953E+03
    0.327002167395361937E+03    0.413125811754932215E+02    0.157099957946115545E+02   -0.176519233761013661E+01   -0.186090634174300718E+01   -0.211454184918670229E+01   -0.292164444521766995E+03
    0.328086320193632787E+03    0.397848847063684303E+02    0.274333617405523142E+02   -0.170632353447878859E+01   -0.188924564610865620E+01   -0.207099866206218186E+01   -0.292119605250702136E+03
    0.338235852992301318E+03    0.408331338395356198E+02    0.123845777743316390E+02   -0.164817387716948338E+01   -0.189472050551821392E+01   -0.212109388456182213E+01   -0.292090933234387535E+03
    0.330901398433076963E+03    0.390392144043133129E+02    0.198481081291052526E+02   -0.164528605838409381E+01   -0.190088706144062192E+01   -0.211726994324582307E+01   -0.292067892328213077E+03
    0.335880302582475338E+03    0.396544879272282600E+02    0.245615690595898073E+02   -0.172933806707140558E+01   -0.186864802126605878E+01   -0.208839509939468915E+01   -0.292037173947690690E+03
    0.335880302582475338E+03    0.396544879272282600E+02    0.245615690595898073E+02   -0.172933806707140558E+01   -0.186864802126605878E+01   -0.208839509939468915E+01   -0.292037173947690690E+03
    0.335775584965545931E+03    0.354124743955274539E+02    0.154474794341479136E+02   -0.174717575035853345E+01   -0.187736916466802106E+01   -0.210635682028937055E+01   -0.292029960305025270E+03
    0.341440979809639714E+03    0.418849922644237580E+02    0.153865084889046795E+02   -0.172904704192259451E+01   -0.190086761559320272E+01   -0.207624136965269779E+01   -0.291979150223447675E+03
    0.336066134010226676E+03    0.375463765647914016E+02    0.108411594439919874E+02   -0.168931550345516612E+01   -0.188635674113770291E+01   -0.213200208694534066E+01   -0.291973733583196804E+03
    0.344396163556151691E+03    0.400428502764832572E+02    0.213061545022280470E+02   -0.165537989003618913E+01   -0.186496250953903075E+01   -0.208768603114765172E+01   -0.291969969862318521E+03
    0.344396163556151691E+03    0.400428502764832572E+02    0.213061545022280470E+02   -0.165537989003618913E+01   -0.186496250953903075E+01   -0.208768603114765172E+01   -0.291969969862318521E+03
    0.313803390696592032E+03    0.350839572857145825E+02    0.248041911566296918E+02   -0.169509988638458364E+01   -0.186703423854408035E+01   -0.215329824253728042E+01   -0.291957147827845233E+03
    0.329873109083668623E+03    0.396733456218690392E+02    0.223047480988945601E+02   -0.173986382082944568E+01   -0.182993054297297952E+01   -0.213247055968458898E+01   -0.291951275591509670E+03
    0.331501296449250844E+03    0.412919809935527695E+02    0.143511200761935651E+02   -0.174619845767791571E+01   -0.183878659746780260E+01   -0.214677022773216697E+01   -0.291925554407791708E+03
    0.331501296449250844E+03    0.412919809935527695E+02    0.143511200761935651E+02   -0.174619845767791571E+01   -0.183878659746780260E+01   -0.214677022773216697E+01   -0.291925554407791708E+03
    0.333811148084569595E+03    0.421386192139737972E+02    0.157212549369451526E+02   -0.174959408341643696E+01   -0.187227301683204672E+01   -0.211561095191374804E+01   -0.291918576013428492E+03
    0.338998239193671509E+03    0.378914408225003569E+02    0.144021333413011661E+02   -0.176660864715954968E+01   -0.186095551478311716E+01   -0.208131122973849081E+01   -0.291913872139064722E+03
    0.338998239193671509E+03    0.378914408225003569E+02    0.144021333413011661E+02   -0.176660864715954968E+01   -0.186095551478311716E+01   -0.208131122973849081E+01   -0.291913872139064722E+03
    0.315815565434077939E+03    0.436398882365040492E+02    0.154568058824743151E+02   -0.170357808675825750E+01   -0.187679481676284232E+01   -0.217268292310542899E+01   -0.291912515873150596E+03
    0.337933474006439951E+03    0.385717864401111896E+02    0.206643308522430971E+02   -0.166684444840643953E+01   -0.188332637143760206E+01   -0.208098360105298053E+01   -0.291912111203845711E+03
    0.337933474006439951E+03    0.385717864401111896E+02    0.206643308522430971E+02   -0.166684444840643953E+01   -0.188332637143760206E+01   -0.208098360105298053E+01   -0.291912111203845711E+03
    0.327375949916075626E+03    0.409611182395764715E+02    0.227456355041353433E+02   -0.167886399052464697E+01   -0.188924809905714364E+01   -0.209128868142494406E+01   -0.291876087360481165E+03
    0.329733759369096219E+03    0.374914737822745963E+02    0.240829363868956392E+02   -0.171876113899237959E+01   -0.186216918039093549E+01   -0.212023753132762227E+01   -0.291763890868825911E+03
    0.339104536792825741E+03    0.357345137695977684E+02    0.217486425685638416E+02   -0.173969983706956954E+01   -0.187395195480329346E+01   -0.207958281061199601E+01   -0.291757800715998656E+03
    0.339104536792825741E+03    0.357345137695977684E+02    0.217486425685638416E+02   -0.173969983706956954E+01   -0.187395195480329346E+01   -0.207958281061199601E+01   -0.291757800715998656E+03
    0.322568247821592479E+03    0.397850851876909957E+02    0.100799221719748218E+02   -0.174378828216947213E+01   -0.186844266679905768E+01   -0.214338447326254089E+01   -0.291741313241641024E+03
    0.339909573625166161E+03    0.401792017090289235E+02    0.167858862269806011E+02   -0.176110580917538950E+01   -0.188974476676365355E+01   -0.206358895920323837E+01   -0.291729125447646709E+03
    0.316282239966386442E+03    0.407345461324953675E+02    0.154219412554985649E+02   -0.171590589739045152E+01   -0.186281452383528778E+01   -0.215797332997041824E+01   -0.291728170616645116E+03
    0.316282239966386442E+03    0.407345461324953675E+02    0.154219412554985649E+02   -0.171590589739045152E+01   -0.186281452383528778E+01   -0.215797332997041824E+01   -0.291728170616645116E+03
    0.329223079483675861E+03    0.361355132210999983E+02    0.170125323883489941E+02   -0.169179503226440087E+01   -0.182307941089267889E+01   -0.215891414862733866E+01   -0.291722333278450151E+03
    0.329223079483675861E+03    0.361355132210999983E+02    0.170125323883489941E+02   -0.169179503226440087E+01   -0.182307941089267889E+01   -0.215891414862733866E+01   -0.291722333278450151E+03
    0.322509888754434712E+03    0.368803434262922138E+02    0.256383309456665138E+02   -0.175809409731027677E+01   -0.186364742820673723E+01   -0.210378628517041966E+01   -0.291718205078650726E+03
    0.313316153047028877E+03    0.408509132866401927E+02    0.210391087792824827E+02   -0.174702497187533545E+01   -0.186549816743441865E+01   -0.215055617176458513E+01   -0.291703104992484555E+03
    0.318073452810304104E+03    0.367925761498537724E+02    0.296886927366850912E+02   -0.168515202793767660E+01   -0.183400419490059341E+01   -0.214744248015999339E+01   -0.291699828399794114E+03
    0.336972232370200288E+03    0.407291193670837188E+02    0.156002086951017809E+02   -0.171823024644970013E+01   -0.184379715741879302E+01   -0.213669333993254984E+01   -0.291683221585541673E+03
    0.336972232370200288E+03    0.407291193670837188E+02    0.156002086951017809E+02   -0.171823024644970013E+01   -0.184379715741879302E+01   -0.213669333993254984E+01   -0.291683221585541673E+03
    0.320674346702181026E+03    0.389975495008441086E+02    0.271593195180908253E+02   -0.173357996358200239E+01   -0.183383839504172941E+01   -0.213010500861781704E+01   -0.291676402572586653E+03
    0.320674346702181026E+03    0.389975495008441086E+02    0.271593195180908253E+02   -0.173357996358200239E+01   -0.183383839504172941E+01   -0.213010500861781704E+01   -0.291676402572586653E+03
    0.338143362100186096E+03    0.389275470452369632E+02    0.898803934040190988E+01   -0.172559612749463587E+01   -0.187222020775539844E+01   -0.212437186119109800E+01   -0.291631562174194300E+03
    0.335415488185750803E+03    0.414957047590383681E+02    0.190132554339966120E+02   -0.170637169919267295E+01   -0.185882354101463254E+01   -0.212462338692979458E+01   -0.291629779177921023E+03
    0.322276280802152201E+03    0.357810857617755929E+02    0.213897288383256416E+02   -0.173362408935482160E+01   -0.188708107865653307E+01   -0.210555389386035419E+01   -0.291624404537461032E+03
    0.322276280802152201E+03    0.357810857617755929E+02    0.213897288383256416E+02   -0.173362408935482160E+01   -0.188708107865653307E+01   -0.210555389386035419E+01   -0.291624404537461032E+03
    0.309535853969331583E+03    0.403844417635317043E+02    0.228252493676060659E+02   -0.169843844300961577E+01   -0.187766433489833151E+01   -0.216087167349198239E+01   -0.291620850415572249E+03
    0.310736595381620475E+03    0.407338554551538508E+02    0.248955725160702208E+02   -0.167427396153751018E+01   -0.185270447110036018E+01   -0.217369735551105681E+01   -0.291606356183581909E+03
    0.319303948146361165E+03    0.413353411163266600E+02    0.146157204904008680E+02   -0.172748809511564394E+01   -0.184287737119797224E+01   -0.216371038213062139E+01   -0.291602127871431435E+03
    0.319303948146361165E+03    0.413353411163266600E+02    0.146157204904008680E+02   -0.172748809511564394E+01   -0.184287737119797224E+01   -0.216371038213062139E+01   -0.291602127871431435E+03
    0.327317419109828961E+03    0.385174580448597368E+02    0.249116053993749098E+02   -0.173558089260065818E+01   -0.182913651543915412E+01   -0.210597087958859852E+01   -0.291597708811229779E+03
    0.322129915314240407E+03    0.399162534847534261E+02    0.169281595684704200E+02   -0.174742214425289433E+01   -0.186187509570792065E+01   -0.215387645635048486E+01   -0.291576507181954867E+03
    0.324455786022447626E+03    0.428001153503551137E+02    0.201408424491007203E+02   -0.166009493114969775E+01   -0.186773314279874669E+01   -0.212739046334305826E+01   -0.291554243255202721E+03
    0.330909152943541756E+03    0.397569419015700518E+02    0.179077799843045362E+02   -0.172473235682189752E+01   -0.191145872620315926E+01   -0.207916446306040958E+01   -0.291515770186481973E+03
    0.319966316486572566E+03    0.436419586659461771E+02    0.140609629923498005E+02   -0.170066015934857351E+01   -0.188132849278219205E+01   -0.214142553828274540E+01   -0.291502102051816678E+03
    0.330828248828976427E+03    0.400980500249631149E+02    0.182150372156543803E+02   -0.170284658802918898E+01   -0.190154410411110186E+01   -0.211521545826734059E+01   -0.291490144667544996E+03
    0.330828248828976427E+03    0.400980500249631149E+02    0.182150372156543803E+02   -0.170284658802918898E+01   -0.190154410411110186E+01   -0.211521545826734059E+01   -0.291490144667544996E+03
    0.312491058441491020E+03    0.373768191106468990E+02    0.193681106638337752E+02   -0.171986678619499322E+01   -0.186373474728484223E+01   -0.217156931819472732E+01   -0.291485663723775929E+03
    0.346687041098440830E+03    0.392317396846754249E+02    0.139451378247310522E+02   -0.166880503794708845E+01   -0.187017528338421890E+01   -0.209645487066976877E+01   -0.291479191749315248E+03
    0.346687041098440830E+03    0.392317396846754249E+02    0.139451378247310522E+02   -0.166880503794708845E+01   -0.187017528338421890E+01   -0.209645487066976877E+01   -0.291479191749315248E+03
    0.334340851794831394E+03    0.393546179212915206E+02    0.122983228965968170E+02   -0.173399865072721138E+01   -0.186667127692092882E+01   -0.213401845114307420E+01   -0.291472591005243032E+03
    0.334340851794831394E+03    0.393546179212915206E+02    0.122983228965968170E+02   -0.173399865072721138E+01   -0.186667127692092882E+01   -0.213401845114307420E+01   -0.291472591005243032E+03
    0.342556455402149822E+03    0.391803726245972399E+02    0.247025025897646131E+02   -0.168333849258546087E+01   -0.185691096422295976E+01   -0.207030701316325771E+01   -0.291455014408940428E+03
    0.342556455402149822E+03    0.391803726245972399E+02    0.247025025897646131E+02   -0.168333849258546087E+01   -0.185691096422295976E+01   -0.207030701316325771E+01   -0.291455014408940428E+03
    0.338507337228391805E+03    0.426364554409495824E+02    0.118818508379073613E+02   -0.167465961130143626E+01   -0.184817127307315032E+01   -0.212706751887678092E+01   -0.291454967165291180E+03
    0.334455788578503132E+03    0.356202734570972339E+02    0.262298555518129426E+02   -0.168960250019477343E+01   -0.186560518628552829E+01   -0.209444710190496330E+01   -0.291450225837089874E+03
    0.337556137710941812E+03    0.380269780149413421E+02    0.205637936817717311E+02   -0.167596724408071052E+01   -0.187192838191771171E+01   -0.208531408419141417E+01   -0.291448348607724881E+03
    0.344757976482936954E+03    0.402046415054804953E+02    0.106560695691437619E+02   -0.170070482966011305E+01   -0.188480127703728795E+01   -0.209506025639971849E+01   -0.291445155008424649E+03
    0.339006990803129440E+03    0.383915022751007484E+02    0.182105368718847274E+02   -0.174804756382264737E+01   -0.182954992838451069E+01   -0.210107913124612988E+01   -0.291433571054745187E+03
    0.339006990803129440E+03    0.383915022751007484E+02    0.182105368718847274E+02   -0.174804756382264737E+01   -0.182954992838451069E+01   -0.210107913124612988E+01   -0.291433571054745187E+03
    0.325551102408161967E+03    0.366339121649797761E+02    0.231808884850847114E+02   -0.167940037351846327E+01   -0.189546118871049751E+01   -0.211947069461190774E+01   -0.291426735065669845E+03
    0.336858572057939512E+03    0.435164851895325029E+02    0.814650196783882663E+01   -0.171045709748354180E+01   -0.188762768937474679E+01   -0.211068279796048763E+01   -0.291423075736433020E+03
    0.334180366918028028E+03    0.390682803969184675E+02    0.934920845897401520E+01   -0.170235472874461014E+01   -0.183859547494539588E+01   -0.215781675305509779E+01   -0.291418346378607055E+03
    0.339964846917860882E+03    0.401108582572666066E+02    0.132634939019013451E+02   -0.166182661292936218E+01   -0.188254109182092799E+01   -0.209974216524399537E+01   -0.291409486245315463E+03
    0.339660357238461813E+03    0.424189846719483370E+02    0.172780675787334168E+02   -0.173549139638023187E+01   -0.184140943259301015E+01   -0.210800525334665068E+01   -0.291370336048931165E+03
    0.327993923247738337E+03    0.357536489151716239E+02    0.276184242850507289E+02   -0.173936382726468897E+01   -0.184648438374734813E+01   -0.209729257777610156E+01   -0.291365833741096935E+03
    0.346129286297826809E+03    0.401029647091705002E+02    0.163350741598594169E+02   -0.169388162529339015E+01   -0.188005600061602274E+01   -0.208572962508967663E+01   -0.291363682277735904E+03
    0.317277465634956286E+03    0.412659102895610488E+02    0.203169122686907286E+02   -0.165822293331871751E+01   -0.190300004175840143E+01   -0.214205868978891933E+01   -0.291298663304710715E+03
    0.318859508459188419E+03    0.397106192909686087E+02    0.232964046464156276E+02   -0.166961625741373254E+01   -0.184735842469882838E+01   -0.214314365921632666E+01   -0.291263215589048627E+03
    0.317690168395711112E+03    0.376961558206511853E+02    0.289930910205557701E+02   -0.173246446097981188E+01   -0.185327330111407118E+01   -0.211268670893892008E+01   -0.291243320265055956E+03
    0.326744130771827429E+03    0.407027815983804402E+02    0.256670576615824544E+02   -0.170669578218201945E+01   -0.184402931735343922E+01   -0.212268845629645364E+01   -0.291240186143038954E+03
    0.326744130771827429E+03    0.407027815983804402E+02    0.256670576615824544E+02   -0.170669578218201945E+01   -0.184402931735343922E+01   -0.212268845629645364E+01   -0.291240186143038954E+03
    0.343724689614797910E+03    0.371860439980038109E+02    0.125847351923637110E+02   -0.172032885659655443E+01   -0.186263385047245933E+01   -0.209952623032228258E+01   -0.291217801949245882E+03
    0.329268205388111369E+03    0.354085587367281818E+02    0.226475204946309852E+02   -0.169390380713681377E+01   -0.183515471848386058E+01   -0.214273530457136241E+01   -0.291206983551112103E+03
    0.338368158967085719E+03    0.395749994473294038E+02    0.109712511135908901E+02   -0.173055782507428613E+01   -0.190971136941561648E+01   -0.208535869850393052E+01   -0.291193687715752958E+03
    0.333814842913329187E+03    0.364259628474421433E+02    0.145517751719921034E+02   -0.175679523160877804E+01   -0.185533675395157793E+01   -0.210736070370648410E+01   -0.291180472741098129E+03
    0.321675891688254069E+03    0.402469193804522831E+02    0.169022571154558889E+02   -0.168556824369665215E+01   -0.192000592360013722E+01   -0.212523714379123696E+01   -0.291178716998105870E+03
    0.330016740415445895E+03    0.348329831685589255E+02    0.245733354824354322E+02   -0.170279758256461911E+01   -0.183653742378515061E+01   -0.212338077095725453E+01   -0.291169542151931751E+03
    0.326094995688749975E+03    0.373255187357376457E+02    0.168143518565300560E+02   -0.176366568120922507E+01   -0.186896424999776767E+01   -0.212374894654972479E+01   -0.291137625392433279E+03
    0.326094995688749975E+03    0.373255187357376457E+02    0.168143518565300560E+02   -0.176366568120922507E+01   -0.186896424999776767E+01   -0.212374894654972479E+01   -0.291137625392433279E+03
    0.332137822519490271E+03    0.394581788537010922E+02    0.261245719529960496E+02   -0.173593293231122159E+01   -0.187156284227134950E+01   -0.206938241103894338E+01   -0.291114622622377112E+03
    0.328290320679829733E+03    0.403721136295869201E+02    0.283908660257493644E+02   -0.167887306044273110E+01   -0.186477099660035894E+01   -0.209649609849712615E+01   -0.291111922889333073E+03
    0.328290320679829733E+03    0.403721136295869201E+02    0.283908660257493644E+02   -0.167887306044273110E+01   -0.186477099660035894E+01   -0.209649609849712615E+01   -0.291111922889333073E+03
    0.323127387309966309E+03    0.410190107576828282E+02    0.231577332037919774E+02   -0.174853895650586555E+01   -0.187410224432992600E+01   -0.210392539201694717E+01   -0.291106877002472231E+03
    0.333040467065879852E+03    0.396821148186716286E+02    0.202596934438922531E+02   -0.170385783070161545E+01   -0.184159697370327802E+01   -0.210708375981347285E+01   -0.291095813887218810E+03
    0.321223143495223894E+03    0.419479163571875517E+02    0.137471961051635976E+02   -0.171124509016765858E+01   -0.186185316351115815E+01   -0.214867832380481927E+01   -0.291087513238472013E+03
    0.343087052716838741E+03    0.372610064342836438E+02    0.203108871681176204E+02   -0.168299449977851534E+01   -0.187408390236486233E+01   -0.208686048270335212E+01   -0.291086686989174780E+03
    0.335279845968194536E+03    0.414585880444847206E+02    0.708355496922802441E+01   -0.169364857699604987E+01   -0.186734186162740867E+01   -0.214368244270371333E+01   -0.291076182507957299E+03
    0.328826935240127455E+03    0.433803906675537831E+02    0.206071665051962007E+02   -0.167952054097796832E+01   -0.189285217086620006E+01   -0.210598688497222497E+01   -0.291054798278760416E+03
    0.323318855169483015E+03    0.396224710585329305E+02    0.168164903865897877E+02   -0.167693227304417780E+01   -0.184666424677382235E+01   -0.218243485350098965E+01   -0.291053119355017827E+03
    0.335210745132941838E+03    0.368927351945581563E+02    0.188159262106979170E+02   -0.173974856482828688E+01   -0.186291177343013237E+01   -0.211224651806645358E+01   -0.291021338677548215E+03
    0.336087417889352878E+03    0.401462028818352934E+02    0.580766105416794520E+01   -0.171990004237210803E+01   -0.186971091175852711E+01   -0.212727671386117478E+01   -0.290994661727509197E+03
    0.336168274420007378E+03    0.378964544945120707E+02    0.132658996279842594E+02   -0.174182563214307340E+01   -0.183986679944549048E+01   -0.211830365671782239E+01   -0.290986671799624105E+03
    0.315098492643590532E+03    0.408094064030379684E+02    0.156109317356647779E+02   -0.169957016578791920E+01   -0.189332361587154074E+01   -0.216200040849944486E+01   -0.290983070151370782E+03
    0.327569436912078686E+03    0.379659002054449104E+02    0.240231637743263171E+02   -0.171656362897605619E+01   -0.184711536986889757E+01   -0.213225080770328912E+01   -0.290947519415995259E+03
    0.327569436912078686E+03    0.379659002054449104E+02    0.240231637743263171E+02   -0.171656362897605619E+01   -0.184711536986889757E+01   -0.213225080770328912E+01   -0.290947519415995259E+03
    0.320638329615077225E+03    0.406224031606162157E+02    0.218647597162945999E+02   -0.169366919568639496E+01   -0.185335757560327385E+01   -0.216055081352795009E+01   -0.290938032092479489E+03
    0.335381231375982736E+03    0.385020046404758105E+02    0.145910547585322590E+02   -0.172922966180867199E+01   -0.188229646255348992E+01   -0.211598621031032375E+01   -0.290926552056582295E+03
    0.322649169099352662E+03    0.393662273723214184E+02    0.159269910461978803E+02   -0.171772556815695543E+01   -0.189404513060454738E+01   -0.214523102159043111E+01   -0.290882559552302951E+03
    0.330474801809037956E+03    0.360079371996645961E+02    0.182731535229477089E+02   -0.171574706782648256E+01   -0.182905068642442004E+01   -0.214135867151760628E+01   -0.290873882395877558E+03
    0.334442191103678965E+03    0.360071609494885507E+02    0.200664372029112670E+02   -0.172187275794286299E+01   -0.184090692897748109E+01   -0.210615685935508390E+01   -0.290866800380684367E+03
    0.323201465596670118E+03    0.436965210771575698E+02    0.111595359638996392E+02   -0.169684355295721501E+01   -0.187939023557543305E+01   -0.214590811287459626E+01   -0.290848322074829355E+03
    0.328076849477412054E+03    0.377419533860872463E+02    0.116554833398103135E+02   -0.172859918990555261E+01   -0.187802392315523070E+01   -0.214483525161794519E+01   -0.290846927144446454E+03
    0.323736349784394690E+03    0.359045269412570036E+02    0.245419398246651816E+02   -0.169672046942490784E+01   -0.187286509666550449E+01   -0.210991113198168279E+01   -0.290845791977048975E+03
    0.322091474867451666E+03    0.396312123899066222E+02    0.106433219166848581E+02   -0.172311738885093524E+01   -0.187609707156008465E+01   -0.214549753423142775E+01   -0.290818439883117094E+03
    0.334350053178939561E+03    0.389150988380589524E+02    0.180163168298106520E+02   -0.169907978058065923E+01   -0.188949525772848115E+01   -0.211396461763040477E+01   -0.290803632733426923E+03
    0.332198769047491112E+03    0.346687643671740133E+02    0.175245931379275639E+02   -0.171521301724434427E+01   -0.187069679954023615E+01   -0.210661077817368714E+01   -0.290795694603202207E+03
    0.332198769047491112E+03    0.346687643671740133E+02    0.175245931379275639E+02   -0.171521301724434427E+01   -0.187069679954023615E+01   -0.210661077817368714E+01   -0.290795694603202207E+03
    0.336132715875892188E+03    0.370973537184250546E+02    0.139073739874590174E+02   -0.169982188702287207E+01   -0.184327463658359125E+01   -0.213035354135847399E+01   -0.290786788697340057E+03
    0.332314633691486108E+03    0.376760513006767326E+02    0.261601065076574137E+02   -0.168279157064429397E+01   -0.182729766037269914E+01   -0.211737177588060010E+01   -0.290781630904364306E+03
    0.334719318848677915E+03    0.402947804236029299E+02    0.785333600739819992E+01   -0.167708960373388161E+01   -0.186966404479424120E+01   -0.214430100506026422E+01   -0.290776724492632752E+03
    0.332088147260437722E+03    0.385615635352591752E+02    0.261154850547495592E+02   -0.170205565030840233E+01   -0.182968357859419961E+01   -0.210137010434321247E+01   -0.290769477825642753E+03
    0.327436736146304213E+03    0.451379610927630210E+02    0.154322210583927397E+02   -0.168031223378277073E+01   -0.187958594887049357E+01   -0.213672200292367709E+01   -0.290701672593286730E+03
    0.322056956666192207E+03    0.380574794551256019E+02    0.139325629328230924E+02   -0.173954022372521333E+01   -0.185858572140652156E+01   -0.215932738041921279E+01   -0.290701236037709407E+03
    0.322056956666192207E+03    0.380574794551256019E+02    0.139325629328230924E+02   -0.173954022372521333E+01   -0.185858572140652156E+01   -0.215932738041921279E+01   -0.290701236037709407E+03
    0.327543807540890384E+03    0.417192983320019124E+02    0.181833808627936087E+02   -0.174310397497962288E+01   -0.184486246999524606E+01   -0.213646580057304281E+01   -0.290700287496209569E+03
    0.321527914824526363E+03    0.373658032221066136E+02    0.137358188430245818E+02   -0.173397037389217989E+01   -0.188563987720773962E+01   -0.214824905490667728E+01   -0.290694287160185468E+03
    0.324955174168089570E+03    0.364089463450926303E+02    0.182250533651740056E+02   -0.168428444379984144E+01   -0.184179642597464066E+01   -0.215688655630465309E+01   -0.290685879799997622E+03
    0.314902895180246674E+03    0.390311048976614998E+02    0.212195567561004772E+02   -0.166061015491539865E+01   -0.187685720157805869E+01   -0.216647542420995443E+01   -0.290679312339001399E+03
    0.323182580150151466E+03    0.399724645368069531E+02    0.138478622980802744E+02   -0.170278076158713576E+01   -0.189262080282347211E+01   -0.212475710331876844E+01   -0.290676574437197985E+03
    0.330145752057887194E+03    0.369506265784543189E+02    0.208824644334584271E+02   -0.166610994690708480E+01   -0.186068419878800073E+01   -0.212096545573912598E+01   -0.290671012214205120E+03
    0.338490025024508270E+03    0.423171089529718429E+02    0.187115978593762513E+02   -0.173165985432132374E+01   -0.186296909840624014E+01   -0.209467038680872886E+01   -0.290670870981495739E+03
    0.330883119063519530E+03    0.376653815224717903E+02    0.182441068473752814E+02   -0.169995819683832639E+01   -0.184151907774629309E+01   -0.215095013382425559E+01   -0.290641574649911149E+03
    0.329732853658996930E+03    0.393004767998325519E+02    0.254074601510439919E+02   -0.170781280660276558E+01   -0.188557723334650396E+01   -0.207941684163813090E+01   -0.290641396822479294E+03
    0.331382798482375392E+03    0.399723685257707189E+02    0.201600679720173517E+02   -0.171527120366474128E+01   -0.181990290933376642E+01   -0.213543841653312239E+01   -0.290629095812029448E+03
    0.341576507117668200E+03    0.392945167056682081E+02    0.133317053157804573E+02   -0.171962924147479379E+01   -0.185766477581331757E+01   -0.209456172982420119E+01   -0.290626669612140802E+03
    0.326547172071934767E+03    0.453185952211515826E+02    0.141386905527392113E+02   -0.167824877531511629E+01   -0.186938079781491306E+01   -0.214451638596906236E+01   -0.290609676973229000E+03
    0.330325954718358560E+03    0.387161807551539141E+02    0.117358484027556731E+02   -0.169424041687638272E+01   -0.191311536623951839E+01   -0.211962004511367352E+01   -0.290601411518150599E+03
    0.336666022249197795E+03    0.414670435122262546E+02    0.158214961963493490E+02   -0.174725303649740682E+01   -0.187868651247048035E+01   -0.208486417726926376E+01   -0.290591283318968976E+03
    0.328743886744675706E+03    0.402664062906947748E+02    0.118875397559168938E+02   -0.172821483875649795E+01   -0.190586474413550166E+01   -0.210128782807322612E+01   -0.290588254137807496E+03
    0.341200891496485383E+03    0.404750469643042052E+02    0.123751849657073958E+02   -0.174612757877540625E+01   -0.187328894935405876E+01   -0.208361306651070777E+01   -0.290574609261636226E+03
    0.326502798716626728E+03    0.384379606500489359E+02    0.100176321724468682E+02   -0.168149573565112265E+01   -0.188365907674339050E+01   -0.215720526462118389E+01   -0.290563519504669955E+03
    0.323951442000285056E+03    0.389683240170452621E+02    0.262894416822179835E+02   -0.168660295696142670E+01   -0.187905550712572578E+01   -0.211565164730489919E+01   -0.290549062273665470E+03
    0.329209919424939244E+03    0.448719787398674796E+02    0.167587086545934199E+02   -0.169787603140782517E+01   -0.186714821691786237E+01   -0.213031914687067081E+01   -0.290548919436567303E+03
    0.316110015607701484E+03    0.379554421508631776E+02    0.270061683540148074E+02   -0.171774831459436905E+01   -0.185087926983184414E+01   -0.213443558758978291E+01   -0.290538988057847803E+03
    0.327267282703337742E+03    0.386077606353306209E+02    0.255394072128919873E+02   -0.172384292235613934E+01   -0.187984525791989654E+01   -0.209675280018996890E+01   -0.290536594894336986E+03
    0.325655958647785894E+03    0.384013963951472022E+02    0.166116158128393643E+02   -0.174610507815878435E+01   -0.184470746553867060E+01   -0.213614733135167256E+01   -0.290521036318322274E+03
    0.322490613055645554E+03    0.390655234509398497E+02    0.200668255320160895E+02   -0.172444577650674513E+01   -0.182576514343427609E+01   -0.215834257676506791E+01   -0.290511320199549857E+03
    0.333065050695399975E+03    0.390423056123621990E+02    0.839946648723748268E+01   -0.167647322250860920E+01   -0.188729482659454106E+01   -0.213046409030008821E+01   -0.290491782357375030E+03
    0.326724133568756201E+03    0.369680196525054683E+02    0.244964835035795119E+02   -0.171792050661519369E+01   -0.182869534800840117E+01   -0.213471256411396837E+01   -0.290472691453204050E+03
    0.339037254901421250E+03    0.414162374205445474E+02    0.945840404258700929E+01   -0.168940620302183619E+01   -0.188786627652788574E+01   -0.210422165776754166E+01   -0.290437926940796046E+03
    0.337114706274281673E+03    0.378766369075289333E+02    0.220786165458187682E+02   -0.168303194805965606E+01   -0.184009339227091062E+01   -0.210737478073638407E+01   -0.290435203672938883E+03
    0.336260019528950750E+03    0.390080524274660831E+02    0.234318448456007538E+02   -0.168770409556596035E+01   -0.183401682936303501E+01   -0.211106249472981045E+01   -0.290425290563059662E+03
    0.330549173836135708E+03    0.393858030282448155E+02    0.112079227242085810E+02   -0.166671246488885760E+01   -0.188767055065881229E+01   -0.214339536151926868E+01   -0.290409684410412694E+03
    0.320228229388417503E+03    0.426307690805651589E+02    0.144564503079169366E+02   -0.168988832805139833E+01   -0.189188472263687291E+01   -0.215409903001444869E+01   -0.290392883217228359E+03
    0.327577363369804573E+03    0.395489424872063040E+02    0.190415478555513040E+02   -0.173626081931327847E+01   -0.188601800737196190E+01   -0.211730996190574849E+01   -0.290385588008254842E+03
    0.323426967072885418E+03    0.367062972522990663E+02    0.260427693942286105E+02   -0.168767506612475016E+01   -0.187728462130459195E+01   -0.210951587925129314E+01   -0.290374740081241043E+03
    0.328351834202286000E+03    0.409201446858222937E+02    0.190169571468614649E+02   -0.170829497158093613E+01   -0.184263459499503401E+01   -0.212534892147359811E+01   -0.290370110389443653E+03
    0.320565278056382397E+03    0.394034336112053651E+02    0.249712212301783083E+02   -0.171357131418606712E+01   -0.188466209633380322E+01   -0.210552240739944274E+01   -0.290365480582004352E+03
    0.318289717510644778E+03    0.369416962424915454E+02    0.180966678689771818E+02   -0.172221566391650360E+01   -0.186024596425903699E+01   -0.215851172206494990E+01   -0.290338505873954205E+03
    0.325701812402193241E+03    0.379521156673411824E+02    0.245456217805870160E+02   -0.174023122960965981E+01   -0.185622790311718133E+01   -0.211536494653347829E+01   -0.290325746065838075E+03
    0.335207358517839225E+03    0.415048080207460401E+02    0.139344146630358203E+02   -0.172365115526600121E+01   -0.188298791696408330E+01   -0.211384208375830474E+01   -0.290304183996603683E+03
    0.327889270267313236E+03    0.415426064192597266E+02    0.955466838671229546E+01   -0.171209828893150595E+01   -0.190031792506262054E+01   -0.212439566439350980E+01   -0.290295020051542394E+03
    0.329339499917604030E+03    0.372013330966006990E+02    0.212540767968156139E+02   -0.168579510639311336E+01   -0.189644523833812606E+01   -0.210042621786230299E+01   -0.290288889466440594E+03
    0.331179203505005944E+03    0.394537031201939499E+02    0.274755261891576481E+02   -0.168183600242017062E+01   -0.184948624522070815E+01   -0.209766585240149528E+01   -0.290267058527152642E+03
    0.324273699667923324E+03    0.380175072245934587E+02    0.211356940587383626E+02   -0.171039200632610822E+01   -0.188412718546480895E+01   -0.213036438229083958E+01   -0.290256338245237657E+03
    0.323302832754916835E+03    0.363904238859312414E+02    0.136694268013112676E+02   -0.170310135900536297E+01   -0.188002128004046365E+01   -0.214391283104113661E+01   -0.290254111493094229E+03
    0.330280310059490262E+03    0.394877262287956512E+02    0.223784172940744206E+02   -0.174061314830570901E+01   -0.188117634393716648E+01   -0.208362574718095050E+01   -0.290248712532382342E+03
    0.331433603389262259E+03    0.405544177951882716E+02    0.157296574311348838E+02   -0.172059757896786136E+01   -0.184722317554209003E+01   -0.214517737086633398E+01   -0.290236990388037952E+03
    0.325112927437449798E+03    0.379833406759135244E+02    0.282428305755226567E+02   -0.171746106339145133E+01   -0.184396960626956075E+01   -0.210955855951738824E+01   -0.290235888689341948E+03
    0.321213653324552922E+03    0.385476249254927694E+02    0.227034775535741176E+02   -0.167958762667738526E+01   -0.185478308011505311E+01   -0.215822195857543297E+01   -0.290230600476087147E+03
    0.327995692126015172E+03    0.397676427163582815E+02    0.240215768206587299E+02   -0.174318160795284749E+01   -0.184776933022059575E+01   -0.210464609124167978E+01   -0.290227927199993871E+03
    0.332815076225316943E+03    0.376462310623011263E+02    0.133524452562326577E+02   -0.174129123118066387E+01   -0.188691094338815324E+01   -0.209356339681984638E+01   -0.290206311992029896E+03
    0.323194146776026059E+03    0.382897809246921099E+02    0.198849167074853632E+02   -0.174975955404486205E+01   -0.187360341949626941E+01   -0.211494009230609059E+01   -0.290200787327606861E+03
    0.323975679174170011E+03    0.407375277342659530E+02    0.122811041022576113E+02   -0.167147777325195657E+01   -0.189293271129991014E+01   -0.214712744076785444E+01   -0.290164630671720033E+03
    0.332663690642412178E+03    0.411990679546413006E+02    0.179554142590787578E+02   -0.172358370866072064E+01   -0.183980016636451404E+01   -0.211914426412234125E+01   -0.290137798423928075E+03
    0.329485595025279451E+03    0.428084840018893544E+02    0.148564963353378179E+02   -0.173221174564149827E+01   -0.185324646462526421E+01   -0.213129395458069704E+01   -0.290128679471619932E+03
    0.328839167639614175E+03    0.409130406678127088E+02    0.232483362556538999E+02   -0.170116651771650007E+01   -0.183910535450479440E+01   -0.211644135062888239E+01   -0.290126852459767974E+03
    0.326264297191813625E+03    0.414040507358384531E+02    0.131271286362976198E+02   -0.172734175526499190E+01   -0.184694558160555111E+01   -0.215239080106623248E+01   -0.290121853292421008E+03
    0.322346572531018523E+03    0.398398101098267006E+02    0.153691285455102999E+02   -0.168332573279275244E+01   -0.186094759360081707E+01   -0.217441165212161636E+01   -0.290104362101779259E+03
    0.321019136324402609E+03    0.431289730023363305E+02    0.214078557957719262E+02   -0.167841667411216511E+01   -0.187001691112324675E+01   -0.213950626184617487E+01   -0.290089464768766902E+03
    0.319446424249399115E+03    0.396199275323882460E+02    0.211503273691579423E+02   -0.169985829020334078E+01   -0.184347233196834837E+01   -0.215045485066361763E+01   -0.290087538192727322E+03
    0.327215963913376072E+03    0.376466697478409600E+02    0.162853070159796260E+02   -0.169570381344283150E+01   -0.184267479840659210E+01   -0.216242538716610744E+01   -0.290085277323498190E+03
    0.322971781647216631E+03    0.375508143059235735E+02    0.151907991121299695E+02   -0.168946077564703567E+01   -0.188327775273802400E+01   -0.215698842212061903E+01   -0.290084775744641206E+03
    0.326295050523620603E+03    0.411556415916682923E+02    0.229672413582065786E+02   -0.166022783606673707E+01   -0.186678659859467078E+01   -0.212320890672881513E+01   -0.290078493369424052E+03
    0.334917804374618072E+03    0.369406127311118269E+02    0.173952097015547658E+02   -0.173659131378778087E+01   -0.184350522560082508E+01   -0.211477004417364789E+01   -0.290072813767049183E+03
    0.341204287723030291E+03    0.396033528237980548E+02    0.169644707057148949E+02   -0.172870222155362652E+01   -0.184706832246863284E+01   -0.210073849082933872E+01   -0.290066310468185634E+03
    0.328900407091856380E+03    0.395681745656659274E+02    0.174668220339207423E+02   -0.174053344697483325E+01   -0.185557359778836584E+01   -0.213446523696210821E+01   -0.290029460294917726E+03
    0.326835752098417743E+03    0.355552053230701404E+02    0.212142863386270406E+02   -0.170033274748851415E+01   -0.186398163669658690E+01   -0.213174778289855560E+01   -0.290027985863990750E+03
    0.330272956033720675E+03    0.378194506006884552E+02    0.963627860117415658E+01   -0.171594087240354631E+01   -0.188720683839131098E+01   -0.211955797864714679E+01   -0.289984510564070376E+03
    0.331666186611682576E+03    0.383317376888897456E+02    0.193895137964546613E+02   -0.169799086921613607E+01   -0.183528323093352563E+01   -0.214293467619308231E+01   -0.289975187862247935E+03
    0.328263979206140107E+03    0.378514971357813508E+02    0.267054351913667247E+02   -0.170657090268958944E+01   -0.186161205478646585E+01   -0.209071158014151015E+01   -0.289962048459002347E+03
    0.330508159613039368E+03    0.358001940058745163E+02    0.201964146131065050E+02   -0.170097630000760569E+01   -0.186833187402774636E+01   -0.211016788202347039E+01   -0.289949800028893151E+03
    0.333637038400565018E+03    0.407974617209621044E+02    0.169525580418816730E+02   -0.171515229504949662E+01   -0.189194159242502424E+01   -0.210585514250917427E+01   -0.289943271406742383E+03
    0.333971742120034548E+03    0.391177624979714977E+02    0.111754826676609920E+02   -0.167489898888385280E+01   -0.187285072009321674E+01   -0.213224468737326411E+01   -0.289941639058724945E+03
    0.333863711571815145E+03    0.422452222420005512E+02    0.192224972266727399E+02   -0.168814853317446323E+01   -0.188250250579754752E+01   -0.210241535608484176E+01   -0.289941124850563256E+03
    0.324492506029303627E+03    0.404404235902295994E+02    0.148398502336855547E+02   -0.174364798945028543E+01   -0.187364563797066119E+01   -0.213421525974908466E+01   -0.289940296732916181E+03
    0.334640483649180453E+03    0.424227416057276727E+02    0.132104775740435230E+02   -0.172362472104666908E+01   -0.185891387447570433E+01   -0.211747651643494539E+01   -0.289939139555098791E+03
    0.330815465523790351E+03    0.434375283023723071E+02    0.126300500362231976E+02   -0.169504804925582264E+01   -0.188232716364956798E+01   -0.212270942034216059E+01   -0.289928347710935668E+03
    0.324801858610536783E+03    0.403958716973784959E+02    0.185562890122792545E+02   -0.167670044152844167E+01   -0.186917168758221708E+01   -0.213103990861207437E+01   -0.289915570179145448E+03
    0.320625020376770635E+03    0.412702036987154486E+02    0.172296089151300507E+02   -0.168659630689810291E+01   -0.189102691111122656E+01   -0.213566655047909704E+01   -0.289915103755346081E+03
    0.321270262712315514E+03    0.401271041938879733E+02    0.234541402163008748E+02   -0.166935577179902817E+01   -0.187405793060544967E+01   -0.213904144459687107E+01   -0.289909867250378056E+03
    0.328238481029044635E+03    0.373154550725111633E+02    0.242515204067201573E+02   -0.172996564318430535E+01   -0.183885672543758272E+01   -0.211887424494304311E+01   -0.289909488528803308E+03
    0.331764244871748133E+03    0.363848812786399662E+02    0.218804614329779064E+02   -0.167995871773508676E+01   -0.186338406978503723E+01   -0.211767469505165673E+01   -0.289906532854002421E+03
    0.317831346846101269E+03    0.389462378211611053E+02    0.217637063738915728E+02   -0.169309891153574865E+01   -0.185625497276249551E+01   -0.216174672354530184E+01   -0.289840301396430334E+03
    0.329716891070383781E+03    0.424712811268881296E+02    0.157383224165172102E+02   -0.171348824802008504E+01   -0.185575239155163074E+01   -0.214132554501694683E+01   -0.289835119940678908E+03
    0.328134387209069075E+03    0.376888736795938115E+02    0.233458945969872289E+02   -0.168698876367050010E+01   -0.188699234261399251E+01   -0.210624039818279885E+01   -0.289832994754244282E+03
    0.330006061983825020E+03    0.398474262449834669E+02    0.167514830119002340E+02   -0.168766497385229730E+01   -0.187824998225276563E+01   -0.211168822157296621E+01   -0.289831727488258366E+03
    0.332597427334986151E+03    0.404184466427489966E+02    0.171462125876008393E+02   -0.169946448216611090E+01   -0.183733712439244545E+01   -0.213317285673029566E+01   -0.289818840213880833E+03
    0.330837131764686490E+03    0.377795841001196493E+02    0.228427449325621090E+02   -0.168145380644328779E+01   -0.186806912933116553E+01   -0.210185537945283141E+01   -0.289806312780358553E+03
    0.324774701154685602E+03    0.382144791696485271E+02    0.240875422117075573E+02   -0.169801817630677943E+01   -0.187115368881204747E+01   -0.210540651580187621E+01   -0.289795811819381186E+03
    0.331535008228539596E+03    0.383829843125448349E+02    0.188208102975175144E+02   -0.172448256440740910E+01   -0.185572662488543494E+01   -0.211536965181527536E+01   -0.288747565603540750E+03
    0.331535008228539596E+03    0.383829843125448349E+02    0.188208102975175144E+02   -0.172448256440740910E+01   -0.185572662488543494E+01   -0.211536965181527536E+01   -0.288747565603540750E+03
    0.325991285708329485E+03    0.377543589746269532E+02    0.205547111991225329E+02   -0.167504159058784463E+01   -0.184933474318307822E+01   -0.215179047675737323E+01   -0.289768019862504502E+03
    0.334480533010318311E+03    0.390069903161416960E+02    0.177513557862966387E+02   -0.172693395131600003E+01   -0.184981515783681938E+01   -0.211867807101524841E+01   -0.289164879316510678E+03
    0.325555059815565130E+03    0.385173897035034258E+02    0.176597006478186351E+02   -0.169034812504694010E+01   -0.186598650844637115E+01   -0.214375569728429927E+01   -0.288782782298675897E+03
    0.325555059815565130E+03    0.385173897035034258E+02    0.176597006478186351E+02   -0.169034812504694010E+01   -0.186598650844637115E+01   -0.214375569728429927E+01   -0.288782782298675897E+03
    0.330731660190655589E+03    0.384760112846251516E+02    0.209345906312379313E+02   -0.173355813058141761E+01   -0.184694593765192061E+01   -0.210786595752487349E+01   -0.289531760994406511E+03
    0.326596417082747109E+03    0.389538650289152031E+02    0.196091209898679004E+02   -0.168583747466129452E+01   -0.186290421053629252E+01   -0.213791474047401397E+01   -0.288697589457375670E+03
    0.326596417082747109E+03    0.389538650289152031E+02    0.196091209898679004E+02   -0.168583747466129452E+01   -0.186290421053629252E+01   -0.213791474047401397E+01   -0.288697589457375670E+03
    0.335347827630152779E+03    0.382633196109902514E+02    0.176956035852299784E+02   -0.171591465056571346E+01   -0.186843209813089239E+01   -0.209340095390435721E+01   -0.289745047490063484E+03
    0.330953037740389163E+03    0.398568237952519695E+02    0.215765876078936962E+02   -0.168361557986195121E+01   -0.184951066387294594E+01   -0.212491058258370646E+01   -0.289145825414723561E+03
    0.330953037740389163E+03    0.398568237952519695E+02    0.215765876078936962E+02   -0.168361557986195121E+01   -0.184951066387294594E+01   -0.212491058258370646E+01   -0.289145825414723561E+03
    0.330977459360138596E+03    0.381661583169605692E+02    0.170440311467061605E+02   -0.172314328112354032E+01   -0.187091326159713645E+01   -0.210585736850300398E+01   -0.289217464896229899E+03
    0.339080525690702473E+03    0.389973336027150452E+02    0.179379107425282918E+02   -0.171811622992542334E+01   -0.186111628002811424E+01   -0.209034701608634954E+01   -0.289680174667995402E+03
    0.326253221478574915E+03    0.403101026015841839E+02    0.181251593682011531E+02   -0.173518607218053789E+01   -0.185279607658181544E+01   -0.214003555108005639E+01   -0.289758884134653727E+03
    0.332184716558615833E+03    0.372475905764270507E+02    0.201104169194241287E+02   -0.172001523109510446E+01   -0.187625677335923169E+01   -0.209844501631824709E+01   -0.289073295467841945E+03
    0.322172631584118619E+03    0.401945563245475981E+02    0.193542106096104369E+02   -0.168945562822210693E+01   -0.186218021102217568E+01   -0.214229483930524101E+01   -0.289132056314245858E+03
    0.335528117813190363E+03    0.383687194816855239E+02    0.203350193387843454E+02   -0.172934484280851652E+01   -0.187904135390138238E+01   -0.208308514834142144E+01   -0.289418457447377932E+03
    0.328311286199049619E+03    0.390838421865515784E+02    0.216057959083129241E+02   -0.166807428230815757E+01   -0.186798597196286065E+01   -0.212478524671672586E+01   -0.289302472968642519E+03
    0.332743708939866110E+03    0.396188346963648428E+02    0.161477638217203001E+02   -0.171764763543736443E+01   -0.186505603474312753E+01   -0.212552597234965068E+01   -0.289015536946649434E+03
    0.332743708939866110E+03    0.396188346963648428E+02    0.161477638217203001E+02   -0.171764763543736443E+01   -0.186505603474312753E+01   -0.212552597234965068E+01   -0.289015536946649434E+03
    0.330263926000904632E+03    0.397908518022857933E+02    0.164075418494460301E+02   -0.171164378619071345E+01   -0.185620145228219480E+01   -0.214102721591228695E+01   -0.289312026335124870E+03
    0.332380381846258445E+03    0.371497061798561248E+02    0.143172184708384584E+02   -0.170407384410444629E+01   -0.185565628575436881E+01   -0.213332169905641811E+01   -0.289712719566058638E+03
    0.324985504649328789E+03    0.409961178841172398E+02    0.217260684681411540E+02   -0.170308242154281464E+01   -0.186940390547619617E+01   -0.211985607480322713E+01   -0.288995053003567705E+03
    0.329811140768105759E+03    0.366793732835751740E+02    0.207556423581302951E+02   -0.171593602557001912E+01   -0.185629840583560579E+01   -0.211121078305357068E+01   -0.289526047206542785E+03
    0.332859313699701374E+03    0.406162611594848784E+02    0.173675070121020099E+02   -0.170490653806957004E+01   -0.185831958182604717E+01   -0.212239470490730442E+01   -0.288868228347035824E+03
    0.321755414234857483E+03    0.378352266279501066E+02    0.235583150046824201E+02   -0.168891882512679858E+01   -0.187650479542403681E+01   -0.213398978850925580E+01   -0.289737955782086431E+03
    0.337418885899547490E+03    0.408899795362568668E+02    0.158289357685177965E+02   -0.170227111083640237E+01   -0.187071648790025802E+01   -0.210686737321545614E+01   -0.289339771198474523E+03
    0.324340539302212676E+03    0.409639242593856636E+02    0.177581574888201743E+02   -0.170350468090407148E+01   -0.184454315492851184E+01   -0.215824030838743885E+01   -0.289538464163157414E+03
    0.332851005983285347E+03    0.393923461165538811E+02    0.169899398942397042E+02   -0.169665427190330975E+01   -0.185685435249961595E+01   -0.212660922886811887E+01   -0.288795753308569772E+03
    0.332851005983285347E+03    0.393923461165538811E+02    0.169899398942397042E+02   -0.169665427190330975E+01   -0.185685435249961595E+01   -0.212660922886811887E+01   -0.288795753308569772E+03
    0.323849798191454795E+03    0.410850589619880751E+02    0.182160188347573069E+02   -0.167967994652738550E+01   -0.187313952513857651E+01   -0.214080673194966442E+01   -0.289014838467413426E+03
    0.323849798191454795E+03    0.410850589619880751E+02    0.182160188347573069E+02   -0.167967994652738550E+01   -0.187313952513857651E+01   -0.214080673194966442E+01   -0.289014838467413426E+03
    0.324877170578653818E+03    0.388181934210375701E+02    0.228362037819152945E+02   -0.167861188322730137E+01   -0.185678104507411601E+01   -0.214008367496460883E+01   -0.289323031166999613E+03
    0.329534378810246437E+03    0.403899310658398463E+02    0.237158487944313414E+02   -0.172086549398352329E+01   -0.185647511659633802E+01   -0.210302969619390101E+01   -0.289412869516789783E+03
    0.321554913166207143E+03    0.378780705511365881E+02    0.203061281865021606E+02   -0.169357912294911905E+01   -0.187000126155336721E+01   -0.214075997491349801E+01   -0.289123854060673011E+03
    0.322569201217105956E+03    0.395364860951312522E+02    0.212844649319013399E+02   -0.168189875816607981E+01   -0.184507979889424378E+01   -0.215372079057290566E+01   -0.289393977071716051E+03
    0.337832384106647567E+03    0.380623595169321902E+02    0.196215260351598850E+02   -0.171625830323152795E+01   -0.185832605972595055E+01   -0.209356133344432838E+01   -0.289418490238608968E+03
    0.332527220845075362E+03    0.377017807302261616E+02    0.211589800665086294E+02   -0.172380626235118850E+01   -0.185638487968242938E+01   -0.211466624860921204E+01   -0.289415802584593848E+03
    0.330014304218805023E+03    0.405361139091449445E+02    0.164247097943544667E+02   -0.166422893697663565E+01   -0.188591944514476317E+01   -0.212742308581487860E+01   -0.289641422365106564E+03
    0.333215674219744187E+03    0.396622258202898905E+02    0.123068529341857182E+02   -0.169832113381388283E+01   -0.188889574875769561E+01   -0.211955782997507658E+01   -0.289197061756338371E+03
    0.333215674219744187E+03    0.396622258202898905E+02    0.123068529341857182E+02   -0.169832113381388283E+01   -0.188889574875769561E+01   -0.211955782997507658E+01   -0.289197061756338371E+03
    0.324523498428005269E+03    0.420934018587084893E+02    0.186843681158132746E+02   -0.168624085848687200E+01   -0.187101820404514418E+01   -0.212881637771846721E+01   -0.289658948277679087E+03
    0.323089131042636154E+03    0.424171860204648681E+02    0.177252789187576347E+02   -0.169297601349906235E+01   -0.186749131157775650E+01   -0.215228647650511595E+01   -0.289655469558572292E+03
    0.325390013567458311E+03    0.427125905592925719E+02    0.197910422541792137E+02   -0.169962546593067665E+01   -0.187660861404038060E+01   -0.212491015591538090E+01   -0.289585222352974426E+03
    0.335082797414270658E+03    0.414890660925620978E+02    0.163427936582562943E+02   -0.172984922196379887E+01   -0.185466331789316019E+01   -0.211130335300274474E+01   -0.289602715888583475E+03
    0.334650120551781299E+03    0.402812380187840873E+02    0.150476395370265212E+02   -0.173533687510627255E+01   -0.187492645392703627E+01   -0.211269115633045246E+01   -0.289718234041952201E+03
    0.327946378112797788E+03    0.401828441180469298E+02    0.189785819212895426E+02   -0.169953343301097215E+01   -0.188589171849626136E+01   -0.211914537508585799E+01   -0.288882492203224274E+03
    0.327946378112797788E+03    0.401828441180469298E+02    0.189785819212895426E+02   -0.169953343301097215E+01   -0.188589171849626136E+01   -0.211914537508585799E+01   -0.288882492203224274E+03
    0.332450915116203987E+03    0.387634380048228522E+02    0.145693828174759741E+02   -0.172233111896866098E+01   -0.187822642252304806E+01   -0.210777694753054590E+01   -0.288880107264178207E+03
    0.327228273321630070E+03    0.400688712525962174E+02    0.212659976627563871E+02   -0.171461465219057185E+01   -0.187928038843067946E+01   -0.210492192752524598E+01   -0.289044096424411691E+03
    0.327228273321630070E+03    0.400688712525962174E+02    0.212659976627563871E+02   -0.171461465219057185E+01   -0.187928038843067946E+01   -0.210492192752524598E+01   -0.289044096424411691E+03
    0.333670353783812516E+03    0.409500281372753108E+02    0.181932723507897904E+02   -0.171921077269252964E+01   -0.187429144331391284E+01   -0.210425099679811112E+01   -0.289010816811229461E+03
    0.333670353783812516E+03    0.409500281372753108E+02    0.181932723507897904E+02   -0.171921077269252964E+01   -0.187429144331391284E+01   -0.210425099679811112E+01   -0.289010816811229461E+03
    0.326020817443688884E+03    0.422181987809368735E+02    0.152113401711931768E+02   -0.171255298210822660E+01   -0.185790107681554839E+01   -0.214414371449703411E+01   -0.289386024583770563E+03
    0.326621759271079100E+03    0.382593370851350443E+02    0.119925232133321380E+02   -0.171117906686538346E+01   -0.187333895602699219E+01   -0.214103472457845223E+01   -0.289443639668064748E+03
    0.320689011242672109E+03    0.403962150679118821E+02    0.199947323949427407E+02   -0.170223039056666359E+01   -0.187974448266784067E+01   -0.213424751168052795E+01   -0.289180956435175005E+03
    0.320689011242672109E+03    0.403962150679118821E+02    0.199947323949427407E+02   -0.170223039056666359E+01   -0.187974448266784067E+01   -0.213424751168052795E+01   -0.289180956435175005E+03
    0.322743998957740246E+03    0.405563686741938980E+02    0.211355498239905657E+02   -0.169840679111919002E+01   -0.186385347832132342E+01   -0.213933372360940499E+01   -0.288993797203307736E+03
    0.322743998957740246E+03    0.405563686741938980E+02    0.211355498239905657E+02   -0.169840679111919002E+01   -0.186385347832132342E+01   -0.213933372360940499E+01   -0.288993797203307736E+03
    0.328978015113950107E+03    0.431473831235652199E+02    0.178392685819643901E+02   -0.168464086845267236E+01   -0.186783155257878430E+01   -0.212409868758522924E+01   -0.289728578072065545E+03
    0.330477387726007294E+03    0.396233661943746256E+02    0.189027050283235880E+02   -0.170357309839136306E+01   -0.187332995338954267E+01   -0.211714847678113571E+01   -0.288509637398648465E+03
    0.330477387726007294E+03    0.396233661943746256E+02    0.189027050283235880E+02   -0.170357309839136306E+01   -0.187332995338954267E+01   -0.211714847678113571E+01   -0.288509637398648465E+03
    0.330477387726007294E+03    0.396233661943746256E+02    0.189027050283235880E+02   -0.170357309839136306E+01   -0.187332995338954267E+01   -0.211714847678113571E+01   -0.288509637398648465E+03
    0.325779433697159561E+03    0.427986825128977415E+02    0.191093262324592352E+02   -0.171005058354533213E+01   -0.186984971783942000E+01   -0.212191203142957274E+01   -0.289645361849540222E+03
    0.332424407877329145E+03    0.394820256939992049E+02    0.159805910665868200E+02   -0.167308400440699523E+01   -0.187858629021746482E+01   -0.212589908062443023E+01   -0.289221696053242795E+03
    0.319871569547577849E+03    0.399642661818318032E+02    0.160885775450309865E+02   -0.171645775225337749E+01   -0.188508769645913277E+01   -0.213922127615562729E+01   -0.289728292931969577E+03
    0.316883513432469670E+03    0.401957862633979488E+02    0.220268428127806573E+02   -0.169809521470448210E+01   -0.186496515476331925E+01   -0.215070342823787497E+01   -0.289689980539672092E+03
    0.326701733760461707E+03    0.410329353836829114E+02    0.182102868685062482E+02   -0.170082195513299084E+01   -0.188499189943463841E+01   -0.211246109579788310E+01   -0.289474098109434522E+03
    0.320020830104887409E+03    0.407974741756942194E+02    0.171260618407318397E+02   -0.170287392417503658E+01   -0.188442617465094497E+01   -0.214403529533716153E+01   -0.289472879486165539E+03
    0.326611982040236455E+03    0.376296696305515042E+02    0.122358997074902032E+02   -0.170317224386289490E+01   -0.189709278888625610E+01   -0.213141425123173978E+01   -0.289724115054735250E+03
