    0.361254477526264338E+03    0.329739403883255022E+02    0.850718606041826035E+02   -0.653740732399848312E+00   -0.182435541247874911E+01   -0.890650603415116926E+00   -0.314856525952852280E+03
    0.347889696931844128E+03    0.319701724230736737E+02    0.854692493216385429E+02   -0.689856057487049146E+00   -0.185396816525764163E+01   -0.904579441385191529E+00   -0.313372355167005935E+03
    0.376871926568741742E+03    0.349123085794696095E+02    0.785422728489455579E+02   -0.681070598354675427E+00   -0.185041440475312768E+01   -0.877813531892277510E+00   -0.313251451033362400E+03
    0.382939943507812757E+03    0.333776622676791135E+02    0.821746986859886732E+02   -0.537566954902985561E+00   -0.185885111067139253E+01   -0.890431472920928613E+00   -0.312969338397985211E+03
    0.365741953428473096E+03    0.323475572629301951E+02    0.836396095494741445E+02   -0.707845383447344378E+00   -0.180119504014046150E+01   -0.869018644690209285E+00   -0.312954554537142371E+03
    0.366323865588257775E+03    0.319807930925175015E+02    0.839603708545371745E+02   -0.753391177978774529E+00   -0.185149976371805347E+01   -0.872264481156430627E+00   -0.312875599013947635E+03
    0.386060198821483937E+03    0.340702459265736977E+02    0.795924855455216544E+02   -0.544719760331070502E+00   -0.182218924536952254E+01   -0.880357664561808306E+00   -0.312816821931181380E+03
    0.367439612629314297E+03    0.336575895060740180E+02    0.842144712691705877E+02   -0.673586398527862951E+00   -0.185599957126325021E+01   -0.888612960436019783E+00   -0.312784860339283682E+03
    0.354046616633568135E+03    0.328482031914775803E+02    0.838123361767521402E+02   -0.642439017444000005E+00   -0.182182107435196095E+01   -0.896573783241447764E+00   -0.312768722354832221E+03
    0.388950115990650374E+03    0.323349746611156235E+02    0.813847903047646355E+02   -0.688183331719333768E+00   -0.181143785933924129E+01   -0.848191983757423884E+00   -0.312686979684882715E+03
    0.383221362015279794E+03    0.302050778883161151E+02    0.885092568852734161E+02   -0.707514809534903977E+00   -0.181979778751550003E+01   -0.852503903240561467E+00   -0.312408167097766238E+03
    0.379613029696672072E+03    0.331569632401587100E+02    0.819264454419591033E+02   -0.724271862177507053E+00   -0.184730466227732926E+01   -0.859670400069439289E+00   -0.312380170093416552E+03
    0.369400335636055331E+03    0.306532339159022662E+02    0.895488729792809153E+02   -0.644504399367706204E+00   -0.184941346036762666E+01   -0.894522042149498819E+00   -0.312120647542370591E+03
    0.371678751692761182E+03    0.299872010607424322E+02    0.886913567339460798E+02   -0.738999761708041936E+00   -0.183022925544000414E+01   -0.858543154671750575E+00   -0.311902597612007924E+03
    0.375891789313718220E+03    0.303683661291051941E+02    0.847809055600879873E+02   -0.697293676812730467E+00   -0.187168133774051437E+01   -0.878938493126469211E+00   -0.311773847598381337E+03
    0.388396043224171763E+03    0.346110793186164472E+02    0.814277298080924226E+02   -0.613303270129480715E+00   -0.185347912345310251E+01   -0.866935335181900690E+00   -0.311611050432257855E+03
    0.390836103264924020E+03    0.338910595375507313E+02    0.788397888205405053E+02   -0.653154916874320923E+00   -0.185117538185138764E+01   -0.868776480487147396E+00   -0.311591482526236064E+03
    0.362217574505959760E+03    0.329200623653336493E+02    0.821394275060106764E+02   -0.647803519754735380E+00   -0.185975649924473774E+01   -0.907014768244255531E+00   -0.311562017082997386E+03
    0.370505485493029198E+03    0.323256045340113900E+02    0.871667348879432922E+02   -0.678363714612242097E+00   -0.185598914927713854E+01   -0.884267453622204158E+00   -0.311533538617186537E+03
    0.354226058568761061E+03    0.303733305048664164E+02    0.865118488472656537E+02   -0.619704097978289070E+00   -0.184866232948599540E+01   -0.907713030638785945E+00   -0.311530710302367424E+03
    0.362929484882609529E+03    0.305619700237881275E+02    0.850176403631209894E+02   -0.763136515479463373E+00   -0.184197791759362950E+01   -0.880527320870422514E+00   -0.311408303827172972E+03
    0.361886455078172730E+03    0.334466013812747462E+02    0.838008154220743080E+02   -0.586630704103349832E+00   -0.184127784387437488E+01   -0.896670767299410088E+00   -0.311394078337689393E+03
    0.364783282608210243E+03    0.325602263307198001E+02    0.843115912513149368E+02   -0.596466312801812171E+00   -0.182529201744020630E+01   -0.876831474124560195E+00   -0.311173175656937758E+03
    0.371623327677169641E+03    0.303761553872898915E+02    0.880121224623565013E+02   -0.647030905040857807E+00   -0.181040556320749602E+01   -0.862028736360940684E+00   -0.311087116819525249E+03
    0.382686863836071097E+03    0.300725839143452660E+02    0.898736508470868358E+02   -0.642430354382503843E+00   -0.184298092281890158E+01   -0.865237286918545401E+00   -0.311053649339695141E+03
    0.363809191019533387E+03    0.303733500760874193E+02    0.887680799201749409E+02   -0.654300426869095064E+00   -0.186157695024195924E+01   -0.902221855009798457E+00   -0.310951137200152118E+03
    0.358775494837881070E+03    0.305617176941483493E+02    0.866717237415085151E+02   -0.634930960750655249E+00   -0.181086315886808236E+01   -0.886459518532825896E+00   -0.310942010144179505E+03
    0.367631767469270812E+03    0.318882299765109671E+02    0.859573415746951355E+02   -0.698337126922609741E+00   -0.187021765532327500E+01   -0.890128344971231389E+00   -0.310863643264725624E+03
    0.372128838970412914E+03    0.313738458516713017E+02    0.877077653335375373E+02   -0.667148919276029817E+00   -0.186939460098871280E+01   -0.876671351874478866E+00   -0.310800365061458308E+03
    0.372997933830102625E+03    0.310909196242060588E+02    0.861955445670804892E+02   -0.712331769064214138E+00   -0.181813362990132443E+01   -0.855258534971417017E+00   -0.310729396402103305E+03
    0.384238046948710860E+03    0.310363031873827531E+02    0.822365196528429294E+02   -0.692282225936130091E+00   -0.186666070823437957E+01   -0.878374591698229068E+00   -0.310630299249197662E+03
    0.359224102698918671E+03    0.300570116781664609E+02    0.856571109553656953E+02   -0.702962243367497353E+00   -0.186146522961183436E+01   -0.898523115728251387E+00   -0.310607426647547641E+03
    0.369762891980690313E+03    0.296747525265385761E+02    0.877187283112017298E+02   -0.718772811665124411E+00   -0.182195788819037863E+01   -0.874297358351735721E+00   -0.310552922214179773E+03
    0.360283990175687563E+03    0.303869084967628922E+02    0.886289435560816372E+02   -0.668084591570079045E+00   -0.180699659853669936E+01   -0.878820713873890824E+00   -0.310552184997233610E+03
    0.363176007316429889E+03    0.301882213839461002E+02    0.885090100401915407E+02   -0.711650322786752332E+00   -0.186531775556237167E+01   -0.894667882804549564E+00   -0.310502160711474971E+03
    0.359539472974737464E+03    0.308633912949511320E+02    0.854923727404901683E+02   -0.609955119941719026E+00   -0.185850844744810106E+01   -0.904323934929719186E+00   -0.310488667210042706E+03
    0.356053989682640974E+03    0.312447717792085555E+02    0.886754277411938290E+02   -0.604279240672269680E+00   -0.182854319359924888E+01   -0.893505436858312851E+00   -0.310429101323002499E+03
    0.369598448661868474E+03    0.290379278593535801E+02    0.893133967632730901E+02   -0.725922534648517415E+00   -0.184763835638860252E+01   -0.880823326715362676E+00   -0.310393406568003002E+03
    0.378947764953284718E+03    0.332494278102473402E+02    0.844795210540421095E+02   -0.646441387827765723E+00   -0.182806679064990329E+01   -0.858740784146373670E+00   -0.310388500291272294E+03
    0.375519609449095014E+03    0.334945578875041718E+02    0.823351600744189511E+02   -0.650416000576061526E+00   -0.187019682334090809E+01   -0.890109469180531132E+00   -0.310364964426410495E+03
    0.363801997756802564E+03    0.330629287584758060E+02    0.872118553226638227E+02   -0.637193296132738007E+00   -0.184168792633761891E+01   -0.878928456066851549E+00   -0.310357136322264182E+03
    0.375649147560607901E+03    0.315865302541304942E+02    0.811831218148001454E+02   -0.725767526302909305E+00   -0.184691443760278884E+01   -0.877864458073420728E+00   -0.310334237825071057E+03
    0.365455696968721895E+03    0.308198790992946918E+02    0.892604613779119234E+02   -0.604311001476462994E+00   -0.185214975340720622E+01   -0.897741991127720684E+00   -0.310287869040571536E+03
    0.380413439980606199E+03    0.296629323952346056E+02    0.884839838861672092E+02   -0.679666339761089144E+00   -0.183267527280187981E+01   -0.865761732338912182E+00   -0.310271884738048698E+03
    0.372452688352121754E+03    0.310805210562771315E+02    0.888669417321438146E+02   -0.604993680126870270E+00   -0.185886154572062257E+01   -0.890264389658420807E+00   -0.310224489214362563E+03
    0.363236930495759907E+03    0.302595690709728018E+02    0.856005443231895100E+02   -0.709236973240007451E+00   -0.181201856527082605E+01   -0.872851249223344006E+00   -0.310204777483276189E+03
    0.386946902294609970E+03    0.337186735640105013E+02    0.811521080299942525E+02   -0.687313658324927523E+00   -0.184616266505847060E+01   -0.861716279648610861E+00   -0.310202147779525944E+03
    0.375351304586653669E+03    0.335567131036681872E+02    0.811964492640845350E+02   -0.572445840146898144E+00   -0.183287035690170463E+01   -0.881197295391391133E+00   -0.310201456276807903E+03
    0.374334795716806752E+03    0.342172630867054153E+02    0.803186424820947309E+02   -0.685693407160773427E+00   -0.182461139930472105E+01   -0.873148681439434249E+00   -0.310181731405028700E+03
    0.375911658178271864E+03    0.331899217914937239E+02    0.810458036849546630E+02   -0.601707541363876164E+00   -0.181539532053448371E+01   -0.872187448448753511E+00   -0.310174971019038594E+03
    0.360607534843378403E+03    0.291611326436509337E+02    0.878073741916552706E+02   -0.700771361707051454E+00   -0.183393107825775026E+01   -0.891090718412955063E+00   -0.310170663477486187E+03
    0.370973432050542954E+03    0.298280679610800021E+02    0.861138555863043393E+02   -0.658863446430918875E+00   -0.181454997422875386E+01   -0.873041469377819457E+00   -0.310159236069972280E+03
    0.376210026308436625E+03    0.304691122981459657E+02    0.864591198191086079E+02   -0.641432348291160359E+00   -0.181587650467467565E+01   -0.863588554165121813E+00   -0.310107497495310497E+03
    0.381104497585199567E+03    0.321019982273937359E+02    0.832424560483117091E+02   -0.676794442958523534E+00   -0.187015826762549842E+01   -0.873838417356515240E+00   -0.310101104283397376E+03
    0.373729282394664949E+03    0.312793769696308104E+02    0.870272523283213815E+02   -0.584012496647415169E+00   -0.185243708731912737E+01   -0.884551902417349822E+00   -0.310011363266697003E+03
    0.378978215010594568E+03    0.322722251681918948E+02    0.837229489380642775E+02   -0.609512728684630245E+00   -0.181428390779363502E+01   -0.865088320765831309E+00   -0.309965155488083326E+03
    0.379334732378130070E+03    0.319830075632320039E+02    0.867053684107602720E+02   -0.648709264212234960E+00   -0.182566993838905778E+01   -0.859458823963494378E+00   -0.309947244312611360E+03
    0.356276316702685676E+03    0.320503450975254722E+02    0.886126184488818325E+02   -0.640046931897516602E+00   -0.184420336971249421E+01   -0.888534586654422753E+00   -0.309918179709144567E+03
    0.373486252104357902E+03    0.330477410237618727E+02    0.845965788053075869E+02   -0.687148733044374627E+00   -0.185833790381790998E+01   -0.874057260848967399E+00   -0.309879658195624359E+03
    0.376295581088200095E+03    0.344093561639969892E+02    0.808557762518462795E+02   -0.600451235920308912E+00   -0.182843978713530064E+01   -0.875160592638921653E+00   -0.309798913306320173E+03
    0.385602348185323820E+03    0.313110848026045332E+02    0.815628576165820789E+02   -0.655409351080815883E+00   -0.182737655365741825E+01   -0.873275724020078137E+00   -0.309798268811044409E+03
    0.380366595138459957E+03    0.317192194375164433E+02    0.808878016102763127E+02   -0.681602442896949601E+00   -0.186054932581504229E+01   -0.889369148739223903E+00   -0.309763261896147355E+03
    0.368658881438768162E+03    0.311696220088292009E+02    0.835831781844807722E+02   -0.690608560364443846E+00   -0.182795247274186146E+01   -0.886949750969580286E+00   -0.309754990094410516E+03
    0.391984172262245579E+03    0.329275151041123166E+02    0.808308993859554050E+02   -0.648220033778847737E+00   -0.183913285173492791E+01   -0.868058284277594794E+00   -0.309602505255519702E+03
    0.391984172262245579E+03    0.329275151041123166E+02    0.808308993859554050E+02   -0.648220033778847737E+00   -0.183913285173492791E+01   -0.868058284277594794E+00   -0.309602505255519702E+03
    0.368052804892205245E+03    0.321958507828471170E+02    0.867303524586397288E+02   -0.684173420192124127E+00   -0.182214215851238515E+01   -0.864021189588060512E+00   -0.309587731442183667E+03
    0.362943454184233644E+03    0.316868295253584797E+02    0.837155570520893804E+02   -0.669347085032143685E+00   -0.181429771874073187E+01   -0.883789797016828693E+00   -0.309540111470763236E+03
    0.380835093869896127E+03    0.307853185622468821E+02    0.856739071100887628E+02   -0.653913463296491582E+00   -0.185361054241172529E+01   -0.880239202548008137E+00   -0.309539864441314876E+03
    0.359017040417285671E+03    0.319624516239872456E+02    0.867651594082149415E+02   -0.623179575049097156E+00   -0.185680477935297650E+01   -0.894187989241709502E+00   -0.309523068746841545E+03
    0.363689686148710791E+03    0.318474439190843910E+02    0.840477509063692310E+02   -0.691724167350465713E+00   -0.186277887147862065E+01   -0.887688485989111875E+00   -0.309514122172521866E+03
    0.365781992341047271E+03    0.310505552422563902E+02    0.859348267407516175E+02   -0.671467785184463706E+00   -0.186517225772915918E+01   -0.885520800570357647E+00   -0.309457648498559422E+03
    0.372480490337728838E+03    0.328668219656407814E+02    0.852753364002965526E+02   -0.675742040757752793E+00   -0.183733066319975102E+01   -0.864286943218262493E+00   -0.309426087280575359E+03
    0.367898229339086413E+03    0.316279737967669305E+02    0.858888491763549808E+02   -0.730057245874270899E+00   -0.183347098621209859E+01   -0.868509720446967393E+00   -0.309421560737241066E+03
    0.367898229339086413E+03    0.316279737967669305E+02    0.858888491763549808E+02   -0.730057245874270899E+00   -0.183347098621209859E+01   -0.868509720446967393E+00   -0.309421560737241066E+03
    0.377450596660019528E+03    0.333982621655173233E+02    0.797727229087327174E+02   -0.597358223553450030E+00   -0.183529769635124640E+01   -0.884626067188837517E+00   -0.309410054031892514E+03
    0.373617444259918045E+03    0.310673897575730464E+02    0.881307088772641123E+02   -0.635210795508967418E+00   -0.183510687271341300E+01   -0.879607734780143424E+00   -0.309408081749893768E+03
    0.374946912781388903E+03    0.307769465419280017E+02    0.895442696732167036E+02   -0.632251967891075184E+00   -0.182731095097786511E+01   -0.866194590304875334E+00   -0.309402334205352759E+03
    0.380111134265851661E+03    0.301841214377989324E+02    0.838216222578493699E+02   -0.686075991159232679E+00   -0.184107929415873217E+01   -0.870501460979208552E+00   -0.309401460447071372E+03
    0.359220603852450324E+03    0.321512774524840665E+02    0.858203636973372852E+02   -0.626943310711214785E+00   -0.184471615806782263E+01   -0.887052217267204401E+00   -0.309399314873425737E+03
    0.363381700847177285E+03    0.314147805306965253E+02    0.870681465039059646E+02   -0.664330246536870117E+00   -0.181231327028134626E+01   -0.872981345352743077E+00   -0.309397648566821999E+03
    0.382280690593070517E+03    0.331425763833211420E+02    0.813242218748598589E+02   -0.610344653197201881E+00   -0.185586654508225712E+01   -0.875630394624460351E+00   -0.309390702642092833E+03
    0.382280690593070517E+03    0.331425763833211420E+02    0.813242218748598589E+02   -0.610344653197201881E+00   -0.185586654508225712E+01   -0.875630394624460351E+00   -0.309390702642092833E+03
    0.364605377628099404E+03    0.314837338323567764E+02    0.891889989311460738E+02   -0.672726889465589561E+00   -0.181732556027988612E+01   -0.868508580135847197E+00   -0.309313075110937632E+03
    0.370822028435003404E+03    0.314342032158498199E+02    0.828031663693229802E+02   -0.679020669417214728E+00   -0.187059927670307746E+01   -0.894390495900382554E+00   -0.309294383067144565E+03
    0.371838217298089660E+03    0.314899928464049310E+02    0.831726941561172737E+02   -0.608849843463005636E+00   -0.184307503231206482E+01   -0.895712958396160719E+00   -0.309283032271708748E+03
    0.368610224130729080E+03    0.321387304644705196E+02    0.842895826957412737E+02   -0.665071462410987024E+00   -0.186361180771250834E+01   -0.881586010080175786E+00   -0.309278300121577843E+03
    0.376809124841617972E+03    0.318722050156647931E+02    0.861218197786201500E+02   -0.637412163833371403E+00   -0.183352414132798347E+01   -0.873948835553551184E+00   -0.309271611299093763E+03
    0.363359789661799311E+03    0.297880256315121557E+02    0.871633473396882152E+02   -0.728828092362121316E+00   -0.184706589785978403E+01   -0.885507930231020257E+00   -0.309236012579879002E+03
    0.376855063934760892E+03    0.333447453709608084E+02    0.799291671773303136E+02   -0.692002447322667136E+00   -0.184475564974453499E+01   -0.884416824523590162E+00   -0.309235305675583163E+03
    0.381201617055094630E+03    0.313461216397362747E+02    0.827182088106543034E+02   -0.672552494499284670E+00   -0.185836593574675168E+01   -0.885719316183640082E+00   -0.309235001813359531E+03
    0.381201617055094630E+03    0.313461216397362747E+02    0.827182088106543034E+02   -0.672552494499284670E+00   -0.185836593574675168E+01   -0.885719316183640082E+00   -0.309235001813359531E+03
    0.370736551090643445E+03    0.306767019903727345E+02    0.899842895542726069E+02   -0.666440021467403110E+00   -0.185607887554188089E+01   -0.875125858873971652E+00   -0.309225989231753147E+03
    0.366436694477105050E+03    0.306446553049095058E+02    0.830078133874548740E+02   -0.695211808613100501E+00   -0.185204373983898907E+01   -0.894328538142870499E+00   -0.309216002593761402E+03
    0.383059792562852692E+03    0.328486384095625823E+02    0.808601009448254189E+02   -0.696705414183800498E+00   -0.182629194131574013E+01   -0.862114221572991557E+00   -0.309208877001625524E+03
    0.383059792562852692E+03    0.328486384095625823E+02    0.808601009448254189E+02   -0.696705414183800498E+00   -0.182629194131574013E+01   -0.862114221572991557E+00   -0.309208877001625524E+03
    0.369426911283722575E+03    0.317012399146298414E+02    0.832409464452619972E+02   -0.610721496682026910E+00   -0.185873880737112440E+01   -0.891012509406158948E+00   -0.309193311173516065E+03
    0.381739362887883317E+03    0.337247377811844302E+02    0.802936583384286848E+02   -0.625784430501342470E+00   -0.186188705579334046E+01   -0.889020833209984040E+00   -0.309186572028409614E+03
    0.373214351486564397E+03    0.314524974791175183E+02    0.836634045312365942E+02   -0.735040338093266632E+00   -0.183542863749855623E+01   -0.870293199570189913E+00   -0.309182878449883674E+03
    0.359961907773549569E+03    0.296057809155406062E+02    0.888473709172023831E+02   -0.697485351902446649E+00   -0.184093453907173443E+01   -0.884319415590302693E+00   -0.309179265265234733E+03
    0.373846570538513333E+03    0.319200217218678262E+02    0.834550781613378660E+02   -0.593385765639671270E+00   -0.182819633119283398E+01   -0.876046397765592566E+00   -0.309178747681695256E+03
    0.357687919222734706E+03    0.313474404145517163E+02    0.856311800144609663E+02   -0.694990790367802980E+00   -0.185205188823308253E+01   -0.889088622755497049E+00   -0.309169201886877318E+03
    0.372703940116444528E+03    0.306986934346466924E+02    0.862037428081447104E+02   -0.667502896395033130E+00   -0.186969561886046853E+01   -0.890332315522361029E+00   -0.309152232134923054E+03
    0.380330577748934445E+03    0.325577644038925058E+02    0.800700693100963434E+02   -0.686165850565268576E+00   -0.183801390642541729E+01   -0.873571593687689774E+00   -0.309150128254490710E+03
    0.380330577748934445E+03    0.325577644038925058E+02    0.800700693100963434E+02   -0.686165850565268576E+00   -0.183801390642541729E+01   -0.873571593687689774E+00   -0.309150128254490710E+03
    0.371868946610502178E+03    0.320977524272270784E+02    0.830143670734085788E+02   -0.659985672342326968E+00   -0.184898924867243819E+01   -0.892995748704351389E+00   -0.309135816222372569E+03
    0.375885744027821204E+03    0.296226199377302919E+02    0.870528903138130801E+02   -0.656683117903793745E+00   -0.184649439122956194E+01   -0.880325869338629552E+00   -0.309133771442067996E+03
    0.373768297107581873E+03    0.303413414480149157E+02    0.872684444195963493E+02   -0.659955860223349511E+00   -0.182937210152313989E+01   -0.865188877439125648E+00   -0.309099497910429250E+03
    0.365306122318478515E+03    0.316358637249168950E+02    0.828307862384051674E+02   -0.612806943869842247E+00   -0.184254607437668261E+01   -0.900119380881688080E+00   -0.309098039466638340E+03
    0.379194286234076174E+03    0.329415203214498433E+02    0.822727561357492903E+02   -0.652433416981176295E+00   -0.186788934524259131E+01   -0.878882036327951255E+00   -0.309089894940417821E+03
    0.362902029214000152E+03    0.330150756013467443E+02    0.839057789486828085E+02   -0.625174221031451038E+00   -0.182605997272591369E+01   -0.883151904069473304E+00   -0.309089491243816326E+03
    0.378759002380238485E+03    0.310876942718684610E+02    0.816870871505965681E+02   -0.645878701569379432E+00   -0.183026188917380073E+01   -0.878103325301867521E+00   -0.309089466064463807E+03
    0.364505447729257753E+03    0.309896752739665260E+02    0.863940895128651221E+02   -0.680319222793610567E+00   -0.185546453056004301E+01   -0.880634319209298688E+00   -0.309084702735162296E+03
    0.385187316497527263E+03    0.318966481228593608E+02    0.807763862050650943E+02   -0.670831872484362712E+00   -0.183699494823992193E+01   -0.870024935604144289E+00   -0.309081192015188833E+03
    0.382994575066212235E+03    0.316492620227451837E+02    0.857233941003482585E+02   -0.668551457655825576E+00   -0.184285485242872538E+01   -0.863506654775203497E+00   -0.309064443894505985E+03
    0.382994575066212235E+03    0.316492620227451837E+02    0.857233941003482585E+02   -0.668551457655825576E+00   -0.184285485242872538E+01   -0.863506654775203497E+00   -0.309064443894505985E+03
    0.373588610649333646E+03    0.329853004813892596E+02    0.816477900068393865E+02   -0.677781871901082189E+00   -0.181987042699722590E+01   -0.875867284164555393E+00   -0.309062729656223269E+03
    0.368402973084359985E+03    0.303630083156444854E+02    0.889954878757814214E+02   -0.635867167136730416E+00   -0.182596144101342217E+01   -0.881987330340841424E+00   -0.309055810568672769E+03
    0.364591007075996004E+03    0.318772750636538262E+02    0.872305597704409621E+02   -0.674747957910304175E+00   -0.184274404655319590E+01   -0.872927980893536848E+00   -0.309048610821746536E+03
    0.356958227803252896E+03    0.320624563206474704E+02    0.853790952084129628E+02   -0.651509971328297244E+00   -0.184934639313718940E+01   -0.897594806035375115E+00   -0.309001393568002868E+03
    0.356958227803252896E+03    0.320624563206474704E+02    0.853790952084129628E+02   -0.651509971328297244E+00   -0.184934639313718940E+01   -0.897594806035375115E+00   -0.309001393568002868E+03
    0.359399771792137983E+03    0.300712186613198469E+02    0.871574101718727405E+02   -0.662084355623440812E+00   -0.184814691641987072E+01   -0.898580225871513427E+00   -0.308909361943627459E+03
    0.370153442142010704E+03    0.331109634348880917E+02    0.811660306488165304E+02   -0.620383422951205743E+00   -0.184196042238600177E+01   -0.896158474111390380E+00   -0.308902875348672978E+03
    0.370153442142010704E+03    0.331109634348880917E+02    0.811660306488165304E+02   -0.620383422951205743E+00   -0.184196042238600177E+01   -0.896158474111390380E+00   -0.308902875348672978E+03
    0.372400451887534757E+03    0.305181075406383044E+02    0.885815356489599992E+02   -0.620783868797080363E+00   -0.183931251855299949E+01   -0.882903820852323662E+00   -0.308894079646671344E+03
    0.373908090903891093E+03    0.331087183027550225E+02    0.822989407533936657E+02   -0.619628527106245830E+00   -0.182058244765900090E+01   -0.869851752385793375E+00   -0.308850698599104362E+03
    0.358809482738572058E+03    0.316738698535333825E+02    0.839427933054292481E+02   -0.704406583288514021E+00   -0.184511203203479202E+01   -0.891982938322561036E+00   -0.308831670075567956E+03
    0.361519246538557752E+03    0.318099267252866511E+02    0.863174055403991076E+02   -0.710390968095061526E+00   -0.183954790540012403E+01   -0.881834778791293239E+00   -0.308824501119419097E+03
    0.368226378560275293E+03    0.316545042006752162E+02    0.877837179186239496E+02   -0.621626737983196564E+00   -0.184984802452411046E+01   -0.878440704815785622E+00   -0.308820500857375123E+03
    0.367585052132226224E+03    0.311093327658866308E+02    0.831967354835663571E+02   -0.626214537320493259E+00   -0.185133357098359919E+01   -0.899680740171829640E+00   -0.308798604953444624E+03
    0.366487469979009745E+03    0.326567287681501739E+02    0.854787997434384010E+02   -0.603192592921485193E+00   -0.184263712980547822E+01   -0.883250732564567098E+00   -0.308746980839438379E+03
    0.373907281653513166E+03    0.337366214554546673E+02    0.809750019423044591E+02   -0.680630843384430806E+00   -0.182984210081741971E+01   -0.875258415450567373E+00   -0.308735855828339140E+03
    0.364458596137733366E+03    0.320820748861716893E+02    0.882440828954789538E+02   -0.652179681485607787E+00   -0.185128540398439556E+01   -0.881045644342701273E+00   -0.308734838847795686E+03
    0.381095700545484249E+03    0.312815756993490091E+02    0.857375042438888499E+02   -0.622881639625153971E+00   -0.185249357220319544E+01   -0.872575073988613781E+00   -0.308734054527347666E+03
    0.368290019192007321E+03    0.301465192443224552E+02    0.851081761340512770E+02   -0.714974454553643168E+00   -0.185039638917966331E+01   -0.886725928823420606E+00   -0.308732247942329479E+03
    0.375923458451500608E+03    0.306100011904863507E+02    0.870809137124953310E+02   -0.681013245669114475E+00   -0.185355925726654069E+01   -0.880096201299085834E+00   -0.308688787469816020E+03
    0.375506623790108620E+03    0.304890635059530908E+02    0.873981237385871168E+02   -0.695073707161587340E+00   -0.184085064118240527E+01   -0.874035495052443157E+00   -0.308654643013831731E+03
    0.375506623790108620E+03    0.304890635059530908E+02    0.873981237385871168E+02   -0.695073707161587340E+00   -0.184085064118240527E+01   -0.874035495052443157E+00   -0.308654643013831731E+03
    0.370386271798710652E+03    0.302596070059900839E+02    0.895270785545225465E+02   -0.626748736509771698E+00   -0.183262973602752877E+01   -0.877167503673685012E+00   -0.308637043798613831E+03
    0.373705764537882260E+03    0.314198597709533054E+02    0.839215080921583905E+02   -0.661758314907063605E+00   -0.182082832220739710E+01   -0.876721666850005299E+00   -0.308608213032880485E+03
    0.376449475138382297E+03    0.307645816620110253E+02    0.824164855121311462E+02   -0.653727212435893934E+00   -0.184956208276625000E+01   -0.887815626597858731E+00   -0.308594281106870199E+03
    0.371790561584941599E+03    0.316643963186160775E+02    0.893293479756646605E+02   -0.623536586445631480E+00   -0.184612921551538012E+01   -0.876873283741892440E+00   -0.308590686321219380E+03
    0.386622732658391499E+03    0.315483630798837247E+02    0.831484861761930460E+02   -0.654107843257658361E+00   -0.184631322396889175E+01   -0.867422027652592575E+00   -0.308576927358888042E+03
    0.382773676762358775E+03    0.318540020708293987E+02    0.846434239275910443E+02   -0.613393283579118931E+00   -0.184287752101466906E+01   -0.870301243898032872E+00   -0.308565600332119971E+03
    0.366577956553405102E+03    0.318652600266987527E+02    0.861577511603523476E+02   -0.671499257937909322E+00   -0.186333852121223265E+01   -0.889519939907352786E+00   -0.308565459370428584E+03
    0.375346902357992803E+03    0.303957053880034209E+02    0.833341322957032418E+02   -0.673105672102681574E+00   -0.184210998254911540E+01   -0.885547234082387114E+00   -0.308552285166963543E+03
    0.386515475996160831E+03    0.320259290408647530E+02    0.823255139764762021E+02   -0.628097712927084162E+00   -0.183302873281268508E+01   -0.865434697704531075E+00   -0.308549217652608888E+03
    0.384412737022738781E+03    0.325994278482930397E+02    0.832407250613581056E+02   -0.622943468819554091E+00   -0.184123433755958832E+01   -0.864992040582951649E+00   -0.308546666041047445E+03
    0.364894102173842498E+03    0.327374257172046583E+02    0.817604525668007938E+02   -0.671032654341334078E+00   -0.182998827087910731E+01   -0.882675274504606477E+00   -0.308530859978323406E+03
    0.386360346481424642E+03    0.317014202940013057E+02    0.825675729390932105E+02   -0.651275368734766991E+00   -0.183483459103910285E+01   -0.868776605115193945E+00   -0.308527911599421600E+03
    0.386360346481424642E+03    0.317014202940013057E+02    0.825675729390932105E+02   -0.651275368734766991E+00   -0.183483459103910285E+01   -0.868776605115193945E+00   -0.308527911599421600E+03
    0.371711487422999596E+03    0.329158169459749601E+02    0.822572846223383181E+02   -0.600931433329264575E+00   -0.184884780698462547E+01   -0.884837014580094561E+00   -0.308525780046588636E+03
    0.374440077363521368E+03    0.327057686648479802E+02    0.816193974981315193E+02   -0.708169023988245883E+00   -0.184383250513994623E+01   -0.873490961613530015E+00   -0.308467472283457596E+03
    0.375830508288713474E+03    0.322593897895843398E+02    0.811119878100204943E+02   -0.619160813020791512E+00   -0.182489441241750150E+01   -0.879514711257692650E+00   -0.308467370451102170E+03
    0.375830508288713474E+03    0.322593897895843398E+02    0.811119878100204943E+02   -0.619160813020791512E+00   -0.182489441241750150E+01   -0.879514711257692650E+00   -0.308467370451102170E+03
    0.367105542878963831E+03    0.299565044680095269E+02    0.869734210243085499E+02   -0.694327190929820315E+00   -0.185336384526211018E+01   -0.882176125958099799E+00   -0.308442662653627679E+03
    0.371072234253698298E+03    0.319070191558888467E+02    0.868873451384283157E+02   -0.621276100411999321E+00   -0.183161980350016229E+01   -0.870966169663599299E+00   -0.308441300723584277E+03
    0.361481173938618213E+03    0.316243501896302348E+02    0.851021390328471909E+02   -0.712322097625820438E+00   -0.184852298039135121E+01   -0.885118612231589719E+00   -0.308438382877152378E+03
    0.386495850991626639E+03    0.321246929723777725E+02    0.819385991232622217E+02   -0.683071477154690632E+00   -0.184382423062719392E+01   -0.868868570955792840E+00   -0.308424668603243845E+03
    0.364019416420306641E+03    0.321483603414789485E+02    0.870272095346339398E+02   -0.618707309388898619E+00   -0.184143873792913437E+01   -0.882401823004664632E+00   -0.308419097101140267E+03
    0.363760542156576832E+03    0.312006109225772548E+02    0.862733817176090554E+02   -0.607921240059308587E+00   -0.185213684072056872E+01   -0.894799084036543846E+00   -0.308411977655286478E+03
    0.372404006408146813E+03    0.308436945953965136E+02    0.841196960600790362E+02   -0.655117752526539920E+00   -0.182284132947531319E+01   -0.870986509652174057E+00   -0.308395151753618734E+03
    0.362101252242081330E+03    0.315443694857232586E+02    0.834368875023561998E+02   -0.649834413204549710E+00   -0.185107330522069535E+01   -0.894457610421230065E+00   -0.308386846811760563E+03
    0.384469481664491866E+03    0.318904005415877272E+02    0.827473921604790092E+02   -0.640826603874300238E+00   -0.186127674475554095E+01   -0.878081631360865700E+00   -0.308372923705055655E+03
    0.384469481664491866E+03    0.318904005415877272E+02    0.827473921604790092E+02   -0.640826603874300238E+00   -0.186127674475554095E+01   -0.878081631360865700E+00   -0.308372923705055655E+03
    0.377111926896453554E+03    0.307276833239593969E+02    0.829599213430443996E+02   -0.675702297813829844E+00   -0.185577353429412795E+01   -0.883613439566723891E+00   -0.308340942676224358E+03
    0.377111926896453554E+03    0.307276833239593969E+02    0.829599213430443996E+02   -0.675702297813829844E+00   -0.185577353429412795E+01   -0.883613439566723891E+00   -0.308340942676224358E+03
    0.377731593866119340E+03    0.309014886466353822E+02    0.875863386658161289E+02   -0.648871854551434923E+00   -0.183952428123326239E+01   -0.872199971773480964E+00   -0.308320373825839624E+03
    0.377731593866119340E+03    0.309014886466353822E+02    0.875863386658161289E+02   -0.648871854551434923E+00   -0.183952428123326239E+01   -0.872199971773480964E+00   -0.308320373825839624E+03
    0.371674219696198577E+03    0.308763789664864774E+02    0.855845325149579850E+02   -0.618892133918925280E+00   -0.185706671803796697E+01   -0.886014175979948693E+00   -0.308316570928764804E+03
    0.368619999259276597E+03    0.306041813178761686E+02    0.898369319471930368E+02   -0.696935567588635063E+00   -0.182895902209204109E+01   -0.866923741961720395E+00   -0.308312141619630495E+03
    0.384246331411502013E+03    0.322092185529995163E+02    0.819598324452746425E+02   -0.636624104803321877E+00   -0.184197536757762714E+01   -0.878854934600272752E+00   -0.308311462580967770E+03
    0.372145995877432540E+03    0.314104436963891658E+02    0.857571853366243317E+02   -0.632322543075907406E+00   -0.184619122720959461E+01   -0.873603416563440316E+00   -0.308274410140120779E+03
    0.383197143238593128E+03    0.321656752386524687E+02    0.809764761525274537E+02   -0.670425881949032298E+00   -0.182824203204565294E+01   -0.872102021430620322E+00   -0.308274294448368892E+03
    0.379537876028862343E+03    0.309487397962714077E+02    0.837958512570199190E+02   -0.688515989632012548E+00   -0.185484963303292738E+01   -0.879782335907810076E+00   -0.308254708078014175E+03
    0.362818556257095224E+03    0.302531357188208077E+02    0.893532703547221132E+02   -0.657081289123141676E+00   -0.183154415667613812E+01   -0.887975375209122397E+00   -0.308245097006110598E+03
    0.380510467266369062E+03    0.318432842430103875E+02    0.815723131123438918E+02   -0.687749529833249662E+00   -0.184402918021253015E+01   -0.880399201453067271E+00   -0.308239600913746301E+03
    0.367785646860517090E+03    0.309883857851023592E+02    0.873825239543145500E+02   -0.614191080364255404E+00   -0.184435507702160395E+01   -0.882040145491898020E+00   -0.308218294901848367E+03
    0.362612612466525206E+03    0.303262910698603285E+02    0.857340377910323355E+02   -0.661875866708356408E+00   -0.185267216888413788E+01   -0.894328256683624367E+00   -0.308216597496907980E+03
    0.364751464598342864E+03    0.326005002493442646E+02    0.855107585603804665E+02   -0.654031130490753787E+00   -0.184935075234018043E+01   -0.882076394739948366E+00   -0.308192858256864838E+03
    0.377656594149896989E+03    0.308921601437971702E+02    0.851486643487902626E+02   -0.698058906828461279E+00   -0.185707194318695734E+01   -0.874991749307199917E+00   -0.308168589364473974E+03
    0.380957042827914051E+03    0.309495089034660538E+02    0.846895371399757266E+02   -0.685632246397636091E+00   -0.183547290001127217E+01   -0.864209084711222264E+00   -0.308127489562639880E+03
    0.360422688921146118E+03    0.303237758989342083E+02    0.884980236824915352E+02   -0.664896787030275993E+00   -0.185051461765627723E+01   -0.895001471324676778E+00   -0.308108793466131999E+03
    0.371838636329456449E+03    0.319356087602941194E+02    0.817923501306618022E+02   -0.628847809109688960E+00   -0.182334934058030163E+01   -0.882968821891781719E+00   -0.308100192291240262E+03
    0.372194891447199666E+03    0.321480059755322287E+02    0.842073291445770167E+02   -0.602629959812415628E+00   -0.184909441389927687E+01   -0.889700305331569741E+00   -0.308093724684775907E+03
    0.380286687814800814E+03    0.314929952316898039E+02    0.835278114704575501E+02   -0.617355837051461354E+00   -0.184717585541713314E+01   -0.875205616327257019E+00   -0.308091852725311355E+03
    0.370931833291331543E+03    0.306135872385401377E+02    0.854643261588991265E+02   -0.693320302836945679E+00   -0.186203092893552613E+01   -0.885770522066619215E+00   -0.308090273508391192E+03
    0.364738609330169822E+03    0.308684098781214260E+02    0.863374669468200011E+02   -0.659401180278968768E+00   -0.184352509084154947E+01   -0.892726834544737002E+00   -0.308070815159985216E+03
    0.359802889129604978E+03    0.315632275966753326E+02    0.866460659705901861E+02   -0.698994801642934815E+00   -0.183754048037618367E+01   -0.882406835993665428E+00   -0.308066252638986498E+03
    0.359802889129604978E+03    0.315632275966753326E+02    0.866460659705901861E+02   -0.698994801642934815E+00   -0.183754048037618367E+01   -0.882406835993665428E+00   -0.308066252638986498E+03
    0.374243547849507422E+03    0.337912726715627798E+02    0.816265531440529344E+02   -0.626837813630038543E+00   -0.184427120194863758E+01   -0.878257187697941699E+00   -0.308065986894274147E+03
    0.364770305705456337E+03    0.300709384863275773E+02    0.893968796688280065E+02   -0.654143092469170906E+00   -0.185298949594475149E+01   -0.889277981775450144E+00   -0.308052453649953918E+03
    0.364770305705456337E+03    0.300709384863275773E+02    0.893968796688280065E+02   -0.654143092469170906E+00   -0.185298949594475149E+01   -0.889277981775450144E+00   -0.308052453649953918E+03
    0.368866187770570036E+03    0.302720089622930502E+02    0.873147317157508951E+02   -0.690843195819458522E+00   -0.184603842461572132E+01   -0.885271673693535543E+00   -0.308048480963722000E+03
    0.360007158217283290E+03    0.304057491566208355E+02    0.873445711025073450E+02   -0.669232959596092414E+00   -0.184906841574400693E+01   -0.895430744675053347E+00   -0.308027547858488219E+03
    0.382234485578407543E+03    0.324586934788014005E+02    0.834678857076335987E+02   -0.638053951797139529E+00   -0.184067707957514215E+01   -0.865045029507786278E+00   -0.308024005338322638E+03
    0.362100422748634401E+03    0.311992489569667981E+02    0.869706066329538459E+02   -0.625808608735205718E+00   -0.185377603568878069E+01   -0.893378426275700743E+00   -0.308021267459351634E+03
    0.372614190690197120E+03    0.312311875491486823E+02    0.855567063418006200E+02   -0.603019466883576882E+00   -0.184664722150204152E+01   -0.884270181146076251E+00   -0.308017544142966017E+03
    0.372614190690197120E+03    0.312311875491486823E+02    0.855567063418006200E+02   -0.603019466883576882E+00   -0.184664722150204152E+01   -0.884270181146076251E+00   -0.308017544142966017E+03
    0.375634965553576706E+03    0.313718246176504394E+02    0.862454519252413547E+02   -0.614800782950505553E+00   -0.185223674333929411E+01   -0.879770624219158304E+00   -0.308005479007316580E+03
    0.379509612645074014E+03    0.325890538078132863E+02    0.821136416396851558E+02   -0.632446837611138735E+00   -0.186388121309570209E+01   -0.882829514996185338E+00   -0.307975630037206884E+03
    0.379509612645074014E+03    0.325890538078132863E+02    0.821136416396851558E+02   -0.632446837611138735E+00   -0.186388121309570209E+01   -0.882829514996185338E+00   -0.307975630037206884E+03
    0.381609997965085427E+03    0.333858402643929679E+02    0.816556392779871487E+02   -0.662062926668423257E+00   -0.183913580503321428E+01   -0.869685003666915257E+00   -0.307956013633961334E+03
    0.372309484164574542E+03    0.313013222240815381E+02    0.831647475629221731E+02   -0.660989655608671622E+00   -0.184707745722371008E+01   -0.891590236459360863E+00   -0.307939883549489878E+03
    0.366683781623690095E+03    0.316143435866995937E+02    0.895435050702390214E+02   -0.656531485162781037E+00   -0.184585272811389856E+01   -0.881585310794104071E+00   -0.307936768718726569E+03
    0.367489613010807943E+03    0.313106929494369517E+02    0.843819016954758609E+02   -0.650355896699815084E+00   -0.181801038195350939E+01   -0.875863963633348508E+00   -0.307935772793637909E+03
    0.370781065439670726E+03    0.313263068908264941E+02    0.891382350771144303E+02   -0.629531079052757736E+00   -0.184893877011427277E+01   -0.880436765485441697E+00   -0.307933766072785716E+03
    0.370416204344587527E+03    0.318319653486894190E+02    0.855926362314306601E+02   -0.607228020841887650E+00   -0.185440281459935341E+01   -0.888261035209405581E+00   -0.307930492833916503E+03
    0.371200626117524848E+03    0.322976269700913434E+02    0.835001873575130134E+02   -0.594348024340830339E+00   -0.184494550157177128E+01   -0.886392525427788236E+00   -0.307927864180906795E+03
    0.375240076732369687E+03    0.307853162213631535E+02    0.857599910760212509E+02   -0.667269602527909456E+00   -0.186223167552494839E+01   -0.880986631467018277E+00   -0.307922469190472441E+03
    0.374504630094098900E+03    0.304340557059343695E+02    0.849364098737351725E+02   -0.668925770554077426E+00   -0.182616301883321785E+01   -0.871831948947160207E+00   -0.307907517267780577E+03
    0.367127503478000676E+03    0.308075624332789246E+02    0.898265339087534613E+02   -0.648758855587546091E+00   -0.184068967720082588E+01   -0.876443079777838641E+00   -0.307907468926244178E+03
    0.379999910935285413E+03    0.313690569967683217E+02    0.856662429688318809E+02   -0.668307557114526052E+00   -0.185002182348784716E+01   -0.870229820337262705E+00   -0.307901354489690220E+03
    0.367174800880462442E+03    0.303285866704946869E+02    0.875837949081847569E+02   -0.709567699875892632E+00   -0.183579270284620066E+01   -0.872357450606999762E+00   -0.307886135998214115E+03
    0.364900132171412110E+03    0.305071968993024853E+02    0.893716418599839670E+02   -0.658985152604755653E+00   -0.182418888908623655E+01   -0.878429039480491447E+00   -0.307868489431467424E+03
    0.371673786464141983E+03    0.321741540179673748E+02    0.825436742234319354E+02   -0.631217617116047514E+00   -0.186237216447042853E+01   -0.895204026179767798E+00   -0.307862229874722175E+03
    0.378463266219173136E+03    0.313620924862457393E+02    0.830771717718912583E+02   -0.629047346000365160E+00   -0.185771188253053010E+01   -0.886855792767211604E+00   -0.307847483227014322E+03
    0.377394011937961295E+03    0.308434967578794748E+02    0.839394565679592546E+02   -0.661380079274872967E+00   -0.182668130707310583E+01   -0.871985656284782973E+00   -0.307842993838404141E+03
    0.376547421406730678E+03    0.307944653584747883E+02    0.848199232811943205E+02   -0.690335641234364195E+00   -0.182768703528759757E+01   -0.867176921558599823E+00   -0.307839020242177412E+03
    0.367203946603584882E+03    0.324259028298201741E+02    0.858010855569943658E+02   -0.652675830541028068E+00   -0.184862388228326480E+01   -0.883737567914944400E+00   -0.307801109734709826E+03
    0.361944511131414060E+03    0.315496679260581914E+02    0.870229287011354558E+02   -0.686227787488550511E+00   -0.184437710092913276E+01   -0.886144825880659681E+00   -0.307791767260714835E+03
    0.367234193786929040E+03    0.313171522611529980E+02    0.889649304053976522E+02   -0.656206231929597594E+00   -0.183484395106957732E+01   -0.879828231687834084E+00   -0.307774916472290840E+03
    0.379577348151843069E+03    0.330106191516435530E+02    0.804157015552135022E+02   -0.634647405366801198E+00   -0.185207728135380667E+01   -0.887693361405469616E+00   -0.307772519299502846E+03
    0.376768874229336063E+03    0.324569558008666803E+02    0.843120542980430656E+02   -0.646111288003150541E+00   -0.185669663666500706E+01   -0.879917890980235207E+00   -0.307738108172453849E+03
    0.377862097788868368E+03    0.313796163012421516E+02    0.834587037793306337E+02   -0.706431443885351396E+00   -0.183839862031801227E+01   -0.868127427718629274E+00   -0.307730221403849441E+03
    0.380696598399403797E+03    0.330488720507156444E+02    0.824307439183667441E+02   -0.647609207398040843E+00   -0.184968276865840053E+01   -0.870878916817770854E+00   -0.307729350352710696E+03
    0.363496869963364190E+03    0.319257456825999562E+02    0.867473463205216291E+02   -0.636433709473983367E+00   -0.184511091052019172E+01   -0.883229818720143278E+00   -0.307723119257719759E+03
    0.365564460372307451E+03    0.324651721259764940E+02    0.824779777380170742E+02   -0.622340939954747263E+00   -0.184399461796650321E+01   -0.892222766441013171E+00   -0.307712141905876479E+03
    0.371785049927567172E+03    0.313896428595105235E+02    0.838369553394557414E+02   -0.631290344786895385E+00   -0.185706498846520507E+01   -0.886130276023091135E+00   -0.307690959089153296E+03
    0.379008548945330062E+03    0.328485305188447256E+02    0.816605428253253223E+02   -0.665704843596603313E+00   -0.183053762939311837E+01   -0.874112830324556445E+00   -0.307682415746259323E+03
    0.359301239472499162E+03    0.306533687376063213E+02    0.875632368762962869E+02   -0.660668690142707460E+00   -0.184017099266677109E+01   -0.891692563438976737E+00   -0.307665639147160846E+03
    0.378841746173038814E+03    0.330285138725139689E+02    0.801444681696873005E+02   -0.632245026401152987E+00   -0.184096938526578868E+01   -0.883176121168944839E+00   -0.307631852676126471E+03
    0.374585970134925731E+03    0.318542493439294745E+02    0.842211863800455092E+02   -0.670328835466505124E+00   -0.186124540403804661E+01   -0.878494828486688029E+00   -0.307607794551591439E+03
    0.381064138678979475E+03    0.324556858084170017E+02    0.812554786946320604E+02   -0.635431392116010629E+00   -0.185158736474952956E+01   -0.879134788254446686E+00   -0.307588617206645722E+03
    0.373233073234140761E+03    0.323700294390607581E+02    0.824800362936665437E+02   -0.698205900230570053E+00   -0.184043510317098868E+01   -0.872359003020851453E+00   -0.307587153769689905E+03
    0.370738508201809111E+03    0.318653426961876036E+02    0.860536105585233599E+02   -0.626204866968208984E+00   -0.185517532180326339E+01   -0.881959459876048513E+00   -0.307584858891171677E+03
    0.375842601720779896E+03    0.336755947513714986E+02    0.816320800126907216E+02   -0.636570747817477800E+00   -0.183859788389875312E+01   -0.875286637207338458E+00   -0.307582827509086542E+03
    0.366610862826235916E+03    0.312513837149637048E+02    0.892917690195783536E+02   -0.646194715015977694E+00   -0.183397054115439206E+01   -0.876176102006080981E+00   -0.307570275910289183E+03
    0.370221565407084142E+03    0.320870201894318399E+02    0.835379631719923026E+02   -0.660493338920617790E+00   -0.185221453553607263E+01   -0.879282430205698962E+00   -0.307539720315886370E+03
    0.363802896508267054E+03    0.312853940075397041E+02    0.844559746260380848E+02   -0.659801674941873806E+00   -0.183780803584874142E+01   -0.882925237734979440E+00   -0.307526726792105308E+03
    0.379172144781407610E+03    0.330413804515246028E+02    0.817098819909039662E+02   -0.638224579299924821E+00   -0.185751977219908393E+01   -0.883912096623259202E+00   -0.307493720346841087E+03
    0.362118972996912760E+03    0.315167412269355083E+02    0.855394468465191125E+02   -0.641160178792516522E+00   -0.183366378093140558E+01   -0.889431510103071865E+00   -0.307492015067757279E+03
    0.368137678570552680E+03    0.318219169982557766E+02    0.835141298551003644E+02   -0.685393240701581252E+00   -0.182263649063928046E+01   -0.874983026699658328E+00   -0.307491644189653016E+03
    0.372424344038205675E+03    0.324830362066197935E+02    0.837475215901357046E+02   -0.607038049835852966E+00   -0.184749469810346079E+01   -0.886545518310448255E+00   -0.307476463869226279E+03
    0.365461437708897790E+03    0.318471338078342754E+02    0.836175455468704740E+02   -0.646721751911613962E+00   -0.185738508608710950E+01   -0.894243737155391294E+00   -0.307467715269783866E+03
    0.376761749985088443E+03    0.316844109216169763E+02    0.854903301484362146E+02   -0.671163988938749512E+00   -0.183719026506796412E+01   -0.869296963204650108E+00   -0.307456735182826776E+03
    0.365312955208878009E+03    0.316068966064305386E+02    0.852460181134550794E+02   -0.649535484565039178E+00   -0.184557469837872379E+01   -0.882573520585292481E+00   -0.307016678007844064E+03
    0.366546358936956040E+03    0.313468309541829839E+02    0.848552259706479930E+02   -0.634692747501944377E+00   -0.184525714323906720E+01   -0.883944561919036698E+00   -0.307315646172000413E+03
    0.372888399793107055E+03    0.309527000388953866E+02    0.841371128737627032E+02   -0.676367511082457407E+00   -0.184125695913907728E+01   -0.874213798334232628E+00   -0.307241969595328385E+03
    0.377673787543562241E+03    0.310009081245944813E+02    0.851296109000501104E+02   -0.679013197000156943E+00   -0.184422627776864090E+01   -0.874982766912196563E+00   -0.307449836440023546E+03
    0.371217268199834962E+03    0.312445175063210741E+02    0.860862017866583358E+02   -0.650476867588011931E+00   -0.185244016192468508E+01   -0.880924721501851415E+00   -0.306676382357129228E+03
    0.367176085102315710E+03    0.318614454242459821E+02    0.824912941374248874E+02   -0.657754878245911945E+00   -0.183368656458898793E+01   -0.888426049440006249E+00   -0.307196531520323333E+03
    0.374704124078260918E+03    0.314020858440848123E+02    0.841316860397475921E+02   -0.672051579396334198E+00   -0.183575342955633358E+01   -0.869728938053568434E+00   -0.306920010300130684E+03
    0.365890278105004313E+03    0.305668143390831020E+02    0.868661598644200694E+02   -0.701332062882203733E+00   -0.183949933698508827E+01   -0.878090031290045481E+00   -0.307096692182499226E+03
    0.365370058290692498E+03    0.314418420609475326E+02    0.874143548402119421E+02   -0.655700056198793568E+00   -0.183721428079603388E+01   -0.876961156899784822E+00   -0.307229249256570029E+03
    0.368292738450360105E+03    0.311360281913876236E+02    0.845834240295118889E+02   -0.684005062924276652E+00   -0.183845775404837197E+01   -0.882095356856785529E+00   -0.306502711093969424E+03
    0.368292738450360105E+03    0.311360281913876236E+02    0.845834240295118889E+02   -0.684005062924276652E+00   -0.183845775404837197E+01   -0.882095356856785529E+00   -0.306502711093969424E+03
    0.372644172779844155E+03    0.306498249461102787E+02    0.852443516434132960E+02   -0.675932345467906259E+00   -0.183614216630261784E+01   -0.873506015231618971E+00   -0.306899421837358432E+03
    0.370804663687384675E+03    0.310865267501563771E+02    0.859480983971977395E+02   -0.648810166134484056E+00   -0.185081887138779755E+01   -0.888072242171232595E+00   -0.307398211725680369E+03
    0.368990502347450047E+03    0.320258597237269527E+02    0.847542961891725071E+02   -0.640601587409840745E+00   -0.183288610427538456E+01   -0.874971215577311945E+00   -0.306994835927405177E+03
    0.368332809750814818E+03    0.306324204179781034E+02    0.891713943524076171E+02   -0.654489101323021405E+00   -0.184561190230346073E+01   -0.884832964070647598E+00   -0.307400605721499517E+03
    0.367854133820212553E+03    0.314785198085703435E+02    0.861472234543291648E+02   -0.651873582904086701E+00   -0.185577902195636391E+01   -0.887907150616678020E+00   -0.307037535345312961E+03
    0.369603356651647573E+03    0.314327043725549800E+02    0.851963400086933831E+02   -0.663308895330950721E+00   -0.183363140853839224E+01   -0.872818825268722343E+00   -0.306837179517306481E+03
    0.369603356651647573E+03    0.314327043725549800E+02    0.851963400086933831E+02   -0.663308895330950721E+00   -0.183363140853839224E+01   -0.872818825268722343E+00   -0.306837179517306481E+03
    0.367892188805469345E+03    0.309035035043983299E+02    0.845893188599964532E+02   -0.653535926696029668E+00   -0.183835113916847437E+01   -0.886356253198053334E+00   -0.306682803259318916E+03
    0.367892188805469345E+03    0.309035035043983299E+02    0.845893188599964532E+02   -0.653535926696029668E+00   -0.183835113916847437E+01   -0.886356253198053334E+00   -0.306682803259318916E+03
    0.371230793977363589E+03    0.303555916652797109E+02    0.879074308145527823E+02   -0.676356519836344150E+00   -0.184890488178073609E+01   -0.877984220187001618E+00   -0.307186528473964245E+03
    0.368709426551701654E+03    0.314217452001607001E+02    0.860920977584965215E+02   -0.663138781870715510E+00   -0.184269703867496060E+01   -0.875999795394708514E+00   -0.306708433694367102E+03
    0.368709426551701654E+03    0.314217452001607001E+02    0.860920977584965215E+02   -0.663138781870715510E+00   -0.184269703867496060E+01   -0.875999795394708514E+00   -0.306708433694367102E+03
    0.367796630655441049E+03    0.314770873325459277E+02    0.839152470417527780E+02   -0.660862277181947011E+00   -0.183252741398285779E+01   -0.882340579512035372E+00   -0.306510988993658600E+03
    0.367796630655441049E+03    0.314770873325459277E+02    0.839152470417527780E+02   -0.660862277181947011E+00   -0.183252741398285779E+01   -0.882340579512035372E+00   -0.306510988993658600E+03
    0.361475099977301454E+03    0.316435120196204949E+02    0.857117464586031161E+02   -0.671368222327651809E+00   -0.183740133256806981E+01   -0.884908692704657884E+00   -0.307166757865808677E+03
    0.368371263380628022E+03    0.317219553930482547E+02    0.827213933733471549E+02   -0.683128743989266374E+00   -0.184387030147591302E+01   -0.887083280780396777E+00   -0.306927775841226435E+03
    0.368371263380628022E+03    0.317219553930482547E+02    0.827213933733471549E+02   -0.683128743989266374E+00   -0.184387030147591302E+01   -0.887083280780396777E+00   -0.306927775841226435E+03
    0.364988878870853853E+03    0.319608037878697324E+02    0.853904668665679196E+02   -0.641958724809791548E+00   -0.184009748791808447E+01   -0.883779780473841647E+00   -0.306794490601314578E+03
    0.364988878870853853E+03    0.319608037878697324E+02    0.853904668665679196E+02   -0.641958724809791548E+00   -0.184009748791808447E+01   -0.883779780473841647E+00   -0.306794490601314578E+03
    0.377156280272498805E+03    0.309723321133895624E+02    0.853937499506935751E+02   -0.681905872752992970E+00   -0.183882787688742133E+01   -0.867891107432306796E+00   -0.307270630573095730E+03
    0.361947574584986739E+03    0.309443242909131371E+02    0.878224164115402033E+02   -0.639823991416805793E+00   -0.183931851955782566E+01   -0.888219498111083361E+00   -0.307293680962766075E+03
    0.368615428810423623E+03    0.311797423807866600E+02    0.864796707868652135E+02   -0.695416283998783413E+00   -0.183268951783920797E+01   -0.873281916766825095E+00   -0.307183988940067650E+03
    0.369695618030455762E+03    0.309814035489745763E+02    0.862525077383838692E+02   -0.645474005114763827E+00   -0.184488421726311325E+01   -0.884890199627856422E+00   -0.306713728954194551E+03
    0.367173691358099802E+03    0.303174235696228962E+02    0.861089848244874929E+02   -0.682738823259678718E+00   -0.183298857590900144E+01   -0.881448041338811272E+00   -0.307194279440096750E+03
    0.364829838014725453E+03    0.310885151246788389E+02    0.879672644091948825E+02   -0.666072522642222831E+00   -0.183695513621416584E+01   -0.881692653865140841E+00   -0.306953046942532808E+03
    0.367373418277714052E+03    0.320946194410968815E+02    0.833781014636286528E+02   -0.647595584292687043E+00   -0.183280149072786736E+01   -0.887396151000797939E+00   -0.307267549274554995E+03
    0.368951226171418000E+03    0.315198789755568072E+02    0.842830393927437314E+02   -0.633817711336750911E+00   -0.183302102558811675E+01   -0.885579865385073717E+00   -0.307012128200461802E+03
    0.368540631644223083E+03    0.322000192332296535E+02    0.847258629495539139E+02   -0.637219602558330989E+00   -0.183497606038210503E+01   -0.880597407551539924E+00   -0.306814355540288886E+03
    0.366439399214992193E+03    0.305325527176397209E+02    0.859283493908350806E+02   -0.656806986761247158E+00   -0.183855581078929431E+01   -0.886398627702577269E+00   -0.306938756477545041E+03
    0.361486119044495865E+03    0.309304536696502836E+02    0.876182450079933091E+02   -0.653702876701289348E+00   -0.183651746930587123E+01   -0.885352460589604817E+00   -0.307182593487469603E+03
    0.375676815892937555E+03    0.321900125288756485E+02    0.847018689638593827E+02   -0.651018973946839274E+00   -0.183844372525062449E+01   -0.872743903805705656E+00   -0.307042163237813384E+03
    0.373647912905157114E+03    0.326737084776407301E+02    0.832443003906291210E+02   -0.641698827173438957E+00   -0.182817929614862806E+01   -0.872442821457044104E+00   -0.307109284101883361E+03
    0.376432071795916272E+03    0.318328734504851845E+02    0.831737727979388950E+02   -0.691598669350621753E+00   -0.184836772107835401E+01   -0.874430358263150076E+00   -0.306960462320695513E+03
    0.376432071795916272E+03    0.318328734504851845E+02    0.831737727979388950E+02   -0.691598669350621753E+00   -0.184836772107835401E+01   -0.874430358263150076E+00   -0.306960462320695513E+03
    0.380876386162825838E+03    0.323072153147060561E+02    0.827130338877050519E+02   -0.663679542526203647E+00   -0.184892025756850331E+01   -0.871730548292476648E+00   -0.307184965396751352E+03
    0.375698700055918721E+03    0.318813008284909927E+02    0.834395263306129351E+02   -0.613084981878969426E+00   -0.183792458878077714E+01   -0.882307594411234408E+00   -0.307282127506545066E+03
    0.374745787566077581E+03    0.315332727931804158E+02    0.832377351888680437E+02   -0.669888336278662733E+00   -0.186184407369874028E+01   -0.885090226105589739E+00   -0.307396825283074918E+03
    0.369607811960699792E+03    0.324307488450381527E+02    0.832960171556215272E+02   -0.668941234028955556E+00   -0.185086760154126906E+01   -0.882558865389243774E+00   -0.306792679280449079E+03
    0.375669555421349457E+03    0.327193299468740690E+02    0.817244617779572877E+02   -0.650546203913956456E+00   -0.184021865667036777E+01   -0.884990898347345123E+00   -0.307438694499598910E+03
    0.377661827600111735E+03    0.320623661330399727E+02    0.825815834570238536E+02   -0.641812734857021727E+00   -0.184476684911914446E+01   -0.882443314125664902E+00   -0.306689719097087504E+03
    0.377661827600111735E+03    0.320623661330399727E+02    0.825815834570238536E+02   -0.641812734857021727E+00   -0.184476684911914446E+01   -0.882443314125664902E+00   -0.306689719097087504E+03
    0.375373899209800413E+03    0.316026381318351142E+02    0.837959137785658470E+02   -0.673932935834423930E+00   -0.185014744774774997E+01   -0.875124300369219732E+00   -0.306779515223759631E+03
    0.375373899209800413E+03    0.316026381318351142E+02    0.837959137785658470E+02   -0.673932935834423930E+00   -0.185014744774774997E+01   -0.875124300369219732E+00   -0.306779515223759631E+03
    0.371525386932311164E+03    0.326137150836073957E+02    0.820014709402921937E+02   -0.651643685736286171E+00   -0.184532088846364473E+01   -0.883077899209382178E+00   -0.306690653637232685E+03
    0.371525386932311164E+03    0.326137150836073957E+02    0.820014709402921937E+02   -0.651643685736286171E+00   -0.184532088846364473E+01   -0.883077899209382178E+00   -0.306690653637232685E+03
    0.379333905122821534E+03    0.323353954769629652E+02    0.830349703110172470E+02   -0.632980771951598520E+00   -0.184339458978607373E+01   -0.872791647159232298E+00   -0.306891493711806561E+03
    0.372399044944968750E+03    0.329995422978516757E+02    0.825414501461876853E+02   -0.647155227087664153E+00   -0.184225016395574581E+01   -0.879648650242436769E+00   -0.306706409432668352E+03
    0.372399044944968750E+03    0.329995422978516757E+02    0.825414501461876853E+02   -0.647155227087664153E+00   -0.184225016395574581E+01   -0.879648650242436769E+00   -0.306706409432668352E+03
    0.377950729129619674E+03    0.323695815012660262E+02    0.818329954917699354E+02   -0.617527385951467389E+00   -0.183417584592899763E+01   -0.877217707546448455E+00   -0.307270848125288239E+03
    0.378793837001034603E+03    0.321354443349367713E+02    0.827951887667002921E+02   -0.663105948257693534E+00   -0.185611443335123449E+01   -0.879960026064269485E+00   -0.307069550746272284E+03
    0.380226680904168006E+03    0.322571966495502949E+02    0.818717433624206308E+02   -0.660748551387079441E+00   -0.182949572187632437E+01   -0.872715077960187990E+00   -0.307360316225893655E+03
    0.374169803577658286E+03    0.323320146340466437E+02    0.825647058882886569E+02   -0.680796923573707247E+00   -0.182588044632924773E+01   -0.869570258222351899E+00   -0.307342065755742851E+03
    0.375538830112080063E+03    0.322240974871081676E+02    0.822405665945600077E+02   -0.647472920444685629E+00   -0.185637366259503511E+01   -0.885713451953687780E+00   -0.306837688094855991E+03
    0.375022879664163838E+03    0.326560489169433126E+02    0.821078753075976664E+02   -0.648374520267672061E+00   -0.182749347207723312E+01   -0.872089286964975230E+00   -0.307122782469118647E+03
    0.370101132162307465E+03    0.325898935845684008E+02    0.824080612650875395E+02   -0.667234584930455288E+00   -0.184747298302475826E+01   -0.887668951508572501E+00   -0.307074489886382423E+03
    0.382078200347839299E+03    0.323063463459825542E+02    0.818419916488867898E+02   -0.625390310928305215E+00   -0.183246373134369911E+01   -0.874754061903461722E+00   -0.307430914931602842E+03
    0.372144997841575446E+03    0.313863757003659778E+02    0.845201480150400357E+02   -0.639339520103814563E+00   -0.183340392175224087E+01   -0.877737254424086455E+00   -0.306503465496572574E+03
    0.372144997841575446E+03    0.313863757003659778E+02    0.845201480150400357E+02   -0.639339520103814563E+00   -0.183340392175224087E+01   -0.877737254424086455E+00   -0.306503465496572574E+03
    0.378543563640855950E+03    0.319059078225311268E+02    0.847058122281580381E+02   -0.637931023832834621E+00   -0.184253425682759553E+01   -0.873089925243842657E+00   -0.307140741340412262E+03
    0.370910393178974175E+03    0.322035106052942908E+02    0.851509499358926263E+02   -0.643604850215670821E+00   -0.184607858650901524E+01   -0.880009576543391070E+00   -0.306752198298541487E+03
    0.370910393178974175E+03    0.322035106052942908E+02    0.851509499358926263E+02   -0.643604850215670821E+00   -0.184607858650901524E+01   -0.880009576543391070E+00   -0.306752198298541487E+03
    0.378440035850385414E+03    0.319528882761095723E+02    0.830238288648437504E+02   -0.640249567195962266E+00   -0.184885618032470744E+01   -0.881770642285001571E+00   -0.306797649493165011E+03
    0.378440035850385414E+03    0.319528882761095723E+02    0.830238288648437504E+02   -0.640249567195962266E+00   -0.184885618032470744E+01   -0.881770642285001571E+00   -0.306797649493165011E+03
    0.375501837759454872E+03    0.331979105384335398E+02    0.818473335919871232E+02   -0.635411338128517134E+00   -0.183403054675981969E+01   -0.879352259639053724E+00   -0.307190894976296704E+03
